<?xml version="1.0"?>
<opencv_storage>
<opencv_ml_svm>
  <format>3</format>
  <svmType>C_SVC</svmType>
  <kernel>
    <type>LINEAR</type></kernel>
  <C>1.</C>
  <term_criteria><epsilon>1.0000000000000000e-03</epsilon></term_criteria>
  <var_count>180</var_count>
  <class_count>2</class_count>
  <class_labels type_id="opencv-matrix">
    <rows>2</rows>
    <cols>1</cols>
    <dt>i</dt>
    <data>
      0 1</data></class_labels>
  <sv_total>1</sv_total>
  <support_vectors>
    <_>
      1.86193192e+00 -6.01947634e-03 5.21888435e-01 1.62893802e-01
      1.67650783e+00 1.14942741e+00 1.42236099e-01 1.23796344e-01
      1.14225364e+00 3.67366187e-02 -1.02229476e+00 5.33931434e-01
      2.40037650e-01 1.68320522e-01 9.83049035e-01 -3.87271971e-01
      -2.35025529e-02 1.11849117e+00 -1.07333742e-01 -4.81117547e-01
      9.33704019e-01 7.13589370e-01 2.38325030e-01 4.47684973e-01
      1.31911620e-01 6.60542399e-02 -3.12251318e-02 -2.08142266e-01
      3.90839756e-01 1.60224020e+00 -3.67772162e-01 -8.41368556e-01
      -7.09168375e-01 -5.78814328e-01 -4.18733925e-01 -5.60597718e-01
      9.14067477e-02 -1.24549933e-01 3.98813248e-01 -5.39588518e-02
      -9.33677256e-01 3.08903664e-01 5.01524210e-01 7.60686874e-01
      3.03723752e-01 -2.01833233e-01 -3.23694915e-01 2.30776930e+00
      -4.48742062e-01 -1.50568306e+00 -8.92333031e-01 4.55935568e-01
      8.21929097e-01 1.13709848e-02 4.44844604e-01 4.33051825e-01
      6.61062896e-01 6.24075308e-02 -1.12825072e+00 -1.08263361e+00
      5.05619287e-01 1.35202885e+00 8.62852156e-01 -1.98849455e-01
      -5.05112529e-01 2.17121691e-01 -2.45724559e-01 -5.70997357e-01
      -1.23173130e+00 6.29663527e-01 1.50242913e+00 2.90186316e-01
      4.32642400e-01 5.15386581e-01 1.12631759e-02 2.47634605e-01
      -3.39287609e-01 -6.58117175e-01 2.72504032e-01 9.57876325e-01
      7.14288235e-01 9.99434572e-03 -1.69895291e-01 -8.60828757e-01
      -2.12609723e-01 -1.84508622e-01 -5.63675225e-01 2.18610749e-01
      1.08809507e+00 3.72870028e-01 4.54661667e-01 9.00362134e-01
      1.08205460e-01 -7.61501074e-01 1.27398223e-03 5.51405966e-01
      2.10360944e-01 2.74893403e-01 4.71722484e-01 1.42175391e-01
      1.96691200e-01 -1.10672998e+00 -1.36495638e+00 -2.62419224e-01
      1.37293428e-01 2.03616381e-01 2.59659141e-01 1.99193910e-01
      3.98309410e-01 9.63272989e-01 1.69512242e-01 -2.88507015e-01
      5.18328249e-02 3.08545679e-01 5.14906824e-01 4.48439986e-01
      2.94942319e-01 3.47751752e-02 2.26944894e-01 -7.66155839e-01
      -6.27555966e-01 -1.50534749e-01 4.76906270e-01 -2.90315539e-01
      -2.59199321e-01 -1.45307824e-01 1.92089871e-01 3.46447617e-01
      -1.95292056e-01 -9.62177694e-01 -7.02194929e-01 1.49673507e-01
      7.29577720e-01 7.78805733e-01 1.23888105e-01 3.27690274e-01
      2.35491991e-01 -1.40861705e-01 -5.41919887e-01 -4.97052401e-01
      3.66093665e-01 3.43331397e-01 2.72557020e-01 1.06710128e-01
      5.16076684e-01 -6.58289343e-02 1.80339426e-01 -8.51675943e-02
      -3.82388741e-01 4.94280383e-02 9.06051993e-01 3.68961573e-01
      7.85144493e-02 2.05214515e-01 -4.61626381e-01 -9.46911275e-02
      -2.03388840e-01 -3.68186444e-01 1.18704483e-01 1.10345185e+00
      -1.22321948e-01 -3.96270566e-02 6.91991687e-01 3.49173456e-01
      7.63268292e-01 5.36015093e-01 6.09625220e-01 -9.66636479e-01
      -8.97959322e-02 -1.19237781e-01 2.66196162e-01 -3.48337680e-01
      -4.39603329e-01 1.18646719e-01 -3.15702021e-01 7.18230724e-01
      7.65964866e-01 3.18328068e-02 -6.47798777e-01 -8.01108301e-01</_></support_vectors>
  <uncompressed_sv_total>136</uncompressed_sv_total>
  <uncompressed_support_vectors>
    <_>
      5.46709709e-02 1.97463647e-01 2.99254298e-01 2.39003375e-01
      3.26910242e-02 6.26274720e-02 7.24992156e-02 4.02439386e-02
      6.90872893e-02 6.40030578e-02 1.26347244e-01 1.30596459e-01
      2.20060460e-02 8.09276700e-02 2.99254298e-01 2.99254298e-01
      1.19914278e-01 9.45024341e-02 2.77433097e-02 1.59377232e-01
      2.99254298e-01 2.99254298e-01 2.33072340e-01 1.24877997e-01
      6.11172765e-02 8.09597783e-03 3.13886032e-02 2.96016298e-02
      8.93699080e-02 1.16396740e-01 1.81059435e-01 2.99254298e-01
      2.99254298e-01 1.69572651e-01 2.44555846e-02 3.89161929e-02
      1.23872356e-02 5.58454022e-02 1.75434068e-01 2.93345422e-01
      2.62697399e-01 1.11350477e-01 7.18609244e-02 2.33148243e-02
      4.64984914e-03 7.22860219e-03 1.89447217e-02 2.46472936e-02
      2.13623419e-01 2.93345422e-01 2.93345422e-01 1.43891931e-01
      6.00964017e-02 7.31457910e-03 3.46191749e-02 7.61260465e-02
      1.29456550e-01 2.93345422e-01 2.63685346e-01 1.09893493e-01
      1.77548915e-01 2.48051539e-01 6.49843216e-02 1.99756231e-02
      1.75000057e-02 1.25817368e-02 5.99636324e-02 1.25144228e-01
      2.23845899e-01 2.93345422e-01 2.93345422e-01 1.25244036e-01
      3.18681486e-02 5.30792400e-02 8.52920488e-02 3.07382941e-01
      3.07382941e-01 3.64068002e-02 8.58597681e-02 2.53279328e-01
      1.23979829e-01 2.89298203e-02 1.52182439e-02 1.53618967e-02
      2.68571973e-02 5.61512299e-02 1.94460943e-01 3.07382941e-01
      3.07382941e-01 2.02084348e-01 9.37317591e-03 1.20720342e-02
      2.66606770e-02 2.94471741e-01 3.07382941e-01 1.86562091e-01
      1.96525250e-02 3.27589847e-02 3.70768756e-02 1.82895623e-02
      7.85967987e-03 6.68759570e-02 2.24109873e-01 2.33767509e-01
      2.64214158e-01 1.36501968e-01 1.20916553e-01 5.69861084e-02
      9.40016191e-03 2.16892250e-02 4.20780964e-02 9.08176452e-02
      3.09174538e-01 3.09174538e-01 6.81259409e-02 1.74651947e-02
      7.01694144e-03 2.60636024e-02 3.07239629e-02 3.09174538e-01
      3.09174538e-01 1.33721292e-01 9.24752355e-02 3.40464152e-02
      1.04094334e-02 2.14420967e-02 2.28960477e-02 4.70896438e-02
      1.01188928e-01 8.05504322e-02 3.09174538e-01 3.09174538e-01
      2.28824288e-01 6.58855513e-02 4.18467559e-02 3.40330973e-02
      7.01286420e-02 3.09174538e-01 3.09174538e-01 2.94959247e-01
      9.45859626e-02 6.18605390e-02 3.37758549e-02 4.39333543e-02
      1.37946671e-02 1.66484565e-02 5.71327731e-02 4.83992696e-02
      2.61459231e-01 2.69904554e-01 2.51964688e-01 6.98772445e-02
      3.96528803e-02 1.38598075e-02 2.82598007e-02 1.80038333e-01
      2.69904554e-01 2.69904554e-01 2.00810224e-01 5.68181537e-02
      4.03006598e-02 3.52841467e-02 4.95390594e-02 2.28689574e-02
      1.62584241e-02 1.56902969e-02 1.32485181e-01 2.69904554e-01
      2.69904554e-01 2.69904554e-01 1.67463422e-01 1.35918528e-01
      1.43435150e-01 1.29818976e-01 2.49780074e-01 2.69904554e-01
      1.16971105e-01 6.88431561e-02 1.89988539e-01 2.03147262e-01</_>
    <_>
      3.45347486e-02 1.86510444e-01 2.79552668e-01 2.79552668e-01
      2.79552668e-01 9.07910168e-02 4.32490073e-02 9.49380733e-03
      1.33887026e-02 5.26372194e-02 1.17425315e-01 2.35505268e-01
      1.59508362e-01 2.79552668e-01 2.58526325e-01 7.60968700e-02
      2.10564956e-02 4.24719416e-02 4.80859354e-02 3.11691165e-02
      1.06684603e-01 2.79552668e-01 2.79552668e-01 1.27675310e-01
      1.25699177e-01 5.91849759e-02 4.46611866e-02 8.14130604e-02
      7.74203837e-02 1.01374112e-01 1.47600442e-01 2.21080095e-01
      1.98208347e-01 2.79552668e-01 1.94631606e-01 9.20038074e-02
      7.65981004e-02 1.92592442e-02 1.87108979e-01 2.86266714e-01
      2.43483275e-01 7.12811947e-02 1.74780786e-01 1.57364964e-01
      7.52554238e-02 5.47354370e-02 1.55204963e-02 2.17027683e-02
      4.13512252e-02 1.11184865e-01 2.26940170e-01 2.86266714e-01
      2.86266714e-01 1.05687514e-01 5.05260490e-02 9.38636996e-03
      8.53842720e-02 2.46484175e-01 2.86266714e-01 6.17123470e-02
      7.03170896e-02 1.10003322e-01 6.13800324e-02 3.24608162e-02
      5.81589388e-03 2.16318611e-02 1.09713532e-01 2.86266714e-01
      2.86266714e-01 2.86266714e-01 2.54164726e-01 5.44019081e-02
      3.87858786e-02 5.48358262e-02 5.18944785e-02 8.97142068e-02
      3.22933167e-01 7.93369114e-02 3.83844748e-02 3.51730138e-02
      3.69039066e-02 4.10031565e-02 8.24382529e-02 3.17255467e-01
      3.22933167e-01 3.18987757e-01 1.17458537e-01 3.94823663e-02
      2.71516796e-02 3.14400829e-02 6.64712787e-02 1.60553217e-01
      2.32561052e-01 9.77371112e-02 3.22933167e-01 2.02668607e-01
      3.77793051e-02 4.79643233e-02 7.77457058e-02 5.67387044e-02
      2.46500880e-01 3.22933167e-01 3.22933167e-01 1.10068485e-01
      5.07335924e-03 5.89755736e-03 7.31071224e-03 2.95145698e-02
      3.41938399e-02 6.79524541e-02 1.55081034e-01 1.54281631e-01
      2.21779823e-01 2.15975940e-01 1.16938166e-01 6.32833689e-02
      5.88320568e-02 1.80574171e-02 8.70720148e-02 3.14921737e-01
      3.14921737e-01 3.14921737e-01 1.15269385e-02 5.05629228e-03
      8.74466542e-03 1.39187640e-02 6.98114336e-02 4.47944626e-02
      7.34014064e-02 2.00918496e-01 1.91684112e-01 1.62216142e-01
      3.14921737e-01 2.39505976e-01 9.33670551e-02 6.19936250e-02
      6.02678657e-02 1.64429605e-01 3.14921737e-01 3.14921737e-01
      1.67627651e-02 3.25954594e-02 5.51087111e-02 4.67362441e-02
      1.52878165e-01 8.76618847e-02 6.82632178e-02 8.52529407e-02
      3.74435484e-02 3.00031658e-02 2.65043676e-01 2.65043676e-01
      1.95090979e-01 2.01815829e-01 1.50724530e-01 1.85309872e-01
      2.65043676e-01 2.20107526e-01 8.21514148e-03 2.58284286e-02
      9.59756002e-02 1.61001414e-01 2.65043676e-01 2.65043676e-01
      4.98009771e-02 7.07759708e-03 3.59245092e-02 2.78829620e-03
      5.78447133e-02 1.52563363e-01 2.23706916e-01 2.65043676e-01
      2.65043676e-01 1.99458867e-01 7.72447437e-02 1.05160922e-01
      4.16305289e-02 2.66084522e-02 1.73700318e-01 2.65043676e-01</_>
    <_>
      5.11568598e-03 4.01961766e-02 3.03018034e-01 3.03018034e-01
      1.42637193e-01 5.37785031e-02 7.45248869e-02 2.59116776e-02
      5.33042569e-03 1.58212669e-02 7.40600005e-02 3.03018034e-01
      2.08175346e-01 2.44128227e-01 1.36036873e-01 1.11508116e-01
      1.81489997e-02 1.65318921e-02 8.03303812e-03 6.12123124e-02
      2.93105245e-01 3.03018034e-01 1.23815291e-01 9.95883048e-02
      2.52445132e-01 1.32916868e-01 3.82984206e-02 3.41091715e-02
      4.60639000e-02 1.51754707e-01 6.56435788e-02 6.96108341e-02
      1.83506623e-01 3.03018034e-01 3.03018034e-01 8.79157186e-02
      1.86730400e-02 4.84548025e-02 1.57137081e-01 2.91671753e-01
      2.91671753e-01 8.87016207e-02 1.94069654e-01 1.79136351e-01
      7.37732723e-02 2.82515809e-02 1.53814591e-02 1.94312837e-02
      2.25332193e-02 1.43823192e-01 2.82200336e-01 2.91671753e-01
      2.91671753e-01 1.06689945e-01 1.85792483e-02 3.10263578e-02
      3.58611122e-02 1.40061244e-01 2.91671753e-01 1.54484466e-01
      5.09677865e-02 4.50064838e-02 2.84679774e-02 1.71678029e-02
      5.21850437e-02 1.15679592e-01 2.91671753e-01 2.91671753e-01
      2.62615770e-01 1.70084178e-01 1.05022654e-01 2.58126538e-02
      3.51876542e-02 1.43833533e-01 7.39463195e-02 9.16027203e-02
      3.00768793e-01 7.86404982e-02 1.87351983e-02 7.02037057e-03
      1.67432856e-02 2.56986357e-02 2.27817029e-01 3.00768793e-01
      3.00768793e-01 1.83665380e-01 2.96887159e-02 8.07899982e-03
      4.83068964e-03 1.33825131e-02 6.82450086e-02 3.00768793e-01
      2.29247570e-01 1.21891335e-01 2.82207519e-01 2.33619481e-01
      7.24919438e-02 1.64948143e-02 2.99991705e-02 3.79211381e-02
      3.00768793e-01 3.00768793e-01 3.00768793e-01 1.27275825e-01
      5.29720783e-02 1.54559184e-02 6.69270102e-03 1.50198760e-02
      3.32747847e-02 9.52395424e-02 9.52946618e-02 1.45019546e-01
      1.69903755e-01 2.96989828e-01 2.38790452e-01 6.37788102e-02
      4.30350788e-02 1.48890270e-02 9.15027112e-02 2.14139968e-01
      2.96989828e-01 2.96989828e-01 1.05117835e-01 4.40136530e-02
      2.13022344e-02 2.17329469e-02 3.70785147e-02 4.50551212e-02
      6.56499714e-02 2.05652177e-01 1.26084566e-01 2.11090654e-01
      2.96989828e-01 2.63551801e-01 1.72806546e-01 3.50200422e-02
      6.44382313e-02 1.44588336e-01 2.96989828e-01 2.96989828e-01
      5.31741604e-02 8.03071931e-02 7.94379488e-02 1.25285819e-01
      1.39692351e-01 1.32146165e-01 9.47885290e-02 8.93004686e-02
      3.87084670e-02 4.05755490e-02 2.26306498e-01 2.42526338e-01
      2.16041148e-01 2.22819537e-01 1.48105890e-01 1.54433712e-01
      2.42526338e-01 1.35984123e-01 5.76076331e-03 4.36051190e-02
      1.18930258e-01 2.42526338e-01 2.42526338e-01 2.42526338e-01
      2.42526338e-01 1.00644961e-01 5.06546199e-02 2.15561744e-02
      2.82436684e-02 9.18190032e-02 2.01305166e-01 2.42526338e-01
      2.21740603e-01 2.42526338e-01 1.75344691e-01 1.24602139e-01
      3.58580761e-02 5.36423996e-02 1.43929437e-01 2.42526338e-01</_>
    <_>
      3.26723568e-02 7.91934282e-02 2.97093928e-01 2.97093928e-01
      2.97093928e-01 6.40229285e-02 1.70192588e-02 1.61203928e-02
      1.84385162e-02 1.29374806e-02 3.30516361e-02 8.94461945e-02
      1.71797067e-01 2.97093928e-01 2.97093928e-01 8.40958059e-02
      2.03093160e-02 8.16781074e-03 3.71375270e-02 1.94223493e-01
      2.97093928e-01 2.30339274e-01 1.69510901e-01 6.71171919e-02
      4.75040562e-02 2.88594570e-02 2.52793171e-02 2.12208424e-02
      9.47230309e-02 1.99001774e-01 1.28401294e-01 2.97093928e-01
      2.97093928e-01 1.77657858e-01 7.57733881e-02 1.78541038e-02
      4.00067903e-02 1.34081751e-01 1.49548948e-01 1.28868595e-01
      1.17498606e-01 1.58367008e-01 2.72879571e-01 2.49849811e-01
      6.42534196e-02 4.03260067e-02 8.45665038e-02 1.20672084e-01
      5.85393533e-02 2.45387465e-01 1.92730919e-01 2.27900192e-01
      2.23474383e-01 6.49945587e-02 1.95198879e-02 2.43634786e-02
      1.44409910e-02 2.01436616e-02 7.65467063e-02 2.00106621e-01
      2.72879571e-01 2.72879571e-01 1.02659084e-01 1.84605047e-02
      2.02836413e-02 1.54514918e-02 1.33144468e-01 2.72879571e-01
      2.72879571e-01 2.72879571e-01 2.72879571e-01 7.11470842e-02
      5.02550974e-03 1.23149576e-02 3.85080092e-02 1.13669500e-01
      1.60635695e-01 1.32208943e-01 1.69352427e-01 1.30661115e-01
      3.85387652e-02 2.55190604e-03 6.94053248e-04 2.93256491e-02
      3.31324667e-01 3.31324667e-01 2.62768179e-01 1.29367724e-01
      7.03796223e-02 1.25734285e-02 6.85036043e-03 6.83465376e-02
      3.31324667e-01 3.31324667e-01 1.48489639e-01 3.89430821e-02
      2.35479679e-02 3.13225784e-03 7.16900034e-03 3.40553327e-03
      1.50614521e-02 3.31324667e-01 3.31324667e-01 3.31324667e-01
      4.66467887e-02 8.18083528e-03 9.00227285e-04 3.54153244e-03
      6.77723065e-03 5.23537435e-02 3.33912462e-01 3.33912462e-01
      8.11167359e-02 4.29234514e-03 3.60617996e-03 2.31680390e-03
      4.31346102e-03 2.60889810e-03 1.67525224e-02 3.33912462e-01
      3.33912462e-01 7.52007738e-02 2.29376587e-04 0. 0. 2.58798501e-03
      2.06212737e-02 2.14099921e-02 2.02039763e-01 3.33912462e-01
      3.33912462e-01 3.94689031e-02 2.44175177e-02 2.25033741e-02
      1.98378116e-02 6.95583597e-03 2.68897787e-02 3.33912462e-01
      3.33912462e-01 2.09147781e-01 5.36928885e-03 0. 0. 3.34259612e-03
      8.28959495e-02 9.09934118e-02 2.07672060e-01 2.63202161e-01
      2.63202161e-01 3.77659053e-02 5.02974689e-02 1.11085646e-01
      1.04992688e-01 1.30565856e-02 4.59486917e-02 2.23264396e-01
      2.63202161e-01 2.61063159e-01 3.02534141e-02 1.54272793e-02
      6.06697099e-03 9.65592545e-03 2.63202161e-01 2.63202161e-01
      2.10752904e-01 2.29328364e-01 9.72629786e-02 1.22880768e-02
      3.78035195e-02 1.76266298e-01 2.63202161e-01 1.07062168e-01
      8.09443593e-02 1.20884284e-01 2.45186567e-01 1.55977026e-01
      9.70785841e-02 1.23593159e-01 1.87731177e-01 2.41700619e-01</_>
    <_>
      1.10777088e-01 1.08839378e-01 1.19122855e-01 8.02249163e-02
      9.78578553e-02 1.54519016e-02 2.80092973e-02 1.26053199e-01
      2.24232495e-01 1.57589525e-01 3.29445243e-01 3.29445243e-01
      1.04054764e-01 6.82735741e-02 5.42080216e-03 1.75420567e-02
      6.31273910e-02 1.86450765e-01 5.74612170e-02 6.11417182e-02
      2.80992597e-01 3.29445243e-01 1.87474385e-01 3.66501063e-02
      3.55188809e-02 3.35294977e-02 4.39217500e-02 5.64990602e-02
      3.29445243e-01 3.29445243e-01 3.29445243e-01 1.14572354e-01
      6.60172803e-03 3.90164205e-03 1.00602470e-02 3.60610597e-02
      6.72125909e-03 3.36418790e-03 2.27617696e-01 3.43120903e-01
      1.50395349e-01 1.51556851e-02 1.28631042e-02 3.88927269e-03
      3.98310181e-03 1.34788621e-02 5.29498234e-02 3.43120903e-01
      3.43120903e-01 1.14610359e-01 2.03069448e-02 1.07635662e-03
      3.12790478e-04 9.22557060e-03 1.81805016e-03 5.78696979e-03
      1.86908111e-01 3.43120903e-01 3.43120903e-01 4.23812605e-02
      1.23339018e-03 4.02448262e-04 1.05244259e-03 1.45015884e-02
      3.65754813e-02 3.27100217e-01 3.43120903e-01 2.16144428e-01
      7.14168400e-02 3.39042768e-02 1.49531504e-02 1.20133134e-02
      7.35074142e-03 2.73331590e-02 1.60832703e-01 3.46878797e-01
      3.46878797e-01 4.53079529e-02 1.01404986e-03 1.32635143e-03
      4.10804106e-03 3.19338627e-02 4.56391163e-02 2.39392459e-01
      3.46878797e-01 2.46823266e-01 5.96698672e-02 4.48542759e-02
      6.03924319e-02 5.45084216e-02 9.18130577e-03 3.87336053e-02
      1.61386713e-01 3.46878797e-01 3.46878797e-01 6.47138804e-02
      2.23054993e-03 1.49937312e-03 6.26166398e-03 2.91651059e-02
      2.23637260e-02 8.80563855e-02 2.25233778e-01 3.46878797e-01
      1.03229783e-01 3.02480087e-02 6.00063056e-02 7.38137886e-02
      6.81047933e-03 1.36823934e-02 7.24983364e-02 3.96277696e-01
      3.96277696e-01 6.88795000e-02 1.51303236e-03 3.55915457e-04
      6.35184767e-03 1.39837423e-02 1.03179049e-02 4.16229144e-02
      1.61143616e-01 3.96277696e-01 1.01933189e-01 2.58399788e-02
      1.33002866e-02 2.42592152e-02 6.15951326e-03 6.73461566e-03
      3.99176143e-02 2.00736925e-01 3.96277696e-01 2.38633290e-01
      1.53897433e-02 1.30764383e-03 6.01198711e-03 3.63468304e-02
      1.64765771e-02 2.27313917e-02 4.93322946e-02 3.96277696e-01
      2.26175979e-01 6.87495992e-02 2.33942904e-02 2.43772659e-02
      9.67015419e-03 7.40084983e-03 3.28431763e-02 1.28422201e-01
      2.87979990e-01 2.87979990e-01 1.31474540e-01 2.10369155e-02
      8.16948246e-03 1.21551089e-01 5.87073117e-02 1.16385994e-02
      1.00676240e-02 2.87979990e-01 2.87979990e-01 2.69960612e-01
      1.06292225e-01 8.63850415e-02 2.64888406e-02 8.09819903e-03
      1.56050604e-02 3.84681411e-02 2.46130839e-01 2.87979990e-01
      2.87979990e-01 7.69856349e-02 2.82852147e-02 9.44491997e-02
      5.19216247e-02 1.89984199e-02 4.01095347e-03 8.21124241e-02
      2.87979990e-01 2.87979990e-01 2.87979990e-01 1.28782824e-01</_>
    <_>
      2.32101437e-02 8.28504562e-02 3.10738146e-01 3.10738146e-01
      2.71513879e-01 3.40787023e-02 1.57117490e-02 5.74386027e-03
      1.85571462e-02 1.91007350e-02 4.50716726e-02 1.17894500e-01
      1.79113731e-01 3.10738146e-01 3.10738146e-01 3.85921970e-02
      2.35112943e-03 1.57000311e-02 1.36851287e-02 6.83054328e-02
      3.00339490e-01 3.10738146e-01 2.04631791e-01 6.08010590e-02
      3.44045758e-02 1.55099863e-02 2.80146729e-02 5.24835801e-03
      1.60525795e-02 1.04038946e-01 1.81661800e-01 3.10738146e-01
      3.10738146e-01 3.09502147e-02 1.99364196e-03 7.21494295e-03
      2.16039531e-02 4.34312299e-02 1.26747787e-01 2.05277100e-01
      2.03442320e-01 2.28700176e-01 1.95564419e-01 8.98908451e-02
      4.33944911e-02 4.08517476e-03 3.82528990e-03 6.59331828e-02
      1.28231734e-01 2.81765342e-01 2.81765342e-01 1.33606493e-01
      5.50722480e-02 2.68945452e-02 5.10884151e-02 1.16395662e-02
      5.51562272e-02 6.90756291e-02 1.09462097e-01 2.36964986e-01
      2.81765342e-01 2.81765342e-01 1.44350797e-01 4.52547055e-03 0.
      6.53389981e-03 9.06736851e-02 2.81765342e-01 2.81765342e-01
      2.81765342e-01 2.81765342e-01 9.66852903e-02 3.45546864e-02
      4.00122628e-03 3.38717438e-02 1.28624678e-01 1.27768323e-01
      7.07305670e-02 1.29960448e-01 2.24268347e-01 9.17521864e-02
      5.44139463e-03 0. 8.17721803e-03 3.57850522e-01 3.57850522e-01
      2.38713756e-01 2.01452568e-01 2.09271401e-01 4.09548432e-02
      1.36562064e-02 1.51360454e-02 1.37065813e-01 3.57850522e-01
      2.05441430e-01 2.41540689e-02 2.14485489e-02 1.84120126e-02
      1.82473678e-02 7.32709514e-03 2.27251416e-03 1.75525799e-01
      3.57850522e-01 3.57850522e-01 4.94989008e-02 2.07287949e-02
      1.45268235e-02 9.33648366e-03 2.12961473e-02 5.57956845e-02
      2.91429847e-01 3.60364199e-01 6.20637611e-02 3.98665667e-04
      8.96732695e-03 8.59364681e-03 1.12448167e-02 4.73517505e-03
      7.38329533e-03 3.13064307e-01 3.60364199e-01 9.18446109e-02 0.
      2.81687564e-04 9.41352846e-05 3.40080308e-03 2.72346716e-02
      7.26585984e-02 3.36693436e-01 3.60364199e-01 1.99602917e-01
      2.28106137e-02 2.25451384e-02 2.16189232e-02 1.85271967e-02
      3.36231804e-03 7.99629651e-03 2.78228849e-01 3.60364199e-01
      1.98004842e-01 4.77542263e-03 6.07833383e-04 9.85201332e-05
      2.55713356e-03 1.50660910e-02 2.07500365e-02 1.08340949e-01
      2.86033303e-01 2.86033303e-01 1.30969942e-01 1.00980192e-01
      3.41235287e-02 1.44193722e-02 2.76762550e-03 2.34164298e-03
      1.09348066e-01 2.86033303e-01 2.86033303e-01 2.16359198e-02
      2.56797834e-03 8.39961576e-04 2.57871021e-03 1.16207011e-01
      1.36027381e-01 2.86033303e-01 2.86033303e-01 2.86033303e-01
      1.51702002e-01 2.05070481e-01 1.44466877e-01 1.28924459e-01
      2.43515912e-02 7.55406022e-02 2.86033303e-01 2.86033303e-01
      2.56616652e-01 1.98339149e-02 2.99723377e-03 4.30983724e-03
      9.83125530e-03</_>
    <_>
      6.54816031e-02 1.06045581e-01 3.23866069e-01 2.32618332e-01
      4.68674190e-02 1.82965621e-01 1.55901864e-01 5.02614975e-02
      2.74256058e-02 3.85302678e-02 4.20142114e-02 6.31630272e-02
      7.36692967e-03 1.89527944e-01 3.23866069e-01 3.23866069e-01
      5.38521931e-02 2.07748823e-02 5.02450243e-02 7.07256645e-02
      3.23866069e-01 2.27975979e-01 1.58897638e-01 1.44129083e-01
      1.59543186e-01 2.04657931e-02 2.66919695e-02 2.54223738e-02
      1.42796040e-02 2.46428680e-02 6.44409144e-03 2.30082139e-01
      3.23866069e-01 3.23866069e-01 3.34307887e-02 1.78787913e-02
      1.09000839e-01 7.11632669e-02 1.23842046e-01 1.27419978e-01
      2.29965940e-01 8.18519369e-02 1.06408969e-01 7.42554888e-02
      8.89401734e-02 1.63803175e-02 4.36723419e-03 4.55061067e-03
      2.04964401e-03 2.83597201e-01 2.83597201e-01 2.62400031e-01
      8.97692069e-02 3.11641097e-02 2.83597201e-01 7.23453239e-02
      3.09616532e-02 1.52186444e-02 5.92931025e-02 6.93747103e-02
      2.43475005e-01 2.64254898e-01 2.68334121e-01 2.87988186e-02
      1.31166272e-03 8.24361705e-05 4.24595270e-03 2.83597201e-01
      2.83597201e-01 2.83597201e-01 2.83597201e-01 8.00859332e-02
      1.59788072e-01 4.19797674e-02 2.49061417e-02 6.36566058e-02
      5.60433902e-02 6.79628477e-02 1.62818640e-01 1.24411009e-01
      1.16660334e-01 1.79082751e-02 1.75051484e-03 1.59326158e-02
      2.94059157e-01 3.25509518e-01 3.25509518e-01 2.96374053e-01
      1.23624615e-01 3.44313271e-02 5.00444546e-02 1.28663823e-01
      2.72159934e-01 2.42067412e-01 7.15092123e-02 5.69423698e-02
      6.40312880e-02 2.91562900e-02 2.62056403e-02 9.08977352e-03
      4.84012328e-02 3.25509518e-01 3.25509518e-01 3.25509518e-01
      9.91381407e-02 4.66030948e-02 8.28366913e-03 8.53771064e-03
      3.48875001e-02 1.83231711e-01 3.24577779e-01 1.92083627e-01
      3.74079160e-02 1.60292406e-02 2.70568840e-02 1.99858006e-02
      2.67608240e-02 5.89792710e-03 8.74757469e-02 3.24577779e-01
      3.24577779e-01 9.37304422e-02 0. 0. 6.89518856e-05 4.73940093e-03
      2.68250890e-02 9.57036763e-02 2.89878339e-01 2.51090854e-01
      3.20908308e-01 8.63237306e-02 4.33079042e-02 2.72177327e-02
      2.81201228e-02 4.36208677e-03 4.72971052e-02 3.24577779e-01
      3.24577779e-01 3.22163910e-01 3.75398099e-02 7.02490378e-03
      7.12807814e-04 4.12558299e-03 3.30830440e-02 2.79369708e-02
      8.53650719e-02 2.05005750e-01 2.73934007e-01 1.51489183e-01
      1.09247021e-01 7.37497360e-02 3.51369120e-02 8.59931856e-03
      1.47429705e-02 1.27875850e-01 2.73934007e-01 2.73934007e-01
      6.18822388e-02 1.18351998e-02 2.10527889e-03 4.91911313e-03
      2.73934007e-01 1.61502779e-01 2.34634757e-01 1.94798663e-01
      2.02672243e-01 6.89034984e-02 1.17507644e-01 2.39845484e-01
      2.73934007e-01 1.50476977e-01 1.71279266e-01 2.73934007e-01
      2.73934007e-01 2.61547387e-01 2.18632314e-02 3.83114046e-03
      3.10271233e-03 3.82744335e-02</_>
    <_>
      3.53136025e-02 8.92730802e-03 8.12979862e-02 2.22073346e-01
      3.33845913e-01 3.33845913e-01 5.87445796e-02 1.33811636e-02
      2.02275701e-02 3.23692220e-03 3.19427752e-04 0. 2.97773426e-04
      1.92549258e-01 3.33845913e-01 1.85441911e-01 1.09822592e-02
      2.76850350e-03 9.74308793e-03 1.55301830e-02 5.90739325e-02
      2.10659564e-01 3.33845913e-01 3.33845913e-01 2.52022203e-02
      2.06329554e-04 9.89602879e-03 2.65126536e-03 0. 3.69534036e-03
      2.61188541e-02 3.25097740e-01 3.33845913e-01 1.99210837e-01
      5.48052276e-03 2.88688880e-03 1.09790890e-02 2.44856030e-02
      7.20180124e-02 2.12821469e-01 2.96383768e-01 1.66756600e-01
      9.07469019e-02 7.79270157e-02 5.49623854e-02 4.43844311e-03 0.
      8.00709892e-03 5.20357341e-02 2.96383768e-01 2.96383768e-01
      1.48599833e-01 4.07553352e-02 1.59058757e-02 3.73165943e-02
      2.46817544e-02 2.99661271e-02 7.51832947e-02 8.99676159e-02
      1.88876897e-01 2.84214854e-01 2.96383768e-01 2.47557878e-01
      6.12479961e-03 7.33161214e-05 2.71978392e-03 1.75895635e-02
      2.96383768e-01 2.96383768e-01 2.96383768e-01 2.47628853e-01
      5.43460920e-02 3.06217056e-02 1.55987181e-02 1.44182751e-02
      2.86473408e-02 1.35669112e-01 2.74908334e-01 1.48743168e-01
      2.07122684e-01 1.35559052e-01 4.89862170e-03 3.75867472e-04
      3.61584971e-04 1.29357213e-02 3.39758128e-01 3.39758128e-01
      1.88346833e-01 1.28211275e-01 3.00353337e-02 1.94078200e-02
      1.61385275e-02 6.65387213e-02 2.08303913e-01 2.89311916e-01
      2.15578809e-01 3.97134908e-02 1.71093773e-02 2.35037692e-02
      5.28072193e-03 5.02232462e-03 7.15210512e-02 3.39758128e-01
      3.39758128e-01 3.39758128e-01 2.28646174e-02 6.07492542e-03
      7.02499039e-03 1.72957499e-02 4.78412472e-02 2.45860621e-01
      3.01973224e-01 1.44840464e-01 8.92051607e-02 2.37341113e-02
      8.99348222e-03 1.10524325e-02 3.84326256e-03 2.00230498e-02
      2.30730250e-01 3.01973224e-01 3.01973224e-01 4.19856720e-02
      1.05740083e-03 5.30803343e-04 2.38967407e-03 1.41709959e-02
      5.06946072e-02 3.01973224e-01 2.35100016e-01 1.83324024e-01
      2.39491969e-01 1.89158335e-01 4.83369119e-02 1.48652922e-02
      4.64533223e-03 2.05418076e-02 2.58487672e-01 3.01973224e-01
      3.01973224e-01 1.98976517e-01 8.64779726e-02 1.73434860e-03
      4.21501324e-03 1.62444655e-02 1.33081861e-02 6.85381889e-02
      5.11024892e-02 1.29214376e-01 2.52392501e-01 2.93659836e-01
      1.41608298e-01 1.90821849e-02 1.07386205e-02 1.18497610e-02
      6.04429580e-02 1.97040305e-01 2.93659836e-01 2.93659836e-01
      1.65528849e-01 2.94010602e-02 7.99570885e-03 6.65116534e-02
      4.20724899e-02 3.13786939e-02 2.16575842e-02 6.28076643e-02
      1.26954809e-01 2.93659836e-01 2.93659836e-01 1.89868689e-01
      1.12787843e-01 1.47548020e-01 1.96606994e-01 2.28768095e-01
      2.93659836e-01 1.95774302e-01 1.21815987e-01 1.76370084e-01
      1.62812173e-01</_>
    <_>
      1.12815509e-02 5.08713052e-02 1.11089766e-01 3.22122842e-01
      3.04720342e-01 8.82971585e-02 2.90938336e-02 1.04262587e-02
      4.73683234e-03 2.00449266e-02 6.62246272e-02 8.75779986e-02
      2.32639894e-01 3.22122842e-01 3.22122842e-01 8.23679939e-02
      2.31243521e-02 1.49623724e-02 9.33453254e-03 1.29642459e-02
      3.08197830e-02 3.22122842e-01 3.22122842e-01 8.67532343e-02
      2.30963733e-02 3.69512313e-03 9.85134766e-03 1.73041169e-02
      2.00603381e-02 3.99241373e-02 2.51368582e-01 3.22122842e-01
      3.22122842e-01 6.63874075e-02 6.75023254e-03 1.79685950e-02
      2.43130494e-02 1.77620705e-02 5.96250147e-02 3.14088434e-01
      3.14088434e-01 4.84225862e-02 4.39564139e-02 2.65774727e-02
      3.03421505e-02 2.81132404e-02 3.32322828e-02 8.26363191e-02
      2.16262564e-01 3.14088434e-01 3.14088434e-01 9.15735364e-02
      4.14972939e-02 3.60986851e-02 7.81840384e-02 3.34604084e-02
      4.72478271e-02 3.14088434e-01 3.14088434e-01 3.26002724e-02
      5.59215173e-02 8.97724181e-02 9.41427499e-02 7.14626089e-02
      2.87979096e-02 3.77360731e-02 9.32324678e-02 1.35402650e-01
      2.18145341e-01 3.14088434e-01 3.14088434e-01 1.33526474e-01
      6.14214242e-02 2.98031177e-02 3.72337177e-02 3.36602420e-01
      3.36602420e-01 7.06621185e-02 1.71216168e-02 4.79367301e-02
      7.48764277e-02 6.98045343e-02 2.09372751e-02 2.46147942e-02
      8.79190415e-02 1.26954883e-01 1.48158059e-01 2.83797711e-01
      2.77777165e-01 1.41600177e-01 1.54075045e-02 7.56088598e-03
      2.32765786e-02 2.84003496e-01 3.36602420e-01 3.36602420e-01
      3.03090014e-03 4.86934604e-03 1.58970580e-02 2.67898496e-02
      8.33627209e-03 3.64854522e-02 2.58813471e-01 3.36602420e-01
      1.42949015e-01 7.75360838e-02 4.75121625e-02 4.28921245e-02
      5.97427133e-03 5.81469852e-03 1.10812010e-02 4.90727834e-02
      3.42665404e-01 3.42665404e-01 1.18064806e-02 4.84815333e-03
      6.79381518e-03 1.42708812e-02 1.45321414e-02 1.01864964e-01
      3.42665404e-01 2.63260275e-01 9.12440792e-02 1.31606227e-02
      5.47284307e-03 1.31944073e-02 1.27806943e-02 1.49579691e-02
      3.44072878e-02 2.71521676e-02 3.42665404e-01 3.42665404e-01
      1.44258484e-01 1.73621587e-02 1.57967713e-02 2.46221572e-02
      3.43944840e-02 2.39979684e-01 3.42665404e-01 1.75423145e-01
      2.72089601e-01 1.07334033e-01 2.10497547e-02 2.51080375e-02
      8.74462444e-03 6.11622399e-03 1.85312293e-02 1.68886892e-02
      2.58250713e-01 3.01423520e-01 3.01423520e-01 4.07062098e-02
      9.68129095e-03 1.64821111e-02 1.14435842e-02 8.83765668e-02
      1.55118003e-01 1.29188359e-01 3.01423520e-01 3.01423520e-01
      7.83476084e-02 1.88615471e-02 1.03941038e-02 2.33289506e-03
      5.38625335e-03 7.55832996e-03 7.78536201e-02 3.01423520e-01
      3.01423520e-01 1.58497334e-01 1.03735048e-02 4.20365669e-02
      2.52455771e-02 1.79067198e-02 4.15479690e-02 1.14750072e-01
      3.01423520e-01 3.01423520e-01 3.01423520e-01 7.43565038e-02</_>
    <_>
      7.60648996e-02 1.01373821e-01 3.06581229e-01 3.06581229e-01
      2.43169814e-01 1.69709295e-01 7.76311457e-02 4.79848422e-02
      3.44484784e-02 4.54298966e-02 4.51542288e-02 6.33269995e-02
      2.18934286e-02 3.06581229e-01 3.06581229e-01 1.77977264e-01
      4.87673245e-02 2.77961735e-02 3.49908099e-02 2.56016217e-02
      1.07505389e-01 3.06581229e-01 3.06581229e-01 1.98566154e-01
      6.64782524e-02 3.60880084e-02 3.02584060e-02 2.24705357e-02
      1.99724417e-02 8.76359195e-02 1.19857118e-01 3.06581229e-01
      3.06581229e-01 6.93558156e-02 2.00595539e-02 2.01170594e-02
      3.36441062e-02 6.40849546e-02 1.28211111e-01 2.87653059e-01
      2.87653059e-01 1.41465977e-01 7.18092471e-02 5.83123043e-02
      3.42036746e-02 2.15097535e-02 4.68440317e-02 1.79353550e-01
      2.09959880e-01 2.87653059e-01 2.67756671e-01 3.86555716e-02
      2.07756497e-02 2.01613735e-02 5.07775359e-02 7.02543929e-02
      1.15899779e-01 2.87653059e-01 2.87653059e-01 9.99604091e-02
      1.87318370e-01 1.43602341e-01 1.02467909e-01 1.80127807e-02
      1.90385990e-02 7.61974007e-02 1.10468805e-01 2.87653059e-01
      2.87653059e-01 2.87653059e-01 1.11536346e-01 5.03582656e-02
      8.09855089e-02 7.36946315e-02 7.81925917e-02 2.70372748e-01
      1.95501998e-01 6.02132455e-02 2.07708851e-01 1.55674130e-01
      1.51433855e-01 2.67508347e-02 9.76257212e-03 1.10445227e-02
      5.55446036e-02 2.54394382e-01 2.87921578e-01 2.87921578e-01
      1.72267050e-01 8.22316557e-02 6.88633844e-02 5.13214245e-02
      5.76500855e-02 1.94435015e-01 2.87921578e-01 5.63540682e-02
      1.17773876e-01 6.28492534e-02 8.23868141e-02 3.25036347e-02
      1.60843283e-02 3.66698727e-02 2.87921578e-01 2.87921578e-01
      2.87921578e-01 2.87921578e-01 8.04082006e-02 5.36950529e-02
      1.80373117e-02 1.35324979e-02 2.94973366e-02 1.62585333e-01
      3.67884368e-01 9.33619440e-02 2.33914405e-02 7.83442333e-03
      1.56602543e-02 1.37671558e-02 9.56297759e-03 4.42701355e-02
      3.67884368e-01 3.67884368e-01 9.39439535e-02 3.23021449e-02
      5.63462218e-03 1.32451365e-02 3.54827903e-02 2.26161089e-02
      3.36071849e-02 1.30792528e-01 2.94516802e-01 3.12445015e-01
      2.42543295e-01 4.99465615e-02 2.82561406e-02 2.12775283e-02
      1.40923122e-02 3.95039953e-02 3.67884368e-01 3.67884368e-01
      2.32045688e-02 1.38537707e-02 1.46727106e-02 1.68478452e-02
      4.40088548e-02 2.08688453e-02 2.15868149e-02 3.16164754e-02
      1.01596802e-01 1.58990130e-01 2.78835386e-01 2.78835386e-01
      1.60012692e-01 6.35465607e-02 6.23200499e-02 8.62206370e-02
      2.78835386e-01 2.78835386e-01 3.67657878e-02 1.57268699e-02
      1.30081296e-01 1.12238787e-01 1.01441786e-01 3.51833925e-02
      1.70504451e-02 1.23849278e-02 2.80395765e-02 2.97380872e-02
      1.71564713e-01 2.78835386e-01 2.78835386e-01 2.45837390e-01
      2.48366997e-01 1.68003350e-01 1.72822744e-01 2.50286490e-01
      1.58827361e-02 7.60785164e-03 2.34964386e-01 2.78835386e-01</_>
    <_>
      2.50178557e-02 3.16879228e-02 3.13746840e-01 3.13746840e-01
      1.31661624e-01 4.81444485e-02 1.97398104e-02 7.14099826e-03
      9.42085776e-03 3.59264351e-02 3.51575874e-02 1.75943315e-01
      1.78091675e-01 3.13746840e-01 3.13746840e-01 4.68213558e-02
      1.36703951e-02 1.35915987e-02 9.73323453e-03 2.10419968e-02
      2.56755054e-01 3.13746840e-01 3.13746840e-01 4.46034931e-02
      2.26855781e-02 9.17170197e-03 1.13035683e-02 1.01050697e-02
      1.58415884e-02 8.27025771e-02 2.08572567e-01 3.13746840e-01
      3.12239259e-01 2.69898698e-02 5.61123993e-03 1.02417218e-02
      2.09019352e-02 6.11154474e-02 1.59402773e-01 3.10536116e-01
      3.10536116e-01 4.87467609e-02 4.88502048e-02 2.56727878e-02
      3.07048894e-02 1.06073841e-02 4.73949127e-02 1.56122312e-01
      3.10536116e-01 3.10536116e-01 1.67512491e-01 1.97023507e-02
      1.14822509e-02 1.45457229e-02 5.11311851e-02 6.53575957e-02
      1.74429655e-01 3.10536116e-01 2.10387066e-01 5.99841103e-02
      1.51865974e-01 1.57355353e-01 7.72019252e-02 1.18532162e-02
      4.19515260e-02 1.78171396e-01 3.10536116e-01 3.10536116e-01
      1.29205167e-01 1.65564165e-01 1.14641227e-01 2.33955719e-02
      5.93107343e-02 4.32349816e-02 8.51409957e-02 2.41321951e-01
      1.38332754e-01 7.25670904e-02 1.98587552e-01 2.49416232e-01
      1.01439543e-01 9.66825243e-03 9.37438104e-03 3.58761325e-02
      1.17707968e-01 2.75880426e-01 2.75880426e-01 2.75880426e-01
      2.18397632e-01 3.57514918e-02 3.39045115e-02 2.54154895e-02
      6.69664592e-02 2.75880426e-01 2.45736480e-01 8.00708681e-02
      1.14809059e-01 1.13865875e-01 6.22098967e-02 9.01571754e-03
      3.71366786e-03 1.82921179e-02 2.75880426e-01 2.75880426e-01
      2.75880426e-01 2.75880426e-01 1.11927353e-01 2.83233952e-02
      3.54849244e-03 4.42635315e-03 8.97103772e-02 3.29013407e-01
      2.20613256e-01 1.92768313e-02 1.07716192e-02 5.77876857e-03
      6.29894529e-03 3.39899259e-03 1.11626601e-03 1.21100254e-01
      3.39344442e-01 3.39344442e-01 4.44496311e-02 1.93238407e-02
      3.51682771e-03 4.42452868e-03 4.80898283e-03 7.29721691e-03
      1.71415031e-01 3.39344442e-01 3.28384131e-01 4.64304239e-02
      4.55301702e-02 2.20568944e-02 9.68194753e-03 4.59797308e-03
      2.78511690e-03 3.09929550e-01 3.39344442e-01 3.39344442e-01
      2.69209733e-04 2.14310916e-04 1.47045951e-03 4.90766950e-03
      1.31769720e-02 1.56625751e-02 5.45711704e-02 2.48000115e-01
      3.01661223e-01 4.87564802e-02 1.64588898e-01 1.53929412e-01
      3.51765081e-02 5.48704155e-03 8.44002236e-03 1.26766279e-01
      3.01661223e-01 3.01661223e-01 0. 4.53800429e-03 1.76544823e-02
      9.04255360e-03 8.59888047e-02 8.29183906e-02 9.56063271e-02
      1.81548938e-01 2.82313198e-01 1.41778709e-02 2.27236494e-01
      3.01661223e-01 2.31306612e-01 6.30966499e-02 1.02074921e-01
      2.14222252e-01 3.01661223e-01 3.01661223e-01 0. 1.59700122e-02
      7.56208673e-02 8.61859024e-02</_>
    <_>
      1.53760556e-02 1.49931451e-02 1.09710515e-01 3.30479354e-01
      3.30479354e-01 6.83484301e-02 1.02168946e-02 4.73170495e-03
      2.31182389e-03 2.55198274e-02 1.92769002e-02 6.33756444e-02
      2.42174193e-01 3.30479354e-01 3.30479354e-01 5.68650290e-02
      9.40169394e-03 9.33717843e-03 4.53577284e-03 1.63240749e-02
      3.26287150e-02 3.30479354e-01 3.30479354e-01 6.36360049e-02
      5.07037761e-03 1.14618754e-02 4.49753832e-03 8.05456750e-03
      2.01335419e-02 3.58422808e-02 2.38182127e-01 3.30479354e-01
      2.87095964e-01 3.38852927e-02 9.33639426e-03 7.73718767e-03
      4.17257771e-02 7.02201724e-02 1.10698387e-01 2.96839803e-01
      2.96839803e-01 7.19638914e-02 2.36252770e-02 5.07218242e-02
      3.81251387e-02 2.75635161e-02 3.47058885e-02 3.41547988e-02
      1.58016875e-01 2.96839803e-01 2.96839803e-01 1.60203502e-01
      9.49102119e-02 3.45518552e-02 8.64887312e-02 9.88169014e-02
      1.60250008e-01 2.96839803e-01 2.96839803e-01 3.45084593e-02
      4.92939055e-02 1.15160339e-01 1.04061060e-01 5.52654900e-02
      3.51569019e-02 2.95463763e-02 2.73550861e-02 1.70660555e-01
      2.96839803e-01 2.96839803e-01 2.86963195e-01 1.06983982e-01
      3.52931321e-02 2.90762801e-02 4.51105051e-02 1.83442399e-01
      3.53500932e-01 1.07559688e-01 2.43280157e-02 4.12314236e-02
      4.53089401e-02 2.82088425e-02 1.72984023e-02 1.67183802e-02
      5.82234748e-02 3.53500932e-01 2.97261924e-01 2.24324405e-01
      1.09561302e-01 5.69452979e-02 1.44443233e-02 2.32589096e-02
      3.36728394e-02 6.10276759e-02 3.53500932e-01 2.24890396e-01
      2.35902220e-02 1.11850100e-02 1.13093536e-02 1.88056473e-02
      4.25095297e-02 2.91947216e-01 3.53500932e-01 3.53500932e-01
      1.14692084e-01 3.66763845e-02 1.06055336e-02 1.63370632e-02
      1.84168611e-02 5.21660820e-02 9.78488997e-02 6.44588247e-02
      2.96167105e-01 1.73637211e-01 4.07028161e-02 2.80228239e-02
      1.80360116e-02 2.11066436e-02 9.10076275e-02 2.96167105e-01
      2.96167105e-01 1.39343441e-01 3.95364836e-02 1.47294775e-02
      1.40923951e-02 1.73566826e-02 1.89909544e-02 5.29385842e-02
      1.21909432e-01 9.25040767e-02 2.96167105e-01 2.96167105e-01
      2.73053169e-01 7.44681656e-02 2.35199500e-02 1.58482846e-02
      7.11735487e-02 2.96167105e-01 2.96167105e-01 2.96167105e-01
      2.94628918e-01 1.18046232e-01 3.89590636e-02 1.93626583e-02
      6.90992922e-03 1.06918002e-02 2.99134627e-02 2.49418914e-02
      9.08445045e-02 2.83806741e-01 2.83806741e-01 1.27758369e-01
      1.48679353e-02 1.28810117e-02 2.01672614e-02 6.10953905e-02
      1.20877966e-01 2.83806741e-01 2.83806741e-01 2.40154073e-01
      1.19175166e-01 2.53117904e-02 2.15472504e-02 9.69795138e-03
      8.79153423e-03 2.83521507e-03 2.55362354e-02 1.79849178e-01
      2.83806741e-01 2.83806741e-01 7.17090666e-02 1.23810574e-01
      1.49304673e-01 1.31702811e-01 1.22063063e-01 2.83806741e-01
      1.60537943e-01 2.60479659e-01 2.83806741e-01 1.80591017e-01</_>
    <_>
      4.43505496e-02 1.18256830e-01 3.09736371e-01 3.09736371e-01
      3.09736371e-01 1.47248760e-01 1.94736570e-02 1.88132245e-02
      3.09447385e-02 1.31049957e-02 1.15887560e-02 4.08952236e-02
      1.74864560e-01 3.09736371e-01 3.09736371e-01 1.08718671e-01
      8.03043880e-03 1.13303391e-02 4.38873470e-02 8.81436467e-02
      1.09493859e-01 2.52537727e-01 2.12793037e-01 1.86216220e-01
      1.53622061e-01 8.38754773e-02 2.06709150e-02 7.79082999e-03
      1.21999057e-02 5.11409156e-02 1.56519175e-01 3.09736371e-01
      3.09736371e-01 1.25799641e-01 4.21359502e-02 7.22046429e-03
      3.51443775e-02 3.51305529e-02 2.00277660e-02 5.30804321e-02
      8.76113102e-02 2.11038858e-01 3.02901417e-01 2.62100488e-01
      4.08601798e-02 2.66662124e-03 3.38536897e-03 1.13386866e-02
      4.16854471e-02 3.02901417e-01 3.02901417e-01 2.47763291e-01
      1.33685768e-01 9.17049032e-03 3.14319059e-02 1.92160886e-02
      3.91994789e-02 9.55075696e-02 1.56296879e-01 2.53507227e-01
      2.08223447e-01 1.97924852e-01 6.79337978e-02 5.58021106e-03
      1.38828915e-03 2.14099213e-02 3.02901417e-01 3.02901417e-01
      3.02901417e-01 1.98050797e-01 9.56965163e-02 1.59135778e-02
      2.81241536e-02 5.55264875e-02 2.19559878e-01 2.39030212e-01
      1.37575582e-01 7.40953386e-02 2.48610042e-02 1.95322428e-02
      3.00753452e-02 6.29287818e-03 1.27272094e-02 1.66377604e-01
      3.35357666e-01 3.35357666e-01 1.51544422e-01 1.88876037e-02
      7.68960128e-03 8.40892829e-03 7.34986067e-02 3.35357666e-01
      3.35357666e-01 2.57537961e-01 4.74391319e-02 3.96142201e-03
      7.44196353e-03 3.93723929e-03 1.44224698e-02 9.93412361e-03
      9.60952640e-02 3.35357666e-01 3.35357666e-01 2.26623520e-01
      4.45486279e-04 0. 0. 4.85842768e-03 5.59239946e-02 2.96485454e-01
      2.96485454e-01 2.47302160e-01 1.40724346e-01 4.79412414e-02
      3.03067639e-02 8.66866554e-04 5.85327344e-03 8.21002852e-03
      8.31686184e-02 2.96485454e-01 2.96485454e-01 2.34219432e-01
      5.46970917e-03 1.86030543e-03 0. 2.54749786e-03 1.63928401e-02
      4.39455360e-02 1.14691876e-01 2.96485454e-01 2.96485454e-01
      1.65139183e-01 1.13097936e-01 1.99431349e-02 1.49493916e-02
      2.83131585e-03 1.20517230e-02 2.96485454e-01 2.96485454e-01
      2.96485454e-01 2.10675336e-02 6.44239504e-03 0. 2.13905959e-03
      7.15554282e-02 7.25708678e-02 2.26297230e-01 2.89639890e-01
      2.89639890e-01 7.01632574e-02 8.40381533e-02 8.14325586e-02
      7.03633130e-02 7.86380377e-03 2.56624985e-02 2.89639890e-01
      2.89639890e-01 2.52726316e-01 9.12648812e-03 2.20391317e-03 0.
      3.68818524e-03 2.33352512e-01 2.89639890e-01 2.89639890e-01
      2.44931549e-01 1.01201341e-01 5.55227918e-04 3.05301752e-02
      7.25326315e-02 1.40417710e-01 2.50563752e-02 1.44382298e-01
      2.89639890e-01 2.89639890e-01 6.34743497e-02 3.70151974e-05 0. 0.
      4.24687751e-03</_>
    <_>
      8.92467890e-03 1.01435138e-02 3.08858275e-01 3.08858275e-01
      1.69310719e-01 9.87771153e-03 3.72890127e-03 8.16761050e-04
      3.10837734e-03 4.07029390e-02 2.24382803e-02 2.62436181e-01
      3.08858275e-01 3.08858275e-01 3.08858275e-01 3.29204425e-02
      6.90930942e-03 1.71573497e-02 1.21935951e-02 6.19920017e-03
      7.89230838e-02 3.08858275e-01 3.08858275e-01 8.82104412e-03
      4.89579560e-03 6.00124057e-03 8.82502273e-03 3.02060898e-02
      1.56628173e-02 1.07736550e-01 3.08858275e-01 3.08858275e-01
      1.29803345e-01 1.08001186e-02 7.86062330e-03 2.27952320e-02
      1.25571368e-02 1.47129400e-02 5.51504754e-02 3.33170593e-01
      3.33170593e-01 1.37029849e-02 2.10827515e-02 1.42373061e-02
      1.89827140e-02 2.54320912e-02 2.07428392e-02 1.13373451e-01
      3.13491344e-01 3.19502860e-01 7.78619796e-02 7.08466992e-02
      4.42393683e-02 3.24263982e-02 1.96131319e-02 5.69308363e-02
      1.26356184e-01 3.33170593e-01 3.33170593e-01 1.47452326e-02
      5.00050224e-02 6.56810999e-02 5.09164035e-02 3.00893541e-02
      4.70090173e-02 8.31669196e-02 1.84481770e-01 1.73978731e-01
      1.05881363e-01 2.94853836e-01 3.33170593e-01 8.34698454e-02
      1.59120969e-02 3.68611589e-02 6.29088581e-02 3.48909825e-01
      3.48909825e-01 2.59216782e-03 1.72044430e-02 5.36904037e-02
      3.49152051e-02 2.48814542e-02 3.51970196e-02 3.79673131e-02
      1.48153096e-01 1.52183786e-01 9.17471796e-02 2.34164730e-01
      3.48909825e-01 6.87525943e-02 6.80731609e-03 9.68991313e-03
      1.53756887e-02 3.48909825e-01 3.48909825e-01 2.24573910e-03
      2.68897624e-03 1.01073952e-02 9.28838179e-03 1.70499906e-02
      1.62533876e-02 3.04252021e-02 3.48909825e-01 3.48909825e-01
      7.97379389e-02 7.57700950e-02 5.61984666e-02 2.59199515e-02
      7.87883811e-03 9.40753613e-03 2.07406767e-02 3.32742780e-01
      3.46962541e-01 1.86677184e-02 4.73933993e-03 5.09568769e-03
      5.19795762e-03 1.73937231e-02 1.82638597e-02 6.32522032e-02
      3.46962541e-01 3.46962541e-01 2.26767976e-02 6.48669619e-03
      7.74708064e-03 1.38467290e-02 2.36988235e-02 1.68694500e-02
      4.78953868e-02 1.28222838e-01 3.46962541e-01 2.97478050e-01
      8.25718343e-02 4.09541950e-02 1.95244569e-02 3.59008126e-02
      3.32052149e-02 1.84226826e-01 3.46962541e-01 3.46962541e-01
      3.81016508e-02 2.81202402e-02 2.97083631e-02 2.57056560e-02
      2.34144460e-02 1.08660078e-02 3.15949172e-02 2.87493374e-02
      2.56646961e-01 2.70301759e-01 2.70301759e-01 1.59922168e-01
      3.28433290e-02 4.11329493e-02 2.83996128e-02 1.44828156e-01
      2.70301759e-01 2.70301759e-01 2.84133516e-02 9.02038217e-02
      1.08634345e-01 4.70860340e-02 6.45592883e-02 2.33984459e-02
      2.31944025e-02 1.37787098e-02 3.66471075e-02 1.33324146e-01
      2.70301759e-01 2.70301759e-01 1.41740531e-01 1.84275731e-01
      1.93856940e-01 2.70301759e-01 2.70301759e-01 1.50832117e-01
      6.06364291e-03 1.14547290e-01 2.70301759e-01 2.14905947e-01</_>
    <_>
      2.81109419e-02 7.74305761e-02 2.86208153e-01 3.01924199e-01
      4.62574139e-02 0. 2.98214005e-03 6.92711864e-03 8.99086893e-03
      1.29832149e-01 1.57695919e-01 2.75686651e-01 2.51604199e-01
      1.78257599e-02 2.90550627e-02 3.01924199e-01 2.13770479e-01
      8.55545402e-02 8.60092137e-03 2.16154344e-02 3.01924199e-01
      3.01924199e-01 1.12079144e-01 3.93314194e-03 5.59029228e-04
      1.60584622e-03 4.24961979e-03 1.01560056e-01 1.17563792e-01
      3.01924199e-01 3.01924199e-01 6.47777840e-02 1.66441910e-02
      1.75765976e-01 1.90354899e-01 1.22339591e-01 3.38375312e-03
      5.56067470e-03 2.03079790e-01 3.41108352e-01 1.96538791e-01
      1.84365399e-02 0. 0. 2.11608200e-03 5.22345230e-02 6.45447001e-02
      2.31232956e-01 3.41108352e-01 2.20226750e-01 4.88735326e-02
      2.67553851e-02 8.28303695e-02 7.21164197e-02 1.46533572e-03
      1.47370854e-02 2.03638211e-01 3.41108352e-01 3.41108352e-01
      1.43395308e-02 0. 0. 1.46533572e-03 3.58357392e-02 6.40273541e-02
      3.07408154e-01 3.41108352e-01 2.54178464e-01 4.59909625e-02
      2.32100487e-02 2.24092044e-02 3.14750001e-02 1.90633431e-03
      3.01062558e-02 2.08832204e-01 3.28782767e-01 3.28782767e-01
      7.80719740e-04 5.00172537e-05 1.67148864e-05 1.90633431e-03
      4.20549288e-02 1.17064275e-01 3.28782767e-01 2.94900030e-01
      1.29385069e-01 1.34402718e-02 2.04491727e-02 1.36267114e-02
      4.51513790e-02 4.39368282e-03 2.06782017e-02 1.52128085e-01
      3.28782767e-01 3.28782767e-01 1.60376895e-02 3.88158089e-03
      4.45480138e-04 3.55586642e-03 3.92013192e-02 8.59653056e-02
      2.57563621e-01 3.28782767e-01 2.81180143e-01 3.15092728e-02
      1.95084643e-02 1.16768200e-02 4.34283800e-02 1.69673543e-02
      8.05379637e-03 4.24527936e-02 3.24092984e-01 3.24092984e-01
      9.44828019e-02 4.26552035e-02 3.27199101e-02 1.55263860e-02
      6.80821836e-02 1.09255955e-01 1.85422331e-01 2.34315246e-01
      2.93940544e-01 7.68490359e-02 5.36149889e-02 4.60192412e-02
      4.89775203e-02 2.39730906e-02 1.54827237e-02 1.62120368e-02
      2.59234548e-01 3.24092984e-01 3.24092984e-01 1.09863602e-01
      6.14247806e-02 2.62417831e-02 8.79711881e-02 1.56141564e-01
      2.40404755e-01 2.16598466e-01 3.24092984e-01 1.01020224e-01
      8.05101916e-02 8.31262097e-02 8.10880959e-02 3.60574350e-02
      1.95776578e-02 1.59322638e-02 4.18071747e-02 2.67603040e-01
      2.67603040e-01 1.71426669e-01 1.21957183e-01 8.03189278e-02
      1.47242546e-01 1.56527832e-01 1.67377412e-01 2.67603040e-01
      2.30745718e-01 7.65726492e-02 7.94785768e-02 1.00152329e-01
      1.28128350e-01 2.21982017e-01 6.73412159e-02 5.14093153e-02
      2.72627771e-02 1.13747433e-01 2.04090431e-01 1.40965611e-01
      2.45636493e-01 2.67603040e-01 2.67603040e-01 2.67603040e-01
      1.57849669e-01 1.61354497e-01 5.37675768e-02 3.43761779e-02
      5.95420450e-02 1.58160672e-01 2.67603040e-01</_>
    <_>
      3.49581204e-02 7.70826563e-02 1.04050606e-01 2.17789650e-01
      2.87661433e-01 2.87221014e-01 8.63424242e-02 3.48126739e-02
      2.87636947e-02 2.25391705e-03 0. 5.46378084e-03 5.50193489e-02
      2.87661433e-01 2.87661433e-01 2.87661433e-01 7.94992596e-02
      9.27385502e-03 2.61389446e-02 2.56499369e-02 1.26776323e-01
      2.87661433e-01 2.87661433e-01 1.84397429e-01 1.87640756e-01
      8.56890604e-02 3.03176697e-02 6.34632409e-02 1.59215275e-02
      1.42928315e-02 1.17902786e-01 2.10060328e-01 1.91675991e-01
      2.87661433e-01 2.24882677e-01 7.93115720e-02 4.16114777e-02
      1.29759088e-02 2.80405264e-02 1.14687376e-01 1.41533658e-01
      1.35182649e-01 2.89516836e-01 2.89516836e-01 7.47528151e-02
      1.07487701e-01 2.87413225e-02 3.87173612e-03 3.23965773e-02
      6.21805117e-02 1.85067549e-01 2.89516836e-01 2.89516836e-01
      1.34268895e-01 1.89512018e-02 3.29652778e-03 7.58123875e-04
      5.48873655e-03 4.03425060e-02 9.89224464e-02 2.89516836e-01
      2.89516836e-01 8.13563317e-02 4.04537469e-02 9.57734510e-03
      2.03298591e-03 5.16470186e-02 2.89516836e-01 2.89516836e-01
      2.89516836e-01 2.89516836e-01 8.21725130e-02 4.64225281e-03
      5.71046956e-03 3.10588423e-02 1.00539893e-01 1.32737920e-01
      8.91880020e-02 1.39852017e-01 2.20940560e-01 2.81897988e-02
      5.53580374e-03 2.00600922e-03 3.69891897e-02 3.33193779e-01
      3.33193779e-01 2.70140916e-01 1.85902283e-01 1.12924352e-01
      1.48841050e-02 1.38789508e-02 1.00703284e-01 2.77823955e-01
      3.33193779e-01 1.14154302e-01 1.87637955e-02 1.13490364e-02
      1.25968102e-02 9.31657664e-03 7.09469756e-03 1.50004933e-02
      3.33193779e-01 3.33193779e-01 3.33193779e-01 3.28767784e-02
      7.69190164e-03 4.75628907e-03 8.10512621e-03 1.82029102e-02
      1.73766136e-01 3.30280632e-01 3.30280632e-01 7.31811374e-02
      2.07449938e-03 4.10007429e-04 7.58643728e-05 3.24457651e-03
      3.21966363e-03 1.99020486e-02 3.30280632e-01 3.30280632e-01
      2.02226281e-01 1.12092937e-03 1.23853068e-04 0. 3.03213391e-03
      1.07382406e-02 1.10969827e-01 1.90168366e-01 3.30280632e-01
      2.92336076e-01 6.39586151e-02 2.89438386e-02 1.13411658e-02
      3.81166069e-03 2.32281233e-03 1.09140091e-02 1.26398593e-01
      3.30280632e-01 3.30280632e-01 2.54620910e-02 3.74932215e-03
      2.02520168e-04 2.23718537e-03 1.70766711e-02 3.14022973e-02
      6.73017800e-02 3.12482387e-01 3.12482387e-01 9.10077766e-02
      5.08067012e-02 3.34475748e-02 2.31245179e-02 1.56864780e-03
      6.60467986e-03 4.92428131e-02 3.12482387e-01 3.12482387e-01
      4.31065746e-02 1.16012944e-02 5.97295398e-03 2.32898002e-03
      1.19053915e-01 7.16254115e-02 8.47915113e-02 3.12482387e-01
      3.12482387e-01 6.68046847e-02 5.35047241e-02 1.17011212e-01
      1.13369875e-01 1.44975297e-02 1.33765610e-02 5.01808301e-02
      3.12482387e-01 3.12482387e-01 1.10143080e-01 1.37900546e-01
      3.09111059e-01 5.40171452e-02</_>
    <_>
      1.52037502e-03 3.68222524e-03 2.32474566e-01 3.35032672e-01
      8.28527883e-02 1.68814918e-03 8.91490548e-04 8.04822412e-05
      8.86568218e-04 5.82742915e-02 5.78534752e-02 3.35032672e-01
      3.35032672e-01 1.02176942e-01 5.79197444e-02 6.81104586e-02
      3.67143191e-02 4.29777391e-02 3.86676425e-03 1.29431894e-03
      2.18600824e-01 3.35032672e-01 3.35032672e-01 3.13211676e-05
      5.26681368e-04 9.92526882e-04 3.48049286e-03 2.96172332e-02
      2.01077685e-02 2.87732005e-01 3.35032672e-01 3.08081746e-01
      5.49317375e-02 4.60970514e-02 3.22121419e-02 2.98020337e-02
      8.82060826e-03 1.46512082e-03 1.59316882e-01 3.29171956e-01
      3.29171956e-01 0. 1.78805797e-03 3.05726705e-03 8.56391340e-03
      4.31164205e-02 8.32900684e-03 2.15472430e-01 3.29171956e-01
      2.46892795e-01 3.09758503e-02 1.16765223e-01 9.05477405e-02
      4.80703600e-02 7.58828036e-03 3.57333431e-03 9.23018754e-02
      3.29171956e-01 3.29171956e-01 0. 1.36654312e-03 2.31436128e-03
      6.81802910e-03 5.10717109e-02 2.38070376e-02 1.51106969e-01
      3.29171956e-01 3.29171956e-01 1.31022651e-02 1.35832503e-01
      1.43055752e-01 6.72961399e-02 1.90488168e-03 1.73394161e-03
      1.15231322e-02 3.69291246e-01 3.69291246e-01 1.45790214e-03
      1.38059695e-04 1.81963725e-04 1.63442432e-03 2.14171559e-02
      1.75308045e-02 3.59336771e-02 2.97922403e-01 3.69291246e-01
      6.88309502e-03 3.94456834e-02 4.29643877e-02 2.55549569e-02
      4.67431452e-03 1.72302278e-03 1.93713531e-02 3.69291246e-01
      3.69291246e-01 2.22305506e-02 3.47864232e-03 2.84507847e-03
      3.87832173e-03 4.18078639e-02 6.44909292e-02 5.60880043e-02
      2.64213175e-01 3.69291246e-01 4.84903976e-02 1.64812747e-02
      1.29513955e-02 2.02777293e-02 1.89733990e-02 1.65020209e-02
      4.28663380e-02 3.23893547e-01 3.23893547e-01 9.61807966e-02
      2.09140982e-02 1.59617439e-02 1.27478559e-02 1.30857229e-01
      2.80206203e-01 1.22576140e-01 1.69913515e-01 3.23893547e-01
      9.93722677e-02 3.73466462e-02 3.47406864e-02 4.48884629e-02
      2.02304479e-02 1.85025223e-02 2.94476822e-02 1.86369658e-01
      3.23893547e-01 3.23893547e-01 1.88676089e-01 1.81298107e-02
      1.64627489e-02 1.27847344e-01 2.21075475e-01 1.01843454e-01
      6.99807033e-02 1.94663480e-01 2.33698577e-01 2.00727865e-01
      8.33181292e-02 1.13336429e-01 7.77953258e-03 5.91438916e-03
      2.01125946e-02 1.98493693e-02 2.55452007e-01 2.81041503e-01
      2.81041503e-01 4.62998748e-02 1.57088619e-02 8.93181413e-02
      5.00546023e-02 4.61780541e-02 8.34634677e-02 1.18419260e-01
      2.51521796e-01 2.81041503e-01 1.57383934e-01 1.44913703e-01
      4.82527092e-02 1.83730032e-02 5.93060255e-02 1.64227244e-02
      1.35865867e-01 2.28903726e-01 2.81041503e-01 1.57554999e-01
      1.21672168e-01 2.81041503e-01 1.21447541e-01 6.27718642e-02
      6.71884641e-02 5.87624013e-02 1.02688812e-01 2.81041503e-01
      2.81041503e-01 2.81041503e-01</_>
    <_>
      4.21842281e-03 1.22622503e-02 3.37824225e-01 3.37824225e-01
      4.63271365e-02 1.17280791e-02 1.26956701e-02 3.91527545e-03
      5.89731382e-03 5.96470721e-02 1.34195328e-01 3.37824225e-01
      3.37824225e-01 5.35010919e-02 3.70251536e-02 2.47718897e-02
      4.71630953e-02 5.00249751e-02 4.26311931e-03 8.07386171e-03
      3.04171890e-01 3.37824225e-01 1.93119749e-01 6.38709636e-03
      5.69571834e-03 1.15118094e-03 2.46220897e-03 1.69948209e-02
      4.91950996e-02 3.37824225e-01 3.37824225e-01 1.65324032e-01
      4.72284406e-02 3.04666981e-02 1.79215968e-02 2.10803375e-02
      1.50458487e-02 1.82460602e-02 1.27364531e-01 3.28803390e-01
      3.28803390e-01 1.20655149e-02 1.38271693e-02 6.21182565e-03
      9.60958283e-03 3.79208773e-02 4.35058959e-02 1.68267280e-01
      3.28803390e-01 2.06465080e-01 8.63770619e-02 1.47981092e-01
      4.68825102e-02 2.75143161e-02 2.40120962e-02 1.53590254e-02
      9.15309116e-02 3.28803390e-01 3.28803390e-01 9.12093744e-03
      1.27106691e-02 1.41389519e-02 1.60774998e-02 6.63050860e-02
      1.87920015e-02 9.89273563e-02 3.28803390e-01 2.57646114e-01
      7.22977892e-02 2.72283614e-01 2.19789192e-01 7.56663457e-02
      9.55994707e-03 5.08557260e-03 2.59030424e-02 3.79445910e-01
      3.79445910e-01 5.90789318e-03 2.38828897e-03 6.56683696e-03
      7.21482746e-03 4.11882252e-02 1.17863333e-02 3.94966677e-02
      2.23624751e-01 3.59015346e-01 1.37316165e-02 9.03770700e-02
      1.53719455e-01 6.84811547e-02 3.61365895e-03 5.53279975e-03
      1.79883353e-02 3.79445910e-01 3.79445910e-01 1.78523883e-02
      7.04048807e-03 2.32961774e-03 4.42970777e-03 2.42014565e-02
      4.41145301e-02 7.73736462e-02 2.08985835e-01 3.79445910e-01
      2.27354262e-02 3.20317335e-02 2.92417463e-02 3.26437131e-02
      1.19055687e-02 1.37060620e-02 2.10594125e-02 3.50774199e-01
      3.50774199e-01 1.45855457e-01 3.56604792e-02 1.19629968e-02
      1.79737136e-02 5.44130728e-02 1.39526606e-01 1.65225968e-01
      1.71154663e-01 2.96519190e-01 7.54163489e-02 5.39861992e-02
      2.32113507e-02 5.00488691e-02 2.72256881e-02 2.19444092e-02
      1.27228182e-02 1.67971343e-01 3.50774199e-01 3.50774199e-01
      1.25134543e-01 3.28496136e-02 2.86557730e-02 1.20444559e-01
      2.74865866e-01 2.26778314e-01 9.26520750e-02 1.77818626e-01
      2.30904698e-01 1.07038312e-01 5.89075722e-02 6.96874037e-02
      1.09394360e-02 1.05566485e-02 1.21618658e-02 4.33027148e-02
      2.94341981e-01 2.94341981e-01 2.53930539e-01 1.11174516e-01
      1.28335422e-02 6.16279431e-02 1.25924006e-01 1.01271294e-01
      7.07187504e-02 9.25168619e-02 2.94341981e-01 2.92783648e-01
      2.11076304e-01 5.81497028e-02 5.69897564e-03 5.29716630e-03
      1.61430966e-02 4.20056796e-03 1.17168970e-01 2.94341981e-01
      2.94341981e-01 2.79677331e-01 2.03214027e-02 5.08158952e-02
      4.31786291e-02 5.87623380e-02 2.13573724e-02 3.66077162e-02
      1.38102144e-01 2.94341981e-01 2.94341981e-01 1.12885058e-01</_>
    <_>
      9.10521485e-03 3.70224528e-02 2.70795703e-01 3.22274476e-01
      1.32551417e-01 2.57615522e-02 1.16446363e-02 6.96465559e-03
      5.17835142e-03 2.03172434e-02 5.08468449e-02 1.29839137e-01
      3.22274476e-01 2.97673106e-01 2.86653161e-01 6.86492771e-02
      1.72483884e-02 1.83230303e-02 1.27669685e-02 1.27427308e-02
      6.55155629e-02 3.22274476e-01 3.22274476e-01 3.54371481e-02
      3.40562537e-02 2.28412189e-02 1.58885252e-02 2.59338506e-02
      1.14199640e-02 2.43526269e-02 2.38453656e-01 1.94179371e-01
      2.65478522e-01 3.22274476e-01 1.10743418e-01 4.18732055e-02
      2.01294571e-02 1.90736335e-02 2.75985729e-02 4.32037592e-01
      4.36670125e-01 7.38827139e-02 1.82703584e-02 2.54072100e-02
      2.86403690e-02 5.48608638e-02 2.23490428e-02 2.08925456e-02
      9.84911546e-02 1.28031194e-01 1.06189631e-01 3.67216974e-01
      2.28259921e-01 9.93311703e-02 1.40180262e-02 1.52296554e-02
      1.24497106e-02 2.11282998e-01 4.36670125e-01 1.82613701e-01
      3.21769319e-03 5.28423628e-03 1.41402874e-02 5.28901331e-02
      4.07604165e-02 2.07718164e-02 1.02518968e-01 2.51003563e-01
      4.29301374e-02 7.94995874e-02 1.04164086e-01 6.68782592e-02
      1.23458784e-02 1.11634517e-02 2.36229808e-03 1.07833013e-01
      4.19010848e-01 2.71243453e-01 2.25799978e-02 1.49394097e-02
      1.73694771e-02 6.23967573e-02 1.62250638e-01 5.64419143e-02
      4.73684445e-02 2.13171065e-01 8.20867792e-02 2.98143998e-02
      2.48506926e-02 4.56571802e-02 5.56106642e-02 7.12094232e-02
      4.51415703e-02 1.22594111e-01 4.19010848e-01 3.45607370e-01
      5.41178025e-02 3.82558368e-02 4.81004752e-02 2.00039595e-01
      4.19010848e-01 2.19231144e-01 4.50001694e-02 1.62813663e-01
      1.06861576e-01 3.75431478e-02 3.99336740e-02 9.35455263e-02
      3.78429592e-02 7.39721656e-02 7.53581598e-02 1.19170956e-01
      2.99279153e-01 2.99279153e-01 1.08798169e-01 2.12369058e-02
      2.05204450e-02 1.40268996e-01 2.99279153e-01 2.13496223e-01
      1.25974774e-01 1.98511347e-01 1.53098583e-01 1.04906797e-01
      5.15860543e-02 6.10380583e-02 3.84696084e-03 1.55822858e-02
      2.19274331e-02 4.16007154e-02 2.99279153e-01 2.99279153e-01
      2.99279153e-01 3.12208422e-02 5.51229063e-03 8.71148482e-02
      7.79063180e-02 4.98910323e-02 7.00084195e-02 1.56180426e-01
      2.62987584e-01 2.99279153e-01 2.01655254e-01 1.02144361e-01
      1.69287168e-03 2.65277224e-03 1.10081416e-02 6.60990318e-03
      1.37297958e-01 3.04553837e-01 3.04553837e-01 2.65358463e-02
      6.00573048e-03 8.44418108e-02 3.20288837e-02 1.33225583e-02
      2.23522144e-03 8.47290382e-02 3.04553837e-01 3.04553837e-01
      2.42415398e-01 9.50246528e-02 7.88563304e-03 3.31529342e-02
      5.28823733e-02 4.35989816e-03 1.60242572e-01 3.04553837e-01
      3.04553837e-01 4.62004803e-02 4.87110903e-03 7.39074871e-02
      2.52830051e-02 1.68679021e-02 0. 9.25730914e-02 3.04553837e-01
      3.04553837e-01 3.04553837e-01 1.11051872e-01</_>
    <_>
      1.82008073e-01 1.08986594e-01 1.53796360e-01 2.12528810e-01
      1.61447018e-01 8.73893779e-03 5.44915162e-02 1.60741862e-02
      5.16149700e-02 1.38591617e-01 1.65776402e-01 3.34547639e-01
      2.69467741e-01 1.18950285e-01 2.17786804e-02 2.51364224e-02
      2.27348320e-02 7.55071938e-02 6.17905408e-02 9.04457420e-02
      3.34547639e-01 3.34547639e-01 2.58831829e-01 2.79851463e-02
      4.59276326e-02 1.48625327e-02 1.26763862e-02 6.94183558e-02
      1.80079326e-01 3.34547639e-01 3.34547639e-01 1.58579826e-01
      6.55317530e-02 3.07254009e-02 5.04288217e-03 2.20306031e-02
      1.44128762e-02 1.96578894e-02 1.57541499e-01 3.29942137e-01
      2.70594209e-01 3.20488364e-02 1.56145906e-02 6.96182298e-03
      8.00597947e-03 1.97529998e-02 2.98626367e-02 3.29942137e-01
      3.29942137e-01 2.85153002e-01 4.15515229e-02 6.55972958e-03
      1.61937461e-03 7.91413803e-03 6.95344154e-03 1.37167890e-02
      1.23419710e-01 3.29942137e-01 3.29942137e-01 3.35813761e-02
      1.35098528e-02 6.23561442e-03 6.73495233e-03 1.08094066e-02
      1.21716680e-02 1.78895339e-01 3.29942137e-01 3.29942137e-01
      3.15156654e-02 2.10667052e-03 3.43567180e-03 9.06042475e-03
      2.66138557e-03 1.59680713e-02 9.96618047e-02 3.52231860e-01
      3.52231860e-01 2.70157717e-02 9.50326305e-03 2.78689433e-03
      2.59213336e-03 8.47368967e-03 1.16677061e-02 6.40735403e-02
      3.52231860e-01 3.52231860e-01 2.02131495e-02 1.35338702e-03
      4.07686736e-03 7.17102038e-03 5.21391444e-03 8.75374954e-03
      1.17530584e-01 3.52231860e-01 3.52231860e-01 2.80363541e-02
      3.57266818e-03 4.97836433e-03 1.23908678e-02 5.04910201e-03
      7.65299844e-03 2.68235579e-02 3.09184045e-01 3.52231860e-01
      2.98291557e-02 3.12320073e-04 1.49290659e-03 2.00455985e-03
      1.99387930e-02 1.27932187e-02 1.68520853e-01 3.45012873e-01
      3.45012873e-01 4.00312319e-02 5.11219259e-03 1.38000855e-02
      3.52405123e-02 2.31851987e-03 4.74325242e-03 2.50547491e-02
      2.91818827e-01 3.45012873e-01 7.58670419e-02 1.09026767e-02
      3.97917768e-03 1.84845936e-03 3.56835835e-02 8.95094313e-03
      1.38240874e-01 3.45012873e-01 3.45012873e-01 1.38072193e-01
      2.90731248e-02 2.55988650e-02 4.51137386e-02 8.77115689e-03
      6.45293947e-03 2.04844344e-02 2.07539439e-01 3.45012873e-01
      2.54633099e-01 7.76110142e-02 3.10502332e-02 1.09634297e-02
      2.95427516e-02 8.66731536e-03 9.07014757e-02 2.32063219e-01
      3.45035166e-01 2.56585568e-01 6.12873845e-02 2.38876212e-02
      3.50846946e-02 2.22074706e-02 7.55297439e-03 1.65189859e-02
      1.31046310e-01 3.45035166e-01 3.45035166e-01 2.06576571e-01
      6.16029948e-02 2.64404193e-02 2.54088938e-02 2.81905532e-02
      3.75142768e-02 8.92731100e-02 3.45035166e-01 1.48460492e-01
      5.92749976e-02 1.38463918e-02 1.73852574e-02 1.62075795e-02
      2.69382410e-02 1.19267954e-02 1.32005662e-01 3.45035166e-01
      3.18907678e-01 1.81753576e-01 1.00948542e-01 3.70387062e-02</_>
    <_>
      1.91040024e-01 2.00058416e-01 2.43180424e-01 2.72508830e-01
      2.26782456e-01 7.62691647e-02 8.14517587e-02 1.23050600e-01
      1.25171766e-01 1.87313437e-01 2.72508830e-01 2.72508830e-01
      1.90532416e-01 1.53853655e-01 3.52214612e-02 5.24757653e-02
      1.54297456e-01 2.52241760e-01 7.48918727e-02 7.49692544e-02
      9.08317342e-02 1.65200263e-01 2.72508830e-01 9.39436480e-02
      8.20462257e-02 1.01447016e-01 7.89311901e-02 4.79464047e-02
      1.10397048e-01 1.83321804e-01 2.72508830e-01 2.72508830e-01
      5.91328815e-02 3.46982703e-02 2.68471148e-02 5.01108989e-02
      1.32273072e-02 1.23131573e-02 6.70117512e-02 1.29437566e-01
      3.54797930e-01 1.73465326e-01 4.08509150e-02 1.22549627e-02
      1.91215444e-02 1.77376941e-02 1.05790282e-02 9.91716832e-02
      3.54797930e-01 3.54797930e-01 6.34870082e-02 1.85374990e-02
      5.20226546e-03 2.06006486e-02 2.57790796e-02 4.25636098e-02
      1.60406277e-01 2.78597832e-01 3.54797930e-01 2.03212753e-01
      6.19259104e-02 1.36727095e-02 2.74147540e-02 9.45115555e-03
      2.13428866e-02 1.29008219e-01 3.54797930e-01 3.54797930e-01
      4.24232520e-02 3.51611897e-02 5.01231616e-03 9.56020039e-03
      4.79071327e-02 4.41378951e-02 1.10864364e-01 2.27971658e-01
      3.67522091e-01 8.91511962e-02 5.95343113e-02 1.72263328e-02
      4.93541248e-02 1.09226927e-02 1.70670450e-02 5.21056354e-02
      3.67522091e-01 3.67522091e-01 1.89305414e-02 2.77612172e-02
      4.38730698e-03 1.09328963e-02 1.02650858e-01 9.96614322e-02
      1.37362391e-01 1.61222398e-01 2.78807133e-01 9.43357274e-02
      1.18217036e-01 4.92352359e-02 1.41105935e-01 4.25888486e-02
      7.85074681e-02 1.91134214e-01 3.67522091e-01 3.67522091e-01
      5.08224405e-03 8.67856015e-03 3.66174127e-03 3.07337791e-02
      2.42976204e-01 1.63517207e-01 1.40754119e-01 1.03747234e-01
      7.83646479e-02 6.78022653e-02 1.23543739e-01 1.06462218e-01
      2.86941946e-01 1.17375389e-01 1.65018857e-01 2.86941946e-01
      2.86941946e-01 2.86941946e-01 6.95932135e-02 2.20955797e-02
      1.13731287e-02 7.81206638e-02 2.06333488e-01 6.86663464e-02
      4.54182439e-02 7.54809007e-02 8.17662477e-02 7.37225786e-02
      1.20944157e-01 1.32397592e-01 2.86941946e-01 1.08970366e-01
      7.80369267e-02 1.65997580e-01 2.86941946e-01 2.86941946e-01
      2.08856523e-01 1.26122892e-01 4.11942862e-02 9.19489041e-02
      1.50914013e-01 3.16713862e-02 7.62378797e-02 7.94067532e-02
      2.10735679e-01 1.50716573e-01 2.19515741e-01 2.34856352e-01
      2.34856352e-01 1.09741494e-01 5.67744598e-02 2.11866066e-01
      1.65064290e-01 2.34856352e-01 1.80467218e-01 1.87588990e-01
      1.10202245e-01 1.49528906e-01 1.37477949e-01 5.69293611e-02
      1.26348957e-01 5.51693700e-02 2.34856352e-01 2.13199079e-01
      2.34856352e-01 2.34856352e-01 1.83557332e-01 1.06679931e-01
      1.15603045e-01 2.34856352e-01 3.31119448e-02 2.34856352e-01
      3.96226943e-02 1.73825800e-01 1.37328923e-01 1.36899740e-01</_>
    <_>
      1.22033566e-01 1.56681880e-01 2.07155541e-01 2.35179767e-01
      2.37256214e-01 1.09197080e-01 8.09371322e-02 7.31494725e-02
      9.34990644e-02 9.58399475e-02 5.18972315e-02 2.97544837e-01
      2.97544837e-01 1.70831874e-01 7.88645446e-02 9.40652341e-02
      8.78921673e-02 1.34786740e-01 3.07745151e-02 7.77173862e-02
      1.65399596e-01 2.97544837e-01 2.97544837e-01 1.34729922e-01
      4.37957719e-02 2.98685990e-02 3.66433933e-02 2.83347722e-02
      4.78745550e-02 2.97544837e-01 2.97544837e-01 2.97544837e-01
      8.84264857e-02 1.50661087e-02 7.57174194e-03 3.00594047e-02
      1.27380975e-02 1.81124881e-02 7.00389743e-02 1.91804022e-01
      3.55252117e-01 1.59805253e-01 2.12681126e-02 9.47544910e-03
      1.39801130e-02 8.12323205e-03 1.23778917e-02 1.37977421e-01
      3.55252117e-01 3.55252117e-01 1.14245303e-01 1.23459604e-02
      3.42800445e-03 7.73135386e-03 3.85444760e-02 7.18028769e-02
      1.57892808e-01 2.78502285e-01 3.45417142e-01 1.33989036e-01
      1.84662081e-02 1.59888603e-02 1.43340984e-02 1.32152168e-02
      2.63348501e-02 1.20044477e-01 3.55252117e-01 3.55252117e-01
      4.27560918e-02 9.76122543e-03 4.81092837e-03 3.00754094e-03
      3.74458991e-02 7.40310326e-02 1.28357664e-01 2.37763211e-01
      3.19821328e-01 1.33312345e-01 1.42945284e-02 9.85277444e-03
      1.31875016e-02 1.27593046e-02 2.65424605e-02 8.26538503e-02
      3.56725454e-01 3.56725454e-01 1.16779931e-01 8.46725795e-03
      2.40091817e-03 3.41991265e-03 4.50299606e-02 5.12554906e-02
      1.10296220e-01 2.01800317e-01 3.56725454e-01 1.65288344e-01
      6.08434975e-02 1.45095391e-02 2.59662289e-02 1.01182647e-02
      1.87856834e-02 9.13382098e-02 3.56725454e-01 3.56725454e-01
      1.99875474e-01 1.02859400e-02 9.87436506e-04 4.07690648e-03
      1.45615786e-01 1.52078018e-01 1.86629429e-01 2.36560404e-01
      2.07709208e-01 1.01836383e-01 8.29590484e-02 5.48212752e-02
      1.03800029e-01 3.17160413e-02 7.58835450e-02 1.81865364e-01
      3.43219727e-01 3.43219727e-01 9.97102782e-02 2.53495551e-03
      4.95641492e-04 9.40024760e-03 1.65028468e-01 1.98094085e-01
      1.63117588e-01 1.53026193e-01 9.11140963e-02 3.41320261e-02
      4.49768938e-02 1.02338232e-01 1.98244199e-01 4.21956293e-02
      1.64762706e-01 2.14343369e-01 3.43219727e-01 3.43219727e-01
      1.14346765e-01 4.78351954e-03 3.70353786e-03 2.12328751e-02
      1.23562537e-01 1.31535128e-01 1.92091271e-01 1.68633014e-01
      2.14900538e-01 1.03991151e-01 1.12322748e-01 1.53145388e-01
      1.75588772e-01 4.25586067e-02 1.29050165e-01 2.05566660e-01
      3.09784085e-01 3.09784085e-01 2.65955538e-01 4.02406603e-02
      3.30698974e-02 3.58298868e-02 1.79997191e-01 7.23585710e-02
      1.13674462e-01 6.32705539e-02 2.13902503e-01 1.23066396e-01
      1.78217202e-01 1.74544409e-01 1.91160426e-01 1.36154816e-01
      8.53283927e-02 1.67503461e-01 1.58502206e-01 3.09784085e-01
      1.74176455e-01 7.89599046e-02 9.08141136e-02 1.17061935e-01</_>
    <_>
      1.01373240e-01 1.44178897e-01 2.20968872e-01 1.75596431e-01
      2.87540555e-01 9.10959914e-02 4.04624678e-02 2.94943806e-02
      8.28955621e-02 1.11781910e-01 1.62221342e-01 2.97556847e-01
      2.97556847e-01 1.34753063e-01 1.93788521e-02 4.23794612e-02
      1.61014155e-01 1.61564469e-01 6.18846491e-02 7.31640607e-02
      1.87418416e-01 2.07771584e-01 2.97556847e-01 1.45525947e-01
      6.05749898e-02 1.26026897e-02 4.31900248e-02 7.05469847e-02
      1.33786842e-01 2.97556847e-01 2.97556847e-01 2.97556847e-01
      6.92587942e-02 2.44300067e-02 2.39992538e-03 3.01743895e-02
      4.30550687e-02 3.91315594e-02 4.36134227e-02 8.24898556e-02
      3.72061938e-01 1.79156080e-01 5.21497689e-02 7.82056339e-03
      3.64601985e-02 1.84408799e-02 2.35531982e-02 1.06555790e-01
      3.72061938e-01 3.72061938e-01 1.06572896e-01 2.69666668e-02
      1.67141249e-03 1.19926995e-02 6.25310838e-02 1.40151143e-01
      7.84517750e-02 1.28415957e-01 3.72061938e-01 1.43467546e-01
      4.72739898e-02 8.92175082e-03 4.62862737e-02 2.10034512e-02
      9.04703662e-02 6.72563538e-02 3.72061938e-01 3.72061938e-01
      8.94528329e-02 2.05602422e-02 2.78803171e-03 1.01799909e-02
      4.62752245e-02 1.16597839e-01 1.09823488e-01 1.16536960e-01
      3.39676946e-01 1.08836018e-01 1.53777152e-02 4.43190709e-03
      3.26666869e-02 1.55545948e-02 8.06021392e-02 7.44138286e-02
      3.81793320e-01 3.81793320e-01 1.09879553e-01 3.87532590e-03
      1.00365782e-03 6.31960714e-03 8.28826949e-02 1.35073453e-01
      1.81126937e-01 8.40987116e-02 2.54891336e-01 8.67514908e-02
      4.90854234e-02 3.69191170e-02 6.73602596e-02 3.19583453e-02
      1.13481283e-01 1.55377030e-01 3.81793320e-01 3.81793320e-01
      1.86546385e-01 0. 1.45981467e-04 1.21722119e-02 1.06842108e-01
      1.79771855e-01 2.60503203e-01 1.22964345e-01 8.81565064e-02
      2.82624420e-02 9.87877920e-02 1.34941518e-01 1.38162866e-01
      3.55349220e-02 1.41244605e-01 2.75919348e-01 3.00060779e-01
      3.00060779e-01 2.72534847e-01 1.25172976e-02 4.32633422e-03
      1.88282635e-02 1.33662924e-01 1.34354323e-01 1.38026625e-01
      9.32602212e-02 4.80910987e-02 5.35986852e-03 9.58814994e-02
      2.05149874e-01 1.85083658e-01 7.79086053e-02 8.25965255e-02
      1.42185241e-01 3.00060779e-01 3.00060779e-01 3.00060779e-01
      6.59090132e-02 2.50486024e-02 5.20015061e-02 2.17310861e-01
      1.38277352e-01 7.98003450e-02 6.89906105e-02 1.35774612e-01
      5.62445400e-03 1.53611317e-01 2.53599137e-01 2.46695980e-01
      1.81146577e-01 1.04599126e-01 8.16702396e-02 7.21566975e-02
      2.56882250e-01 2.56882250e-01 1.47202194e-01 5.61857969e-02
      1.35262832e-01 1.62192822e-01 5.86662553e-02 8.26224387e-02
      7.12505057e-02 2.56882250e-01 3.94759960e-02 2.33144984e-01
      1.65745974e-01 1.76525846e-01 2.32424274e-01 2.01146454e-01
      2.40047425e-01 3.52626219e-02 2.56882250e-01 1.14415511e-01
      1.49195313e-01 5.16568311e-02 2.06043676e-01</_>
    <_>
      1.46571010e-01 1.67055801e-01 2.74994373e-01 2.74994373e-01
      2.32516170e-01 9.24018845e-02 1.59031991e-02 2.12788675e-02
      7.13202804e-02 2.44105026e-01 2.74994373e-01 2.74994373e-01
      1.42948911e-01 1.65432483e-01 0. 8.99467338e-03 3.23963314e-02
      1.11192219e-01 6.46701083e-02 7.56777748e-02 2.74994373e-01
      2.74994373e-01 2.74994373e-01 5.50211333e-02 1.69155821e-02
      3.18240449e-02 5.59162945e-02 1.02440827e-01 1.67912349e-01
      2.74994373e-01 2.74994373e-01 1.19402491e-01 1.98523654e-03
      6.12988137e-03 2.81969924e-02 8.27148184e-02 3.36424485e-02
      6.25946820e-02 1.11345090e-01 2.69667864e-01 3.32655936e-01
      4.77240756e-02 3.32915597e-02 1.92628857e-02 2.61134151e-02
      3.56992371e-02 1.32105708e-01 3.32655936e-01 3.32655936e-01
      9.71864909e-02 6.52934611e-03 3.34637612e-03 1.20959654e-02
      2.82964353e-02 3.73587795e-02 2.97851749e-02 1.72849208e-01
      3.32655936e-01 3.32655936e-01 1.46805301e-01 9.60732624e-02
      6.85864687e-03 3.16535346e-02 1.35041457e-02 6.36804029e-02
      3.32655936e-01 3.32655936e-01 1.72638655e-01 8.23417492e-03
      3.44782113e-03 1.04381912e-03 1.28011946e-02 2.38609109e-02
      1.27878040e-02 1.99958533e-01 3.52106690e-01 2.44810134e-01
      9.87529531e-02 4.01705094e-02 7.40219094e-03 1.82160456e-02
      5.47597976e-03 6.59240223e-03 2.68963963e-01 3.52106690e-01
      1.52045831e-01 1.92128238e-03 9.94710485e-04 4.93479369e-04
      5.09965559e-03 1.37081221e-02 4.23879214e-02 2.60344923e-01
      3.52106690e-01 2.66141027e-01 8.53600949e-02 2.37020031e-02
      6.10993057e-03 6.55738264e-03 1.72110449e-03 7.48053379e-03
      1.92553118e-01 3.52106690e-01 3.27006966e-01 8.22827162e-04
      2.05309014e-03 1.27627398e-03 1.24438852e-03 4.64676544e-02
      8.23977590e-02 1.97754741e-01 3.33029091e-01 3.23042125e-01
      9.46174115e-02 3.63367870e-02 1.02512408e-02 1.75379608e-02
      3.42400745e-03 7.64414808e-03 1.05815142e-01 3.33029091e-01
      3.33029091e-01 1.19504929e-02 8.46476387e-03 3.37990024e-03
      1.26755203e-03 8.49967450e-02 6.79848939e-02 9.87053066e-02
      3.33029091e-01 3.33029091e-01 6.52391762e-02 1.17604118e-02
      1.48684820e-02 3.47808897e-02 9.75377578e-03 6.25278102e-03
      3.73035781e-02 3.33029091e-01 3.33029091e-01 1.22659534e-01
      3.95148732e-02 1.00174127e-02 8.64589214e-03 6.88541010e-02
      6.81160241e-02 8.25242624e-02 2.92317390e-01 2.92317390e-01
      2.92317390e-01 3.45047824e-02 7.24634388e-03 4.04255763e-02
      2.61308067e-02 4.73235734e-03 2.17505824e-02 2.32639462e-01
      2.92317390e-01 2.92317390e-01 2.03903213e-01 4.34567593e-02
      3.97167876e-02 4.40324694e-02 6.13789670e-02 9.81391445e-02
      5.63680306e-02 2.92317390e-01 2.55418926e-01 7.73562342e-02
      1.27286343e-02 3.85440812e-02 2.69882344e-02 9.96215083e-03
      3.11619863e-02 3.04875672e-02 2.92317390e-01 2.92317390e-01
      2.92317390e-01 1.08825408e-01 5.16452901e-02</_>
    <_>
      1.93098307e-01 1.38452470e-01 1.77529082e-01 2.38420516e-01
      1.74758196e-01 1.44056361e-02 7.89045449e-03 1.77776776e-02
      9.32523459e-02 2.54412383e-01 2.45675266e-01 2.82686055e-01
      1.58179373e-01 1.39712557e-01 2.32057553e-02 1.31515246e-02
      6.04548715e-02 1.40573159e-01 6.25807941e-02 1.49953216e-01
      2.76042014e-01 2.82686055e-01 2.82686055e-01 3.08413096e-02
      9.14950669e-03 6.61459891e-03 3.29490900e-02 1.37967736e-01
      2.82686055e-01 2.82686055e-01 2.82686055e-01 1.10842943e-01
      2.50125788e-02 4.01051948e-03 1.59392301e-02 4.83247451e-02
      1.53362993e-02 6.43059015e-02 1.62756711e-01 2.09105760e-01
      2.98416317e-01 3.80124934e-02 1.67563166e-02 1.01201888e-02
      1.09415520e-02 1.79681126e-02 7.38305598e-02 3.22061896e-01
      3.22061896e-01 2.29817003e-01 3.53254899e-02 8.31287634e-03
      9.01246537e-03 1.33473938e-02 1.34582510e-02 3.17891575e-02
      1.97800204e-01 3.22061896e-01 3.22061896e-01 3.66147794e-02
      1.64906140e-02 7.14702765e-03 1.13738822e-02 7.19930790e-03
      1.42858056e-02 3.22061896e-01 3.22061896e-01 3.22061896e-01
      4.90039885e-02 1.09034488e-02 2.71645328e-03 8.37357063e-03
      7.78079685e-03 2.32769381e-02 1.39054731e-01 3.40299308e-01
      3.40299308e-01 2.05611773e-02 6.78121997e-03 5.51540637e-03
      6.05717767e-03 4.36443649e-03 9.12119355e-03 1.75511122e-01
      3.40299308e-01 3.40299308e-01 2.78686695e-02 2.19252473e-03
      2.28257719e-04 3.52106849e-03 3.26935900e-03 3.10385022e-02
      1.06730856e-01 3.40299308e-01 3.40299308e-01 2.42892485e-02
      1.03446897e-02 1.24354055e-02 7.83536304e-03 2.41297134e-03
      4.78401408e-03 6.79332688e-02 3.40299308e-01 3.40299308e-01
      8.32410064e-03 6.96204312e-04 0. 2.07758765e-03 5.29048312e-03
      2.60325782e-02 1.01436384e-01 3.68412107e-01 3.68412107e-01
      3.66531797e-02 6.86988607e-03 9.24720895e-03 1.03479959e-02
      2.07041879e-03 7.98381341e-04 4.27315645e-02 2.96018839e-01
      3.68412107e-01 4.38689142e-02 7.54076429e-03 0. 2.07041879e-03
      1.99840888e-02 1.59595795e-02 5.95304184e-02 2.88735867e-01
      3.68412107e-01 1.78621903e-01 3.50105390e-02 9.10882093e-03
      1.98658053e-02 8.28787219e-03 5.43135544e-03 1.57968532e-02
      1.30463853e-01 3.68412107e-01 2.56872028e-01 9.36069712e-02
      1.19319474e-02 1.51028614e-02 5.20767979e-02 7.87317902e-02
      1.05399542e-01 2.77713984e-01 2.91850626e-01 2.91850626e-01
      7.44516253e-02 8.31149891e-03 4.29334715e-02 1.32169090e-02
      9.62076336e-03 2.79873945e-02 1.49652660e-01 2.91850626e-01
      2.91850626e-01 2.24427208e-01 4.09496538e-02 3.87892127e-02
      6.59804866e-02 9.52832028e-02 1.44796908e-01 1.49430379e-01
      2.91850626e-01 1.64863870e-01 8.45334083e-02 3.46591212e-02
      5.01563177e-02 2.61077452e-02 1.07934363e-02 3.78247909e-02
      1.16384842e-01 2.91850626e-01 2.91850626e-01 2.91850626e-01
      1.47984385e-01 4.03644145e-02</_>
    <_>
      1.00356907e-01 7.41919503e-02 7.89568350e-02 2.14008987e-01
      1.43257782e-01 5.64711206e-02 2.00067889e-02 3.89928184e-02
      6.89545497e-02 6.51072562e-02 4.87657525e-02 3.57144952e-01
      3.57144952e-01 9.11915451e-02 1.50368214e-02 2.88942289e-02
      8.61931741e-02 8.21304694e-02 3.07935998e-02 3.00749671e-02
      7.64237642e-02 3.41176480e-01 3.09788734e-01 7.83147514e-02
      4.19414379e-02 2.05829348e-02 2.64169164e-02 1.60542931e-02
      2.14156210e-02 3.57144952e-01 3.57144952e-01 3.57144952e-01
      1.96008049e-02 1.00231823e-02 9.68359038e-03 1.14489999e-02
      2.21724622e-02 2.95571182e-02 5.13958558e-02 2.85392225e-01
      3.05156708e-01 7.03007728e-02 2.62628142e-02 1.13118496e-02
      1.54099781e-02 9.20739025e-03 1.36802141e-02 1.83030918e-01
      3.54379177e-01 3.54379177e-01 1.71709061e-02 4.09583934e-03
      1.79246708e-03 3.99262179e-03 3.54303606e-02 4.73519154e-02
      9.32733119e-02 3.54379177e-01 3.54379177e-01 3.46360467e-02
      6.18767273e-03 8.65841750e-03 1.68167036e-02 1.30098360e-02
      1.79548711e-02 9.96931642e-02 3.54379177e-01 3.54379177e-01
      5.88759873e-03 3.84879328e-04 4.75589302e-04 4.07819590e-03
      1.70294344e-02 3.62963490e-02 8.39758068e-02 3.46575350e-01
      3.46575350e-01 2.94221118e-02 2.73442175e-03 9.97641589e-03
      1.71810091e-02 4.74000024e-03 7.59612629e-03 5.45082912e-02
      3.46575350e-01 3.46575350e-01 2.61548199e-02 3.81173077e-03
      1.32739102e-03 2.73091136e-03 3.06551028e-02 4.40635122e-02
      8.30645412e-02 3.41351032e-01 3.46575350e-01 4.69686091e-02
      1.35161225e-02 1.90168414e-02 2.34754011e-02 4.49642632e-03
      7.16956379e-03 3.50699276e-02 3.46575350e-01 3.46575350e-01
      1.04929164e-01 1.06500136e-02 2.10547494e-03 4.14955290e-03
      6.10403419e-02 3.97587195e-02 6.56595528e-02 3.09286058e-01
      3.23981315e-01 7.24055246e-02 2.85541881e-02 2.76532061e-02
      4.71099578e-02 1.22837545e-02 1.03360992e-02 2.84846202e-02
      3.01602870e-01 3.23981315e-01 2.58459985e-01 4.97627221e-02
      1.00933481e-02 1.24342749e-02 7.73460418e-02 1.82079803e-02
      4.78639118e-02 2.22417921e-01 3.23981315e-01 1.70947418e-01
      8.45424980e-02 3.79772298e-02 7.24536404e-02 1.89255495e-02
      8.77963472e-03 3.66043858e-02 2.36021489e-01 3.23981315e-01
      3.23981315e-01 1.91640645e-01 1.78787392e-02 1.98499393e-02
      1.34370565e-01 6.95117712e-02 1.31140471e-01 1.53771207e-01
      2.80425757e-01 2.46600270e-01 1.66548237e-01 6.81256503e-02
      1.19010188e-01 7.41335899e-02 4.09821607e-02 9.89987627e-02
      1.61901832e-01 2.80425757e-01 2.80425757e-01 2.80425757e-01
      4.93337736e-02 9.20684114e-02 1.03759021e-01 7.25349188e-02
      1.68188721e-01 8.72103795e-02 2.80425757e-01 7.52164796e-02
      2.06210971e-01 1.17096283e-01 1.17566720e-01 1.32435337e-01
      4.92591560e-02 1.24989174e-01 3.37014720e-02 2.80425757e-01
      1.86367437e-01 2.51148224e-01 9.63403955e-02 1.69512451e-01</_>
    <_>
      1.58836126e-01 1.25028700e-01 1.03889987e-01 1.03454694e-01
      2.56372660e-01 1.06715076e-02 5.44439182e-02 2.85750721e-02
      1.01410888e-01 1.47182226e-01 2.30888486e-01 3.20306391e-01
      2.91406840e-01 8.07058141e-02 1.84530951e-02 3.63030955e-02
      3.10559012e-02 1.33216262e-01 6.17443584e-02 6.91860020e-02
      1.24709398e-01 2.26117507e-01 3.20306391e-01 8.57448652e-02
      1.00013323e-01 3.06256115e-02 4.86082658e-02 6.36072531e-02
      2.11686075e-01 3.20306391e-01 3.20306391e-01 3.20306391e-01
      7.39108473e-02 4.38576341e-02 2.34240666e-02 4.53291275e-02
      2.53396221e-02 2.56257318e-02 1.08425736e-01 2.34123111e-01
      2.65808761e-01 4.85710166e-02 4.33266759e-02 2.48788614e-02
      2.98003070e-02 1.12706907e-02 2.60042921e-02 3.29838336e-01
      3.29838336e-01 3.29838336e-01 3.50119472e-02 1.33137340e-02
      9.51208174e-03 8.51323456e-03 2.71157343e-02 4.69290800e-02
      1.30101755e-01 3.29838336e-01 3.29838336e-01 3.23374458e-02
      2.06483696e-02 2.16382686e-02 2.81439275e-02 1.06883068e-02
      8.69586971e-03 2.53139108e-01 3.29838336e-01 3.29838336e-01
      3.89092825e-02 3.79083888e-03 6.31664041e-03 9.03904252e-03
      1.97391473e-02 5.24447747e-02 8.54149163e-02 3.48117858e-01
      3.14695090e-01 2.14447342e-02 5.43741230e-03 8.96880031e-03
      8.22978001e-03 7.29437685e-03 9.63187870e-03 7.24355802e-02
      3.48117858e-01 3.48117858e-01 2.28428114e-02 6.62525359e-04
      5.75199898e-04 4.99017863e-03 1.41400062e-02 5.77870756e-02
      1.41108468e-01 3.48117858e-01 3.48117858e-01 2.80313510e-02
      2.04793713e-03 9.42226592e-03 6.96582813e-03 5.92019269e-03
      9.63747222e-03 7.76563436e-02 3.48117858e-01 3.48117858e-01
      3.99217866e-02 4.43850365e-03 2.09433399e-03 4.28019650e-03
      2.90508568e-02 7.87062347e-02 2.56025612e-01 3.13191801e-01
      3.13191801e-01 5.18189594e-02 8.79706349e-03 3.62757151e-03
      8.94034654e-03 6.51699211e-03 7.19034998e-03 8.26648027e-02
      3.13191801e-01 3.13191801e-01 1.27361014e-01 5.57246245e-02
      1.76664051e-02 6.80253003e-03 5.94270565e-02 9.87924412e-02
      2.08462700e-01 2.55392343e-01 3.13191801e-01 1.55798450e-01
      8.35356861e-02 5.92723722e-03 1.86187103e-02 1.16426786e-02
      1.93844661e-02 6.02224022e-02 1.72182009e-01 3.13191801e-01
      2.44392633e-01 2.40606606e-01 3.45724337e-02 8.64144973e-03
      6.80667460e-02 5.25404103e-02 1.29879892e-01 1.25425011e-01
      2.81137675e-01 2.81137675e-01 2.22750857e-01 3.12332604e-02
      5.05514033e-02 5.62920608e-02 3.53021361e-02 4.14950103e-02
      1.38117060e-01 2.81137675e-01 2.81137675e-01 2.81137675e-01
      1.08896405e-01 5.71201183e-02 1.15068048e-01 6.73544481e-02
      1.82731763e-01 9.20120329e-02 2.81137675e-01 1.36175677e-01
      1.62811026e-01 3.98745537e-02 1.03323787e-01 1.47897139e-01
      3.29518840e-02 9.06586647e-02 1.55498266e-01 2.81137675e-01
      1.79283068e-01 2.46681318e-01 1.42594174e-01 1.57505885e-01</_>
    <_>
      1.00853369e-01 6.07956573e-02 1.50301367e-01 1.35022432e-01
      1.48698762e-01 2.43303999e-02 6.81438204e-03 2.21194839e-03
      7.04841241e-02 9.85274389e-02 1.78869814e-01 3.41130644e-01
      3.33427578e-01 7.71461427e-02 3.68693992e-02 2.05073282e-02
      3.51325087e-02 6.74332306e-02 2.04880740e-02 3.81461829e-02
      2.44654030e-01 3.41130644e-01 3.12040955e-01 1.52224042e-02
      1.06681380e-02 3.53084295e-03 1.05481651e-02 3.21093351e-02
      9.91878957e-02 3.41130644e-01 3.41130644e-01 3.32226276e-01
      3.30806375e-02 1.38981333e-02 6.09237002e-03 1.31557668e-02
      4.58877999e-03 9.83074121e-03 1.41088411e-01 3.32022518e-01
      3.22497249e-01 1.73709262e-02 4.07034066e-03 1.40735542e-03
      4.74428153e-03 8.72891117e-03 1.52177280e-02 2.66162217e-01
      3.32022518e-01 3.32022518e-01 3.07973288e-02 1.38536664e-02
      5.56157622e-03 1.32667543e-02 2.23458465e-03 7.47116515e-03
      1.13054276e-01 3.32022518e-01 3.32022518e-01 2.37495694e-02
      4.00940655e-03 9.43076215e-04 3.06044845e-03 1.28240250e-02
      1.22947255e-02 9.96686667e-02 3.32022518e-01 3.32022518e-01
      5.85230663e-02 1.31315356e-02 9.83942207e-03 2.76665315e-02
      5.01332618e-03 1.75715692e-03 5.59534729e-02 3.55286986e-01
      3.55286986e-01 1.40182730e-02 4.10184218e-03 1.65482704e-03
      5.15360525e-03 1.11252768e-02 9.48767737e-03 4.16927822e-02
      3.55286986e-01 3.55286986e-01 2.23180130e-02 4.40804986e-03
      3.18218372e-03 1.41705871e-02 9.77243111e-03 1.97205460e-03
      4.98498343e-02 3.55286986e-01 3.55286986e-01 4.58306596e-02
      4.87969816e-03 6.76068710e-04 7.50234071e-03 6.14259951e-03
      1.43049518e-03 1.35427173e-02 3.16010565e-01 3.55286986e-01
      4.19522524e-02 1.09117040e-02 2.22889450e-03 5.56247029e-03
      1.03543149e-02 7.50089996e-03 9.21080932e-02 3.22811812e-01
      3.22811812e-01 1.71270132e-01 2.93585844e-02 4.01254278e-03
      8.43051635e-03 2.79329624e-02 1.04004852e-02 1.15581509e-02
      1.34301558e-01 3.22811812e-01 1.94278359e-01 4.52391878e-02
      2.21290085e-02 1.54265817e-02 2.30326522e-02 1.98928099e-02
      7.72240609e-02 2.01495901e-01 3.22811812e-01 3.13585669e-01
      2.12563932e-01 4.56858277e-02 1.53238336e-02 7.96135142e-02
      3.62250991e-02 3.00936420e-02 1.18075587e-01 3.22811812e-01
      2.91114718e-01 2.49053732e-01 1.15689494e-01 3.52236331e-02
      2.32320689e-02 3.08645144e-02 6.36624247e-02 8.90906006e-02
      2.68577576e-01 2.68577576e-01 2.68577576e-01 1.07499562e-01
      2.71624066e-02 6.48639277e-02 4.04631831e-02 4.40365635e-02
      1.17575437e-01 2.68577576e-01 2.68577576e-01 2.68577576e-01
      2.30870232e-01 5.78404702e-02 2.34496705e-02 7.95692429e-02
      1.26486123e-01 4.02730666e-02 2.68577576e-01 1.45034373e-01
      2.03345284e-01 9.95351300e-02 4.16911282e-02 4.63747680e-02
      6.70209676e-02 5.49488068e-02 1.28362417e-01 2.68577576e-01
      1.95633441e-01 2.68577576e-01 2.68577576e-01 9.48867723e-02</_>
    <_>
      1.22904494e-01 1.64705232e-01 2.89646477e-01 2.60424882e-01
      1.68047950e-01 3.95336375e-03 4.13577408e-02 2.02522352e-02
      3.78324986e-02 1.67913303e-01 2.89646477e-01 2.89646477e-01
      1.76029399e-01 3.85976546e-02 2.89112242e-04 1.34124961e-02
      1.01971002e-02 1.24239206e-01 5.48496097e-02 1.43981516e-01
      2.17243791e-01 2.63205439e-01 2.89646477e-01 2.51179840e-02
      5.99707365e-02 4.55539711e-02 3.78183909e-02 7.68637061e-02
      2.89646477e-01 2.89646477e-01 2.89646477e-01 1.85870245e-01
      7.53993914e-03 2.16909088e-02 2.88164560e-02 4.27815989e-02
      1.61763020e-02 3.87508906e-02 7.84984007e-02 1.67864978e-01
      3.15142334e-01 5.29962108e-02 4.31924537e-02 2.89556533e-02
      1.68578215e-02 1.20847868e-02 3.50604653e-02 3.33118558e-01
      3.42530817e-01 3.42530817e-01 1.31933549e-02 2.07882635e-02
      2.23805215e-02 1.29216108e-02 3.39897349e-02 8.17883238e-02
      1.58780023e-01 2.86130100e-01 2.69463420e-01 6.21000603e-02
      4.90961708e-02 1.39722852e-02 3.42973880e-02 9.41244513e-03
      3.23183127e-02 2.75522888e-01 3.42530817e-01 3.42530817e-01
      7.21232966e-03 8.81383289e-03 5.55863976e-03 7.33274454e-03
      4.56899628e-02 7.09659010e-02 1.38087004e-01 3.60615283e-01
      2.26426989e-01 3.62119414e-02 2.35949699e-02 9.72111896e-03
      3.27592269e-02 7.30031077e-03 2.18416173e-02 1.43611565e-01
      3.64502549e-01 3.64502549e-01 0. 4.58408351e-04 1.53192028e-04
      3.07826046e-03 5.18775769e-02 9.84961167e-02 1.01663925e-01
      3.64502549e-01 2.61324197e-01 3.61775234e-02 4.98450827e-03
      1.70272682e-02 3.74321677e-02 6.03157515e-03 2.34399829e-02
      7.09444359e-02 3.64502549e-01 3.64502549e-01 2.60870773e-02
      4.32378059e-04 4.94154010e-05 6.02561107e-04 2.56762952e-02
      9.34622735e-02 1.05315551e-01 3.16853017e-01 3.16853017e-01
      5.75717017e-02 5.99998515e-03 2.30443086e-02 3.98853049e-02
      3.34300473e-03 2.33004801e-02 5.73362000e-02 3.16853017e-01
      3.16853017e-01 1.44051060e-01 7.13693304e-03 8.93576129e-04
      1.92149321e-03 4.26589474e-02 6.51535541e-02 1.51839733e-01
      2.88597733e-01 3.16853017e-01 1.52764082e-01 5.15982658e-02
      1.73753332e-02 4.85716946e-02 9.40036681e-03 9.82770137e-03
      7.40317330e-02 2.80855358e-01 3.16853017e-01 3.16853017e-01
      1.31514803e-01 1.53822610e-02 1.76064465e-02 1.21510342e-01
      1.31676272e-01 1.87578931e-01 1.94214284e-01 2.72615254e-01
      2.27796510e-01 1.56707138e-01 2.36610826e-02 1.12119049e-01
      4.09521237e-02 2.28182767e-02 7.83700421e-02 1.41667709e-01
      2.72615254e-01 2.72615254e-01 2.72615254e-01 9.54225957e-02
      5.65084219e-02 1.35134086e-01 1.00542858e-01 1.03273630e-01
      1.30281791e-01 2.72615254e-01 8.41176957e-02 1.16111979e-01
      5.32737635e-02 1.37384221e-01 1.07885428e-01 2.84428019e-02
      4.51869629e-02 1.00382827e-02 2.72615254e-01 2.54605144e-01
      2.72615254e-01 1.90770715e-01 1.66311562e-01</_>
    <_>
      1.21650048e-01 7.77332336e-02 1.51244983e-01 1.80897176e-01
      2.26216272e-01 2.55012028e-02 5.60356975e-02 4.23085764e-02
      3.91528085e-02 8.77964795e-02 4.02275547e-02 3.42638761e-01
      3.42638761e-01 1.52163789e-01 2.37811040e-02 5.41181937e-02
      5.57048470e-02 9.98191759e-02 2.74076965e-02 1.77425779e-02
      1.40715942e-01 2.68072098e-01 3.42556864e-01 9.28442031e-02
      6.40047193e-02 2.46469565e-02 2.34492198e-02 1.81444064e-02
      2.09837314e-02 3.42638761e-01 3.42638761e-01 3.42638761e-01
      1.05666891e-02 2.40445454e-02 8.02938547e-03 1.81296244e-02
      2.16604620e-02 1.06662614e-02 5.80750667e-02 2.32143193e-01
      2.97093064e-01 9.51532200e-02 3.59530449e-02 2.64885519e-02
      2.22856458e-02 5.18091023e-03 3.36687174e-03 9.42914709e-02
      3.85640532e-01 3.85640532e-01 3.71407624e-03 4.66570025e-03
      5.89980977e-03 5.74862119e-03 2.08024047e-02 3.50316726e-02
      9.44394246e-02 2.63234019e-01 3.85640532e-01 4.29945998e-02
      1.69019680e-02 1.34019777e-02 2.25424971e-02 5.03089791e-03
      7.47312652e-03 5.52664027e-02 3.85640532e-01 3.85640532e-01
      1.18520278e-04 1.85373239e-03 2.30563106e-03 5.38601028e-03
      2.45993845e-02 7.78957829e-02 1.06732182e-01 2.32898906e-01
      3.49861085e-01 1.72312483e-02 1.27714844e-02 2.60340963e-02
      2.93918569e-02 3.31391348e-03 2.20415387e-02 4.88559194e-02
      3.88601303e-01 3.88601303e-01 4.00140043e-03 4.16193530e-03
      2.31897645e-03 3.27375135e-03 3.43639441e-02 7.75423124e-02
      1.42698228e-01 3.09666187e-01 2.27788344e-01 3.77203412e-02
      2.00029034e-02 5.61019443e-02 5.14073893e-02 4.90071205e-03
      2.69335024e-02 8.76025185e-02 3.88601303e-01 3.88601303e-01
      3.18787284e-02 3.56897083e-03 2.72300327e-03 4.41930303e-03
      3.83293442e-02 5.69006652e-02 1.46432251e-01 3.30569476e-01
      2.24712312e-01 7.93172345e-02 7.05612153e-02 7.83948824e-02
      5.12492880e-02 1.10000269e-02 2.32235175e-02 1.09651864e-01
      3.30569476e-01 3.30569476e-01 1.68638021e-01 2.58540250e-02
      3.56619922e-03 1.14549436e-02 3.54085900e-02 3.84930521e-02
      8.44164044e-02 2.05741256e-01 2.38628358e-01 2.45770156e-01
      1.56431466e-01 6.67428821e-02 3.32823470e-02 1.39272287e-02
      1.65806580e-02 7.03491718e-02 3.01584601e-01 3.30569476e-01
      3.30569476e-01 1.23974264e-01 7.60093471e-03 1.80176124e-02
      4.74282354e-02 1.78447273e-02 1.10721335e-01 1.17384672e-01
      2.80988187e-01 2.78388858e-01 2.16507748e-01 9.75638255e-02
      5.30973710e-02 2.03083158e-02 8.30308162e-03 1.26740798e-01
      1.74183846e-01 2.94742018e-01 2.94742018e-01 2.00417399e-01
      1.50737027e-02 2.38340646e-02 5.24277277e-02 9.86474659e-03
      1.06160097e-01 8.52582306e-02 2.94742018e-01 1.97442636e-01
      2.71332234e-01 1.29372582e-01 6.16711378e-02 3.01884357e-02
      3.97714088e-03 1.28358856e-01 1.38613313e-01 2.94742018e-01
      2.67563879e-01 2.26739809e-01 4.82036062e-02 3.11413873e-02</_>
    <_>
      1.00157343e-01 1.07152499e-01 1.64301142e-01 2.59392589e-01
      2.57674247e-01 5.67380302e-02 1.10957883e-02 8.52271635e-03
      7.37235248e-02 7.89315328e-02 8.88582915e-02 3.21771741e-01
      3.21771741e-01 1.43234581e-01 7.52238333e-02 5.59949167e-02
      5.11181988e-02 1.12496957e-01 1.19664185e-02 2.51896530e-02
      8.89242291e-02 3.21771741e-01 3.21771741e-01 1.02442093e-01
      4.33489261e-03 0. 1.46646108e-02 1.39679620e-02 2.37531364e-02
      3.21771741e-01 3.21771741e-01 3.21771741e-01 4.33322974e-02
      8.22123140e-03 0. 1.27962623e-02 8.80559068e-03 3.60512000e-04
      5.72539270e-02 3.23785871e-01 3.39680672e-01 1.10845029e-01
      5.82430570e-04 0. 8.59746058e-03 1.94471842e-03 6.93100992e-06
      6.82928413e-02 3.48728985e-01 3.48728985e-01 5.23665594e-03
      1.06016869e-05 0. 1.94471842e-03 1.57674309e-02 1.11170323e-03
      1.21695317e-01 3.48728985e-01 3.48728985e-01 9.13792327e-02
      9.54177172e-04 0. 1.48655297e-02 2.45883036e-03 0. 4.82957996e-02
      3.48728985e-01 3.48728985e-01 1.52440500e-02 2.44048773e-04 0.
      2.45883036e-03 1.05743604e-02 4.23191988e-04 5.79675920e-02
      2.60273516e-01 3.59836489e-01 1.57366052e-01 1.14873489e-02
      2.21313303e-03 1.02310339e-02 1.49584573e-03 0. 1.18895173e-02
      3.59836489e-01 3.59836489e-01 1.30036220e-01 1.53908844e-03
      5.10722981e-04 1.49584573e-03 1.77462045e-02 1.11607118e-02
      6.12255782e-02 1.80970013e-01 3.59836489e-01 2.77604669e-01
      4.63697724e-02 9.26998258e-03 7.48389866e-03 1.80343119e-03
      1.61622209e-03 2.20677517e-02 2.81532079e-01 3.59836489e-01
      1.99148461e-01 2.17024051e-03 1.12359051e-03 1.11927744e-03
      4.01512645e-02 5.26063442e-02 1.77100033e-01 3.03464174e-01
      3.25851440e-01 1.71075299e-01 5.73918112e-02 3.43393832e-02
      1.04879942e-02 4.03174013e-03 8.26770347e-03 6.82355538e-02
      3.25851440e-01 3.25851440e-01 1.58796787e-01 6.02561235e-03
      3.51262599e-04 1.57496112e-03 6.32048175e-02 8.02600384e-02
      1.48810744e-01 2.32917830e-01 2.89917290e-01 1.07998326e-01
      6.68036118e-02 7.04630613e-02 5.19261323e-02 1.14140818e-02
      2.09852383e-02 6.51411042e-02 2.58267641e-01 3.25851440e-01
      3.25851440e-01 8.90568942e-02 1.54795370e-03 6.82858098e-03
      1.32106841e-01 1.17131189e-01 1.59526378e-01 1.26371101e-01
      2.76357502e-01 1.62638590e-01 1.22748777e-01 1.05127908e-01
      1.41400069e-01 3.88510562e-02 5.59661910e-02 1.18832752e-01
      1.43600464e-01 2.85072535e-01 2.85072535e-01 2.71376640e-01
      6.62704371e-03 3.28097194e-02 1.49858579e-01 8.81803930e-02
      1.65387020e-01 1.07716974e-02 1.28194854e-01 5.37320599e-02
      2.29430184e-01 1.67329416e-01 1.73087060e-01 7.03696460e-02
      1.07197173e-01 2.85072535e-01 1.74553812e-01 2.85072535e-01
      2.85072535e-01 1.28279224e-01 1.75355952e-02 6.20226264e-02</_>
    <_>
      1.03908889e-01 1.10858515e-01 2.15506196e-01 1.88833594e-01
      1.82093531e-01 6.10700473e-02 1.47295035e-02 1.82710066e-02
      8.82578120e-02 8.01426843e-02 1.26520857e-01 3.26177984e-01
      3.06481957e-01 1.15628913e-01 1.17788324e-02 7.34816864e-02
      7.11349174e-02 9.96919498e-02 1.59752015e-02 9.89383087e-02
      2.69812703e-01 3.26177984e-01 3.26177984e-01 9.84509289e-02
      5.67103596e-03 2.73047457e-03 1.69602744e-02 1.37516074e-02
      1.04307294e-01 3.26177984e-01 3.26177984e-01 2.44951144e-01
      7.00094970e-03 3.90048535e-06 1.82031654e-04 1.06909787e-02
      5.62041532e-03 1.64963305e-02 5.77156059e-02 3.01437795e-01
      3.40700477e-01 1.45235315e-01 9.66932159e-03 4.29615378e-04
      6.01526257e-03 2.42857146e-03 1.17459195e-02 1.61771074e-01
      3.40700477e-01 3.40700477e-01 1.57815740e-02 1.39364993e-05
      1.96404417e-05 2.40662368e-03 7.00139441e-03 7.11322762e-03
      1.84620060e-02 3.40700477e-01 3.40700477e-01 1.89334169e-01
      3.56581397e-02 2.88778497e-03 7.00139441e-03 2.69380189e-03
      4.91233170e-03 5.87514304e-02 3.40700477e-01 3.40700477e-01
      2.56977789e-02 8.14258383e-05 7.01040408e-05 2.58399639e-03
      1.18326433e-02 1.69926640e-02 2.03210395e-02 3.00978720e-01
      3.54946673e-01 1.07236952e-01 3.07257995e-02 5.86578064e-03
      9.09672398e-03 1.48817163e-03 2.89230468e-03 2.08172016e-02
      3.54946673e-01 3.54946673e-01 2.75785010e-02 3.39017279e-04
      1.80943869e-04 1.44981535e-03 1.96994711e-02 2.63871513e-02
      3.92330922e-02 3.54946673e-01 3.54946673e-01 1.03728078e-01
      1.36168832e-02 1.22880265e-02 1.42482379e-02 8.81984073e-04
      1.86506554e-03 7.58535042e-03 3.44349742e-01 3.54946673e-01
      5.26426546e-02 4.57515620e-04 8.22471993e-05 8.81984073e-04
      9.08577070e-03 1.00736991e-02 4.48747762e-02 3.46457601e-01
      3.48937154e-01 1.83049291e-01 4.11237106e-02 1.25306351e-02
      7.19917333e-03 1.11972890e-03 8.85036367e-04 6.39151363e-03
      2.42849261e-01 3.48937154e-01 1.64149180e-01 1.69061113e-03
      5.69186122e-05 1.07520493e-03 3.62027138e-02 4.99640331e-02
      8.90703723e-02 3.24132591e-01 3.48937154e-01 1.52308777e-01
      9.09427553e-02 3.83395739e-02 4.14505508e-03 7.78036984e-03
      5.47911040e-03 1.27407871e-02 1.86723337e-01 3.48937154e-01
      2.83564031e-01 2.36014090e-02 5.16330730e-03 3.28963739e-03
      8.50451291e-02 1.19040616e-01 1.05380610e-01 3.03976834e-01
      3.03976834e-01 2.28336141e-01 1.33392230e-01 8.61097425e-02
      2.93641780e-02 1.77899823e-02 1.41388960e-02 2.22711843e-02
      1.78759724e-01 3.03976834e-01 3.03976834e-01 1.42489299e-01
      1.55688180e-02 8.47694650e-03 4.63625118e-02 4.73931991e-02
      1.00081623e-01 1.43404484e-01 3.03976834e-01 1.86482266e-01
      1.28562227e-01 5.66391833e-02 4.82779741e-02 1.31315226e-02
      7.47323735e-03 5.12489602e-02 9.50858295e-02 3.03976834e-01
