<?xml version="1.0"?>
<opencv_storage>
<opencv_ml_svm>
  <format>3</format>
  <svmType>C_SVC</svmType>
  <kernel>
    <type>LINEAR</type></kernel>
  <C>1.</C>
  <term_criteria><epsilon>1.0000000000000000e-03</epsilon></term_criteria>
  <var_count>900</var_count>
  <class_count>2</class_count>
  <class_labels type_id="opencv-matrix">
    <rows>2</rows>
    <cols>1</cols>
    <dt>i</dt>
    <data>
      0 1</data></class_labels>
  <sv_total>1</sv_total>
  <support_vectors>
    <_>
      4.77270007e-01 5.19459307e-01 1.36304528e-01 -9.17887092e-02
      2.13836461e-01 9.11115929e-02 -2.68878192e-02 1.37733713e-01
      5.96050739e-01 2.31673717e-01 3.41085732e-01 1.69050694e-01
      -7.34540969e-02 -7.48216808e-01 -7.93289781e-01 3.85555983e-01
      -4.19599600e-02 2.85367846e-01 -7.71097839e-02 -3.30918119e-03
      -7.56516606e-02 -3.41386162e-02 9.04635862e-02 1.53880879e-01
      1.00925833e-01 2.46980488e-01 2.24150807e-01 1.29929394e-01
      1.70428932e-01 1.67394370e-01 1.54271007e-01 -1.99199587e-01
      -7.80932046e-03 -1.67460844e-01 -6.80355728e-02 3.06326617e-02
      -2.69059092e-01 -1.38136521e-01 -1.37809575e-01 -2.21453294e-01
      -3.05105060e-01 -3.83273274e-01 -9.30922851e-02 -5.61104298e-01
      -2.68716484e-01 -9.56317931e-02 -4.36774865e-02 1.40131146e-01
      5.93124814e-02 9.52802673e-02 1.59402654e-01 -5.02356231e-01
      -5.11079490e-01 -1.67129263e-01 1.56564131e-01 -1.36553096e-02
      9.68911648e-02 1.58198416e-01 -8.81034881e-02 -1.03016339e-01
      -3.00221413e-01 -4.79057133e-01 -3.19657803e-01 3.07178020e-01
      6.00451529e-02 3.71290118e-01 2.13716477e-01 6.50635287e-02
      1.22672990e-02 -2.90512979e-01 -4.31004941e-01 -2.14383453e-01
      -2.49267578e-01 -8.80250856e-02 -2.20265448e-01 -1.63518548e-01
      -4.28431183e-01 -1.64539784e-01 -7.51712620e-02 -2.38223314e-01
      -7.65639395e-02 9.74864736e-02 2.15734571e-01 2.57970095e-01
      6.44620927e-03 -4.80485797e-01 -1.19873792e-01 2.61506941e-02
      -1.65500566e-01 -3.31225276e-01 -2.36257184e-02 -1.89220652e-01
      7.05309808e-02 2.41793320e-01 -1.70916334e-01 -2.92151779e-01
      -3.12916726e-01 1.84212744e-01 -2.90109552e-02 -1.03660971e-01
      -2.33790614e-02 2.09060088e-01 -2.08045002e-02 4.76172045e-02
      -2.22151324e-01 2.65530765e-01 4.41853404e-01 5.41165359e-02
      1.44397840e-01 1.92867622e-01 1.39744163e-01 -2.59991765e-01
      -4.27499086e-01 1.04472339e-01 -3.66730541e-01 -8.30696803e-03
      -1.50679782e-01 6.04850948e-02 2.04854965e-01 -2.50447132e-02
      -2.77029663e-01 -1.47810861e-01 -5.37380576e-02 1.00393772e-01
      2.78147131e-01 2.13211298e-01 8.38301331e-02 2.52076566e-01
      6.42787069e-02 -6.32753849e-01 -4.15527672e-01 4.56808358e-02
      3.38456221e-02 3.28506976e-01 1.66514125e-02 1.48910955e-01
      1.88924715e-01 -9.61352140e-02 -2.72572517e-01 -1.92556784e-01
      -3.03686131e-02 3.89179885e-01 1.63768768e-01 5.48047833e-02
      -4.86041382e-02 4.25065279e-01 3.71664375e-01 -1.24209702e-01
      -2.36047650e-04 -7.85159171e-02 -3.74878824e-01 1.72119230e-01
      1.25628322e-01 2.13384151e-01 3.31981868e-01 1.37335882e-01
      -1.40054211e-01 -2.66869575e-01 -1.40113179e-02 -5.62756397e-02
      3.07363302e-01 6.92652613e-02 -6.33958057e-02 1.62226051e-01
      1.77750215e-01 3.46288905e-02 -2.98207194e-01 2.21645590e-02
      1.20084070e-01 3.78991589e-02 6.42956141e-03 3.54523361e-01
      1.52356103e-01 -1.59585699e-01 -7.54682869e-02 -7.59090707e-02
      -9.03738514e-02 -1.76641107e-01 2.21741930e-01 1.09200448e-01
      -1.77864417e-01 -1.37726754e-01 -4.88221228e-01 -2.77801156e-01
      2.00272933e-01 -5.44497073e-02 -5.37023097e-02 -3.87125239e-02
      -1.42000303e-01 2.19681635e-01 2.14212358e-01 1.20843440e-01
      -5.00809848e-02 -1.71528816e-01 -1.74221396e-01 -1.27250925e-01
      4.61876132e-02 6.84006438e-02 -1.02336556e-01 3.33678834e-02
      -3.27271104e-01 -5.54074980e-02 3.04138809e-01 3.74647193e-02
      -2.84167171e-01 -1.58627644e-01 -1.53780714e-01 3.47242832e-01
      1.52010456e-01 2.89910406e-01 -1.48832183e-02 4.65060137e-02
      3.84161621e-01 8.70361328e-02 1.33515075e-01 2.04592168e-01
      3.96429896e-01 1.26793638e-01 3.43167111e-02 -4.75435741e-02
      -1.50583595e-01 -2.41186425e-01 -1.35108396e-01 5.99777661e-02
      1.70210138e-01 7.75216753e-03 -1.11217767e-01 4.79891570e-03
      -3.11514139e-01 1.46405147e-02 -1.46375775e-01 -4.49068844e-01
      -1.70803383e-01 -8.94041136e-02 3.22814196e-01 -7.26357922e-02
      7.99842253e-02 4.90090959e-02 -2.63389736e-01 -3.17739211e-02
      -7.23431185e-02 3.65785956e-02 9.91644412e-02 -1.92822009e-01
      -2.21138641e-01 -1.80616960e-01 -1.68077543e-01 -6.39582947e-02
      7.35371932e-02 -3.54371011e-01 -2.99217939e-01 -1.96905375e-01
      -1.43010244e-01 -8.66668597e-02 -3.41453284e-01 -2.01278239e-01
      2.52290726e-01 -4.07946348e-01 -1.73060581e-01 1.55249551e-01
      -1.04253568e-01 1.59640014e-01 1.82099685e-01 1.46268338e-01
      -2.44645551e-01 -2.71405190e-01 5.65557815e-02 1.68109283e-01
      3.67109239e-01 1.91633180e-01 -2.57350385e-01 -3.00878454e-02
      -2.35370606e-01 -1.92117259e-01 1.24100916e-01 1.13510294e-02
      -2.89832890e-01 9.36310086e-03 -2.54152298e-01 6.83434680e-02
      1.60908014e-01 -1.21273838e-01 -5.31811059e-01 -2.19376937e-01
      2.52801299e-01 1.27083242e-01 1.31808847e-01 -6.94729462e-02
      -3.82569320e-02 1.21131018e-01 3.84951942e-02 -5.84610701e-01
      -2.81961173e-01 2.48434931e-01 -6.71780109e-02 1.31614253e-01
      1.57575056e-01 -2.86378041e-02 1.93342403e-01 9.50790718e-02
      -1.75434560e-01 -2.19909027e-01 1.83744028e-01 5.49299754e-02
      -8.98569301e-02 5.59358113e-02 -3.34004015e-02 3.64359021e-02
      1.25281855e-01 -7.42496789e-01 -1.78988669e-02 -6.84147105e-02
      -1.18369870e-01 -9.50925052e-02 -5.48660057e-04 -2.37811863e-01
      -3.01039740e-02 1.07601643e-01 -3.13894719e-01 7.42312521e-02
      -1.51042044e-02 -1.01215757e-01 -2.99108267e-01 -3.35139990e-01
      3.24771069e-02 1.07733376e-01 2.50849009e-01 1.32427335e-01
      3.15732926e-01 1.42265096e-01 2.14531105e-02 -1.59945190e-01
      -1.54289110e-02 2.44351000e-01 -2.44538873e-01 -2.80724540e-02
      4.77084443e-02 3.97558153e-01 -5.15682362e-02 -4.03682962e-02
      2.50850141e-01 7.82448947e-02 -1.54045925e-01 -2.32065499e-01
      -2.37885728e-01 1.49890095e-01 3.76708835e-01 2.02946916e-01
      1.82750240e-01 -1.60365134e-01 -1.26865253e-01 3.47778164e-02
      -2.61698365e-01 -1.68192402e-01 9.58300307e-02 1.75929472e-01
      -1.80036034e-02 2.47423351e-01 1.53196111e-01 -2.61912700e-02
      -6.00331202e-02 3.25395055e-02 -1.58323795e-01 -4.27281678e-01
      3.04056443e-02 -1.64636031e-01 -9.06151533e-02 -4.18228954e-02
      2.09650733e-02 8.88995528e-02 -2.80765235e-01 -3.84094082e-02
      -3.09898794e-01 2.29134023e-01 3.76304090e-01 7.48033151e-02
      1.46253899e-01 1.69491544e-01 -2.28402808e-01 -9.18973163e-02
      -6.02157600e-03 -3.55420023e-01 -1.44149095e-01 -3.03846121e-01
      -1.31209671e-01 -1.04525618e-01 5.96180409e-02 -1.20302513e-01
      -2.20286593e-01 3.34433578e-02 -4.56841201e-01 2.57053107e-01
      -9.27287191e-02 1.10586464e-01 1.91006497e-01 7.29418127e-03
      1.50343478e-01 -2.19526872e-01 -6.35794848e-02 -2.18154922e-01
      2.91512758e-02 -7.22335353e-02 1.71425447e-01 -3.08076888e-02
      3.06800455e-02 -2.47445762e-01 -3.46006542e-01 -2.19340771e-01
      -1.19208954e-01 1.03011474e-01 6.42789379e-02 1.75286397e-01
      -3.63943905e-01 -3.17888856e-01 1.59110248e-04 -1.34494767e-01
      4.29904163e-02 -2.13454410e-01 1.14731729e-01 -3.31398189e-01
      5.08871116e-02 2.03628585e-01 2.01114908e-01 -3.08421195e-01
      -3.84076327e-01 -4.45713140e-02 -1.37599587e-01 1.32149249e-01
      6.30601346e-02 1.97891146e-01 -1.47050157e-01 -1.17857315e-01
      -2.47553751e-01 -2.40978390e-01 -4.90997434e-02 -5.25985807e-02
      3.14523011e-01 -2.29308382e-01 -1.36339925e-02 -1.37738749e-01
      -8.67595822e-02 1.42198782e-02 -1.13679312e-01 -7.44794011e-02
      -5.59569180e-01 2.53593326e-01 5.39316610e-02 1.99757650e-01
      1.18414566e-01 1.06250895e-02 -2.61755913e-01 -1.88647404e-01
      -5.91706522e-02 -1.66251227e-01 1.83388987e-03 -2.21980572e-01
      3.44881192e-02 -2.25292206e-01 -2.96233654e-01 5.27557693e-02
      -1.96565479e-01 -3.67339075e-01 -6.26724362e-01 -1.02118880e-01
      2.04653576e-01 3.56715351e-01 2.60725081e-01 4.13170680e-02
      -1.00137524e-01 -2.39571676e-01 -6.07309081e-02 -7.10232854e-01
      4.29756373e-01 -1.16867147e-01 1.14455737e-01 -2.06052378e-01
      -1.69396833e-01 -1.77891091e-01 -3.80045742e-01 -1.87075198e-01
      -2.89484113e-01 1.25967175e-01 -9.96727794e-02 -1.88380584e-01
      -3.91528130e-01 -3.22548985e-01 4.95160967e-02 -1.97632372e-01
      -9.23918113e-02 -3.57115775e-01 1.28531292e-01 1.28339157e-01
      1.93937048e-01 -7.86757097e-02 -1.14153303e-01 -9.73990336e-02
      -2.67150819e-01 -3.05356592e-01 -2.24368513e-01 2.60547876e-01
      1.37837783e-01 -2.36388087e-01 -4.10169363e-01 -1.90148309e-01
      -2.86040992e-01 -5.28017342e-01 -1.64773762e-01 5.29956520e-02
      3.95087212e-01 6.70243874e-02 8.58108774e-02 -3.74868810e-02
      -2.19690427e-01 -1.52575463e-01 -3.13088924e-01 1.03894800e-01
      2.94158965e-01 -5.38801216e-02 -2.25947425e-01 1.93721458e-01
      9.55034643e-02 -2.93593649e-02 -1.62307262e-01 -9.29069594e-02
      -1.75351158e-01 -4.62734215e-02 3.95177603e-01 4.98671055e-01
      1.95536628e-01 -6.79321736e-02 -8.98719430e-02 1.36602640e-01
      9.86817181e-02 1.04237176e-01 3.51393111e-02 1.82424542e-02
      -1.99940741e-01 3.98578435e-01 2.05803022e-01 1.61061868e-01
      -2.87759304e-01 -1.02186501e-01 9.90556031e-02 -3.23804289e-01
      -6.77740350e-02 -2.53969312e-01 -9.90770571e-03 4.22323011e-02
      -1.49917945e-01 -1.20924979e-01 -1.97031289e-01 -8.31196755e-02
      -3.12149435e-01 3.11732799e-01 2.67574728e-01 3.04556012e-01
      2.60659516e-01 -7.20760152e-02 -2.69471794e-01 -1.23520300e-01
      4.96337675e-02 -3.75901133e-01 1.42628744e-01 -3.07360679e-01
      -3.56155127e-01 1.24925477e-02 -2.68968403e-01 -6.54418916e-02
      -2.50175178e-01 -9.34138075e-02 -5.43432295e-01 2.24108890e-01
      1.43062696e-01 8.08860883e-02 6.98578893e-04 -1.25515878e-01
      6.18947856e-02 -8.98525789e-02 1.30728111e-02 -8.66430923e-02
      1.07356042e-01 6.17834553e-02 -8.24624896e-02 1.41270578e-01
      -7.05659110e-03 -1.77634209e-01 -2.65068114e-01 -1.67507648e-01
      4.60951589e-02 -1.44130364e-01 -1.04230493e-02 -1.98313266e-01
      -1.75638065e-01 -2.25008681e-01 1.89110428e-01 3.36830132e-02
      4.41410542e-02 -1.52771994e-01 6.04552701e-02 -1.91511378e-01
      -2.61586815e-01 -1.42099813e-01 -2.50094771e-01 -2.10099578e-01
      -1.97389483e-01 -6.01979010e-02 -1.89577281e-01 -2.28220776e-01
      -1.66986719e-01 -2.34868273e-01 -4.11400706e-01 -3.78209293e-01
      -6.01474941e-02 6.04076497e-02 -4.34899405e-02 1.18246540e-01
      1.08166099e-01 -2.53501385e-01 -2.64088213e-01 -1.83469683e-01
      -7.56932497e-02 2.02843532e-01 2.54214257e-01 -1.76365092e-01
      -1.15863509e-01 -1.41516253e-01 2.45418504e-01 1.83237210e-01
      2.41230115e-01 2.96196103e-01 -2.80694544e-01 1.94810946e-02
      -3.61927122e-01 -1.75947458e-01 1.85036629e-01 -2.20666707e-01
      -5.55891752e-01 -4.75982726e-01 -2.39674017e-01 -5.94668090e-02
      -4.54680957e-02 -2.18703672e-01 -1.79448426e-02 -2.36528963e-01
      -2.65844077e-01 -7.65530691e-02 -6.07748404e-02 -4.49100174e-02
      -1.41309500e-02 -2.35796385e-02 4.29878104e-03 -1.64824158e-01
      -1.45567864e-01 1.35487035e-01 8.06796998e-02 -9.75873247e-02
      -2.99086273e-02 3.02692465e-02 -5.34290671e-02 -8.17638487e-02
      -2.61017680e-01 -2.78697610e-02 -2.39791702e-02 -7.91156664e-02
      -2.17605948e-01 -1.03472322e-01 -2.28442758e-01 -2.30504498e-01
      -5.75526841e-02 2.82649189e-01 -1.76098272e-01 4.01329100e-02
      -5.77578768e-02 5.60134463e-02 -1.44668087e-01 -1.44051820e-01
      -1.34749487e-01 3.13003868e-01 2.16826075e-03 3.03199273e-02
      -7.46542439e-02 -1.34023368e-01 -1.21652760e-01 -1.19395733e-01
      -5.15151769e-02 3.84888537e-02 -2.03360870e-01 -1.27620101e-01
      -1.15487635e-01 3.18695545e-01 1.88243657e-01 1.16506638e-02
      -1.67676389e-01 -5.53081445e-02 2.01234534e-01 5.87961152e-02
      -3.39980610e-02 -7.32285380e-02 -1.24124281e-01 2.12384649e-02
      -1.93221122e-01 -9.77642089e-02 2.56664962e-01 2.24540368e-01
      3.09903264e-01 -1.09965168e-01 -5.22623733e-02 1.83063343e-01
      1.46325424e-01 3.18860799e-01 1.87633470e-01 1.82481140e-01
      2.68246591e-01 1.41946644e-01 -1.62003320e-02 2.85316169e-01
      2.93683469e-01 -1.34942204e-01 3.37492898e-02 8.11286569e-02
      -1.84929252e-01 -9.55325663e-02 3.10073972e-01 1.95167199e-01
      6.22027516e-01 -1.60677865e-01 -7.34602928e-01 -1.21478282e-01
      -2.22263336e-01 3.86550948e-02 -1.78426161e-01 -9.13893878e-02
      -1.66609660e-01 1.00648873e-01 2.25637525e-01 1.57140180e-01
      3.01665038e-01 2.51394480e-01 1.76555384e-02 3.92063633e-02
      3.41518521e-01 2.80210264e-02 3.51726651e-01 -2.52527833e-01
      6.00829050e-02 3.25272888e-01 -2.54089478e-02 1.79793775e-01
      4.74963225e-02 -8.62747580e-02 -1.35178551e-01 -2.66720474e-01
      -3.92078578e-01 5.28584421e-01 7.63393581e-01 4.87074018e-01
      3.87202710e-01 3.28683525e-01 1.63821936e-01 2.14975044e-01
      -1.37823164e-01 1.30126059e-01 -1.08605944e-01 1.01659040e-03
      1.30080611e-01 1.60170034e-01 1.91177890e-01 2.88202614e-01
      1.42310485e-01 -6.39029369e-02 2.88300097e-01 1.40262812e-01
      -1.37105286e-01 -7.19780400e-02 2.95546710e-01 1.07236050e-01
      -4.88368906e-02 -3.73594373e-01 -6.45993948e-01 -6.75292253e-01
      -8.80230144e-02 3.78421545e-01 4.21117395e-01 1.57449007e-01
      2.20498830e-01 4.37533818e-02 -2.55268335e-01 -2.57301599e-01
      -2.81310052e-01 1.76983982e-01 1.41577095e-01 1.77223161e-01
      -1.27474025e-01 -3.67126204e-02 -2.87783355e-01 -5.71323991e-01
      -3.88599008e-01 3.87201123e-02 -1.97930844e-03 -3.48558396e-01
      -2.68739551e-01 5.57498708e-02 -1.59590528e-03 -9.10112783e-02
      -3.87652457e-01 -2.15498000e-01 -3.36477272e-02 -1.31321847e-01
      -1.31479740e-01 1.59750551e-01 7.86284078e-03 7.59421736e-02
      3.23294476e-02 -6.69766784e-01 -5.32747447e-01 -3.16752434e-01
      -1.92032263e-01 -5.48652820e-02 -3.01259428e-01 2.82188803e-01
      4.37361866e-01 4.66136694e-01 8.28987658e-02 -2.61154026e-01
      -5.71709238e-02 -2.74219692e-01 -2.97592938e-01 1.13276482e-01
      -1.67375147e-01 -1.86077327e-01 1.92344978e-01 2.11697724e-02
      2.65932921e-02 -1.05372988e-01 -1.12397850e-01 -1.26680821e-01
      5.17777959e-03 -6.83097392e-02 5.28795607e-02 1.45334546e-02
      2.11361453e-01 2.42786005e-01 2.75940374e-02 -2.92434275e-01
      -2.65202019e-02 5.37639409e-02 -2.08567755e-04 8.66784081e-02
      1.30933180e-01 -6.68094605e-02 -1.88615844e-01 -2.58474559e-01
      7.97271542e-03 -2.43472651e-01 -6.68146908e-02 -3.69312465e-01
      -4.37803455e-02 4.03528400e-02 -1.10325657e-01 2.10352778e-01
      -5.62855564e-02 8.31976309e-02 -3.98758575e-02 1.62731633e-02
      3.37716132e-01 7.55697489e-02 3.52313727e-01 -1.56624675e-01
      2.19677433e-01 4.56783026e-02 8.10992867e-02 1.95845887e-01
      1.72967359e-01 3.91830444e-01 2.19889283e-01 1.84468985e-01
      -9.66301337e-02 -2.79396102e-02 -1.37700573e-01 4.77812029e-02
      8.03398564e-02 3.78083378e-01 4.42959182e-02 -6.63669929e-02
      1.50063977e-01 -1.75810367e-01 5.14165878e-01 1.72331184e-02
      2.72581279e-01 3.21314484e-02 5.82945198e-02 3.68602037e-01
      -9.17864889e-02 -2.29161549e-02 -3.14196557e-01 -4.04025316e-02
      5.81027344e-02 3.24923098e-01 4.08126444e-01 4.39511657e-01</_></support_vectors>
  <uncompressed_sv_total>161</uncompressed_sv_total>
  <uncompressed_support_vectors>
    <_>
      2.90957931e-02 4.65232208e-02 6.52662888e-02 3.11475962e-01
      3.11475962e-01 1.63029104e-01 6.75525889e-02 4.13870364e-02
      3.95549946e-02 3.03307269e-02 4.27916721e-02 4.05366793e-02
      2.12093040e-01 1.98679596e-01 3.11475962e-01 2.74070024e-01
      8.08902308e-02 6.79954961e-02 1.65837985e-02 3.30999703e-03
      7.74035081e-02 3.11475962e-01 3.11475962e-01 7.52204135e-02
      3.87920141e-02 2.24850327e-02 1.40892453e-02 6.58367667e-03
      7.28291692e-03 3.05784754e-02 2.83414185e-01 3.11475962e-01
      3.11475962e-01 7.32960030e-02 6.03698753e-03 6.03141636e-03
      7.30221998e-03 6.98162150e-03 2.29104664e-02 8.28049853e-02
      3.15706521e-01 3.15706521e-01 2.29600117e-01 3.69232856e-02
      1.93948653e-02 1.92111023e-02 1.90897975e-02 4.32367139e-02
      9.44575295e-02 2.30077997e-01 3.15706521e-01 2.03748420e-01
      5.46494760e-02 1.02695115e-02 1.51541168e-02 3.33758816e-02
      3.25058028e-02 1.77688584e-01 3.15706521e-01 3.15706521e-01
      1.16931178e-01 1.91411749e-02 5.55002550e-03 5.98094389e-02
      6.78216964e-02 4.49119024e-02 1.03958130e-01 3.15706521e-01
      3.15706521e-01 2.04315305e-01 1.12406701e-01 6.87056854e-02
      3.45683992e-02 3.84287164e-02 5.43882363e-02 3.89432162e-02
      9.76309180e-02 1.94086641e-01 2.97552049e-01 1.68606535e-01
      1.81876905e-02 5.03490977e-02 4.84786257e-02 1.66130453e-01
      7.45257959e-02 1.64866701e-01 2.06496879e-01 2.97552049e-01
      1.23576291e-01 1.44203352e-02 5.43184057e-02 4.37539630e-02
      3.28901634e-02 3.92336622e-02 1.12178631e-01 1.82095796e-01
      2.97552049e-01 2.97552049e-01 1.49240986e-01 8.37596692e-03
      1.04843881e-02 2.77915727e-02 5.56516685e-02 2.97552049e-01
      2.97552049e-01 2.97552049e-01 2.97552049e-01 5.22610620e-02
      2.29417589e-02 2.00083833e-02 1.05347745e-01 5.67914881e-02
      1.67528152e-01 1.98435560e-01 1.43411696e-01 3.79080288e-02
      1.44295534e-02 5.30396355e-03 2.68783537e-03 9.19438805e-03
      1.04567647e-01 3.25664759e-01 3.25664759e-01 2.72782177e-01
      2.39715222e-02 8.90532602e-03 3.83796217e-03 6.86096726e-03
      2.69145109e-02 7.29757324e-02 3.25664759e-01 3.20113331e-01
      1.69670820e-01 3.79731655e-02 5.16858790e-03 1.43573096e-03
      4.12861770e-03 2.55850703e-02 3.25664759e-01 3.25664759e-01
      3.25664759e-01 1.69121444e-01 3.18778120e-02 1.56509131e-02
      9.31806397e-04 1.07401004e-03 1.24214112e-03 5.62694296e-02
      3.47075820e-01 3.47075820e-01 1.25216886e-01 7.24799791e-03
      1.25780667e-03 1.75217334e-02 7.82089494e-03 2.61464948e-03
      1.17383124e-02 2.23970309e-01 3.47075820e-01 4.58353013e-02
      8.92670229e-02 4.56560142e-02 8.48785712e-05 6.00244501e-04
      8.73166788e-03 2.11964965e-01 3.47075820e-01 3.47075820e-01
      1.46264717e-01 2.38104928e-02 1.38280168e-02 1.62869841e-02
      1.17745688e-02 3.43371136e-03 2.69322786e-02 3.47075820e-01
      3.47075820e-01 4.76151742e-02 1.69887170e-02 2.67208964e-02
      1.03430366e-02 3.87430249e-04 7.27635920e-02 3.39703619e-01
      3.39703619e-01 8.65625963e-02 3.18773813e-03 2.91613839e-03
      9.90712363e-03 6.95243245e-03 1.56367617e-03 5.16191609e-02
      2.88331836e-01 3.39703619e-01 2.17265800e-01 1.30729191e-02
      1.48923529e-04 7.38231000e-03 8.95385724e-03 1.60250333e-04
      1.00836372e-02 2.29972854e-01 3.39703619e-01 2.84449488e-01
      1.38499960e-02 1.48923529e-04 8.79228488e-03 7.18159555e-03
      3.52550705e-04 2.96238456e-02 1.36484176e-01 3.39703619e-01
      3.39703619e-01 6.37861565e-02 3.27631802e-04 6.82613533e-03
      8.49766657e-03 1.69945136e-02 3.64864953e-02 2.10837632e-01
      3.25720370e-01 3.25720370e-01 7.98603520e-02 8.79676081e-03
      1.92804867e-03 2.61172354e-02 3.53788733e-02 1.73825808e-02
      1.02326959e-01 3.25720370e-01 3.25720370e-01 1.42455906e-01
      5.80986589e-02 4.01817262e-02 1.48734520e-03 9.44402011e-04
      2.77812500e-02 1.57143325e-01 3.25720370e-01 3.25720370e-01
      8.16130862e-02 1.29412941e-03 9.72319162e-04 4.28038323e-03
      5.95300738e-03 1.57707296e-02 1.11722603e-01 3.25720370e-01
      3.25720370e-01 1.10060990e-01 1.76371429e-02 7.76084978e-03
      2.38459203e-02 2.37385910e-02 8.95694550e-03 4.29800935e-02
      2.42805898e-01 1.65463254e-01 1.70191467e-01 2.01327741e-01
      8.98874328e-02 4.31845756e-03 5.65116294e-03 3.30851064e-03
      4.23771851e-02 3.37457508e-01 3.37457508e-01 2.62518585e-01
      1.87161043e-01 3.56834009e-02 9.05833580e-03 1.08965728e-02
      1.13118533e-02 5.57326823e-02 3.37457508e-01 3.37457508e-01
      9.29336846e-02 8.84099230e-02 2.31118873e-02 3.84174474e-03
      5.84920868e-03 8.25226959e-03 3.60715389e-02 3.37457508e-01
      3.37457508e-01 9.82459933e-02 8.75574425e-02 1.25700645e-02
      2.64841062e-03 2.93615330e-02 5.15902527e-02 8.87543485e-02
      3.22947025e-01 3.22947025e-01 1.19516678e-01 4.16065454e-02
      4.43309080e-03 3.69148515e-03 3.72326076e-02 7.76731595e-02
      2.68752038e-01 3.22947025e-01 3.22947025e-01 1.64993867e-01
      9.54476744e-02 2.78287660e-02 1.36810606e-02 3.97103913e-02
      5.67688271e-02 5.04776649e-02 3.22947025e-01 3.22947025e-01
      4.27276231e-02 3.53132002e-02 3.47158015e-02 2.02803370e-02
      5.38193025e-02 7.16781765e-02 1.00931086e-01 3.22947025e-01
      2.45958984e-01 1.31060526e-01 1.03784651e-01 6.00754134e-02
      3.88504326e-04 3.04217148e-03 1.00454725e-02 1.01597540e-01
      3.41830820e-01 3.41830820e-01 1.20584734e-01 5.75934723e-02
      1.82838570e-02 5.98775363e-03 5.48975077e-03 3.76023306e-03
      2.47890241e-02 3.41830820e-01 3.41830820e-01 2.79599819e-02
      6.43919129e-03 8.50277673e-03 2.22783699e-03 4.84911911e-03
      7.02076824e-03 1.15081720e-01 3.41830820e-01 3.30672383e-01
      8.56587514e-02 4.72126231e-02 1.18314754e-02 2.11760844e-03
      1.27735652e-03 1.34707207e-03 1.25842258e-01 3.41830820e-01
      3.41830820e-01 1.40373679e-02 3.53549048e-03 2.44252593e-03
      6.20289706e-03 6.04405577e-05 3.91339697e-03 5.53898327e-02
      3.55459303e-01 3.55459303e-01 4.25158106e-02 3.40679253e-05
      5.82670048e-03 1.95420184e-03 1.32969231e-04 1.22389980e-02
      4.08726782e-02 3.55459303e-01 3.55459303e-01 7.44952559e-02
      7.49494357e-05 1.12656876e-03 3.17649497e-03 0. 3.83052090e-03
      1.88126653e-01 3.55459303e-01 3.18559438e-01 2.80492492e-02 0.
      3.17649497e-03 1.38166314e-03 0. 1.12387529e-02 1.62870049e-01
      3.55459303e-01 2.45594293e-01 3.65470946e-02 0. 1.38166314e-03
      2.27109267e-04 2.03745745e-04 6.94248592e-03 6.87797070e-02
      3.60276312e-01 3.01189959e-01 3.72805260e-02 4.68146056e-04
      1.30925153e-04 1.98260066e-04 1.16800575e-03 8.92817136e-03
      1.39243454e-01 3.60276312e-01 3.60276312e-01 2.04070769e-02
      3.15892021e-03 1.35886658e-04 4.36477683e-04 3.15313716e-03
      6.36407407e-03 1.39640033e-01 3.60276312e-01 2.22517014e-01
      1.72214918e-02 1.59339549e-03 1.58376724e-03 0. 1.36732291e-02
      1.74028035e-02 2.82937616e-01 3.60276312e-01 2.83597767e-01
      1.30250044e-02 9.13317781e-03 5.91222197e-03 6.17095444e-04
      1.73133973e-03 5.90195833e-03 9.16360691e-02 3.75872523e-01
      3.00452262e-01 1.56299733e-02 7.70615786e-03 6.97334355e-04
      8.82476510e-04 1.66439079e-03 3.87790496e-03 4.54454310e-02
      3.75872523e-01 3.75872523e-01 1.36569794e-02 6.37451140e-03
      1.43812981e-03 0. 6.63678348e-03 1.55065386e-02 2.51736790e-01
      3.75872523e-01 1.90871328e-01 1.76072232e-02 1.38822496e-02
      6.92130812e-03 1.00589154e-04 1.38375291e-03 1.10612838e-02
      1.93303689e-01 3.75872523e-01 2.23988667e-01 1.14028361e-02
      8.66080634e-03 3.86768417e-03 1.61904078e-02 1.57233253e-02
      1.83466934e-02 4.44731116e-02 3.72181952e-01 3.72181952e-01
      1.44534213e-02 1.11165559e-02 1.87663231e-02 2.09852159e-02
      1.94503721e-02 3.38150822e-02 1.32426128e-01 3.72181952e-01
      1.60268784e-01 2.70744972e-02 2.62121838e-02 2.68897563e-02
      1.24789570e-02 5.23906201e-03 1.72607806e-02 1.46900982e-01
      3.72181952e-01 3.72181952e-01 1.05505791e-02 5.86492941e-03
      7.20740901e-03 1.82437897e-02 1.66224651e-02 6.89950958e-02
      2.12376922e-01 3.72181952e-01 2.03002080e-01 9.72155388e-03
      6.55310741e-03 1.57863721e-02 2.07115663e-03 1.72269926e-03
      1.12100430e-02 1.73169211e-01 3.93979877e-01 2.17747465e-01
      1.15189208e-02 7.95361958e-03 3.71070881e-03 6.62213366e-04
      9.21313112e-05 6.71352958e-04 1.68536529e-01 3.93979877e-01
      2.46239245e-01 1.43828546e-03 3.27637215e-04 7.00568082e-04
      3.64265172e-03 8.81481078e-03 3.62232849e-02 2.00558126e-01
      3.93979877e-01 2.54340917e-01 3.46034626e-03 6.24519307e-04
      8.73807818e-03 1.33266766e-03 9.74035298e-04 4.50893026e-03
      2.24483013e-01 3.93979877e-01 2.27085426e-01 1.39673916e-03
      4.38445422e-05 2.70389696e-03 3.53161478e-03 0. 2.90588592e-04
      1.29091457e-01 3.90013635e-01 3.07535976e-01 4.70001856e-03
      3.07832051e-05 3.53161478e-03 7.04247085e-03 0. 1.44672440e-03
      1.23416297e-01 3.90013635e-01 1.20138429e-01 1.41136749e-02
      1.33393900e-04 7.04247085e-03 9.44689102e-03 4.21287073e-03
      1.83389336e-02 3.85219716e-02 3.90013635e-01 3.90013635e-01
      5.43626100e-02 5.90164156e-04 7.37489248e-03 1.48962513e-02
      2.10824632e-03 7.29288720e-03 7.25220516e-02 3.90013635e-01
      2.79795587e-01 7.27729425e-02 3.92714934e-03 1.48962513e-02
      9.05278884e-03 6.72668545e-03 1.42124593e-02 1.82003558e-01
      3.57998610e-01 1.73240900e-01 2.03261431e-02 1.65062561e-03
      9.97529551e-03 2.88349669e-02 2.82597709e-02 6.97650984e-02
      3.04729998e-01 3.57998610e-01 2.34581798e-01 2.09743157e-02
      2.02163421e-02 3.70213985e-02 1.46494200e-02 6.21695770e-03
      2.45805588e-02 2.45726749e-01 3.57998610e-01 1.98991194e-01
      7.44611770e-02 4.45641624e-03 1.95855275e-02 6.79401085e-02
      5.49829118e-02 1.05448663e-01 3.29164088e-01 3.57998610e-01
      1.49991974e-01 4.56613339e-02 2.70404965e-02 6.30702823e-02
      2.48226207e-02 2.45463476e-02 7.02620149e-02 3.10729802e-01
      3.10729802e-01 1.87418923e-01 3.79777737e-02 7.44225606e-02
      5.35804518e-02 9.37872380e-03 1.40020410e-02 3.62384282e-02
      3.10729802e-01 3.10729802e-01 2.06578821e-01 3.37895006e-02
      5.48967682e-02 3.22719701e-02 1.59825727e-01 1.38626933e-01
      1.40464902e-01 1.94710925e-01 2.68773794e-01 6.48496747e-02
      2.60426886e-02 9.44310948e-02 1.44152731e-01 1.71619713e-01
      1.73512116e-01 1.53425187e-01 3.10729802e-01 3.10729802e-01
      6.82027116e-02 3.12357694e-02 7.11776838e-02 1.18142687e-01
      4.70817089e-03 3.32620065e-03 1.22034792e-02 2.40172043e-01
      3.04279655e-01 3.04279655e-01 7.17606246e-02 4.33248095e-02
      3.55212167e-02 1.20035140e-02 1.64713990e-02 6.38160408e-02
      2.36599132e-01 3.04279655e-01 1.85656250e-01 6.00575991e-02
      5.33232912e-02 6.37166947e-02 5.13896197e-02 7.90380761e-02
      1.21783331e-01 3.04279655e-01 3.04279655e-01 1.42301872e-01
      1.04872957e-01 5.75150512e-02 4.95710783e-02 2.68795118e-02
      3.00315879e-02 2.81357408e-01 3.04279655e-01 3.04279655e-01
      1.18219376e-01 9.81543213e-02 8.12968090e-02 7.42964819e-02
      6.95919339e-03 1.09468494e-02 5.67783862e-02 3.29663962e-01
      3.29663962e-01 1.24279849e-01 7.06487475e-03 1.13554541e-02
      3.06384806e-02 2.03547557e-03 1.36638223e-03 2.03069597e-02
      3.28255296e-01 3.29663962e-01 1.62882745e-01 2.41887476e-03
      1.51660608e-03 7.15688430e-03 9.94683523e-03 8.28381069e-03
      2.31218964e-01 3.29663962e-01 3.29663962e-01 8.06080252e-02
      1.66836344e-02 2.33587250e-02 3.36288586e-02 2.02547736e-03
      3.52598203e-04 6.99625537e-02 3.29663962e-01 3.29663962e-01
      1.18786879e-01 9.56548005e-03 3.31351277e-03 6.98013557e-03
      7.50094187e-03 7.41997315e-03 2.91532744e-02 6.07359670e-02
      2.95314670e-01 2.95314670e-01 1.85110360e-01 6.21269736e-03
      4.45684046e-03 1.18684461e-02 5.07979561e-03 2.54665036e-02
      1.81836203e-01 2.95314670e-01 2.95314670e-01 9.53328162e-02
      3.94680537e-03 8.34274106e-03 7.54866283e-03 5.75169362e-03
      1.66938230e-02 1.70084551e-01 2.95314670e-01 2.95314670e-01
      2.04943165e-01 1.30685540e-02 9.01593920e-03 2.90280152e-02
      4.75195199e-02 1.98106840e-01 2.95314670e-01 2.95314670e-01
      2.95314670e-01 1.23654202e-01 1.40597885e-02 2.71732267e-02
      1.18207615e-02 7.86431786e-03 4.76926789e-02 3.21174353e-01
      3.21174353e-01 1.20332353e-01 4.27597910e-02 5.97394211e-03
      1.63074974e-02 7.54582286e-02 1.11543879e-01 1.19842291e-01
      3.21174353e-01 3.21174353e-01 5.66275269e-02 2.83377226e-02
      1.50003508e-02 4.54780050e-02 1.68420225e-02 3.61160263e-02
      2.40438595e-01 3.21174353e-01 3.21174353e-01 7.73691386e-02
      2.28863861e-02 5.74599672e-03 1.21927224e-02 3.67857851e-02
      9.42372456e-02 1.91247657e-01 3.21174353e-01 3.21174353e-01
      1.89025775e-02 6.81189122e-03 1.19101470e-02 1.53201418e-02
      2.46906191e-01 2.46906191e-01 2.46906191e-01 1.68733537e-01
      1.23218253e-01 1.86640397e-02 1.59872826e-02 4.22095805e-02
      1.36564016e-01 2.46906191e-01 2.46906191e-01 2.46906191e-01
      2.46906191e-01 1.43483624e-01 1.95074305e-02 2.01772097e-02
      4.33104448e-02 1.64376155e-01 1.37051970e-01 2.46906191e-01
      2.46906191e-01 2.32101083e-01 1.63000509e-01 1.93245616e-02
      7.27556273e-03 4.05368470e-02 4.69317362e-02 2.46906191e-01
      2.46906191e-01 2.32831776e-01 1.07319683e-01 9.30774882e-02
      2.63894834e-02 1.98124852e-02 7.19315112e-02 1.66833431e-01
      1.51765630e-01 1.85234204e-01 2.04478338e-01 2.41579577e-01
      1.20832533e-01 3.36719677e-02 3.88896912e-02 3.88114415e-02
      1.06373042e-01 5.90394065e-02 1.85569137e-01 2.83686846e-01
      2.83686846e-01 2.20954731e-01 4.29741144e-02 3.81605327e-02
      3.59863229e-02 6.44496977e-02 2.79697120e-01 2.72655487e-01
      1.57789335e-01 4.83793840e-02 2.09704023e-02 1.90139953e-02
      2.50325054e-02 1.03726014e-01 2.37747744e-01 9.49368849e-02
      2.83686846e-01 2.83686846e-01 2.83686846e-01 1.96943790e-01
      2.57109031e-02 1.35604991e-02 5.35086319e-02 1.08011320e-01
      9.21139307e-03 4.02479023e-02 3.37833166e-01 3.37833166e-01
      3.14253539e-01 3.73301134e-02 8.91826674e-03 7.56727299e-03
      9.58977826e-03 4.82177781e-03 2.23335763e-03 5.89370541e-02
      3.37833166e-01 3.37833166e-01 4.19715159e-02 7.45994551e-03
      3.45112686e-03 4.29564901e-03 7.70093547e-03 6.92818686e-02
      2.57668763e-01 3.37833166e-01 2.49024794e-01 1.00191226e-02
      8.27079290e-04 2.62684975e-04 3.47630848e-04 1.28283799e-02
      1.76968686e-02 1.23996258e-01 3.37833166e-01 2.34620124e-01
      6.75308239e-03 1.26859359e-03 2.32056924e-03 9.27900337e-03</_>
    <_>
      1.39887258e-01 1.32834136e-01 9.18406472e-02 2.39337459e-01
      2.98602790e-01 1.42098770e-01 1.08623691e-01 5.87447248e-02
      4.96840030e-02 7.82401338e-02 4.86432090e-02 2.88959779e-02
      7.25242347e-02 2.19277844e-01 3.22279036e-01 3.19113433e-01
      9.36758518e-02 5.75081855e-02 1.66577008e-02 3.73143591e-02
      4.25719544e-02 3.22279036e-01 3.22279036e-01 1.12148657e-01
      6.21738434e-02 2.14778725e-02 1.36132278e-02 9.31491982e-03
      3.05785555e-02 2.40791291e-02 9.66153964e-02 3.22279036e-01
      3.22279036e-01 1.95100158e-01 3.31657752e-02 1.42617263e-02
      3.71723389e-03 7.14006135e-04 1.01846969e-02 1.24754213e-01
      3.47854286e-01 3.47854286e-01 1.58824265e-01 2.82431021e-02
      1.12501532e-02 2.66887117e-02 7.56964227e-03 2.47247424e-02
      9.09740925e-02 2.56036401e-01 2.21251771e-01 2.13532671e-01
      1.00574404e-01 2.91059408e-02 1.63160004e-02 1.28168771e-02
      2.68963892e-02 7.20279068e-02 3.47854286e-01 3.47854286e-01
      1.13852166e-01 1.13430908e-02 5.51729323e-03 7.14162961e-02
      3.60260643e-02 7.33827129e-02 1.12954088e-01 2.94841260e-01
      2.90878117e-01 2.35558897e-01 1.35206699e-01 2.53910404e-02
      5.39949648e-02 3.38881351e-02 8.32089931e-02 5.99283725e-02
      1.21279605e-01 1.49690807e-01 3.01595837e-01 1.65830582e-01
      5.50655276e-02 6.64731413e-02 5.91557473e-02 2.52699226e-01
      2.07385525e-01 2.01276004e-01 2.08585501e-01 1.71879694e-01
      4.82852720e-02 3.32628749e-02 5.70515059e-02 2.64806747e-02
      5.80006875e-02 6.69902638e-02 9.16706547e-02 2.85418808e-01
      3.01595837e-01 3.01595837e-01 3.59090082e-02 1.26488637e-02
      1.46888709e-02 8.22817981e-02 9.55937877e-02 3.01595837e-01
      3.01595837e-01 3.01595837e-01 1.33744076e-01 8.85288231e-03
      2.80461870e-02 1.76461749e-02 8.19165334e-02 9.54134911e-02
      1.53923333e-01 2.47948691e-01 1.20027095e-01 6.22560829e-02
      7.16084940e-03 5.55549376e-03 2.30622990e-03 1.07989227e-02
      1.06842376e-01 3.38375479e-01 3.38375479e-01 2.59269863e-01
      5.54742105e-02 1.27303344e-03 6.16813311e-03 4.43162955e-03
      3.15572098e-02 8.03799480e-02 2.64281124e-01 3.04441512e-01
      1.13101840e-01 3.85327190e-02 2.55626836e-03 1.72914553e-03
      9.25147673e-04 1.48828691e-02 2.97151953e-01 3.38375479e-01
      3.38375479e-01 2.47284651e-01 4.83787097e-02 9.96685121e-04
      2.30760383e-03 8.98048922e-04 5.80550171e-03 4.30329107e-02
      3.60920817e-01 3.60920817e-01 1.01962626e-01 1.17660118e-02
      2.94964015e-03 3.77567634e-02 1.19435992e-02 1.08525567e-02
      3.18350247e-03 2.61508793e-01 2.70413458e-01 3.47609185e-02
      6.75248429e-02 6.77751005e-02 8.33468977e-04 7.38234492e-04
      5.08738682e-03 1.51859865e-01 3.60920817e-01 3.60920817e-01
      1.47539005e-01 9.22149513e-03 6.80255471e-04 4.02628332e-02
      2.20394768e-02 1.22405076e-02 1.06906053e-02 3.60920817e-01
      3.60920817e-01 2.90189944e-02 1.21117998e-02 2.25062054e-02
      1.46389687e-02 1.48286726e-02 1.29435547e-02 3.21772665e-01
      3.21772665e-01 3.73948663e-02 4.52666217e-03 1.45248137e-02
      1.79366320e-02 4.39393613e-03 2.24975944e-02 4.55799364e-02
      2.46566981e-01 3.21772665e-01 3.21772665e-01 1.84588470e-02
      1.94218419e-02 9.45456233e-03 2.19815206e-02 2.48133484e-03
      1.16585745e-02 2.79442251e-01 3.21772665e-01 6.69445023e-02
      3.63730011e-03 1.38985338e-02 2.49531716e-02 1.12038497e-02
      2.28990950e-02 1.16733789e-01 3.21772665e-01 3.21772665e-01
      3.21772665e-01 5.56599088e-02 1.26945172e-02 1.28571708e-02
      6.99994154e-03 1.04801226e-02 5.38768396e-02 1.71380252e-01
      3.17734540e-01 3.17734540e-01 4.13596556e-02 7.77206384e-03
      1.59792800e-03 4.22341265e-02 3.25274095e-02 6.06015362e-02
      1.00649670e-01 2.80588150e-01 2.42059782e-01 9.77833048e-02
      1.08043998e-01 2.50622556e-02 7.42063159e-03 2.50366069e-02
      1.21191569e-01 3.17734540e-01 3.17734540e-01 3.17734540e-01
      9.58149731e-02 1.38716036e-02 5.06429048e-03 2.55089197e-02
      2.05128826e-02 6.13471866e-02 1.64923221e-01 3.17734540e-01
      3.17734540e-01 1.12178639e-01 9.99713391e-02 2.68494096e-02
      3.28359492e-02 1.92969423e-02 2.23767683e-02 3.80609855e-02
      8.53741467e-02 1.58572555e-01 2.53606319e-01 2.89229184e-01
      4.43374105e-02 2.71429215e-03 1.64500042e-03 2.42492114e-03
      2.51812842e-02 2.63047725e-01 2.99820751e-01 2.89875001e-01
      1.56799391e-01 1.24019412e-02 3.30296531e-02 1.70768518e-02
      2.76122913e-02 7.91730210e-02 2.99820751e-01 2.99820751e-01
      1.47987068e-01 2.86290765e-01 4.95255776e-02 8.10730830e-03
      7.49202259e-03 1.23915346e-02 4.10176441e-02 2.99820751e-01
      2.99820751e-01 1.84987068e-01 1.78866848e-01 1.61378216e-02
      6.08621165e-03 1.19485436e-02 2.64622830e-02 1.03595443e-01
      3.00924271e-01 3.00924271e-01 8.61346573e-02 1.76585373e-02
      2.42441054e-03 5.92330005e-03 1.25593944e-02 3.15011591e-02
      3.00924271e-01 3.00924271e-01 3.00924271e-01 1.67027920e-01
      3.14780585e-02 2.58443761e-03 4.55131270e-02 4.91610691e-02
      7.61440545e-02 1.16070583e-01 3.00924271e-01 3.00924271e-01
      5.32953218e-02 2.95295101e-02 2.25876141e-02 5.41838221e-02
      5.15695289e-02 8.26678053e-02 1.73516959e-01 3.00924271e-01
      3.00924271e-01 2.19084978e-01 1.06752589e-01 5.14922738e-02
      4.12901893e-04 9.58347518e-04 2.89773825e-03 1.02397107e-01
      3.40125024e-01 3.40125024e-01 1.29186183e-01 1.56034166e-02
      5.84207010e-04 9.12394095e-03 5.12509327e-03 6.44118944e-03
      1.18154408e-02 3.40125024e-01 3.40125024e-01 3.36931795e-02
      2.40558060e-03 4.29954054e-03 4.83940030e-03 3.94771434e-03
      6.80250209e-03 5.09463698e-02 3.40125024e-01 3.40125024e-01
      1.81420401e-01 6.07826449e-02 1.49455285e-02 3.11467471e-03
      7.53409695e-05 2.71863211e-03 3.47628556e-02 3.40125024e-01
      3.40125024e-01 3.79137062e-02 7.43446965e-03 3.67701030e-03
      1.04502747e-02 0. 3.29607632e-03 7.42443278e-02 3.70340765e-01
      1.72170162e-01 8.30073468e-03 8.60265549e-03 1.54142166e-02
      1.26313521e-02 2.63295174e-02 6.42794520e-02 1.86470941e-01
      3.70340765e-01 3.70340765e-01 1.04376532e-01 1.75374709e-02
      2.02578995e-02 7.32590910e-03 0. 2.91131262e-04 4.47207969e-03
      3.70340765e-01 2.79743314e-01 4.15061507e-03 6.22357568e-03
      1.10532138e-02 1.34994434e-02 9.94387642e-03 1.46803679e-02
      4.59361486e-02 3.70340765e-01 3.70340765e-01 6.78969771e-02
      1.52609218e-02 2.01159064e-02 8.52519274e-03 2.32337546e-02
      5.52599877e-02 1.12595037e-01 3.44834983e-01 3.44834983e-01
      6.40774742e-02 8.69893190e-03 6.29026163e-03 6.79175276e-03
      8.69407970e-03 3.27386595e-02 7.14759231e-02 3.44834983e-01
      3.36019337e-01 4.62001748e-02 2.25943122e-02 4.96220170e-03
      4.44765855e-03 1.16169881e-02 1.75199732e-02 9.08056647e-02
      3.44834983e-01 3.44834983e-01 4.37810495e-02 3.28212953e-03
      3.23091308e-03 1.46917033e-03 4.85949172e-03 1.53488489e-02
      1.03050910e-01 3.44834983e-01 3.44834983e-01 1.41702155e-02
      1.82948809e-03 5.93774719e-04 5.65044396e-03 3.74607043e-03
      1.26083344e-02 3.31732631e-02 3.68015379e-01 2.82990187e-01
      4.26983573e-02 5.44033125e-02 6.59269281e-03 3.24458675e-03
      3.46553791e-03 5.87312877e-03 3.16221677e-02 3.68015379e-01
      3.68015379e-01 3.95970158e-02 3.37811522e-02 3.10493587e-03 0.
      6.52099770e-05 5.06617082e-03 6.30736053e-02 3.68015379e-01
      2.84457177e-01 8.54279753e-03 2.98929540e-03 2.81267712e-04
      9.22208885e-04 1.65035564e-03 2.33988580e-03 9.30536464e-02
      3.68015379e-01 3.68015379e-01 6.75940653e-03 1.96530763e-03
      9.07542184e-04 5.00852577e-02 2.92935316e-02 3.69281135e-02
      7.05273896e-02 3.61406475e-01 3.61406475e-01 2.45520566e-02
      3.02271303e-02 3.62686887e-02 6.10425659e-02 2.88135316e-02
      3.82429473e-02 1.14412837e-01 3.61406475e-01 2.09106848e-01
      1.07134447e-01 9.70494822e-02 6.74061179e-02 1.98611505e-02
      2.26591174e-02 1.38796102e-02 1.02977209e-01 3.61406475e-01
      3.61406475e-01 1.02664698e-02 1.30846668e-02 1.60962604e-02
      2.26436350e-02 2.22270619e-02 1.76489651e-02 2.19767913e-01
      3.61406475e-01 2.20805645e-01 2.11021341e-02 2.08803248e-02
      1.99238732e-02 4.94890241e-03 1.94232562e-03 3.06706643e-03
      1.13277167e-01 4.01331663e-01 2.22201288e-01 6.68896139e-02
      3.56606282e-02 1.30740795e-02 9.03642445e-04 0. 4.86167526e-04
      9.11857113e-02 4.01331663e-01 3.07874948e-01 1.36455335e-02
      3.14974645e-03 1.27493229e-03 1.58900034e-03 1.11581245e-03
      1.67257129e-03 1.85632244e-01 4.01331663e-01 2.37596378e-01
      5.02170995e-03 2.91996216e-03 1.66282488e-03 6.75078074e-04 0. 0.
      1.46004423e-01 4.01331663e-01 2.60747761e-01 2.60256813e-04
      2.81568937e-05 6.80912461e-04 9.16694663e-03 0. 5.17230656e-04
      3.86481583e-02 4.10377026e-01 2.18226522e-01 7.23353680e-03
      2.68279249e-03 9.28535964e-03 1.86264385e-02 1.47357956e-03
      1.40921725e-02 8.07537735e-02 4.10377026e-01 3.70654523e-01
      4.47232090e-02 7.72650680e-03 1.86142642e-02 8.58619343e-03
      2.72064609e-03 8.26054625e-03 1.01796687e-01 4.10377026e-01
      1.48590595e-01 1.15837725e-02 1.07791927e-02 8.58619343e-03
      1.92116592e-02 6.76892372e-03 2.91093811e-02 1.80302501e-01
      4.10377026e-01 2.39735723e-01 3.61082479e-02 1.49689643e-02
      1.92116592e-02 2.56865867e-03 3.79200629e-03 1.32460957e-02
      1.44182175e-01 3.76693219e-01 2.83219308e-01 1.67242512e-02
      1.07387616e-03 2.24635331e-03 1.58968818e-04 6.42039860e-03
      1.11280121e-02 2.03974217e-01 3.76693219e-01 2.16011092e-01
      5.02245547e-03 1.68161030e-04 0. 5.05384197e-03 6.62406115e-03
      2.02551484e-02 2.04204217e-01 3.76693219e-01 2.59576797e-01
      1.54477721e-02 5.23399096e-03 1.25554521e-02 5.54537214e-03
      1.75139308e-02 3.06423027e-02 2.81511605e-01 3.76693219e-01
      2.15403423e-01 2.89388355e-02 1.51565745e-02 2.70385221e-02 0.
      9.77622252e-03 9.49958526e-03 1.58701941e-01 3.82417679e-01
      1.79706201e-01 4.01452649e-03 5.73501457e-04 0. 5.35396393e-05
      7.44937081e-03 6.93095988e-03 1.85973704e-01 3.82417679e-01
      2.77226955e-01 2.30871141e-03 7.49483588e-04 4.33715235e-04
      4.67488635e-03 3.48637290e-02 3.69970053e-02 2.66429693e-01
      3.82417679e-01 1.34015828e-01 2.89484970e-02 2.43893452e-02
      2.65971962e-02 2.43277824e-03 2.47348770e-02 2.52943449e-02
      3.41231436e-01 3.82417679e-01 1.71545520e-01 2.82813739e-02
      1.54327163e-02 1.09165385e-02 5.24966652e-03 1.22512244e-02
      1.56010035e-02 1.46937773e-01 3.54852498e-01 3.36744964e-01
      5.37981885e-03 4.27083904e-03 3.24481819e-03 6.75118295e-03
      1.72710493e-02 4.79518957e-02 2.60279208e-01 3.54852498e-01
      1.41523704e-01 8.48051347e-03 7.32332794e-03 2.71344720e-03
      2.28037545e-03 9.90057271e-03 2.34967899e-02 2.10097536e-01
      3.54852498e-01 3.07266831e-01 9.34095830e-02 4.25744876e-02
      1.35556264e-02 9.98350605e-03 2.14873925e-02 8.94959420e-02
      2.92127222e-01 3.54852498e-01 1.14722431e-01 8.06018189e-02
      5.10185733e-02 2.56018434e-02 7.80235627e-04 5.11860661e-03
      2.03467887e-02 1.69773161e-01 3.81041855e-01 2.16215178e-01
      3.66101367e-03 3.75996344e-03 4.40413278e-05 7.89947982e-04
      9.66936233e-04 2.86369468e-03 1.50212213e-01 3.81041855e-01
      1.96783438e-01 7.87299126e-04 8.24408780e-04 7.43108511e-04
      6.24583242e-03 1.06247300e-02 6.64245263e-02 3.53649914e-01
      3.81041855e-01 8.18241388e-02 2.55078655e-02 1.80374496e-02
      1.24290204e-02 2.29152199e-03 2.02606409e-03 2.39325706e-02
      3.29821348e-01 3.81041855e-01 1.76608235e-01 6.51558954e-03
      3.86347855e-03 3.47800436e-03 1.00199720e-02 6.14036247e-03
      1.89889148e-02 3.06195896e-02 3.41421336e-01 2.38781214e-01
      1.44772455e-02 1.92975439e-02 1.03554046e-02 1.29515082e-02
      1.19985146e-02 3.75568569e-02 1.10544600e-01 3.41421336e-01
      3.14884514e-01 3.71659659e-02 2.24839300e-02 1.33827794e-02
      1.24745341e-02 6.13913732e-03 2.81943567e-02 1.52708478e-02
      3.41421336e-01 3.41421336e-01 5.08668311e-02 1.55329313e-02
      1.39280763e-02 6.82715466e-03 1.12321740e-02 7.85436556e-02
      3.28920811e-01 3.41421336e-01 3.41421336e-01 6.00603893e-02
      2.04321742e-02 8.69599450e-03 7.78868934e-03 8.99845734e-03
      2.81006135e-02 2.17076033e-01 3.12380075e-01 3.12380075e-01
      2.30841972e-02 1.18793482e-02 1.89685877e-02 2.55305525e-02
      2.89541371e-02 5.29524907e-02 2.88668305e-01 3.12380075e-01
      2.09534362e-01 4.22033109e-02 3.54953520e-02 6.35223091e-02
      7.44631933e-03 1.03151407e-02 6.36098236e-02 3.12380075e-01
      3.12380075e-01 2.82701492e-01 2.91361753e-02 2.05131955e-02
      1.21366456e-02 5.97700365e-02 1.20086335e-01 8.23000744e-02
      3.11566472e-01 3.12380075e-01 1.07243590e-01 3.34007181e-02
      3.61413546e-02 4.88968045e-02 1.00202739e-01 9.88181457e-02
      7.76375011e-02 2.81532824e-01 2.81532824e-01 1.07025832e-01
      5.64776026e-02 7.46602416e-02 1.43698931e-01 7.65421391e-02
      1.01791523e-01 9.18628275e-02 2.81532824e-01 2.81532824e-01
      1.64597914e-01 6.25537112e-02 4.15627733e-02 6.22005872e-02
      2.81532824e-01 2.81532824e-01 1.30125374e-01 1.18517809e-01
      1.34843975e-01 1.98208988e-02 2.79940031e-02 4.17876057e-02
      1.21735029e-01 2.41571426e-01 2.81532824e-01 2.37522125e-01
      2.81532824e-01 2.17957005e-01 3.98265570e-02 2.73808688e-02
      2.67310608e-02 5.39045930e-02 7.35447090e-03 2.96438672e-02
      4.39272635e-02 2.50646472e-01 2.82734126e-01 2.82734126e-01
      1.60281256e-01 6.19802848e-02 1.18790437e-02 2.03791317e-02
      2.37379093e-02 1.28319994e-01 2.82734126e-01 2.82734126e-01
      1.55867949e-01 1.53621778e-01 7.93514550e-02 4.91290502e-02
      3.72512192e-02 1.93321139e-01 2.49186113e-01 2.21464649e-01
      1.88579172e-01 1.33207232e-01 7.31995851e-02 3.73626538e-02
      1.42494701e-02 2.24269498e-02 1.77701175e-01 2.82734126e-01
      2.82734126e-01 2.82734126e-01 1.32472321e-01 7.31400549e-02
      4.30832393e-02 3.45883705e-02 1.33490227e-02 9.06430837e-03
      1.43910587e-01 3.27278823e-01 3.27278823e-01 5.16797677e-02
      4.37365547e-02 2.82441396e-02 2.91846357e-02 3.05463257e-03
      1.13530725e-03 5.89571372e-02 3.27278823e-01 3.27278823e-01
      1.29898950e-01 1.35323303e-02 5.09959692e-03 5.90335950e-03
      8.01248942e-03 3.47965918e-02 2.69399464e-01 3.27278823e-01
      3.27278823e-01 8.38118792e-02 2.11881250e-02 1.41261891e-02
      1.34064807e-02 2.77393498e-03 4.30276245e-03 5.84912300e-02
      3.27278823e-01 3.27278823e-01 8.21409002e-02 1.06864814e-02
      2.84842867e-03 3.10823089e-03</_>
    <_>
      1.17775843e-01 1.17141128e-01 1.22116268e-01 3.14558417e-01
      3.14558417e-01 7.74848834e-02 5.06740287e-02 5.92857376e-02
      5.76762110e-02 1.02071844e-01 5.49814031e-02 4.34778035e-02
      9.12617519e-02 1.64930895e-01 3.14558417e-01 3.11772555e-01
      1.53299034e-01 8.20073485e-02 2.58983243e-02 1.98348109e-02
      6.01390339e-02 3.14558417e-01 3.14558417e-01 8.76055658e-02
      2.69195121e-02 1.68097578e-02 1.08298790e-02 2.67462842e-02
      1.93339530e-02 3.00418064e-02 1.56298801e-01 3.14558417e-01
      3.14558417e-01 1.63236558e-01 3.70006040e-02 1.01102432e-02
      9.01726168e-03 1.13789819e-03 1.19223287e-02 1.07160665e-01
      3.30444276e-01 3.30444276e-01 1.83052421e-01 5.08929975e-02
      1.58436913e-02 1.16876895e-02 1.05873719e-02 3.26055065e-02
      1.37908667e-01 2.85020649e-01 2.44692415e-01 1.21702760e-01
      2.01616138e-02 8.40693060e-03 5.75480564e-03 1.79931079e-03
      1.88614633e-02 1.15557224e-01 3.30444276e-01 3.30444276e-01
      1.05899297e-01 9.97080840e-03 3.23725794e-03 2.33059861e-02
      1.02905948e-02 5.85511327e-02 2.48321354e-01 3.30444276e-01
      3.30444276e-01 1.50719091e-01 5.09950854e-02 2.49428377e-02
      3.30990888e-02 5.33925295e-02 4.42906208e-02 6.71131909e-02
      2.04156145e-01 2.85937488e-01 3.03439200e-01 5.19338101e-02
      2.49992255e-02 4.68832888e-02 7.03361332e-02 1.26926094e-01
      1.84272274e-01 2.27138594e-01 2.33802721e-01 1.65004417e-01
      4.21803817e-02 2.91697085e-02 3.71294506e-02 2.35370360e-02
      4.54280078e-02 1.69955641e-01 1.12551190e-01 2.50294894e-01
      3.03439200e-01 2.30566278e-01 5.14320992e-02 1.56576838e-02
      2.46084351e-02 7.18815476e-02 1.38872907e-01 2.83286363e-01
      3.03439200e-01 3.03439200e-01 1.68430865e-01 1.55707709e-02
      2.27957461e-02 2.93480475e-02 6.69052005e-02 1.25095069e-01
      1.18197791e-01 2.13329479e-01 1.37253284e-01 4.22358662e-02
      2.00206917e-02 7.21700909e-03 8.96479003e-03 7.47698639e-03
      5.63843586e-02 3.39891374e-01 3.39891374e-01 3.22782576e-01
      3.78731787e-02 1.14998613e-02 7.82000273e-03 1.75150968e-02
      4.05911319e-02 1.08688876e-01 2.41446257e-01 3.39891374e-01
      1.57901168e-01 3.00430097e-02 1.06830858e-02 3.02952342e-03
      7.39820441e-03 6.37990236e-03 1.62631184e-01 3.39891374e-01
      3.39891374e-01 2.87706971e-01 1.95583161e-02 7.43394298e-03
      9.58745077e-04 6.54894917e-04 1.40873063e-03 2.73614861e-02
      3.47325116e-01 3.47325116e-01 1.22981630e-01 7.52587104e-03
      9.58745077e-04 1.58274416e-02 3.02827079e-03 4.02307231e-03
      2.15172358e-02 2.80956745e-01 3.45516533e-01 9.15029570e-02
      8.28799978e-02 2.74482705e-02 1.36451228e-04 0. 1.10587198e-03
      1.15459256e-01 3.47325116e-01 3.47325116e-01 1.53338179e-01
      1.37578556e-03 1.36451228e-04 1.42018078e-02 5.89779811e-03
      1.54009962e-03 5.34782335e-02 3.47325116e-01 3.47325116e-01
      2.81284023e-02 1.95354279e-02 2.48344913e-02 1.58047210e-02
      4.56772139e-03 3.78908813e-02 3.30890775e-01 3.30890775e-01
      4.58264984e-02 4.33261413e-03 1.58514525e-03 1.53610343e-02
      7.78066134e-03 8.65486544e-03 3.09783127e-02 2.42050901e-01
      3.30890775e-01 3.30890775e-01 2.15752404e-02 2.36095535e-03
      7.21604703e-03 1.99687835e-02 8.69612582e-03 3.04777045e-02
      3.30890775e-01 3.30890775e-01 6.33877367e-02 1.05557097e-02
      7.19026430e-03 1.81293543e-02 4.02647676e-03 1.15798078e-02
      7.00467378e-02 3.30890775e-01 3.30890775e-01 2.12175801e-01
      1.92512590e-02 1.21367034e-02 2.69068917e-03 2.84503633e-03
      1.53718039e-03 1.83665734e-02 1.55956715e-01 3.17702532e-01
      3.17702532e-01 1.50604984e-02 3.28752794e-03 2.47513154e-03
      1.37245459e-02 1.61375534e-02 3.21565680e-02 1.57585815e-01
      3.17702532e-01 3.06208372e-01 4.97610010e-02 3.83792706e-02
      2.09365040e-02 3.14962259e-03 2.15646997e-03 5.71329594e-02
      3.17702532e-01 3.17702532e-01 3.17702532e-01 1.15885800e-02
      7.13044358e-03 1.68577000e-03 1.36106592e-02 1.49876671e-02
      3.72964144e-02 1.79578990e-01 3.17702532e-01 3.17702532e-01
      2.52728239e-02 3.86502706e-02 1.77862458e-02 2.10561417e-02
      2.78326962e-02 2.81645451e-02 9.21163484e-02 1.07892133e-01
      1.23015836e-01 2.93536276e-01 1.71442375e-01 4.72743101e-02
      5.14646061e-03 5.54951373e-03 4.33709100e-03 3.21201868e-02
      2.29449421e-01 3.06031734e-01 3.06031734e-01 1.37428328e-01
      1.69376712e-02 2.31734421e-02 3.47943641e-02 4.30458896e-02
      1.02250405e-01 3.06031734e-01 3.06031734e-01 2.11336732e-01
      1.63276300e-01 6.08996786e-02 9.60703287e-03 1.21057751e-02
      1.56939402e-02 5.11070229e-02 3.06031734e-01 3.06031734e-01
      3.06031734e-01 1.41261041e-01 3.50130983e-02 1.44412660e-03
      3.35362717e-03 1.14750201e-02 6.59899116e-02 3.06191146e-01
      3.06191146e-01 1.42814294e-01 1.34712420e-02 8.97734542e-04
      1.39647920e-03 4.76840278e-03 2.09857486e-02 2.98943728e-01
      3.06191146e-01 3.06191146e-01 8.95771235e-02 2.13655550e-03
      8.74817197e-04 1.17857419e-02 1.57959256e-02 6.58881888e-02
      9.50345844e-02 3.06191146e-01 3.06191146e-01 1.29339740e-01
      1.26348315e-02 1.95156829e-03 1.64696053e-02 3.38467173e-02
      1.02825135e-01 2.64903128e-01 3.06191146e-01 3.06191146e-01
      1.04053035e-01 1.77463796e-02 4.22010245e-03 6.24340755e-05
      4.96424036e-04 4.04955260e-03 1.77191958e-01 3.40769410e-01
      3.40769410e-01 6.96548149e-02 1.83819060e-03 4.03431477e-05
      6.24703383e-03 1.84912293e-03 1.00096152e-03 3.98654006e-02
      3.40769410e-01 3.40769410e-01 2.09802743e-02 1.58951012e-03
      5.49654476e-03 1.70910510e-03 5.25734341e-03 1.23385629e-02
      1.10931449e-01 3.40769410e-01 3.40769410e-01 1.16171673e-01
      2.60282569e-02 6.21968822e-04 2.11902894e-03 2.17627487e-04
      7.37598515e-04 3.31283808e-02 3.40769410e-01 3.40769410e-01
      3.65653187e-02 1.12593481e-02 1.29794108e-03 1.29607255e-02
      1.32510019e-02 2.15540901e-02 1.20563366e-01 3.68575454e-01
      1.22441262e-01 3.51096205e-02 1.95552949e-02 7.37167010e-03
      5.84497442e-03 1.21284500e-02 5.10270149e-02 2.34187067e-01
      3.68575454e-01 3.68575454e-01 8.87024552e-02 4.51592654e-02
      1.15058909e-03 5.84698701e-03 5.67453448e-03 9.56532639e-03
      4.21554781e-02 3.68575454e-01 1.96861625e-01 6.48630559e-02
      2.30059270e-02 3.38554359e-03 6.84931502e-03 5.83094312e-03
      1.95617545e-02 7.08010420e-02 3.68575454e-01 3.68575454e-01
      1.67764783e-01 5.11528812e-02 3.53242573e-03 3.94412875e-03
      2.54409341e-03 4.01855148e-02 1.88426346e-01 3.46608877e-01
      2.74369121e-01 2.78154947e-02 8.71618558e-03 1.43521698e-03
      8.56850576e-03 5.11670811e-03 2.73602437e-02 1.13642454e-01
      3.46608877e-01 3.40977579e-01 1.77438483e-02 1.65139865e-02
      6.17345516e-03 5.66358212e-03 2.89838854e-03 1.90314893e-02
      1.00592256e-01 3.46608877e-01 3.46608877e-01 7.67881870e-02
      9.84743517e-03 1.79076008e-03 6.79355767e-03 2.86224228e-03
      1.51498588e-02 1.18168212e-01 3.46608877e-01 3.46608877e-01
      3.14978100e-02 4.85042250e-03 1.89680164e-03 4.91278898e-03
      6.94843708e-03 1.45275658e-02 3.73918824e-02 3.76378745e-01
      2.51651973e-01 5.99737614e-02 2.95551252e-02 1.66148338e-02
      1.72242627e-03 3.11531383e-03 7.39015173e-03 2.64221895e-02
      3.76378745e-01 3.76378745e-01 1.02926798e-01 2.32567322e-02
      1.15548596e-02 1.26442302e-03 5.49911289e-04 3.03466641e-03
      4.19904068e-02 3.76378745e-01 2.67436117e-01 6.75289566e-03
      1.36210793e-03 1.69644388e-03 0. 2.28221877e-04 1.07320049e-03
      4.19608988e-02 3.76378745e-01 3.61829817e-01 1.06551964e-02
      5.38771681e-04 1.12463150e-03 1.11487284e-02 1.58927497e-02
      5.23439832e-02 6.31758124e-02 3.88255745e-01 3.88255745e-01
      5.66169992e-02 1.14811109e-02 4.12818836e-03 2.02732980e-02
      4.03347425e-02 7.58302957e-02 8.30915347e-02 2.65675485e-01
      2.55526245e-01 1.20115384e-01 3.07045430e-02 9.08201467e-03
      8.20795633e-03 1.41867865e-02 1.77452806e-02 6.64325207e-02
      3.88255745e-01 3.88255745e-01 2.50177421e-02 1.37936445e-02
      3.84025765e-03 1.55421626e-02 2.74141766e-02 3.36822979e-02
      1.17749371e-01 3.88255745e-01 1.96170956e-01 7.02587739e-02
      2.47768126e-02 8.38975515e-03 2.74544815e-03 7.27442559e-03
      8.35205987e-03 6.95955530e-02 3.62440735e-01 3.06375653e-01
      1.03667632e-01 2.52649989e-02 1.35075767e-03 5.82778477e-04
      3.91021313e-05 1.30748725e-04 8.75716209e-02 3.62440735e-01
      3.62440735e-01 2.77987439e-02 9.42334067e-03 5.82778477e-04
      2.14076741e-03 4.26024804e-03 6.17300440e-03 1.58406749e-01
      3.62440735e-01 2.42391542e-01 4.01250459e-02 5.65563515e-03
      1.24295871e-03 2.64135801e-04 0. 3.58471909e-04 1.54783279e-01
      3.62440735e-01 3.33499968e-01 8.54837149e-03 7.08441483e-04
      2.64135801e-04 3.56834824e-03 0. 1.24153160e-02 4.84004281e-02
      4.04420674e-01 2.20187739e-01 4.15481776e-02 9.14566312e-03
      3.56834824e-03 4.61134128e-03 1.98155438e-04 9.65635665e-03
      5.65663688e-02 4.04420674e-01 4.04420674e-01 8.26059952e-02
      1.80987623e-02 4.21818020e-03 3.52962269e-03 3.54210410e-04
      1.35238338e-02 9.93721187e-02 4.04420674e-01 1.98735476e-01
      1.12964129e-02 7.24071288e-04 3.52962269e-03 7.20646419e-03
      4.55413392e-04 1.10569131e-02 1.30417168e-01 4.04420674e-01
      2.18036577e-01 1.99503452e-02 1.29402557e-03 7.20646419e-03
      1.50211633e-03 3.63316038e-04 1.00951851e-03 1.03559434e-01
      3.99631649e-01 2.89383978e-01 3.24416459e-02 4.01007384e-03
      7.81258859e-04 6.84728264e-04 2.82579160e-04 4.37458046e-03
      2.10541829e-01 3.99631649e-01 2.13759273e-01 1.56989377e-02
      3.52246757e-03 1.24061378e-04 2.42941245e-03 5.64606453e-04
      3.38496384e-03 1.59037143e-01 3.99631649e-01 1.73538551e-01
      6.28897408e-03 2.58008600e-03 2.35748640e-03 3.66016314e-03
      2.33736448e-03 1.77393034e-02 3.04624170e-01 3.99631649e-01
      1.49937674e-01 1.06840786e-02 1.15245497e-02 3.26027442e-03 0.
      1.17977746e-04 6.48764148e-03 1.45410672e-01 3.89630526e-01
      1.50898486e-01 2.19332264e-03 1.07536442e-03 0. 0. 1.51685657e-04
      6.06031297e-03 1.47479370e-01 3.89630526e-01 2.24342421e-01
      1.06341660e-03 0. 0. 3.86309787e-03 2.53714412e-03 4.63377014e-02
      2.92101622e-01 3.89630526e-01 8.85301381e-02 1.05850287e-02
      9.65673104e-03 3.26853315e-03 1.94316648e-03 1.97314005e-03
      5.11787906e-02 3.89630526e-01 3.89630526e-01 1.50810480e-01
      5.31309610e-03 4.54278942e-03 1.58469880e-03 7.57951336e-03
      9.78050753e-03 9.33614373e-03 1.36423007e-01 3.55447233e-01
      3.39381248e-01 5.56745473e-03 4.87064989e-03 2.87588988e-03
      1.24495029e-02 1.28477318e-02 1.81105677e-02 1.24729142e-01
      3.55447233e-01 1.44235581e-01 1.09014185e-02 6.52816379e-03
      6.27521053e-03 5.72297536e-03 5.35762217e-03 1.44929271e-02
      3.55447233e-01 3.55447233e-01 3.13010573e-01 1.13565987e-02
      8.51685181e-03 7.26949656e-03 1.26031768e-02 1.02739548e-02
      1.73167549e-02 2.60949671e-01 3.55447233e-01 1.60626993e-01
      1.59069374e-02 9.24882106e-03 1.14259869e-02 1.90531835e-03
      1.50827446e-03 5.81471715e-03 1.50881395e-01 3.71640325e-01
      2.06354737e-01 3.07114562e-03 7.00217264e-04 1.03862979e-03
      5.66402043e-04 8.52010344e-05 7.65120320e-04 1.96039110e-01
      3.71640325e-01 2.59256363e-01 2.61017150e-04 0. 4.49673331e-04
      5.45760989e-03 4.24092030e-03 1.76526029e-02 3.28610659e-01
      3.71640325e-01 9.90886018e-02 2.44076829e-03 6.70394627e-04
      1.47966004e-03 2.24484829e-03 1.27801544e-03 7.08068768e-03
      3.71640325e-01 3.71640325e-01 1.28184482e-01 1.71104053e-04 0.
      4.93918429e-04 5.56009542e-03 1.46411615e-03 8.25013593e-03
      2.89774053e-02 3.86131436e-01 2.57261753e-01 9.64894425e-03 0.
      5.56009542e-03 7.24686217e-03 1.88243517e-03 1.18583860e-02
      9.15816054e-02 3.86131436e-01 1.97501436e-01 1.25559205e-02 0.
      7.24686217e-03 1.13487244e-02 1.13875710e-03 7.28583336e-03
      5.96018322e-03 3.86131436e-01 3.86131436e-01 1.69503111e-02
      2.72389967e-04 1.13487244e-02 1.10021885e-03 1.46411615e-03
      3.04014143e-02 2.06640095e-01 3.86131436e-01 3.01235348e-01
      2.41335165e-02 4.08584950e-03 1.10021885e-03 4.66455845e-03
      3.03260749e-03 6.52985135e-03 1.41077682e-01 3.46023023e-01
      1.99523032e-01 3.26372171e-03 2.49812845e-03 4.26591467e-03
      1.38529046e-02 1.22816181e-02 3.40734385e-02 2.78081745e-01
      3.46023023e-01 1.66797757e-01 1.25968019e-02 1.79763567e-02
      1.45550184e-02 2.18417542e-03 5.95641695e-03 2.83649769e-02
      3.46023023e-01 3.46023023e-01 2.63402134e-01 4.78549767e-03
      1.98321138e-03 1.80957397e-03 3.68441828e-02 3.93119343e-02
      5.02019525e-02 3.46023023e-01 3.46023023e-01 1.84327230e-01
      1.55172236e-02 1.90304071e-02 2.69022249e-02 4.21083234e-02
      1.96330044e-02 8.88148025e-02 3.04332346e-01 3.04332346e-01
      1.12460449e-01 3.55469882e-02 4.14187945e-02 4.34626713e-02
      3.41894552e-02 2.22808346e-02 9.88175422e-02 3.04332346e-01
      3.04332346e-01 1.35436714e-01 2.52400059e-02 2.92416569e-02
      3.40269245e-02 1.83457330e-01 1.89071015e-01 8.45917836e-02
      1.87712863e-01 2.95895278e-01 7.14436397e-02 4.05816659e-02
      5.60006127e-02 9.65454951e-02 1.93107218e-01 2.89468348e-01
      1.76068515e-01 3.04332346e-01 3.04332346e-01 4.56667654e-02
      2.41899714e-02 3.95873152e-02 7.99108595e-02 1.08254347e-02
      9.28094145e-03 2.96101533e-02 2.96594054e-01 2.96594054e-01
      2.83423901e-01 6.22356050e-02 5.84751256e-02 4.22382131e-02
      1.80722866e-02 1.52787864e-02 3.84604111e-02 2.96594054e-01
      2.96594054e-01 1.85383126e-01 6.45287186e-02 6.38449639e-02
      4.49167043e-02 5.50645404e-02 1.08977333e-01 1.35336965e-01
      2.84515798e-01 2.96594054e-01 1.47871092e-01 6.94664046e-02
      7.50757307e-02 6.50685057e-02 3.05408034e-02 3.73677611e-02
      2.09322110e-01 2.96594054e-01 2.96594054e-01 1.77493006e-01
      7.81738609e-02 8.29825476e-02 5.22428378e-02 5.57186268e-03
      4.95747756e-03 5.09995073e-02 3.35491627e-01 3.35491627e-01
      5.95218875e-02 9.91318654e-03 1.37102334e-02 5.28334919e-03
      1.87378295e-03 8.24752846e-04 4.28370535e-02 3.35491627e-01
      3.35491627e-01 1.25488967e-01 3.32777482e-03 2.14825221e-03
      9.04735411e-04 1.16871316e-02 9.42923315e-03 1.70111716e-01
      3.35491627e-01 3.31896216e-01 1.08739063e-01 1.87947080e-02
      2.51975674e-02 9.96591151e-03 1.76626176e-03 0. 8.14585984e-02
      3.35491627e-01 3.35491627e-01 1.60138309e-01 1.06970537e-02
      4.08520829e-03 2.11921334e-03</_>
    <_>
      1.95392027e-01 1.88075349e-01 2.72342563e-01 2.72342563e-01
      1.72763899e-01 1.73676219e-02 1.46451369e-02 1.23942895e-02
      1.63333192e-01 2.72342563e-01 2.72342563e-01 8.56996924e-02
      2.38942821e-02 2.64753308e-02 4.17719549e-03 8.24678037e-03
      3.34892459e-02 2.72342563e-01 6.68216199e-02 6.51328415e-02
      2.72342563e-01 2.72342563e-01 2.42272794e-01 5.21819443e-02
      8.59567076e-02 1.01746738e-01 9.05846059e-02 2.35279262e-01
      2.72342563e-01 2.72342563e-01 1.62181303e-01 5.09940870e-02
      8.16604216e-03 1.62469037e-02 2.39685476e-02 8.90957415e-02
      2.67948240e-01 2.27127567e-01 1.48734869e-02 1.04380655e-03
      6.28425274e-03 7.78545113e-03 5.46115898e-02 2.10605919e-01
      2.67948240e-01 2.61426777e-01 4.76413295e-02 3.24878679e-03
      2.56491471e-02 6.22897744e-02 1.08230688e-01 1.88140407e-01
      2.67948240e-01 2.67948240e-01 2.67948240e-01 2.39547208e-01
      1.08786345e-01 1.73215847e-02 7.35761598e-03 3.52913588e-02
      1.32416829e-01 1.90535545e-01 1.80219367e-01 6.92046657e-02
      2.01139525e-02 9.33252461e-03 5.22035100e-02 1.40447646e-01
      2.67948240e-01 2.67948240e-01 2.67948240e-01 1.28713220e-01
      1.94424048e-01 3.11277863e-02 1.72176529e-02 1.10663414e-01
      2.44451091e-01 2.51872271e-01 1.63152918e-01 1.22201890e-01
      1.34101197e-01 9.73098278e-02 4.27117087e-02 4.57528308e-02
      1.02208138e-01 2.60148704e-01 2.50930637e-01 1.35877550e-01
      1.07280239e-01 1.81765348e-01 2.62864362e-02 5.18364199e-02
      4.40196469e-02 1.64286911e-01 2.60148704e-01 2.60148704e-01
      2.60148704e-01 1.05731569e-01 3.84507142e-02 1.35776848e-01
      7.89247006e-02 8.33121911e-02 2.19494686e-01 2.49909624e-01
      2.11572051e-01 1.44729212e-01 1.49160445e-01 2.60148704e-01
      8.92066658e-02 6.85294941e-02 6.14935383e-02 7.21810535e-02
      2.33909547e-01 1.35915175e-01 1.29628375e-01 1.32089943e-01
      1.97559521e-01 3.30490544e-02 7.26881027e-02 6.51490688e-02
      7.52381161e-02 2.68869668e-01 2.68869668e-01 2.30767280e-01
      1.21558607e-01 6.34867996e-02 1.55378833e-01 5.23019843e-02
      6.94669262e-02 1.53412879e-01 1.26217917e-01 5.74656799e-02
      1.07645832e-01 2.68869668e-01 2.68869668e-01 7.34944791e-02
      5.87269664e-02 8.60791802e-02 1.11268342e-01 2.68869668e-01
      2.18701422e-01 2.68869668e-01 2.68869668e-01 2.68869668e-01
      1.82336830e-02 3.60523462e-02 4.70080152e-02 8.05053189e-02
      2.57422656e-01 2.58399665e-01 1.90865070e-01 6.53660148e-02
      2.11137775e-02 2.43245587e-02 1.69232655e-02 3.18767503e-02
      1.08707912e-01 2.65104622e-01 2.65104622e-01 2.65104622e-01
      1.07609451e-01 3.62376124e-02 3.76318432e-02 3.37991193e-02
      5.65184057e-02 9.64051187e-02 2.65104622e-01 2.65104622e-01
      2.65104622e-01 1.94356471e-01 1.05475523e-01 5.33474460e-02
      1.53521895e-02 1.65641978e-02 7.59242773e-02 2.65104622e-01
      2.65104622e-01 2.65104622e-01 2.65104622e-01 1.01817176e-01
      4.98628542e-02 3.85698937e-02 3.66849989e-01 3.66849989e-01
      1.45090699e-01 2.08824016e-02 5.87148517e-02 9.62909907e-02
      5.82914501e-02 5.53027168e-02 1.51847705e-01 3.66849989e-01
      2.29671761e-01 3.57015803e-02 1.09550478e-02 1.70369111e-02
      1.26509778e-02 1.62004475e-02 2.45857164e-02 1.82832610e-02
      3.66849989e-01 3.66849989e-01 1.68969080e-01 1.80699295e-04
      9.33079235e-03 1.25688324e-02 2.28959471e-02 1.19896876e-02
      3.70617062e-02 2.86631525e-01 2.65145779e-01 1.04403667e-01
      3.51880975e-02 6.49626255e-02 1.42165478e-02 9.62521881e-03
      1.39788508e-01 1.69461355e-01 2.15000615e-01 8.97625759e-02
      5.17908186e-02 6.15795814e-02 1.34896174e-01 9.37479138e-02
      6.59294724e-02 6.33415431e-02 6.55301064e-02 4.31519784e-02
      1.10797897e-01 1.62803754e-01 3.33731800e-01 3.33731800e-01
      1.47175521e-01 5.42280152e-02 2.47159675e-02 2.66005993e-02
      1.10281691e-01 1.20009303e-01 1.11362070e-01 1.90097436e-01
      1.74067259e-01 2.12970264e-02 1.35348830e-02 5.70422933e-02
      2.12329343e-01 9.30058956e-02 2.30829924e-01 3.33731800e-01
      3.33731800e-01 3.33731800e-01 8.39809924e-02 3.46765891e-02
      1.58030596e-02 4.94769402e-02 2.52372995e-02 7.58479163e-02
      1.21428661e-01 2.86578506e-01 2.86578506e-01 2.27692109e-02
      6.43485552e-03 3.23708840e-02 4.31708880e-02 3.47609892e-02
      1.36632606e-01 2.03802153e-01 2.86578506e-01 1.85815737e-01
      5.22399433e-02 5.33223152e-02 3.84943523e-02 1.79961443e-01
      4.57862914e-02 1.52486980e-01 2.77431399e-01 2.86578506e-01
      2.86578506e-01 1.31515816e-01 5.47874123e-02 3.86373624e-02
      9.02046785e-02 2.39213444e-02 1.46571025e-01 2.86578506e-01
      2.86578506e-01 2.86578506e-01 1.36823520e-01 6.64383844e-02
      6.20424151e-02 2.89090984e-02 4.30738404e-02 1.46567628e-01
      1.95017740e-01 1.63902223e-01 1.21614240e-01 2.70964593e-01
      2.48163462e-01 8.20974931e-02 1.37985619e-02 1.97187047e-02
      2.60775406e-02 6.65794909e-02 1.30752891e-01 2.15592414e-01
      2.74155021e-01 2.74155021e-01 3.02932579e-02 3.47860977e-02
      3.61638702e-02 1.21284530e-01 2.74155021e-01 2.74155021e-01
      1.93956912e-01 2.01383919e-01 1.11877508e-01 4.08921801e-02
      1.71802882e-02 1.62056759e-02 2.83900537e-02 1.69183061e-01
      2.74155021e-01 2.04459712e-01 2.74155021e-01 2.12770402e-01
      2.87555251e-02 3.16382991e-03 9.43634473e-03 2.09324807e-02
      2.53272593e-01 3.12714934e-01 2.62957931e-01 1.84665978e-01
      1.08069047e-01 2.88024247e-02 1.70434162e-03 3.87047022e-03
      4.46242280e-02 3.12714934e-01 3.12714934e-01 2.14081317e-01
      9.50612277e-02 4.60424088e-02 1.26482220e-02 9.26025328e-04
      1.27699669e-03 9.25070141e-03 3.12714934e-01 3.12714934e-01
      1.81081787e-01 1.33326650e-01 6.13875836e-02 3.42501886e-02
      2.66649742e-02 3.40663157e-02 9.55954790e-02 3.12714934e-01
      3.12714934e-01 6.58003390e-02 2.32487302e-02 2.09730752e-02
      3.23700421e-02 1.19503289e-02 2.80843765e-01 3.89737248e-01
      3.89737248e-01 7.91708939e-03 1.31764831e-02 4.40336065e-03
      3.23700421e-02 1.61576010e-02 2.68788803e-02 1.19478233e-01
      2.50987977e-01 3.89737248e-01 4.07180749e-02 1.11033432e-01
      2.16241945e-02 1.61576010e-02 1.45650571e-02 2.43037473e-03
      1.06680114e-02 1.92967132e-01 3.89737248e-01 1.35475561e-01
      1.47505070e-03 4.92937281e-04 1.45650571e-02 2.29269788e-02
      1.16807027e-02 3.82487550e-02 4.70454581e-02 3.89737248e-01
      2.85069030e-02 2.14466266e-02 4.66458732e-03 2.29269788e-02
      2.00374611e-02 1.35598369e-02 4.78647724e-02 3.59815434e-02
      1.25773817e-01 2.87489146e-01 2.67550528e-01 2.24018525e-02
      1.86163615e-02 3.75521593e-02 1.28805056e-01 5.61063699e-02
      1.67748734e-01 3.35549444e-01 3.35549444e-01 3.35549444e-01
      1.34474441e-01 4.26476076e-02 5.01135401e-02 1.27825672e-02
      3.87371592e-02 1.42436533e-03 1.30551860e-01 1.51182920e-01
      1.29392996e-01 2.03837398e-02 5.01135401e-02 4.04904373e-02
      5.51875867e-03 2.14967746e-02 7.64500946e-02 3.35549444e-01
      3.35549444e-01 3.35549444e-01 5.68564497e-02 4.32209335e-02
      4.17445078e-02 6.17966838e-02 1.46397231e-02 8.75390694e-02
      3.09981138e-01 2.97139436e-01 2.18161196e-01 1.11300506e-01
      4.17651646e-02 4.75024283e-02 2.84157768e-02 9.58886649e-03
      7.77435899e-02 3.14570963e-01 3.14570963e-01 2.53269583e-01
      1.12361178e-01 4.68610115e-02 1.53488433e-02 0. 1.65660516e-03
      5.81214018e-02 3.14570963e-01 3.14570963e-01 1.24498531e-01
      2.45526843e-02 8.06969125e-03 1.88063905e-02 0. 3.01690307e-02
      8.32692608e-02 3.14570963e-01 3.14570963e-01 1.61041752e-01
      3.73485126e-02 1.02112880e-02 1.54531673e-02 8.52098502e-03
      2.19379291e-02 5.69533631e-02 3.65041345e-01 3.65041345e-01
      1.46535665e-01 8.32500979e-02 3.07451133e-02 3.19081941e-03
      6.54492481e-03 1.26622906e-02 2.64964718e-02 2.72538245e-01
      2.71253973e-01 1.50150031e-01 1.26508683e-01 3.39980274e-02
      6.07751310e-03 8.91934789e-04 6.64936453e-02 8.76394883e-02
      3.65041345e-01 3.65041345e-01 1.13805979e-01 3.07791345e-02
      5.54263685e-03 5.17488166e-04 1.14677323e-03 1.32131996e-02
      5.55042699e-02 3.65041345e-01 2.70998210e-01 7.20071942e-02
      1.62197929e-02 9.08435381e-04 3.74783180e-03 2.28621531e-03
      3.70154716e-03 2.61056274e-02 3.42317671e-01 3.42317671e-01
      9.66934785e-02 4.52587791e-02 1.04159443e-02 5.18408865e-02
      4.61296439e-02 4.49758284e-02 8.19099173e-02 3.42317671e-01
      3.42317671e-01 2.44052466e-02 1.33576179e-02 2.56877132e-02
      3.92326294e-03 3.08663561e-03 8.38311110e-03 1.21875487e-01
      3.42317671e-01 3.38879645e-01 3.41727249e-02 1.12151308e-02
      2.43666722e-03 4.63816524e-02 3.87009121e-02 4.28086855e-02
      1.64935112e-01 3.42317671e-01 3.15634012e-01 2.00931225e-02
      3.81153598e-02 3.21680605e-02 3.42728244e-03 1.66495607e-04
      1.25442422e-03 4.87715155e-02 4.39376354e-01 1.85651928e-01
      4.85495012e-03 0. 3.42728244e-03 6.80946093e-03 1.28252106e-03
      4.81005060e-03 1.20444503e-02 4.39376354e-01 4.07606326e-02
      8.57072603e-03 7.78193062e-04 6.80946093e-03 2.84854206e-03 0.
      1.13431178e-02 6.82467073e-02 4.39376354e-01 3.70931715e-01
      1.72961820e-02 0. 2.84854206e-03 2.91791605e-03 0. 1.45840067e-02
      3.04795746e-02 4.39376354e-01 2.00277224e-01 2.34721825e-02 0.
      2.91791605e-03 3.78585234e-02 4.04184638e-03 1.25005338e-02
      3.10750329e-03 2.18312323e-01 8.05350468e-02 4.31223400e-02
      1.04443794e-02 3.78585234e-02 3.04382462e-02 2.54853908e-03
      8.87047686e-03 7.43165314e-02 4.61112350e-01 4.61112350e-01
      2.22324938e-01 1.92132220e-02 3.04382462e-02 3.47846909e-03
      6.93365233e-03 3.84531431e-02 2.90539786e-02 1.98542699e-01
      4.95286286e-02 2.53349058e-02 2.76871864e-03 3.47846909e-03
      1.58411785e-04 1.89177133e-02 1.00538991e-01 2.42859557e-01
      4.61112350e-01 3.39116871e-01 1.07956201e-01 8.92587844e-03
      1.58411785e-04 3.92291782e-04 9.36879514e-05 2.25862339e-02
      1.04301363e-01 3.25739026e-01 3.25739026e-01 6.45637810e-02
      2.73667462e-03 4.31109511e-04 2.75717303e-03 1.11074350e-03
      7.31741339e-02 2.06699938e-01 3.25739026e-01 3.25739026e-01
      8.39212164e-02 1.41174924e-02 3.33943870e-03 3.33126780e-04
      3.15272319e-03 4.04221974e-02 1.80673122e-01 3.25739026e-01
      2.16121063e-01 3.44868489e-02 3.14434171e-02 8.79358221e-03
      2.10321951e-03 1.20360665e-02 1.18015252e-01 3.25739026e-01
      3.25739026e-01 2.73872197e-01 5.75872511e-02 8.38214681e-02
      2.05299910e-02 3.21736722e-03 1.26934645e-03 6.58404529e-02
      2.40397319e-01 3.59295577e-01 2.89307863e-01 3.98798175e-02
      1.40082566e-02 4.05331282e-03 1.46294566e-04 0. 1.09477155e-02
      1.71460181e-01 3.59295577e-01 1.07659236e-01 7.44505366e-03
      8.90046998e-04 5.21479407e-04 4.85133054e-03 1.08097820e-02
      9.17881876e-02 3.59295577e-01 3.59295577e-01 1.26633644e-01
      3.38938683e-02 4.74900231e-02 1.20743271e-02 6.36921730e-03
      4.01497446e-03 5.75693138e-02 3.59295577e-01 3.59295577e-01
      3.84375677e-02 3.35993781e-03 3.35920136e-03 4.77393391e-03
      8.39541957e-04 4.99377865e-03 9.73259471e-03 2.65923619e-01
      3.28037947e-01 1.75859511e-01 3.11426609e-03 4.76310914e-03
      9.40770609e-04 1.22275092e-02 3.38874944e-02 4.11697775e-02
      2.73686528e-01 3.28037947e-01 2.19509259e-01 9.30730999e-03
      2.39747930e-02 1.11662066e-02 1.78373186e-03 3.60306469e-03
      3.74749228e-02 3.28037947e-01 3.28037947e-01 2.12032944e-01
      1.19273709e-02 1.57546694e-03 1.15526014e-03 1.52418232e-02
      3.02148536e-02 6.06427565e-02 2.62458265e-01 3.28037947e-01
      3.28037947e-01 4.49032560e-02 5.58918482e-03 1.12586711e-02
      8.36801063e-03 0. 5.35183586e-03 1.70033611e-02 3.26618761e-01
      3.26618761e-01 2.58977208e-02 7.67213351e-04 8.36801063e-03
      1.33597096e-02 6.19182072e-04 8.73376057e-03 9.36741941e-03
      2.52860487e-01 3.26618761e-01 4.46063615e-02 3.56869283e-03
      1.33597096e-02 1.74291693e-02 0. 0. 2.85902875e-03 3.26618761e-01
      3.26618761e-01 3.26618761e-01 3.19766402e-02 1.74493417e-02
      1.68797728e-02 7.54189165e-03 1.67040005e-02 0. 2.61161178e-01
      3.26618761e-01 3.26618761e-01 6.99314177e-02 1.87417883e-02
      1.91710088e-02 5.34160156e-03 2.63284780e-02 2.46454924e-02
      1.17938481e-01 4.58689593e-02 3.31846885e-02 5.55080129e-03
      1.91710088e-02 7.20790680e-03 1.00920703e-02 1.30337417e-01
      3.65844935e-01 3.65844935e-01 8.25842619e-02 5.60102761e-02
      1.03022521e-02 7.20790680e-03 4.98424694e-02 7.60242939e-02
      1.52512878e-01 4.66012545e-02 2.71463096e-01 7.06093758e-02
      1.43446088e-01 5.65570220e-02 4.43332382e-02 4.40122969e-02
      3.65844935e-01 3.65844935e-01 3.65844935e-01 3.65844935e-01
      7.25173801e-02 2.71926560e-02 1.32791065e-02 2.44303662e-02
      3.02548637e-03 1.39060756e-02 1.19388163e-01 3.04401606e-01
      3.04401606e-01 1.23337254e-01 4.59149294e-02 3.17176431e-02
      1.58578157e-02 7.22859241e-03 3.93263251e-02 2.31554732e-01
      3.04401606e-01 3.04401606e-01 1.54633820e-01 7.18147084e-02
      8.01126808e-02 3.53682078e-02 3.10934857e-02 1.49420157e-01
      3.04401606e-01 3.04401606e-01 1.64405316e-01 5.05730733e-02
      3.68534885e-02 9.99330916e-03 3.58245429e-03 8.23022276e-02
      1.16058439e-01 3.04401606e-01 3.04401606e-01 2.19830498e-01
      6.50366396e-02 4.92686741e-02 2.58627906e-02 2.10231878e-02
      1.70401391e-02 4.49331999e-02 1.97194725e-01 3.00265908e-01
      3.00265908e-01 1.04672484e-01 5.72334304e-02 6.60926029e-02
      4.00521345e-02 2.40885895e-02 5.07368781e-02 1.63126767e-01
      3.00265908e-01 2.93679178e-01 5.42378910e-02 1.63412746e-02
      1.81089845e-02 2.73899380e-02 2.72648782e-01 1.17739223e-01
      1.82813987e-01 3.00265908e-01 2.81286389e-01 7.95477331e-02
      4.99373078e-02 6.57128692e-02 1.23901293e-01 3.00265908e-01
      2.03122139e-01 1.58924237e-01 1.83075681e-01 8.91703293e-02
      3.22731398e-02 1.98112652e-02 5.10391518e-02 1.52466774e-01
      4.80456743e-03 1.30706411e-02 9.30409729e-02 2.81234741e-01
      2.81234741e-01 2.21390262e-01 7.45093748e-02 7.38169113e-03
      2.96149682e-03 2.66465228e-02 1.99569855e-02 8.13034624e-02
      2.17109129e-01 2.81234741e-01 2.81234741e-01 2.25077748e-01
      2.06323136e-02 1.84356514e-02 7.71415830e-02 1.29956812e-01
      1.85911775e-01 1.76162958e-01 2.24563450e-01 1.46755219e-01
      7.95416608e-02 1.74461138e-02 2.97159068e-02 6.03381246e-02
      1.21616982e-01 2.81234741e-01 2.05917791e-01 2.81234741e-01
      2.81234741e-01 2.05712050e-01 3.71171087e-02 3.65263782e-02</_>
    <_>
      2.24093478e-02 8.68000835e-02 1.53692439e-01 3.30147773e-01
      3.30147773e-01 2.50957400e-01 4.32558656e-02 1.18341101e-02
      1.03914067e-02 7.46721476e-02 1.46424159e-01 1.43419489e-01
      2.98002273e-01 1.22695401e-01 1.55814886e-01 9.31383297e-02
      9.21088383e-02 8.19701850e-02 2.42314264e-02 1.19753387e-02
      2.24328905e-01 3.30147773e-01 3.27434063e-01 1.41904652e-01
      5.91864847e-02 3.01062986e-02 1.65067576e-02 2.31028609e-02
      4.01124209e-02 1.04787260e-01 3.30147773e-01 2.31330618e-01
      1.03440978e-01 5.28531671e-02 3.05896476e-02 1.42045943e-02
      3.42875905e-02 3.65014710e-02 2.42557693e-02 5.10793589e-02
      2.60009497e-01 3.34460437e-01 1.77494779e-01 1.06607102e-01
      5.63436747e-02 4.88416431e-03 2.29421929e-02 4.25978787e-02
      1.86222568e-01 3.34460437e-01 3.34460437e-01 6.84059560e-02
      2.75979657e-02 1.11629041e-02 1.38756717e-02 2.12038420e-02
      4.50270511e-02 1.16765566e-01 3.34460437e-01 3.34460437e-01
      6.72734380e-02 2.90200673e-02 9.07583628e-03 3.61913331e-02
      7.20954016e-02 6.29865527e-02 1.29151762e-01 3.34460437e-01
      3.34460437e-01 3.14848721e-02 2.64698677e-02 3.23555805e-02
      2.28343159e-02 6.50712848e-02 8.65377486e-02 2.16273576e-01
      2.71804750e-01 2.21044481e-01 1.18143514e-01 8.36849287e-02
      4.75713015e-02 2.67475434e-02 2.75146347e-02 5.22314087e-02
      9.91337374e-02 1.96994349e-01 2.71804750e-01 2.16710493e-01
      1.22139767e-01 4.16622497e-02 9.58527178e-02 1.61560491e-01
      1.09479830e-01 1.58423185e-01 2.71804750e-01 2.71804750e-01
      1.38911173e-01 2.20426068e-01 1.27483174e-01 3.68222110e-02
      4.19206657e-02 3.28357741e-02 4.52048518e-02 2.35781312e-01
      2.71804750e-01 2.71804750e-01 2.71804750e-01 1.19358644e-01
      9.92606208e-03 1.14222309e-02 7.11089820e-02 1.54769346e-01
      2.45490640e-01 2.46950552e-01 1.12437189e-01 6.76488802e-02
      1.09623009e-02 1.19351040e-04 2.10718624e-02 8.12797546e-02
      1.49340659e-01 2.97418952e-01 2.97418952e-01 2.21908897e-01
      4.98090051e-02 6.83632959e-03 1.86630036e-03 1.85892195e-03
      1.21298423e-02 3.78350243e-02 2.97418952e-01 2.97418952e-01
      2.55863547e-01 2.97418952e-01 4.28836793e-02 3.70557624e-04
      7.43733905e-03 4.12423238e-02 2.02948347e-01 2.97418952e-01
      2.97418952e-01 1.23676866e-01 4.13705297e-02 5.18278359e-03 0.
      2.00494123e-03 1.47308828e-02 6.71453401e-02 3.13975751e-01
      3.19405884e-01 1.43586710e-01 1.03907501e-02 1.00703130e-03
      3.41091352e-03 3.84758110e-03 8.53810553e-03 4.30524535e-02
      3.19405884e-01 3.19405884e-01 9.65753049e-02 2.04789848e-03
      4.93005011e-03 9.50151225e-05 1.46553235e-03 3.05445064e-02
      2.74402857e-01 3.19405884e-01 3.19405884e-01 1.12502150e-01
      1.33076906e-02 4.97619330e-04 1.65160606e-03 6.81308389e-04
      2.36105714e-02 2.19121009e-01 3.19405884e-01 3.19405884e-01
      9.82999653e-02 4.06113314e-03 1.72701816e-03 2.00429279e-02
      9.78472829e-03 2.60185957e-01 3.58987391e-01 3.04170340e-01
      2.66530756e-02 1.96663402e-02 1.45186586e-02 1.15557071e-02
      1.38308536e-02 3.58041450e-02 1.01074077e-01 3.58987391e-01
      3.00399333e-01 4.80290763e-02 5.47604375e-02 1.46074072e-02
      8.82997643e-03 1.24987615e-02 4.71947016e-03 1.14237674e-01
      3.58987391e-01 3.58987391e-01 4.90457267e-02 9.45854094e-03
      3.43698473e-03 1.50949396e-02 1.64493006e-02 1.88221894e-02
      6.11834154e-02 1.80242375e-01 3.58987391e-01 1.57433480e-01
      6.44865558e-02 1.28514189e-02 2.10877899e-02 6.76885061e-03
      2.42991466e-02 1.16456293e-01 1.98988989e-01 3.09986800e-01
      1.87844545e-01 2.93844286e-02 6.87197829e-03 3.34649300e-03
      2.66916454e-02 5.95371015e-02 9.84180868e-02 1.79761454e-01
      3.09986800e-01 3.09986800e-01 3.11665293e-02 7.29650492e-03
      1.45107117e-02 2.08685305e-02 5.60087822e-02 1.13457933e-01
      2.39875212e-01 3.09986800e-01 2.80324191e-01 7.28772804e-02
      1.49899311e-02 1.13164550e-02 3.09397392e-02 7.65457228e-02
      1.27384812e-01 3.02918613e-01 3.09986800e-01 3.09986800e-01
      9.79984701e-02 1.35882581e-02 5.87581703e-03 4.35932241e-02
      7.33434409e-02 4.46495451e-02 8.74889717e-02 2.93823570e-01
      3.03768069e-01 6.51440099e-02 1.38706416e-01 6.17676824e-02
      2.04722695e-02 2.81837434e-02 1.11155743e-02 3.27504948e-02
      1.97833061e-01 2.34473586e-01 2.80834585e-01 3.03768069e-01
      7.23690018e-02 1.59157012e-02 3.48461680e-02 4.33180109e-02
      1.30599454e-01 3.03768069e-01 3.03768069e-01 8.81998241e-02
      4.67880517e-02 2.37697158e-02 1.16003947e-02 1.91897005e-02
      1.28721409e-02 7.42727220e-02 3.03768069e-01 3.03768069e-01
      2.62169957e-01 1.57431379e-01 3.85907143e-02 2.18865299e-03
      2.15116004e-03 2.54175323e-03 1.22854766e-02 3.35577458e-01
      3.35577458e-01 2.28428766e-01 2.20868245e-01 2.07058080e-02
      3.57985287e-03 7.68199656e-03 7.43144378e-02 1.07221484e-01
      3.35577458e-01 2.18666151e-01 4.04122993e-02 1.20711094e-02
      3.63029027e-03 3.09686828e-03 4.34719678e-03 7.23722111e-03
      7.02426285e-02 3.35577458e-01 3.35577458e-01 2.14947417e-01
      7.76377544e-02 1.00831455e-02 6.84910966e-03 1.15064681e-02
      9.54051539e-02 9.87650231e-02 3.35577458e-01 2.67776102e-01
      6.14449717e-02 2.74731107e-02 1.00550028e-02 1.47840625e-03
      4.54370538e-03 7.24426135e-02 2.49020636e-01 3.28128397e-01
      2.79252529e-01 1.05563022e-01 2.91104726e-02 2.10700464e-03
      2.24598008e-03 1.40062170e-04 1.64226592e-02 1.80078745e-01
      3.28128397e-01 3.28128397e-01 1.50452748e-01 4.56516668e-02
      3.25960759e-03 7.30770407e-03 6.21902151e-03 7.54672363e-02
      9.13177282e-02 2.70816833e-01 2.66133428e-01 1.53540760e-01
      6.33687004e-02 1.27146579e-02 6.25897339e-03 2.12845072e-04
      7.00281980e-03 1.06223337e-01 3.28128397e-01 3.28128397e-01
      1.99116409e-01 8.06652457e-02 1.06777903e-02 2.49387510e-02
      1.91013352e-03 6.61596516e-03 2.09655181e-01 4.13549036e-01
      1.76139981e-01 2.06968258e-03 1.99430017e-03 2.55982578e-02
      4.32494842e-02 7.46659376e-03 1.16304187e-02 7.72117451e-02
      4.13549036e-01 2.43500188e-01 3.84568907e-02 1.70611534e-02
      4.88904603e-02 2.96547022e-02 2.59824586e-03 0. 4.38829400e-02
      4.13549036e-01 3.33834112e-01 9.55420267e-03 0. 2.44995076e-02
      6.28745630e-02 9.10793152e-03 1.71026622e-04 3.64241749e-02
      4.13549036e-01 1.99130252e-01 3.31573598e-02 1.45491827e-02
      5.20837158e-02 2.16386560e-02 3.02140824e-02 3.53722051e-02
      1.11193940e-01 3.21721107e-01 2.89895266e-01 6.14160523e-02
      3.08371764e-02 1.89357176e-02 2.08688136e-02 4.80436608e-02
      6.57688007e-02 2.15861872e-01 3.21721107e-01 3.21721107e-01
      1.04950711e-01 3.09887808e-02 1.11514563e-02 2.12511644e-02
      1.51750688e-02 2.11494062e-02 1.33298233e-01 3.21721107e-01
      2.68730611e-01 3.15919481e-02 2.08802074e-02 1.88473780e-02
      2.96576824e-02 3.52135524e-02 6.00768253e-02 3.21721107e-01
      3.21721107e-01 3.21721107e-01 5.40396385e-02 1.70419011e-02
      2.30177213e-02 4.74415626e-03 1.10998349e-02 1.96793489e-02
      9.27281827e-02 3.64102334e-01 3.01660568e-01 6.33414686e-02
      5.37076686e-03 4.16995352e-03 1.68496300e-03 4.03282838e-03
      7.73413898e-03 5.30044511e-02 3.64102334e-01 3.14847231e-01
      5.43015637e-02 6.66455086e-03 3.73738236e-03 9.98606067e-03
      9.83571820e-03 2.30404716e-02 2.27978781e-01 3.64102334e-01
      3.17209601e-01 2.95717698e-02 2.56356481e-03 7.13071879e-03
      3.92003590e-03 4.66527324e-03 6.95917895e-03 1.77968308e-01
      3.64102334e-01 2.66073734e-01 7.10488250e-03 2.64216820e-03
      7.95428350e-04 7.31206732e-04 2.60603405e-03 4.71922429e-03
      8.24673548e-02 3.84616345e-01 3.65751356e-01 5.20365424e-02
      4.12694598e-03 1.70494441e-03 1.05450135e-02 1.09600630e-02
      2.61776820e-02 5.66792414e-02 3.84616345e-01 1.98798507e-01
      4.86393943e-02 2.35030632e-02 1.14546409e-02 2.10907590e-03
      3.43888160e-03 5.31352591e-03 1.93913519e-01 3.84616345e-01
      3.22973073e-01 1.32352374e-02 1.69483421e-03 4.19862015e-04
      9.75883100e-03 1.22304661e-02 2.26730816e-02 1.20319739e-01
      3.84616345e-01 2.37025529e-01 2.37104930e-02 1.39438501e-02
      9.84098669e-03 1.39130475e-02 7.31085800e-03 1.98779609e-02
      7.53852874e-02 2.91212529e-01 1.66942284e-01 6.65625557e-02
      3.37653607e-02 1.51022039e-02 4.55844449e-03 2.26479970e-04
      9.82819474e-04 1.43977314e-01 3.91765535e-01 3.40336502e-01
      5.12497462e-02 2.06613000e-02 6.20232103e-03 9.98897292e-03
      9.37291887e-03 2.56298929e-02 1.79808021e-01 3.91765535e-01
      1.35388389e-01 2.06499044e-02 1.33782206e-02 1.15334559e-02
      1.97847304e-03 3.22753028e-03 1.25160404e-02 2.54074007e-01
      3.91765535e-01 3.91765535e-01 2.68435329e-02 9.68233508e-04
      2.20650434e-03 1.26699377e-02 5.39723376e-04 8.69674981e-03
      8.52343962e-02 4.10282582e-01 2.05173582e-01 2.06809640e-02 0.
      1.15990685e-02 1.89457200e-02 9.77072958e-03 1.95656531e-02
      6.42524809e-02 4.10282582e-01 1.10071622e-01 4.80829999e-02
      7.73484400e-03 1.65898073e-02 7.94693176e-03 2.12952655e-04
      1.50715858e-02 7.97464475e-02 4.10282582e-01 4.10282582e-01
      7.95097798e-02 8.74677557e-04 7.94693176e-03 8.63238424e-03
      7.09580770e-03 4.15108316e-02 5.63018471e-02 4.10282582e-01
      2.46958807e-01 7.12729543e-02 1.25613892e-02 8.63238424e-03
      1.58390608e-02 1.21569028e-02 2.15590820e-02 1.72084093e-01
      3.14364821e-01 1.50756523e-01 1.75030846e-02 1.01685151e-02
      8.26807320e-03 5.34204915e-02 2.03594007e-02 6.90462142e-02
      3.14364821e-01 3.14364821e-01 2.87874550e-01 3.19150798e-02
      1.57236587e-02 2.23439950e-02 1.84697118e-02 4.92167939e-03
      2.21729372e-02 1.27889574e-01 3.14364821e-01 2.58305550e-01
      1.07164986e-01 4.81943414e-02 2.13051047e-02 6.93224370e-02
      2.83707902e-02 9.50542614e-02 3.14364821e-01 3.14364821e-01
      3.14364821e-01 1.59973919e-01 1.29029870e-01 6.03818074e-02
      2.39489190e-02 1.57717895e-02 5.82908355e-02 3.22790027e-01
      3.22790027e-01 2.21923128e-01 2.37279385e-02 9.26870946e-03
      1.47610381e-02 9.14487988e-03 2.26333532e-02 2.56768037e-02
      3.22790027e-01 3.22790027e-01 1.43667027e-01 1.28128193e-02
      5.53213293e-03 9.67958942e-03 5.82780950e-02 5.48807047e-02
      1.22323498e-01 3.11710387e-01 3.22790027e-01 1.65099874e-01
      6.23871423e-02 6.51115999e-02 6.45551085e-02 7.81616718e-02
      8.41223001e-02 9.05499384e-02 3.19753587e-01 3.22790027e-01
      7.22922236e-02 2.69599464e-02 2.05251183e-02 8.36678445e-02
      5.28486632e-03 9.58053954e-03 9.54040699e-03 3.01710635e-01
      3.31122965e-01 2.83236533e-01 1.66401323e-02 6.80873031e-03
      3.01693287e-03 2.35661641e-02 1.33246705e-02 2.07587294e-02
      1.70271307e-01 3.31122965e-01 2.64126360e-01 3.96003611e-02
      3.00237313e-02 6.44539390e-03 3.58142853e-02 5.53098507e-02
      6.89425841e-02 3.14039528e-01 3.31122965e-01 2.09203422e-01
      5.10715879e-02 1.71471313e-02 2.63277721e-02 4.06048857e-02
      2.95798201e-02 4.00958769e-02 1.45093545e-01 3.31122965e-01
      2.78371513e-01 1.41326398e-01 7.68237337e-02 1.64242499e-02
      1.58702210e-02 2.00282224e-02 4.46895100e-02 2.74324536e-01
      2.92688966e-01 8.78674537e-02 2.82483380e-02 1.60875637e-02
      5.95073868e-03 1.90109899e-03 1.80998035e-02 5.41558303e-02
      3.61819595e-01 3.61819595e-01 2.09870607e-01 3.97687256e-02
      2.34904513e-03 2.42503919e-03 3.74762937e-02 3.24190892e-02
      1.14973865e-01 3.18518102e-01 2.47195110e-01 1.13178216e-01
      9.11274329e-02 4.05906886e-02 4.22212556e-02 1.32524166e-02
      1.86952967e-02 1.67886689e-01 3.61819595e-01 3.61819595e-01
      1.13848798e-01 7.59309307e-02 9.20302887e-03 3.38344350e-02
      9.61557962e-03 8.64840206e-03 1.50727211e-02 1.92129333e-02
      3.26014131e-01 3.26014131e-01 1.41195580e-01 7.42897205e-03
      7.76685309e-03 2.34664381e-02 5.79520594e-03 1.85970012e-02
      1.70579199e-02 3.26014131e-01 2.59090722e-01 8.12112018e-02
      2.89423298e-02 2.26452742e-02 9.59775969e-03 1.49640366e-02
      3.32317799e-02 5.38434573e-02 3.26014131e-01 3.26014131e-01
      3.26014131e-01 8.52691680e-02 7.46544264e-03 3.05641852e-02
      2.98964302e-03 5.36590889e-02 1.02841288e-01 2.29123369e-01
      3.26014131e-01 2.67822266e-01 6.85417876e-02 2.58226302e-02
      2.31542662e-02 3.86865018e-03 2.43348349e-02 2.03714639e-01
      3.15983951e-01 2.14688614e-01 1.19362481e-01 4.38753329e-02
      2.71809381e-02 4.48874459e-02 4.66671661e-02 8.51463377e-02
      3.15983951e-01 3.15983951e-01 2.93609440e-01 1.55433372e-01
      9.60830972e-02 4.09843251e-02 2.25941241e-02 3.93263530e-03
      1.20116390e-01 3.15983951e-01 2.64927953e-01 8.03041533e-02
      3.94873992e-02 1.96978711e-02 1.52239539e-02 3.26057523e-02
      7.01968819e-02 2.34489009e-01 3.15983951e-01 3.15983951e-01
      6.45806193e-02 2.16686372e-02 2.23769317e-03 3.50659690e-03
      1.40633360e-01 1.94973767e-01 1.82142183e-01 2.49885067e-01
      2.49885067e-01 1.37672007e-01 6.74871057e-02 6.32944033e-02
      7.88029432e-02 2.49885067e-01 2.49885067e-01 2.49885067e-01
      2.05951631e-01 2.35859275e-01 3.68907489e-02 1.98252182e-02
      2.12625191e-02 1.36049271e-01 1.27144352e-01 2.49885067e-01
      2.49885067e-01 2.49885067e-01 1.28107965e-01 3.67028043e-02
      1.67178083e-02 3.42480489e-03 2.97159776e-02 2.49885067e-01
      2.49885067e-01 2.49885067e-01 9.41358879e-02 1.17681704e-01
      2.10247822e-02 7.18475552e-03 1.04366373e-02 9.36446264e-02
      1.60441786e-01 2.48375699e-01 2.47308314e-01 2.48375699e-01
      2.48375699e-01 1.02244660e-01 4.84944358e-02 1.24417106e-02
      4.58745547e-02 4.90060002e-02 1.69534445e-01 2.13463143e-01
      2.41774261e-01 2.48375699e-01 1.83911204e-01 1.57913074e-01
      4.81447689e-02 2.25045811e-02 2.48375699e-01 2.48375699e-01
      1.90298587e-01 1.15707248e-01 1.19553529e-01 3.39849927e-02
      3.85028198e-02 5.65482862e-02 1.38719305e-01 1.97452798e-01
      2.48375699e-01 2.48375699e-01 1.78379998e-01 1.14751667e-01
      2.89729107e-02 8.60619247e-02 9.01192948e-02 1.26338124e-01
      2.80042011e-02 5.34698889e-02 2.98936486e-01 2.84151495e-01
      1.47433445e-01 4.96945158e-02 4.96404953e-02 1.40536996e-02
      3.88315320e-02 1.35198254e-02 1.09931026e-02 2.92899013e-01
      3.00719947e-01 3.00719947e-01 6.04215041e-02 2.81710383e-02
      3.05440021e-03 3.04151047e-02 3.98606397e-02 1.68564379e-01
      3.00719947e-01 2.98264652e-01 2.00159669e-01 2.00688131e-02
      1.62794441e-02 9.86442622e-03 1.72931217e-02 4.62832069e-03
      2.10214332e-02 2.99628049e-01 3.00719947e-01 3.00719947e-01
      2.94860918e-02 3.22006643e-04 4.63413271e-05 5.81742125e-03</_>
    <_>
      2.58703791e-02 8.00603256e-03 1.99052051e-01 3.79945576e-01
      3.79945576e-01 8.62292200e-02 6.95719048e-02 2.98587233e-02
      1.47811379e-02 9.11283679e-03 7.28482893e-03 6.32875711e-02
      3.79945576e-01 2.22573444e-01 5.52534871e-02 1.74158625e-02
      6.86291698e-03 1.47396019e-02 1.21928276e-02 6.22014794e-03
      2.45765761e-01 3.79945576e-01 3.79945576e-01 9.68990568e-03
      1.20676095e-02 3.49452649e-03 7.24110333e-03 6.45622145e-03
      2.22223974e-03 3.58731076e-02 2.33060405e-01 2.15870500e-01
      1.32851480e-02 2.07869359e-03 1.94604287e-03 6.45622145e-03
      7.05830427e-03 3.88530735e-03 9.26106144e-03 6.84427992e-02
      3.05744886e-01 3.38397563e-01 3.59278694e-02 6.52076816e-03
      1.32677704e-02 1.07588070e-02 2.20717806e-02 3.99813354e-02
      1.31135762e-01 3.38397563e-01 3.38397563e-01 5.48041314e-02
      7.90156017e-04 2.54584849e-03 5.33300219e-03 2.75223143e-03
      2.76221856e-02 2.08267599e-01 3.38397563e-01 1.47687659e-01
      8.13546404e-03 2.81391898e-03 5.33300219e-03 2.42663245e-03
      1.00560719e-02 6.44072220e-02 3.38397563e-01 3.38397563e-01
      3.38397563e-01 4.94741648e-02 6.49365888e-04 1.88835151e-03
      5.08644879e-02 8.31512734e-02 1.30509660e-01 1.55556992e-01
      2.85681188e-01 2.85681188e-01 6.33977726e-02 8.53721276e-02
      5.31305298e-02 4.96402644e-02 5.66743612e-02 8.76922831e-02
      6.26170337e-02 6.98741302e-02 8.31509680e-02 2.63116390e-01
      2.85681188e-01 1.35196716e-01 2.44439691e-02 4.04126495e-02
      1.09992839e-01 2.79385060e-01 2.85681188e-01 2.85681188e-01
      5.02006821e-02 3.30435410e-02 3.31536718e-02 4.93141152e-02
      4.69007120e-02 9.55852345e-02 1.20178275e-01 2.85681188e-01
      2.36960158e-01 2.28004754e-01 2.85681188e-01 1.04648009e-01
      6.65496476e-03 3.52838309e-03 3.98047781e-03 3.78966960e-03
      1.65347666e-01 2.83068478e-01 2.92001814e-01 2.92001814e-01
      4.28065769e-02 2.66673218e-04 9.25733126e-04 5.69937984e-03
      1.71484817e-02 2.90204853e-01 2.92001814e-01 9.10329297e-02
      4.16055471e-02 1.94137159e-03 1.24377841e-02 8.44794977e-03
      1.22286249e-02 1.38139734e-02 2.78456807e-01 2.92001814e-01
      2.92001814e-01 2.92001814e-01 3.68195251e-02 4.30931716e-04
      2.16732360e-03 2.90957093e-02 3.88161056e-02 2.92001814e-01
      2.92001814e-01 1.66572064e-01 3.78544703e-02 2.96495669e-03
      2.66198767e-04 8.46479728e-04 1.50702782e-02 1.09071098e-01
      3.64786237e-01 2.14230210e-01 3.87391672e-02 2.03062058e-03
      5.11279562e-04 1.82928552e-03 1.04407969e-04 8.42314959e-03
      1.82601497e-01 3.64786237e-01 3.64786237e-01 7.50574395e-02
      2.25779033e-04 1.84562418e-03 6.15028373e-04 3.56695545e-03
      6.61154911e-02 1.58541620e-01 2.89252460e-01 2.04140738e-01
      8.55387226e-02 1.24967592e-02 2.47863610e-03 2.86718505e-03
      8.23143637e-04 2.91776005e-02 1.76001295e-01 3.64786237e-01
      3.64786237e-01 1.95560053e-01 1.69461581e-03 2.99142557e-03
      1.48426918e-02 2.82041775e-03 1.92787543e-01 4.17663574e-01
      4.17663574e-01 3.64726298e-02 0. 0. 1.48426918e-02 3.85338552e-02
      1.09124305e-02 5.80763072e-02 1.59527242e-01 3.95501852e-01
      3.49249914e-02 3.71716432e-02 1.33754173e-02 3.89669463e-02
      2.22725030e-02 9.23767127e-03 4.59533073e-02 1.61334574e-01
      4.17663574e-01 1.45007819e-01 0. 0. 2.22725030e-02 3.38775516e-02
      2.45484188e-02 7.68264905e-02 2.36125328e-02 4.17663574e-01
      6.78973943e-02 5.61426692e-02 2.20646281e-02 3.54925320e-02
      1.25509314e-02 4.17142548e-03 2.28862409e-02 1.39312893e-01
      3.11414301e-01 1.92822576e-01 4.02788222e-02 1.24085806e-02
      1.34902839e-02 1.19108765e-03 1.95850786e-02 9.11078528e-02
      3.34052682e-01 3.34052682e-01 3.34052682e-01 5.15956618e-02
      7.83724524e-03 1.92169566e-03 1.26890829e-02 5.48101310e-03
      1.65150706e-02 4.05461788e-02 3.34052682e-01 2.76367694e-01
      5.95701709e-02 2.80127805e-02 1.61919184e-02 1.99560076e-03
      1.76460780e-02 7.90880844e-02 2.48200685e-01 3.34052682e-01
      3.34052682e-01 8.51745307e-02 2.90903542e-02 1.09820804e-02
      6.11731270e-03 1.80702340e-02 7.16245174e-02 2.62529314e-01
      3.52700144e-01 2.40289927e-01 2.43074615e-02 8.24992731e-03
      6.01909915e-03 1.88103337e-02 1.79628637e-02 3.17379311e-02
      9.74345207e-02 3.52700144e-01 2.52631426e-01 9.14740488e-02
      1.06750816e-01 3.17113698e-02 2.63314490e-04 1.17384009e-02
      6.46287724e-02 1.76894531e-01 3.52700144e-01 3.52700144e-01
      5.08795716e-02 1.95986647e-02 1.14230271e-02 2.56911945e-03
      2.54877331e-03 6.92446809e-03 7.30767250e-02 3.52700144e-01
      3.17643344e-01 2.47117914e-02 1.15094166e-02 1.09003996e-02
      5.45471022e-03 4.84685460e-03 6.28279429e-03 1.85585897e-02
      3.47833723e-01 3.47833723e-01 1.12903588e-01 6.75994158e-02
      1.26934266e-02 1.66397716e-03 2.09573167e-03 1.80869773e-02
      3.14921178e-02 3.47833723e-01 3.47833723e-01 7.45755509e-02
      1.29589364e-02 2.32726405e-03 1.16659235e-03 7.05570681e-04
      1.57043303e-03 8.12252387e-02 3.47833723e-01 3.41665834e-01
      1.61738098e-02 4.60564578e-03 4.16947063e-03 1.70813187e-03
      2.25469959e-03 1.51341353e-02 9.34251696e-02 3.47833723e-01
      3.34501594e-01 3.33804972e-02 2.84515368e-03 1.50736875e-03
      3.81533755e-03 5.15431678e-03 5.04782796e-02 7.88524598e-02
      2.60314196e-01 2.12367311e-01 1.01173945e-01 1.96012277e-02
      4.65048850e-03 2.46771239e-03 1.11681712e-03 1.75994318e-02
      1.26173794e-01 4.03616726e-01 4.03616726e-01 1.21460773e-01
      5.35207288e-03 2.43849703e-03 3.72273824e-03 5.68983098e-03
      2.86979266e-02 9.34850723e-02 4.03616726e-01 1.57430068e-01
      7.03018531e-02 9.50625073e-03 3.20146582e-03 2.47413735e-03
      1.44364731e-03 7.89600704e-03 2.68086910e-01 4.03616726e-01
      2.61364549e-01 3.59264612e-02 4.52055270e-03 2.35384353e-03
      1.13447290e-02 3.72386817e-03 1.11431908e-02 1.37078660e-02
      4.59606856e-01 2.56180882e-01 0. 0. 1.13447290e-02 6.84856623e-03
      1.41505292e-02 4.06602249e-02 1.75730733e-03 4.59606856e-01
      9.14229378e-02 1.46657806e-02 7.49434950e-03 6.91970764e-03
      5.17365336e-03 0. 0. 6.75034374e-02 4.59606856e-01 2.46992320e-01
      0. 0. 5.17365336e-03 9.49925091e-03 1.30464826e-02 3.46355550e-02
      1.37087367e-02 4.59606856e-01 7.72126690e-02 1.86290871e-02
      5.34340367e-03 7.85702281e-03 9.57525615e-03 6.36797212e-03
      1.56130213e-02 2.52157487e-02 3.51040125e-01 1.54595301e-01
      2.16596499e-02 9.98574402e-03 9.72279627e-03 6.90638553e-03
      2.76745926e-03 3.31645794e-02 1.65069655e-01 3.80830735e-01
      3.80830735e-01 4.45129052e-02 1.97104830e-02 1.60525441e-02
      1.30670369e-02 1.46137504e-02 3.53308879e-02 5.10220416e-02
      3.80830735e-01 7.84194991e-02 2.17319112e-02 5.30673889e-03
      9.66119859e-03 1.67210996e-02 9.54617187e-03 2.75557004e-02
      2.79805601e-01 3.80830735e-01 3.80830735e-01 1.92950871e-02
      8.08305852e-03 1.90278273e-02 1.43003440e-03 3.09489638e-04
      2.90347803e-02 1.19181305e-01 3.73838007e-01 3.73838007e-01
      3.54267396e-02 2.26730164e-02 1.64537597e-02 7.21618708e-04 0.
      4.50539123e-03 1.04468971e-01 3.73838007e-01 1.98793903e-01
      1.71457715e-02 6.10118452e-03 4.41367831e-03 1.33618303e-02
      4.85567795e-03 2.39175707e-02 2.77136594e-01 3.73838007e-01
      2.64742643e-01 1.45686306e-02 1.16413487e-02 2.14127339e-02
      1.26623455e-02 1.34762228e-02 4.30583581e-02 2.59222686e-01
      3.73838007e-01 1.04325861e-01 2.43851673e-02 1.29519217e-02
      9.21691582e-03 2.56332598e-04 0. 3.14671034e-03 2.05363363e-01
      3.73266250e-01 1.57415360e-01 6.71864348e-03 6.66447741e-04
      3.94427741e-04 1.14280288e-03 1.37373444e-03 2.26011183e-02
      1.93184584e-01 3.73266250e-01 2.15744942e-01 1.69789605e-02
      3.48048122e-03 1.47152331e-03 6.25628745e-03 9.05608386e-03
      3.70553583e-02 3.73266250e-01 3.73266250e-01 7.54894987e-02
      1.19407382e-02 5.03973942e-03 2.77739088e-03 2.12528533e-03
      8.92291963e-03 1.36462031e-02 3.36118668e-01 3.73266250e-01
      1.63752839e-01 1.98578592e-02 8.42739642e-03 6.72217133e-03
      1.69320300e-03 3.26218014e-03 3.96729894e-02 1.40696988e-01
      3.90319854e-01 1.08963221e-01 2.59650908e-02 1.09682903e-02
      2.47980468e-03 1.81896298e-03 9.26954381e-04 1.16562909e-02
      2.52382070e-01 3.90319854e-01 2.02778801e-01 6.91741705e-03
      4.19399329e-03 2.00048671e-03 4.45293728e-03 2.62517724e-02
      3.13526914e-02 2.58395314e-01 3.90319854e-01 1.16306104e-01
      2.32449025e-02 1.92282461e-02 1.10916365e-02 3.30817094e-03
      9.49719269e-03 2.66518313e-02 3.90319854e-01 3.90319854e-01
      1.06711380e-01 3.70156998e-03 4.86620143e-03 3.73693416e-03
      2.86651682e-03 0. 0. 9.19478461e-02 4.12293583e-01 1.86586812e-01
      9.29173268e-03 0. 2.86651682e-03 1.14626605e-02 8.74784961e-03
