<?xml version="1.0"?>
<opencv_storage>
<opencv_ml_svm>
  <format>3</format>
  <svmType>C_SVC</svmType>
  <kernel>
    <type>LINEAR</type></kernel>
  <C>1.</C>
  <term_criteria><epsilon>1.0000000000000000e-03</epsilon></term_criteria>
  <var_count>900</var_count>
  <class_count>2</class_count>
  <class_labels type_id="opencv-matrix">
    <rows>2</rows>
    <cols>1</cols>
    <dt>i</dt>
    <data>
      0 1</data></class_labels>
  <sv_total>1</sv_total>
  <support_vectors>
    <_>
      8.00820291e-01 7.33341694e-01 7.64488801e-02 -9.66549888e-02
      3.66245806e-02 -1.67950124e-01 -1.79428071e-01 3.18023235e-01
      7.24976957e-01 5.89152575e-01 4.86122251e-01 4.29716915e-01
      1.36649059e-02 -1.17607272e+00 -1.29741096e+00 4.09290284e-01
      1.47775650e-01 3.16331506e-01 1.96190089e-01 3.17553133e-02
      2.85021126e-01 1.79094553e-01 3.75916809e-01 1.86480239e-01
      2.24886328e-01 5.38678586e-01 6.93116724e-01 1.90006450e-01
      3.08248073e-01 -1.26770124e-01 3.32594335e-01 -2.98833072e-01
      8.74299556e-02 -4.14287269e-01 -1.50572527e-02 1.60572886e-01
      -3.87575120e-01 -1.66407481e-01 -2.47919876e-02 -7.65619040e-01
      -5.33685803e-01 -4.86486137e-01 4.43702266e-02 -5.46722710e-01
      -4.49508369e-01 -3.00900698e-01 -4.73640412e-02 3.30598652e-01
      6.35678768e-02 -7.98130110e-02 4.00491804e-01 -5.41573763e-01
      -6.46842003e-01 -4.80969131e-01 9.47309285e-02 1.23501807e-01
      -1.62587449e-01 1.55025035e-01 -2.87588716e-01 1.01858629e-02
      -2.82344759e-01 -6.76988542e-01 -4.12765473e-01 3.07874322e-01
      2.17339501e-01 3.69868934e-01 6.98573068e-02 -2.00622678e-01
      3.26023251e-01 -2.53526181e-01 -2.27009997e-01 -3.32462937e-01
      -3.20854574e-01 -1.02852210e-01 -1.97421849e-01 -9.11095440e-02
      -5.77540398e-01 -2.12181538e-01 -3.80306751e-01 -3.82411033e-01
      -1.64383829e-01 -8.68846430e-04 1.16650917e-01 -4.25280556e-02
      2.09102839e-01 -4.73787427e-01 -3.10106631e-02 2.46378081e-03
      -1.96196675e-01 -3.73615175e-01 -1.03190318e-01 -3.08444321e-01
      1.05756149e-02 1.34748623e-01 -1.09155983e-01 -2.37327218e-01
      -2.23271415e-01 1.68483973e-01 -8.93850774e-02 -4.82844442e-01
      -1.94340944e-01 3.41449380e-01 2.33015776e-01 2.22270172e-02
      -3.11123639e-01 2.93248743e-01 1.11654535e-01 7.15045705e-02
      2.33047083e-01 1.51350334e-01 -7.37077668e-02 -2.80652702e-01
      -1.17357656e-01 -2.39913851e-01 -7.13097572e-01 -1.70152858e-01
      -3.03784192e-01 1.44866556e-01 -8.44502673e-02 -5.26152074e-01
      -4.69412863e-01 1.09606557e-01 -6.86200219e-04 8.46633464e-02
      5.58046997e-01 3.45854610e-01 1.09522089e-01 4.05557960e-01
      2.45678380e-01 -1.54480889e-01 -3.43654975e-02 -4.76186760e-02
      -3.79844368e-01 2.52986588e-02 1.80296257e-01 3.55771631e-01
      7.22251367e-03 -1.65550619e-01 -1.46429449e-01 -1.82946082e-02
      2.20327482e-01 4.74274933e-01 4.69828444e-03 3.03075612e-01
      1.71621040e-01 5.18826663e-01 2.39252672e-01 -3.08280319e-01
      1.20615020e-01 -3.60670418e-01 -4.15849030e-01 2.71670282e-01
      -3.85965109e-02 3.02225322e-01 4.74779725e-01 7.71224648e-02
      1.30187064e-01 -4.97595221e-02 -2.05191091e-01 -6.36321664e-01
      1.82541460e-01 -1.18542396e-01 1.05057888e-01 -6.07575923e-02
      1.49149761e-01 -2.26956233e-01 -3.91734630e-01 -1.60662696e-01
      -2.38076374e-01 -2.02563480e-02 1.29166827e-01 3.81779104e-01
      2.67653167e-01 1.54426200e-02 1.20735914e-01 -1.21885270e-01
      -3.18222880e-01 -8.35913196e-02 1.12713352e-01 7.02297688e-02
      2.33597364e-02 -1.00166738e-01 -1.96170256e-01 -5.32366633e-02
      4.00068760e-01 -1.40588567e-01 -1.38504788e-01 -9.14387256e-02
      4.03456502e-02 3.93879116e-01 3.03376317e-01 -1.76944047e-01
      -1.13734081e-01 -1.46078065e-01 -3.07652494e-03 -2.44177490e-01
      1.26093537e-01 3.62086087e-01 -2.06195951e-01 -1.76283661e-02
      -7.43367016e-01 3.41711044e-02 5.77028871e-01 -3.09921026e-01
      -5.03012657e-01 -2.32042357e-01 -1.71186283e-01 7.43754745e-01
      5.06286979e-01 2.07672566e-01 -5.01688682e-02 -9.82555300e-02
      5.22648394e-01 2.12101609e-01 3.28658134e-01 5.36898136e-01
      6.01760924e-01 3.79117668e-01 5.28696552e-02 5.01850024e-02
      -5.97738028e-02 -5.21954894e-01 -3.31706524e-01 4.37465720e-02
      2.82654464e-01 1.28882259e-01 1.94632038e-01 3.51162553e-01
      -3.76168132e-01 1.10918544e-02 -1.56136036e-01 -5.06363392e-01
      -2.93067604e-01 -2.23803595e-01 5.07429063e-01 -4.17105928e-02
      -3.36960629e-02 3.28698784e-01 -5.58268689e-02 1.06277145e-01
      7.88032562e-02 1.73732251e-01 2.00321659e-01 -1.56812176e-01
      -3.00072134e-01 -4.49577570e-01 -5.25912106e-01 -4.27920446e-02
      1.92245454e-01 -4.55064893e-01 -8.26421827e-02 -1.71582997e-01
      -1.46539599e-01 -1.75298639e-02 -4.10329580e-01 -6.60535514e-01
      2.06633538e-01 -8.29292536e-01 -2.34979212e-01 2.05148265e-01
      1.47256508e-01 1.24558389e-01 1.87774450e-01 1.88023999e-01
      -2.86966830e-01 -8.32564011e-02 6.14110641e-02 1.15258776e-01
      3.78520817e-01 4.49956566e-01 -4.50438380e-01 1.83606789e-01
      -2.53949463e-01 -3.30730051e-01 1.59397289e-01 -5.40138781e-01
      -3.04633856e-01 4.06372726e-01 -1.53886005e-01 -1.39806848e-02
      3.00752461e-01 -2.49919534e-01 -6.40002847e-01 -2.26748332e-01
      4.07035768e-01 4.96266305e-01 3.63593936e-01 5.67735964e-03
      3.15077417e-02 2.30296671e-01 1.24189869e-01 -3.54472458e-01
      -4.33332734e-02 3.81066918e-01 -3.30072761e-01 3.08346306e-03
      3.50334436e-01 1.50535628e-02 9.51786935e-02 8.78787786e-02
      -1.04380779e-01 -2.76985466e-01 4.24346417e-01 2.17079371e-01
      -2.11692095e-01 6.83427379e-02 -2.01470211e-01 5.58750182e-02
      -2.50455737e-02 -8.57574582e-01 7.74234310e-02 -3.17074992e-02
      -3.12535912e-01 -4.41029876e-01 -7.88128972e-02 -2.35189855e-01
      4.22125906e-02 2.31001034e-01 -5.09613693e-01 -2.86612719e-01
      -8.66460353e-02 -8.85113627e-02 -2.72737861e-01 -2.19342977e-01
      1.92351058e-01 -9.45952833e-02 2.95896262e-01 2.77217150e-01
      9.83471721e-02 1.70450419e-01 -2.88878325e-02 -2.41263732e-01
      1.88928783e-01 3.15224409e-01 -3.08809549e-01 -5.48502579e-02
      1.08238235e-01 1.72834575e-01 -7.34032393e-02 4.96348292e-01
      4.30365562e-01 1.84177890e-01 -1.72119662e-01 -2.95164108e-01
      -3.24844092e-01 1.98166430e-01 -3.63591835e-02 4.20898315e-04
      2.22290888e-01 -6.35616034e-02 -4.81370986e-02 3.83734182e-02
      -3.26869488e-01 -4.19194251e-01 -3.00005730e-02 2.72957772e-01
      2.03646217e-02 5.45270503e-01 5.36609590e-01 -5.49026318e-02
      -2.78372318e-01 -3.75454575e-02 -4.86563802e-01 -6.12934947e-01
      2.94300675e-01 -2.75460035e-01 -3.57336611e-01 5.02839945e-02
      -6.17025793e-02 2.94903517e-01 -1.01559363e-01 -9.46011990e-02
      5.10668047e-02 1.95941344e-01 7.29529262e-01 7.06370175e-02
      1.49890423e-01 2.20729902e-01 -3.64348531e-01 -1.29285917e-01
      -2.11351022e-01 -4.17713702e-01 -2.57698834e-01 -1.96130276e-01
      8.48943666e-02 -1.16387762e-01 -4.00284044e-02 1.66806474e-01
      -6.71620741e-02 1.93472147e-01 -4.91596609e-01 3.58215272e-01
      -3.68177183e-02 2.04967424e-01 1.46647930e-01 1.16000921e-01
      1.75220907e-01 -3.14339697e-01 -2.81304777e-01 -3.03086787e-01
      6.87855408e-02 2.35847875e-01 1.61234319e-01 -7.74600133e-02
      1.98410749e-02 -2.34531313e-01 -5.90004861e-01 -4.05383050e-01
      -4.47621971e-01 6.32884428e-02 4.31653321e-01 7.09117875e-02
      -3.78236413e-01 -4.51195031e-01 1.75778270e-01 -1.74228311e-01
      -1.47847444e-01 -4.66165066e-01 6.23817705e-02 -2.02161133e-01
      3.16685848e-02 1.76018268e-01 3.39163482e-01 -3.50318164e-01
      -5.24406075e-01 -7.71083161e-02 -4.24656738e-03 2.18932822e-01
      3.10304344e-01 1.51351422e-01 -1.06465332e-01 -9.26095247e-02
      -2.46337235e-01 -1.32851303e-01 2.47286260e-01 2.24226400e-01
      8.91451091e-02 -2.83813328e-01 -9.09027830e-02 -1.51420027e-01
      -3.31962466e-01 4.63987328e-02 -1.81236230e-02 -6.47860765e-02
      -1.51394799e-01 1.48092121e-01 3.14352125e-01 4.24530497e-03
      -5.06719351e-02 -5.50672896e-02 -2.34741434e-01 -4.42580655e-02
      4.78022903e-01 1.52720109e-01 -3.27489495e-01 -2.83932388e-01
      8.21039528e-02 -4.02052641e-01 -4.33148593e-01 2.64138520e-01
      -2.89538920e-01 -1.30707875e-01 -2.25653559e-01 -2.65326530e-01
      2.04569057e-01 2.20019937e-01 1.52519211e-01 1.91108450e-01
      -1.43889084e-01 -2.73676306e-01 -3.75458121e-01 -7.67871141e-01
      2.53722310e-01 1.16462700e-01 -1.30197098e-02 -4.53101248e-01
      -3.01109642e-01 -2.25663245e-01 -4.66100037e-01 -5.55864535e-02
      -2.84409821e-01 1.63634121e-01 -1.05748080e-01 5.84102906e-02
      -2.87687302e-01 -2.01532125e-01 -6.25065938e-02 -4.10735250e-01
      -1.10780962e-01 -2.88886577e-01 -3.06052696e-02 3.23545635e-01
      3.01093198e-02 -1.17400184e-01 -1.05018444e-01 -1.15536556e-01
      -3.92712891e-01 -2.62033165e-01 -1.36215955e-01 3.00440937e-01
      8.39811862e-02 -1.10013962e-01 -3.23440433e-01 8.73873383e-03
      -3.58557880e-01 -6.50076509e-01 -1.81582794e-01 -1.90664232e-02
      4.42647517e-01 8.52911621e-02 7.83932745e-01 7.60719553e-02
      -9.63320658e-02 -1.80664361e-01 -4.06482756e-01 -5.65665960e-02
      3.54808360e-01 -8.14287215e-02 -5.27564108e-01 8.13120902e-01
      7.97964036e-02 -9.38694552e-02 -2.71051586e-01 -2.10339189e-01
      7.33606815e-02 -2.33770870e-02 6.40639544e-01 4.39282089e-01
      2.18637720e-01 -1.18061081e-01 -1.58771455e-01 8.80393535e-02
      9.31615606e-02 1.17105924e-01 -1.09573625e-01 2.96925962e-01
      -5.26846647e-01 5.13757646e-01 -7.53094777e-02 -2.85561234e-02
      -4.69083607e-01 -1.85236469e-01 9.11661144e-03 -6.06751442e-01
      -1.28003314e-01 -3.18063915e-01 1.48021296e-01 -9.29778144e-02
      -4.23687488e-01 -4.63587530e-02 -1.47921115e-01 6.15732595e-02
      -3.10050309e-01 2.65364647e-01 -1.18984483e-01 3.72190505e-01
      8.86505321e-02 -5.17109223e-02 -2.79759169e-01 -2.52000660e-01
      -3.30535024e-02 -5.55993855e-01 3.24453652e-01 -3.39573890e-01
      -1.73614621e-01 1.48844674e-01 -3.77514094e-01 1.57549351e-01
      -1.90874234e-01 8.10247660e-02 -4.13214803e-01 2.47216105e-01
      1.18376566e-02 3.66932862e-02 2.86885530e-01 2.33193696e-01
      1.40259892e-01 -2.05694437e-01 5.11512421e-02 1.94311831e-02
      1.87924817e-01 -2.80711930e-02 -1.34040356e-01 1.04747690e-01
      1.36660442e-01 -4.53468710e-02 -4.97462720e-01 -2.14734197e-01
      8.72502178e-02 -1.42755762e-01 1.84128895e-01 -5.20301521e-01
      -1.07967049e-01 -1.07109874e-01 2.09567502e-01 -1.20743759e-01
      2.85842538e-01 2.79214066e-02 1.74557969e-01 -5.55351615e-01
      -3.50081593e-01 -8.19650758e-03 -2.42608488e-01 -7.74893491e-03
      -3.55757385e-01 2.40298316e-01 -2.42711231e-01 -3.95644665e-01
      -2.24990487e-01 -2.45579422e-01 -2.08452195e-01 -4.40702111e-01
      5.02136871e-02 -1.62062608e-02 2.25328311e-01 6.34954646e-02
      -1.29523745e-03 -2.13573694e-01 -2.64720857e-01 -1.94117576e-01
      -1.71026364e-01 3.31896603e-01 2.66040593e-01 3.97109538e-01
      1.43588454e-01 -3.70302558e-01 1.69636518e-01 1.72033384e-01
      3.14520001e-01 3.97726059e-01 -2.92508751e-01 -1.99936360e-01
      -2.88487911e-01 -5.36527872e-01 2.94656679e-02 -5.31098485e-01
      -5.65453291e-01 -3.31940472e-01 -3.78809154e-01 -8.64089429e-02
      1.91492699e-02 -6.66451920e-03 8.77151713e-02 -2.53230542e-01
      -4.17390496e-01 6.25020191e-02 -8.24502632e-02 -2.17025757e-01
      -9.23458785e-02 -6.84508681e-02 3.41056526e-01 -7.00728670e-02
      -8.13250169e-02 1.41184732e-01 -2.48761903e-02 8.06272700e-02
      7.97365159e-02 8.63955840e-02 -1.89118519e-01 -5.75060919e-02
      -2.44400427e-01 1.63759440e-01 1.68817103e-01 -3.86374332e-02
      -1.25832856e-01 8.01120177e-02 -2.78539807e-01 -1.68658212e-01
      2.64769010e-02 5.17254621e-02 -1.24301678e-02 2.57953972e-01
      -1.00560486e-01 1.41002029e-01 -3.59401464e-01 -6.32285327e-02
      -3.31707180e-01 -2.95522134e-03 3.04133236e-01 3.66482943e-01
      1.89541221e-01 1.84940174e-01 -8.88660848e-02 -6.38156459e-02
      -2.98023429e-02 -7.05913082e-02 1.14653774e-01 3.52813810e-01
      1.66206107e-01 5.05141437e-01 3.95458378e-02 -1.40739933e-01
      -1.86562911e-01 1.11883312e-01 1.84966639e-01 2.93382108e-01
      2.62965828e-01 -3.91484052e-02 -1.30196601e-01 3.54796737e-01
      -4.33427542e-01 -7.48562664e-02 1.94345906e-01 -1.73724651e-01
      3.01730633e-01 3.65628861e-02 -1.35992244e-01 3.71197276e-02
      2.10686117e-01 4.60819334e-01 3.09003234e-01 4.05557007e-01
      6.51492774e-02 3.28890681e-01 5.63471615e-01 5.27035706e-02
      3.68563741e-01 1.75785989e-01 4.38834518e-01 4.36399013e-01
      -1.07918970e-01 -2.51919925e-01 3.00900370e-01 1.74807295e-01
      5.51639080e-01 -2.79104978e-01 -6.43489122e-01 -1.31041631e-01
      -1.18585505e-01 1.14614360e-01 -2.45392814e-01 1.86702669e-01
      -2.40994081e-01 -4.53272238e-02 7.69959241e-02 6.43105730e-02
      3.34054857e-01 4.82004464e-01 6.46046937e-01 5.47272265e-01
      4.21301484e-01 -1.69036031e-01 5.08167028e-01 -3.68935168e-02
      6.56309605e-01 3.84537578e-01 4.26851690e-01 2.97395229e-01
      1.82083756e-01 -8.52872245e-03 -6.35787994e-02 -3.50188255e-01
      -1.35333776e-01 2.82167166e-01 6.12492144e-01 7.56891608e-01
      1.15386166e-01 6.57477230e-02 1.38494983e-01 5.70355296e-01
      -1.92580409e-02 -7.31123388e-02 -7.21887872e-02 1.11714818e-01
      4.21526395e-02 1.01827167e-01 -1.61508486e-01 1.97616562e-01
      4.79235679e-01 -1.84696600e-01 -1.83264390e-01 2.95073956e-01
      -5.00281192e-02 -1.27079159e-01 3.46515663e-02 -1.25961974e-01
      -3.12318981e-01 -2.16137365e-01 -7.72725761e-01 -5.09509563e-01
      2.65239570e-02 3.00426126e-01 5.59012115e-01 1.27740363e-02
      2.86312014e-01 -3.57545763e-02 -1.72899902e-01 -3.46446306e-01
      -3.32927734e-01 2.71673173e-01 1.10114060e-01 4.52846497e-01
      -4.83108796e-02 1.08885899e-01 -4.24563944e-01 -4.72270310e-01
      -4.87192482e-01 -1.08345352e-01 1.38443112e-01 -3.23129088e-01
      -5.35494328e-01 1.65750861e-01 -9.53678116e-02 -4.12984848e-01
      -3.56376827e-01 -1.90094501e-01 -9.61119756e-02 -2.12535292e-01
      -4.00078706e-02 9.06421840e-02 -2.85172135e-01 -1.71761230e-01
      -9.10888836e-02 -7.76821077e-01 -6.25463009e-01 -2.29608536e-01
      -4.25960541e-01 -2.50105828e-01 -6.05262697e-01 4.22788650e-01
      2.13782743e-01 3.49408597e-01 -1.81258470e-02 -3.61916691e-01
      1.62226975e-01 -1.98468506e-01 -2.33967721e-01 5.51777259e-02
      7.10039809e-02 -5.80864474e-02 1.44461229e-01 2.11551294e-01
      1.99949205e-01 2.22983453e-02 -1.02152377e-01 -1.86713278e-01
      6.84578158e-03 3.24160099e-01 -1.18416019e-01 1.63920715e-01
      2.67433167e-01 1.93468049e-01 2.03902319e-01 -4.31139082e-01
      5.56126982e-02 -3.00931535e-03 -9.59762484e-02 6.30961880e-02
      3.88136774e-01 -2.14528143e-02 -2.38228410e-01 -2.53585398e-01
      9.02201980e-02 -1.02684334e-01 -1.18453003e-01 -9.66026708e-02
      -2.07054242e-01 -7.13822171e-02 -2.25477040e-01 2.25880787e-01
      1.90690905e-01 2.58391015e-02 -7.47651309e-02 -5.40158153e-02
      4.56883550e-01 1.23770736e-01 4.68634740e-02 -3.96400452e-01
      1.46491796e-01 -1.90379888e-01 6.09951392e-02 2.18166143e-01
      1.53996244e-01 6.19806468e-01 2.00248837e-01 6.91990495e-01
      3.83678764e-01 2.55149394e-01 -1.91173032e-01 2.46941745e-01
      3.74265015e-01 5.68983436e-01 -5.49121201e-02 -6.49584904e-02
      -1.66943401e-01 5.37644550e-02 7.38232255e-01 1.21598996e-01
      2.53612429e-01 -3.38159241e-02 -6.23003878e-02 4.52989608e-01
      2.87597366e-02 6.08660057e-02 -5.04882157e-01 4.87405092e-01
      7.87773609e-01 1.53189570e-01 2.62239337e-01 3.92834127e-01</_></support_vectors>
  <uncompressed_sv_total>228</uncompressed_sv_total>
  <uncompressed_support_vectors>
    <_>
      2.90957931e-02 4.65232208e-02 6.52662888e-02 3.11475962e-01
      3.11475962e-01 1.63029104e-01 6.75525889e-02 4.13870364e-02
      3.95549946e-02 3.03307269e-02 4.27916721e-02 4.05366793e-02
      2.12093040e-01 1.98679596e-01 3.11475962e-01 2.74070024e-01
      8.08902308e-02 6.79954961e-02 1.65837985e-02 3.30999703e-03
      7.74035081e-02 3.11475962e-01 3.11475962e-01 7.52204135e-02
      3.87920141e-02 2.24850327e-02 1.40892453e-02 6.58367667e-03
      7.28291692e-03 3.05784754e-02 2.83414185e-01 3.11475962e-01
      3.11475962e-01 7.32960030e-02 6.03698753e-03 6.03141636e-03
      7.30221998e-03 6.98162150e-03 2.29104664e-02 8.28049853e-02
      3.15706521e-01 3.15706521e-01 2.29600117e-01 3.69232856e-02
      1.93948653e-02 1.92111023e-02 1.90897975e-02 4.32367139e-02
      9.44575295e-02 2.30077997e-01 3.15706521e-01 2.03748420e-01
      5.46494760e-02 1.02695115e-02 1.51541168e-02 3.33758816e-02
      3.25058028e-02 1.77688584e-01 3.15706521e-01 3.15706521e-01
      1.16931178e-01 1.91411749e-02 5.55002550e-03 5.98094389e-02
      6.78216964e-02 4.49119024e-02 1.03958130e-01 3.15706521e-01
      3.15706521e-01 2.04315305e-01 1.12406701e-01 6.87056854e-02
      3.45683992e-02 3.84287164e-02 5.43882363e-02 3.89432162e-02
      9.76309180e-02 1.94086641e-01 2.97552049e-01 1.68606535e-01
      1.81876905e-02 5.03490977e-02 4.84786257e-02 1.66130453e-01
      7.45257959e-02 1.64866701e-01 2.06496879e-01 2.97552049e-01
      1.23576291e-01 1.44203352e-02 5.43184057e-02 4.37539630e-02
      3.28901634e-02 3.92336622e-02 1.12178631e-01 1.82095796e-01
      2.97552049e-01 2.97552049e-01 1.49240986e-01 8.37596692e-03
      1.04843881e-02 2.77915727e-02 5.56516685e-02 2.97552049e-01
      2.97552049e-01 2.97552049e-01 2.97552049e-01 5.22610620e-02
      2.29417589e-02 2.00083833e-02 1.05347745e-01 5.67914881e-02
      1.67528152e-01 1.98435560e-01 1.43411696e-01 3.79080288e-02
      1.44295534e-02 5.30396355e-03 2.68783537e-03 9.19438805e-03
      1.04567647e-01 3.25664759e-01 3.25664759e-01 2.72782177e-01
      2.39715222e-02 8.90532602e-03 3.83796217e-03 6.86096726e-03
      2.69145109e-02 7.29757324e-02 3.25664759e-01 3.20113331e-01
      1.69670820e-01 3.79731655e-02 5.16858790e-03 1.43573096e-03
      4.12861770e-03 2.55850703e-02 3.25664759e-01 3.25664759e-01
      3.25664759e-01 1.69121444e-01 3.18778120e-02 1.56509131e-02
      9.31806397e-04 1.07401004e-03 1.24214112e-03 5.62694296e-02
      3.47075820e-01 3.47075820e-01 1.25216886e-01 7.24799791e-03
      1.25780667e-03 1.75217334e-02 7.82089494e-03 2.61464948e-03
      1.17383124e-02 2.23970309e-01 3.47075820e-01 4.58353013e-02
      8.92670229e-02 4.56560142e-02 8.48785712e-05 6.00244501e-04
      8.73166788e-03 2.11964965e-01 3.47075820e-01 3.47075820e-01
      1.46264717e-01 2.38104928e-02 1.38280168e-02 1.62869841e-02
      1.17745688e-02 3.43371136e-03 2.69322786e-02 3.47075820e-01
      3.47075820e-01 4.76151742e-02 1.69887170e-02 2.67208964e-02
      1.03430366e-02 3.87430249e-04 7.27635920e-02 3.39703619e-01
      3.39703619e-01 8.65625963e-02 3.18773813e-03 2.91613839e-03
      9.90712363e-03 6.95243245e-03 1.56367617e-03 5.16191609e-02
      2.88331836e-01 3.39703619e-01 2.17265800e-01 1.30729191e-02
      1.48923529e-04 7.38231000e-03 8.95385724e-03 1.60250333e-04
      1.00836372e-02 2.29972854e-01 3.39703619e-01 2.84449488e-01
      1.38499960e-02 1.48923529e-04 8.79228488e-03 7.18159555e-03
      3.52550705e-04 2.96238456e-02 1.36484176e-01 3.39703619e-01
      3.39703619e-01 6.37861565e-02 3.27631802e-04 6.82613533e-03
      8.49766657e-03 1.69945136e-02 3.64864953e-02 2.10837632e-01
      3.25720370e-01 3.25720370e-01 7.98603520e-02 8.79676081e-03
      1.92804867e-03 2.61172354e-02 3.53788733e-02 1.73825808e-02
      1.02326959e-01 3.25720370e-01 3.25720370e-01 1.42455906e-01
      5.80986589e-02 4.01817262e-02 1.48734520e-03 9.44402011e-04
      2.77812500e-02 1.57143325e-01 3.25720370e-01 3.25720370e-01
      8.16130862e-02 1.29412941e-03 9.72319162e-04 4.28038323e-03
      5.95300738e-03 1.57707296e-02 1.11722603e-01 3.25720370e-01
      3.25720370e-01 1.10060990e-01 1.76371429e-02 7.76084978e-03
      2.38459203e-02 2.37385910e-02 8.95694550e-03 4.29800935e-02
      2.42805898e-01 1.65463254e-01 1.70191467e-01 2.01327741e-01
      8.98874328e-02 4.31845756e-03 5.65116294e-03 3.30851064e-03
      4.23771851e-02 3.37457508e-01 3.37457508e-01 2.62518585e-01
      1.87161043e-01 3.56834009e-02 9.05833580e-03 1.08965728e-02
      1.13118533e-02 5.57326823e-02 3.37457508e-01 3.37457508e-01
      9.29336846e-02 8.84099230e-02 2.31118873e-02 3.84174474e-03
      5.84920868e-03 8.25226959e-03 3.60715389e-02 3.37457508e-01
      3.37457508e-01 9.82459933e-02 8.75574425e-02 1.25700645e-02
      2.64841062e-03 2.93615330e-02 5.15902527e-02 8.87543485e-02
      3.22947025e-01 3.22947025e-01 1.19516678e-01 4.16065454e-02
      4.43309080e-03 3.69148515e-03 3.72326076e-02 7.76731595e-02
      2.68752038e-01 3.22947025e-01 3.22947025e-01 1.64993867e-01
      9.54476744e-02 2.78287660e-02 1.36810606e-02 3.97103913e-02
      5.67688271e-02 5.04776649e-02 3.22947025e-01 3.22947025e-01
      4.27276231e-02 3.53132002e-02 3.47158015e-02 2.02803370e-02
      5.38193025e-02 7.16781765e-02 1.00931086e-01 3.22947025e-01
      2.45958984e-01 1.31060526e-01 1.03784651e-01 6.00754134e-02
      3.88504326e-04 3.04217148e-03 1.00454725e-02 1.01597540e-01
      3.41830820e-01 3.41830820e-01 1.20584734e-01 5.75934723e-02
      1.82838570e-02 5.98775363e-03 5.48975077e-03 3.76023306e-03
      2.47890241e-02 3.41830820e-01 3.41830820e-01 2.79599819e-02
      6.43919129e-03 8.50277673e-03 2.22783699e-03 4.84911911e-03
      7.02076824e-03 1.15081720e-01 3.41830820e-01 3.30672383e-01
      8.56587514e-02 4.72126231e-02 1.18314754e-02 2.11760844e-03
      1.27735652e-03 1.34707207e-03 1.25842258e-01 3.41830820e-01
      3.41830820e-01 1.40373679e-02 3.53549048e-03 2.44252593e-03
      6.20289706e-03 6.04405577e-05 3.91339697e-03 5.53898327e-02
      3.55459303e-01 3.55459303e-01 4.25158106e-02 3.40679253e-05
      5.82670048e-03 1.95420184e-03 1.32969231e-04 1.22389980e-02
      4.08726782e-02 3.55459303e-01 3.55459303e-01 7.44952559e-02
      7.49494357e-05 1.12656876e-03 3.17649497e-03 0. 3.83052090e-03
      1.88126653e-01 3.55459303e-01 3.18559438e-01 2.80492492e-02 0.
      3.17649497e-03 1.38166314e-03 0. 1.12387529e-02 1.62870049e-01
      3.55459303e-01 2.45594293e-01 3.65470946e-02 0. 1.38166314e-03
      2.27109267e-04 2.03745745e-04 6.94248592e-03 6.87797070e-02
      3.60276312e-01 3.01189959e-01 3.72805260e-02 4.68146056e-04
      1.30925153e-04 1.98260066e-04 1.16800575e-03 8.92817136e-03
      1.39243454e-01 3.60276312e-01 3.60276312e-01 2.04070769e-02
      3.15892021e-03 1.35886658e-04 4.36477683e-04 3.15313716e-03
      6.36407407e-03 1.39640033e-01 3.60276312e-01 2.22517014e-01
      1.72214918e-02 1.59339549e-03 1.58376724e-03 0. 1.36732291e-02
      1.74028035e-02 2.82937616e-01 3.60276312e-01 2.83597767e-01
      1.30250044e-02 9.13317781e-03 5.91222197e-03 6.17095444e-04
      1.73133973e-03 5.90195833e-03 9.16360691e-02 3.75872523e-01
      3.00452262e-01 1.56299733e-02 7.70615786e-03 6.97334355e-04
      8.82476510e-04 1.66439079e-03 3.87790496e-03 4.54454310e-02
      3.75872523e-01 3.75872523e-01 1.36569794e-02 6.37451140e-03
      1.43812981e-03 0. 6.63678348e-03 1.55065386e-02 2.51736790e-01
      3.75872523e-01 1.90871328e-01 1.76072232e-02 1.38822496e-02
      6.92130812e-03 1.00589154e-04 1.38375291e-03 1.10612838e-02
      1.93303689e-01 3.75872523e-01 2.23988667e-01 1.14028361e-02
      8.66080634e-03 3.86768417e-03 1.61904078e-02 1.57233253e-02
      1.83466934e-02 4.44731116e-02 3.72181952e-01 3.72181952e-01
      1.44534213e-02 1.11165559e-02 1.87663231e-02 2.09852159e-02
      1.94503721e-02 3.38150822e-02 1.32426128e-01 3.72181952e-01
      1.60268784e-01 2.70744972e-02 2.62121838e-02 2.68897563e-02
      1.24789570e-02 5.23906201e-03 1.72607806e-02 1.46900982e-01
      3.72181952e-01 3.72181952e-01 1.05505791e-02 5.86492941e-03
      7.20740901e-03 1.82437897e-02 1.66224651e-02 6.89950958e-02
      2.12376922e-01 3.72181952e-01 2.03002080e-01 9.72155388e-03
      6.55310741e-03 1.57863721e-02 2.07115663e-03 1.72269926e-03
      1.12100430e-02 1.73169211e-01 3.93979877e-01 2.17747465e-01
      1.15189208e-02 7.95361958e-03 3.71070881e-03 6.62213366e-04
      9.21313112e-05 6.71352958e-04 1.68536529e-01 3.93979877e-01
      2.46239245e-01 1.43828546e-03 3.27637215e-04 7.00568082e-04
      3.64265172e-03 8.81481078e-03 3.62232849e-02 2.00558126e-01
      3.93979877e-01 2.54340917e-01 3.46034626e-03 6.24519307e-04
      8.73807818e-03 1.33266766e-03 9.74035298e-04 4.50893026e-03
      2.24483013e-01 3.93979877e-01 2.27085426e-01 1.39673916e-03
      4.38445422e-05 2.70389696e-03 3.53161478e-03 0. 2.90588592e-04
      1.29091457e-01 3.90013635e-01 3.07535976e-01 4.70001856e-03
      3.07832051e-05 3.53161478e-03 7.04247085e-03 0. 1.44672440e-03
      1.23416297e-01 3.90013635e-01 1.20138429e-01 1.41136749e-02
      1.33393900e-04 7.04247085e-03 9.44689102e-03 4.21287073e-03
      1.83389336e-02 3.85219716e-02 3.90013635e-01 3.90013635e-01
      5.43626100e-02 5.90164156e-04 7.37489248e-03 1.48962513e-02
      2.10824632e-03 7.29288720e-03 7.25220516e-02 3.90013635e-01
      2.79795587e-01 7.27729425e-02 3.92714934e-03 1.48962513e-02
      9.05278884e-03 6.72668545e-03 1.42124593e-02 1.82003558e-01
      3.57998610e-01 1.73240900e-01 2.03261431e-02 1.65062561e-03
      9.97529551e-03 2.88349669e-02 2.82597709e-02 6.97650984e-02
      3.04729998e-01 3.57998610e-01 2.34581798e-01 2.09743157e-02
      2.02163421e-02 3.70213985e-02 1.46494200e-02 6.21695770e-03
      2.45805588e-02 2.45726749e-01 3.57998610e-01 1.98991194e-01
      7.44611770e-02 4.45641624e-03 1.95855275e-02 6.79401085e-02
      5.49829118e-02 1.05448663e-01 3.29164088e-01 3.57998610e-01
      1.49991974e-01 4.56613339e-02 2.70404965e-02 6.30702823e-02
      2.48226207e-02 2.45463476e-02 7.02620149e-02 3.10729802e-01
      3.10729802e-01 1.87418923e-01 3.79777737e-02 7.44225606e-02
      5.35804518e-02 9.37872380e-03 1.40020410e-02 3.62384282e-02
      3.10729802e-01 3.10729802e-01 2.06578821e-01 3.37895006e-02
      5.48967682e-02 3.22719701e-02 1.59825727e-01 1.38626933e-01
      1.40464902e-01 1.94710925e-01 2.68773794e-01 6.48496747e-02
      2.60426886e-02 9.44310948e-02 1.44152731e-01 1.71619713e-01
      1.73512116e-01 1.53425187e-01 3.10729802e-01 3.10729802e-01
      6.82027116e-02 3.12357694e-02 7.11776838e-02 1.18142687e-01
      4.70817089e-03 3.32620065e-03 1.22034792e-02 2.40172043e-01
      3.04279655e-01 3.04279655e-01 7.17606246e-02 4.33248095e-02
      3.55212167e-02 1.20035140e-02 1.64713990e-02 6.38160408e-02
      2.36599132e-01 3.04279655e-01 1.85656250e-01 6.00575991e-02
      5.33232912e-02 6.37166947e-02 5.13896197e-02 7.90380761e-02
      1.21783331e-01 3.04279655e-01 3.04279655e-01 1.42301872e-01
      1.04872957e-01 5.75150512e-02 4.95710783e-02 2.68795118e-02
      3.00315879e-02 2.81357408e-01 3.04279655e-01 3.04279655e-01
      1.18219376e-01 9.81543213e-02 8.12968090e-02 7.42964819e-02
      6.95919339e-03 1.09468494e-02 5.67783862e-02 3.29663962e-01
      3.29663962e-01 1.24279849e-01 7.06487475e-03 1.13554541e-02
      3.06384806e-02 2.03547557e-03 1.36638223e-03 2.03069597e-02
      3.28255296e-01 3.29663962e-01 1.62882745e-01 2.41887476e-03
      1.51660608e-03 7.15688430e-03 9.94683523e-03 8.28381069e-03
      2.31218964e-01 3.29663962e-01 3.29663962e-01 8.06080252e-02
      1.66836344e-02 2.33587250e-02 3.36288586e-02 2.02547736e-03
      3.52598203e-04 6.99625537e-02 3.29663962e-01 3.29663962e-01
      1.18786879e-01 9.56548005e-03 3.31351277e-03 6.98013557e-03
      7.50094187e-03 7.41997315e-03 2.91532744e-02 6.07359670e-02
      2.95314670e-01 2.95314670e-01 1.85110360e-01 6.21269736e-03
      4.45684046e-03 1.18684461e-02 5.07979561e-03 2.54665036e-02
      1.81836203e-01 2.95314670e-01 2.95314670e-01 9.53328162e-02
      3.94680537e-03 8.34274106e-03 7.54866283e-03 5.75169362e-03
      1.66938230e-02 1.70084551e-01 2.95314670e-01 2.95314670e-01
      2.04943165e-01 1.30685540e-02 9.01593920e-03 2.90280152e-02
      4.75195199e-02 1.98106840e-01 2.95314670e-01 2.95314670e-01
      2.95314670e-01 1.23654202e-01 1.40597885e-02 2.71732267e-02
      1.18207615e-02 7.86431786e-03 4.76926789e-02 3.21174353e-01
      3.21174353e-01 1.20332353e-01 4.27597910e-02 5.97394211e-03
      1.63074974e-02 7.54582286e-02 1.11543879e-01 1.19842291e-01
      3.21174353e-01 3.21174353e-01 5.66275269e-02 2.83377226e-02
      1.50003508e-02 4.54780050e-02 1.68420225e-02 3.61160263e-02
      2.40438595e-01 3.21174353e-01 3.21174353e-01 7.73691386e-02
      2.28863861e-02 5.74599672e-03 1.21927224e-02 3.67857851e-02
      9.42372456e-02 1.91247657e-01 3.21174353e-01 3.21174353e-01
      1.89025775e-02 6.81189122e-03 1.19101470e-02 1.53201418e-02
      2.46906191e-01 2.46906191e-01 2.46906191e-01 1.68733537e-01
      1.23218253e-01 1.86640397e-02 1.59872826e-02 4.22095805e-02
      1.36564016e-01 2.46906191e-01 2.46906191e-01 2.46906191e-01
      2.46906191e-01 1.43483624e-01 1.95074305e-02 2.01772097e-02
      4.33104448e-02 1.64376155e-01 1.37051970e-01 2.46906191e-01
      2.46906191e-01 2.32101083e-01 1.63000509e-01 1.93245616e-02
      7.27556273e-03 4.05368470e-02 4.69317362e-02 2.46906191e-01
      2.46906191e-01 2.32831776e-01 1.07319683e-01 9.30774882e-02
      2.63894834e-02 1.98124852e-02 7.19315112e-02 1.66833431e-01
      1.51765630e-01 1.85234204e-01 2.04478338e-01 2.41579577e-01
      1.20832533e-01 3.36719677e-02 3.88896912e-02 3.88114415e-02
      1.06373042e-01 5.90394065e-02 1.85569137e-01 2.83686846e-01
      2.83686846e-01 2.20954731e-01 4.29741144e-02 3.81605327e-02
      3.59863229e-02 6.44496977e-02 2.79697120e-01 2.72655487e-01
      1.57789335e-01 4.83793840e-02 2.09704023e-02 1.90139953e-02
      2.50325054e-02 1.03726014e-01 2.37747744e-01 9.49368849e-02
      2.83686846e-01 2.83686846e-01 2.83686846e-01 1.96943790e-01
      2.57109031e-02 1.35604991e-02 5.35086319e-02 1.08011320e-01
      9.21139307e-03 4.02479023e-02 3.37833166e-01 3.37833166e-01
      3.14253539e-01 3.73301134e-02 8.91826674e-03 7.56727299e-03
      9.58977826e-03 4.82177781e-03 2.23335763e-03 5.89370541e-02
      3.37833166e-01 3.37833166e-01 4.19715159e-02 7.45994551e-03
      3.45112686e-03 4.29564901e-03 7.70093547e-03 6.92818686e-02
      2.57668763e-01 3.37833166e-01 2.49024794e-01 1.00191226e-02
      8.27079290e-04 2.62684975e-04 3.47630848e-04 1.28283799e-02
      1.76968686e-02 1.23996258e-01 3.37833166e-01 2.34620124e-01
      6.75308239e-03 1.26859359e-03 2.32056924e-03 9.27900337e-03</_>
    <_>
      1.17775843e-01 1.17141128e-01 1.22116268e-01 3.14558417e-01
      3.14558417e-01 7.74848834e-02 5.06740287e-02 5.92857376e-02
      5.76762110e-02 1.02071844e-01 5.49814031e-02 4.34778035e-02
      9.12617519e-02 1.64930895e-01 3.14558417e-01 3.11772555e-01
      1.53299034e-01 8.20073485e-02 2.58983243e-02 1.98348109e-02
      6.01390339e-02 3.14558417e-01 3.14558417e-01 8.76055658e-02
      2.69195121e-02 1.68097578e-02 1.08298790e-02 2.67462842e-02
      1.93339530e-02 3.00418064e-02 1.56298801e-01 3.14558417e-01
      3.14558417e-01 1.63236558e-01 3.70006040e-02 1.01102432e-02
      9.01726168e-03 1.13789819e-03 1.19223287e-02 1.07160665e-01
      3.30444276e-01 3.30444276e-01 1.83052421e-01 5.08929975e-02
      1.58436913e-02 1.16876895e-02 1.05873719e-02 3.26055065e-02
      1.37908667e-01 2.85020649e-01 2.44692415e-01 1.21702760e-01
      2.01616138e-02 8.40693060e-03 5.75480564e-03 1.79931079e-03
      1.88614633e-02 1.15557224e-01 3.30444276e-01 3.30444276e-01
      1.05899297e-01 9.97080840e-03 3.23725794e-03 2.33059861e-02
      1.02905948e-02 5.85511327e-02 2.48321354e-01 3.30444276e-01
      3.30444276e-01 1.50719091e-01 5.09950854e-02 2.49428377e-02
      3.30990888e-02 5.33925295e-02 4.42906208e-02 6.71131909e-02
      2.04156145e-01 2.85937488e-01 3.03439200e-01 5.19338101e-02
      2.49992255e-02 4.68832888e-02 7.03361332e-02 1.26926094e-01
      1.84272274e-01 2.27138594e-01 2.33802721e-01 1.65004417e-01
      4.21803817e-02 2.91697085e-02 3.71294506e-02 2.35370360e-02
      4.54280078e-02 1.69955641e-01 1.12551190e-01 2.50294894e-01
      3.03439200e-01 2.30566278e-01 5.14320992e-02 1.56576838e-02
      2.46084351e-02 7.18815476e-02 1.38872907e-01 2.83286363e-01
      3.03439200e-01 3.03439200e-01 1.68430865e-01 1.55707709e-02
      2.27957461e-02 2.93480475e-02 6.69052005e-02 1.25095069e-01
      1.18197791e-01 2.13329479e-01 1.37253284e-01 4.22358662e-02
      2.00206917e-02 7.21700909e-03 8.96479003e-03 7.47698639e-03
      5.63843586e-02 3.39891374e-01 3.39891374e-01 3.22782576e-01
      3.78731787e-02 1.14998613e-02 7.82000273e-03 1.75150968e-02
      4.05911319e-02 1.08688876e-01 2.41446257e-01 3.39891374e-01
      1.57901168e-01 3.00430097e-02 1.06830858e-02 3.02952342e-03
      7.39820441e-03 6.37990236e-03 1.62631184e-01 3.39891374e-01
      3.39891374e-01 2.87706971e-01 1.95583161e-02 7.43394298e-03
      9.58745077e-04 6.54894917e-04 1.40873063e-03 2.73614861e-02
      3.47325116e-01 3.47325116e-01 1.22981630e-01 7.52587104e-03
      9.58745077e-04 1.58274416e-02 3.02827079e-03 4.02307231e-03
      2.15172358e-02 2.80956745e-01 3.45516533e-01 9.15029570e-02
      8.28799978e-02 2.74482705e-02 1.36451228e-04 0. 1.10587198e-03
      1.15459256e-01 3.47325116e-01 3.47325116e-01 1.53338179e-01
      1.37578556e-03 1.36451228e-04 1.42018078e-02 5.89779811e-03
      1.54009962e-03 5.34782335e-02 3.47325116e-01 3.47325116e-01
      2.81284023e-02 1.95354279e-02 2.48344913e-02 1.58047210e-02
      4.56772139e-03 3.78908813e-02 3.30890775e-01 3.30890775e-01
      4.58264984e-02 4.33261413e-03 1.58514525e-03 1.53610343e-02
      7.78066134e-03 8.65486544e-03 3.09783127e-02 2.42050901e-01
      3.30890775e-01 3.30890775e-01 2.15752404e-02 2.36095535e-03
      7.21604703e-03 1.99687835e-02 8.69612582e-03 3.04777045e-02
      3.30890775e-01 3.30890775e-01 6.33877367e-02 1.05557097e-02
      7.19026430e-03 1.81293543e-02 4.02647676e-03 1.15798078e-02
      7.00467378e-02 3.30890775e-01 3.30890775e-01 2.12175801e-01
      1.92512590e-02 1.21367034e-02 2.69068917e-03 2.84503633e-03
      1.53718039e-03 1.83665734e-02 1.55956715e-01 3.17702532e-01
      3.17702532e-01 1.50604984e-02 3.28752794e-03 2.47513154e-03
      1.37245459e-02 1.61375534e-02 3.21565680e-02 1.57585815e-01
      3.17702532e-01 3.06208372e-01 4.97610010e-02 3.83792706e-02
      2.09365040e-02 3.14962259e-03 2.15646997e-03 5.71329594e-02
      3.17702532e-01 3.17702532e-01 3.17702532e-01 1.15885800e-02
      7.13044358e-03 1.68577000e-03 1.36106592e-02 1.49876671e-02
      3.72964144e-02 1.79578990e-01 3.17702532e-01 3.17702532e-01
      2.52728239e-02 3.86502706e-02 1.77862458e-02 2.10561417e-02
      2.78326962e-02 2.81645451e-02 9.21163484e-02 1.07892133e-01
      1.23015836e-01 2.93536276e-01 1.71442375e-01 4.72743101e-02
      5.14646061e-03 5.54951373e-03 4.33709100e-03 3.21201868e-02
      2.29449421e-01 3.06031734e-01 3.06031734e-01 1.37428328e-01
      1.69376712e-02 2.31734421e-02 3.47943641e-02 4.30458896e-02
      1.02250405e-01 3.06031734e-01 3.06031734e-01 2.11336732e-01
      1.63276300e-01 6.08996786e-02 9.60703287e-03 1.21057751e-02
      1.56939402e-02 5.11070229e-02 3.06031734e-01 3.06031734e-01
      3.06031734e-01 1.41261041e-01 3.50130983e-02 1.44412660e-03
      3.35362717e-03 1.14750201e-02 6.59899116e-02 3.06191146e-01
      3.06191146e-01 1.42814294e-01 1.34712420e-02 8.97734542e-04
      1.39647920e-03 4.76840278e-03 2.09857486e-02 2.98943728e-01
      3.06191146e-01 3.06191146e-01 8.95771235e-02 2.13655550e-03
      8.74817197e-04 1.17857419e-02 1.57959256e-02 6.58881888e-02
      9.50345844e-02 3.06191146e-01 3.06191146e-01 1.29339740e-01
      1.26348315e-02 1.95156829e-03 1.64696053e-02 3.38467173e-02
      1.02825135e-01 2.64903128e-01 3.06191146e-01 3.06191146e-01
      1.04053035e-01 1.77463796e-02 4.22010245e-03 6.24340755e-05
      4.96424036e-04 4.04955260e-03 1.77191958e-01 3.40769410e-01
      3.40769410e-01 6.96548149e-02 1.83819060e-03 4.03431477e-05
      6.24703383e-03 1.84912293e-03 1.00096152e-03 3.98654006e-02
      3.40769410e-01 3.40769410e-01 2.09802743e-02 1.58951012e-03
      5.49654476e-03 1.70910510e-03 5.25734341e-03 1.23385629e-02
      1.10931449e-01 3.40769410e-01 3.40769410e-01 1.16171673e-01
      2.60282569e-02 6.21968822e-04 2.11902894e-03 2.17627487e-04
      7.37598515e-04 3.31283808e-02 3.40769410e-01 3.40769410e-01
      3.65653187e-02 1.12593481e-02 1.29794108e-03 1.29607255e-02
      1.32510019e-02 2.15540901e-02 1.20563366e-01 3.68575454e-01
      1.22441262e-01 3.51096205e-02 1.95552949e-02 7.37167010e-03
      5.84497442e-03 1.21284500e-02 5.10270149e-02 2.34187067e-01
      3.68575454e-01 3.68575454e-01 8.87024552e-02 4.51592654e-02
      1.15058909e-03 5.84698701e-03 5.67453448e-03 9.56532639e-03
      4.21554781e-02 3.68575454e-01 1.96861625e-01 6.48630559e-02
      2.30059270e-02 3.38554359e-03 6.84931502e-03 5.83094312e-03
      1.95617545e-02 7.08010420e-02 3.68575454e-01 3.68575454e-01
      1.67764783e-01 5.11528812e-02 3.53242573e-03 3.94412875e-03
      2.54409341e-03 4.01855148e-02 1.88426346e-01 3.46608877e-01
      2.74369121e-01 2.78154947e-02 8.71618558e-03 1.43521698e-03
      8.56850576e-03 5.11670811e-03 2.73602437e-02 1.13642454e-01
      3.46608877e-01 3.40977579e-01 1.77438483e-02 1.65139865e-02
      6.17345516e-03 5.66358212e-03 2.89838854e-03 1.90314893e-02
      1.00592256e-01 3.46608877e-01 3.46608877e-01 7.67881870e-02
      9.84743517e-03 1.79076008e-03 6.79355767e-03 2.86224228e-03
      1.51498588e-02 1.18168212e-01 3.46608877e-01 3.46608877e-01
      3.14978100e-02 4.85042250e-03 1.89680164e-03 4.91278898e-03
      6.94843708e-03 1.45275658e-02 3.73918824e-02 3.76378745e-01
      2.51651973e-01 5.99737614e-02 2.95551252e-02 1.66148338e-02
      1.72242627e-03 3.11531383e-03 7.39015173e-03 2.64221895e-02
      3.76378745e-01 3.76378745e-01 1.02926798e-01 2.32567322e-02
      1.15548596e-02 1.26442302e-03 5.49911289e-04 3.03466641e-03
      4.19904068e-02 3.76378745e-01 2.67436117e-01 6.75289566e-03
      1.36210793e-03 1.69644388e-03 0. 2.28221877e-04 1.07320049e-03
      4.19608988e-02 3.76378745e-01 3.61829817e-01 1.06551964e-02
      5.38771681e-04 1.12463150e-03 1.11487284e-02 1.58927497e-02
      5.23439832e-02 6.31758124e-02 3.88255745e-01 3.88255745e-01
      5.66169992e-02 1.14811109e-02 4.12818836e-03 2.02732980e-02
      4.03347425e-02 7.58302957e-02 8.30915347e-02 2.65675485e-01
      2.55526245e-01 1.20115384e-01 3.07045430e-02 9.08201467e-03
      8.20795633e-03 1.41867865e-02 1.77452806e-02 6.64325207e-02
      3.88255745e-01 3.88255745e-01 2.50177421e-02 1.37936445e-02
      3.84025765e-03 1.55421626e-02 2.74141766e-02 3.36822979e-02
      1.17749371e-01 3.88255745e-01 1.96170956e-01 7.02587739e-02
      2.47768126e-02 8.38975515e-03 2.74544815e-03 7.27442559e-03
      8.35205987e-03 6.95955530e-02 3.62440735e-01 3.06375653e-01
      1.03667632e-01 2.52649989e-02 1.35075767e-03 5.82778477e-04
      3.91021313e-05 1.30748725e-04 8.75716209e-02 3.62440735e-01
      3.62440735e-01 2.77987439e-02 9.42334067e-03 5.82778477e-04
      2.14076741e-03 4.26024804e-03 6.17300440e-03 1.58406749e-01
      3.62440735e-01 2.42391542e-01 4.01250459e-02 5.65563515e-03
      1.24295871e-03 2.64135801e-04 0. 3.58471909e-04 1.54783279e-01
      3.62440735e-01 3.33499968e-01 8.54837149e-03 7.08441483e-04
      2.64135801e-04 3.56834824e-03 0. 1.24153160e-02 4.84004281e-02
      4.04420674e-01 2.20187739e-01 4.15481776e-02 9.14566312e-03
      3.56834824e-03 4.61134128e-03 1.98155438e-04 9.65635665e-03
      5.65663688e-02 4.04420674e-01 4.04420674e-01 8.26059952e-02
      1.80987623e-02 4.21818020e-03 3.52962269e-03 3.54210410e-04
      1.35238338e-02 9.93721187e-02 4.04420674e-01 1.98735476e-01
      1.12964129e-02 7.24071288e-04 3.52962269e-03 7.20646419e-03
      4.55413392e-04 1.10569131e-02 1.30417168e-01 4.04420674e-01
      2.18036577e-01 1.99503452e-02 1.29402557e-03 7.20646419e-03
      1.50211633e-03 3.63316038e-04 1.00951851e-03 1.03559434e-01
      3.99631649e-01 2.89383978e-01 3.24416459e-02 4.01007384e-03
      7.81258859e-04 6.84728264e-04 2.82579160e-04 4.37458046e-03
      2.10541829e-01 3.99631649e-01 2.13759273e-01 1.56989377e-02
      3.52246757e-03 1.24061378e-04 2.42941245e-03 5.64606453e-04
      3.38496384e-03 1.59037143e-01 3.99631649e-01 1.73538551e-01
      6.28897408e-03 2.58008600e-03 2.35748640e-03 3.66016314e-03
      2.33736448e-03 1.77393034e-02 3.04624170e-01 3.99631649e-01
      1.49937674e-01 1.06840786e-02 1.15245497e-02 3.26027442e-03 0.
      1.17977746e-04 6.48764148e-03 1.45410672e-01 3.89630526e-01
      1.50898486e-01 2.19332264e-03 1.07536442e-03 0. 0. 1.51685657e-04
      6.06031297e-03 1.47479370e-01 3.89630526e-01 2.24342421e-01
      1.06341660e-03 0. 0. 3.86309787e-03 2.53714412e-03 4.63377014e-02
      2.92101622e-01 3.89630526e-01 8.85301381e-02 1.05850287e-02
      9.65673104e-03 3.26853315e-03 1.94316648e-03 1.97314005e-03
      5.11787906e-02 3.89630526e-01 3.89630526e-01 1.50810480e-01
      5.31309610e-03 4.54278942e-03 1.58469880e-03 7.57951336e-03
      9.78050753e-03 9.33614373e-03 1.36423007e-01 3.55447233e-01
      3.39381248e-01 5.56745473e-03 4.87064989e-03 2.87588988e-03
      1.24495029e-02 1.28477318e-02 1.81105677e-02 1.24729142e-01
      3.55447233e-01 1.44235581e-01 1.09014185e-02 6.52816379e-03
      6.27521053e-03 5.72297536e-03 5.35762217e-03 1.44929271e-02
      3.55447233e-01 3.55447233e-01 3.13010573e-01 1.13565987e-02
      8.51685181e-03 7.26949656e-03 1.26031768e-02 1.02739548e-02
      1.73167549e-02 2.60949671e-01 3.55447233e-01 1.60626993e-01
      1.59069374e-02 9.24882106e-03 1.14259869e-02 1.90531835e-03
      1.50827446e-03 5.81471715e-03 1.50881395e-01 3.71640325e-01
      2.06354737e-01 3.07114562e-03 7.00217264e-04 1.03862979e-03
      5.66402043e-04 8.52010344e-05 7.65120320e-04 1.96039110e-01
      3.71640325e-01 2.59256363e-01 2.61017150e-04 0. 4.49673331e-04
      5.45760989e-03 4.24092030e-03 1.76526029e-02 3.28610659e-01
      3.71640325e-01 9.90886018e-02 2.44076829e-03 6.70394627e-04
      1.47966004e-03 2.24484829e-03 1.27801544e-03 7.08068768e-03
      3.71640325e-01 3.71640325e-01 1.28184482e-01 1.71104053e-04 0.
      4.93918429e-04 5.56009542e-03 1.46411615e-03 8.25013593e-03
      2.89774053e-02 3.86131436e-01 2.57261753e-01 9.64894425e-03 0.
      5.56009542e-03 7.24686217e-03 1.88243517e-03 1.18583860e-02
      9.15816054e-02 3.86131436e-01 1.97501436e-01 1.25559205e-02 0.
      7.24686217e-03 1.13487244e-02 1.13875710e-03 7.28583336e-03
      5.96018322e-03 3.86131436e-01 3.86131436e-01 1.69503111e-02
      2.72389967e-04 1.13487244e-02 1.10021885e-03 1.46411615e-03
      3.04014143e-02 2.06640095e-01 3.86131436e-01 3.01235348e-01
      2.41335165e-02 4.08584950e-03 1.10021885e-03 4.66455845e-03
      3.03260749e-03 6.52985135e-03 1.41077682e-01 3.46023023e-01
      1.99523032e-01 3.26372171e-03 2.49812845e-03 4.26591467e-03
      1.38529046e-02 1.22816181e-02 3.40734385e-02 2.78081745e-01
      3.46023023e-01 1.66797757e-01 1.25968019e-02 1.79763567e-02
      1.45550184e-02 2.18417542e-03 5.95641695e-03 2.83649769e-02
      3.46023023e-01 3.46023023e-01 2.63402134e-01 4.78549767e-03
      1.98321138e-03 1.80957397e-03 3.68441828e-02 3.93119343e-02
      5.02019525e-02 3.46023023e-01 3.46023023e-01 1.84327230e-01
      1.55172236e-02 1.90304071e-02 2.69022249e-02 4.21083234e-02
      1.96330044e-02 8.88148025e-02 3.04332346e-01 3.04332346e-01
      1.12460449e-01 3.55469882e-02 4.14187945e-02 4.34626713e-02
      3.41894552e-02 2.22808346e-02 9.88175422e-02 3.04332346e-01
      3.04332346e-01 1.35436714e-01 2.52400059e-02 2.92416569e-02
      3.40269245e-02 1.83457330e-01 1.89071015e-01 8.45917836e-02
      1.87712863e-01 2.95895278e-01 7.14436397e-02 4.05816659e-02
      5.60006127e-02 9.65454951e-02 1.93107218e-01 2.89468348e-01
      1.76068515e-01 3.04332346e-01 3.04332346e-01 4.56667654e-02
      2.41899714e-02 3.95873152e-02 7.99108595e-02 1.08254347e-02
      9.28094145e-03 2.96101533e-02 2.96594054e-01 2.96594054e-01
      2.83423901e-01 6.22356050e-02 5.84751256e-02 4.22382131e-02
      1.80722866e-02 1.52787864e-02 3.84604111e-02 2.96594054e-01
      2.96594054e-01 1.85383126e-01 6.45287186e-02 6.38449639e-02
      4.49167043e-02 5.50645404e-02 1.08977333e-01 1.35336965e-01
      2.84515798e-01 2.96594054e-01 1.47871092e-01 6.94664046e-02
      7.50757307e-02 6.50685057e-02 3.05408034e-02 3.73677611e-02
      2.09322110e-01 2.96594054e-01 2.96594054e-01 1.77493006e-01
      7.81738609e-02 8.29825476e-02 5.22428378e-02 5.57186268e-03
      4.95747756e-03 5.09995073e-02 3.35491627e-01 3.35491627e-01
      5.95218875e-02 9.91318654e-03 1.37102334e-02 5.28334919e-03
      1.87378295e-03 8.24752846e-04 4.28370535e-02 3.35491627e-01
      3.35491627e-01 1.25488967e-01 3.32777482e-03 2.14825221e-03
      9.04735411e-04 1.16871316e-02 9.42923315e-03 1.70111716e-01
      3.35491627e-01 3.31896216e-01 1.08739063e-01 1.87947080e-02
      2.51975674e-02 9.96591151e-03 1.76626176e-03 0. 8.14585984e-02
      3.35491627e-01 3.35491627e-01 1.60138309e-01 1.06970537e-02
      4.08520829e-03 2.11921334e-03</_>
    <_>
      1.95392027e-01 1.88075349e-01 2.72342563e-01 2.72342563e-01
      1.72763899e-01 1.73676219e-02 1.46451369e-02 1.23942895e-02
      1.63333192e-01 2.72342563e-01 2.72342563e-01 8.56996924e-02
      2.38942821e-02 2.64753308e-02 4.17719549e-03 8.24678037e-03
      3.34892459e-02 2.72342563e-01 6.68216199e-02 6.51328415e-02
      2.72342563e-01 2.72342563e-01 2.42272794e-01 5.21819443e-02
      8.59567076e-02 1.01746738e-01 9.05846059e-02 2.35279262e-01
      2.72342563e-01 2.72342563e-01 1.62181303e-01 5.09940870e-02
      8.16604216e-03 1.62469037e-02 2.39685476e-02 8.90957415e-02
      2.67948240e-01 2.27127567e-01 1.48734869e-02 1.04380655e-03
      6.28425274e-03 7.78545113e-03 5.46115898e-02 2.10605919e-01
      2.67948240e-01 2.61426777e-01 4.76413295e-02 3.24878679e-03
      2.56491471e-02 6.22897744e-02 1.08230688e-01 1.88140407e-01
      2.67948240e-01 2.67948240e-01 2.67948240e-01 2.39547208e-01
      1.08786345e-01 1.73215847e-02 7.35761598e-03 3.52913588e-02
      1.32416829e-01 1.90535545e-01 1.80219367e-01 6.92046657e-02
      2.01139525e-02 9.33252461e-03 5.22035100e-02 1.40447646e-01
      2.67948240e-01 2.67948240e-01 2.67948240e-01 1.28713220e-01
      1.94424048e-01 3.11277863e-02 1.72176529e-02 1.10663414e-01
      2.44451091e-01 2.51872271e-01 1.63152918e-01 1.22201890e-01
      1.34101197e-01 9.73098278e-02 4.27117087e-02 4.57528308e-02
      1.02208138e-01 2.60148704e-01 2.50930637e-01 1.35877550e-01
      1.07280239e-01 1.81765348e-01 2.62864362e-02 5.18364199e-02
      4.40196469e-02 1.64286911e-01 2.60148704e-01 2.60148704e-01
      2.60148704e-01 1.05731569e-01 3.84507142e-02 1.35776848e-01
      7.89247006e-02 8.33121911e-02 2.19494686e-01 2.49909624e-01
      2.11572051e-01 1.44729212e-01 1.49160445e-01 2.60148704e-01
      8.92066658e-02 6.85294941e-02 6.14935383e-02 7.21810535e-02
      2.33909547e-01 1.35915175e-01 1.29628375e-01 1.32089943e-01
      1.97559521e-01 3.30490544e-02 7.26881027e-02 6.51490688e-02
      7.52381161e-02 2.68869668e-01 2.68869668e-01 2.30767280e-01
      1.21558607e-01 6.34867996e-02 1.55378833e-01 5.23019843e-02
      6.94669262e-02 1.53412879e-01 1.26217917e-01 5.74656799e-02
      1.07645832e-01 2.68869668e-01 2.68869668e-01 7.34944791e-02
      5.87269664e-02 8.60791802e-02 1.11268342e-01 2.68869668e-01
      2.18701422e-01 2.68869668e-01 2.68869668e-01 2.68869668e-01
      1.82336830e-02 3.60523462e-02 4.70080152e-02 8.05053189e-02
      2.57422656e-01 2.58399665e-01 1.90865070e-01 6.53660148e-02
      2.11137775e-02 2.43245587e-02 1.69232655e-02 3.18767503e-02
      1.08707912e-01 2.65104622e-01 2.65104622e-01 2.65104622e-01
      1.07609451e-01 3.62376124e-02 3.76318432e-02 3.37991193e-02
      5.65184057e-02 9.64051187e-02 2.65104622e-01 2.65104622e-01
      2.65104622e-01 1.94356471e-01 1.05475523e-01 5.33474460e-02
      1.53521895e-02 1.65641978e-02 7.59242773e-02 2.65104622e-01
      2.65104622e-01 2.65104622e-01 2.65104622e-01 1.01817176e-01
      4.98628542e-02 3.85698937e-02 3.66849989e-01 3.66849989e-01
      1.45090699e-01 2.08824016e-02 5.87148517e-02 9.62909907e-02
      5.82914501e-02 5.53027168e-02 1.51847705e-01 3.66849989e-01
      2.29671761e-01 3.57015803e-02 1.09550478e-02 1.70369111e-02
      1.26509778e-02 1.62004475e-02 2.45857164e-02 1.82832610e-02
      3.66849989e-01 3.66849989e-01 1.68969080e-01 1.80699295e-04
      9.33079235e-03 1.25688324e-02 2.28959471e-02 1.19896876e-02
      3.70617062e-02 2.86631525e-01 2.65145779e-01 1.04403667e-01
      3.51880975e-02 6.49626255e-02 1.42165478e-02 9.62521881e-03
      1.39788508e-01 1.69461355e-01 2.15000615e-01 8.97625759e-02
      5.17908186e-02 6.15795814e-02 1.34896174e-01 9.37479138e-02
      6.59294724e-02 6.33415431e-02 6.55301064e-02 4.31519784e-02
      1.10797897e-01 1.62803754e-01 3.33731800e-01 3.33731800e-01
      1.47175521e-01 5.42280152e-02 2.47159675e-02 2.66005993e-02
      1.10281691e-01 1.20009303e-01 1.11362070e-01 1.90097436e-01
      1.74067259e-01 2.12970264e-02 1.35348830e-02 5.70422933e-02
      2.12329343e-01 9.30058956e-02 2.30829924e-01 3.33731800e-01
      3.33731800e-01 3.33731800e-01 8.39809924e-02 3.46765891e-02
      1.58030596e-02 4.94769402e-02 2.52372995e-02 7.58479163e-02
      1.21428661e-01 2.86578506e-01 2.86578506e-01 2.27692109e-02
      6.43485552e-03 3.23708840e-02 4.31708880e-02 3.47609892e-02
      1.36632606e-01 2.03802153e-01 2.86578506e-01 1.85815737e-01
      5.22399433e-02 5.33223152e-02 3.84943523e-02 1.79961443e-01
      4.57862914e-02 1.52486980e-01 2.77431399e-01 2.86578506e-01
      2.86578506e-01 1.31515816e-01 5.47874123e-02 3.86373624e-02
      9.02046785e-02 2.39213444e-02 1.46571025e-01 2.86578506e-01
      2.86578506e-01 2.86578506e-01 1.36823520e-01 6.64383844e-02
      6.20424151e-02 2.89090984e-02 4.30738404e-02 1.46567628e-01
      1.95017740e-01 1.63902223e-01 1.21614240e-01 2.70964593e-01
      2.48163462e-01 8.20974931e-02 1.37985619e-02 1.97187047e-02
      2.60775406e-02 6.65794909e-02 1.30752891e-01 2.15592414e-01
      2.74155021e-01 2.74155021e-01 3.02932579e-02 3.47860977e-02
      3.61638702e-02 1.21284530e-01 2.74155021e-01 2.74155021e-01
      1.93956912e-01 2.01383919e-01 1.11877508e-01 4.08921801e-02
      1.71802882e-02 1.62056759e-02 2.83900537e-02 1.69183061e-01
      2.74155021e-01 2.04459712e-01 2.74155021e-01 2.12770402e-01
      2.87555251e-02 3.16382991e-03 9.43634473e-03 2.09324807e-02
      2.53272593e-01 3.12714934e-01 2.62957931e-01 1.84665978e-01
      1.08069047e-01 2.88024247e-02 1.70434162e-03 3.87047022e-03
      4.46242280e-02 3.12714934e-01 3.12714934e-01 2.14081317e-01
      9.50612277e-02 4.60424088e-02 1.26482220e-02 9.26025328e-04
      1.27699669e-03 9.25070141e-03 3.12714934e-01 3.12714934e-01
      1.81081787e-01 1.33326650e-01 6.13875836e-02 3.42501886e-02
      2.66649742e-02 3.40663157e-02 9.55954790e-02 3.12714934e-01
      3.12714934e-01 6.58003390e-02 2.32487302e-02 2.09730752e-02
      3.23700421e-02 1.19503289e-02 2.80843765e-01 3.89737248e-01
      3.89737248e-01 7.91708939e-03 1.31764831e-02 4.40336065e-03
      3.23700421e-02 1.61576010e-02 2.68788803e-02 1.19478233e-01
      2.50987977e-01 3.89737248e-01 4.07180749e-02 1.11033432e-01
      2.16241945e-02 1.61576010e-02 1.45650571e-02 2.43037473e-03
      1.06680114e-02 1.92967132e-01 3.89737248e-01 1.35475561e-01
      1.47505070e-03 4.92937281e-04 1.45650571e-02 2.29269788e-02
      1.16807027e-02 3.82487550e-02 4.70454581e-02 3.89737248e-01
      2.85069030e-02 2.14466266e-02 4.66458732e-03 2.29269788e-02
      2.00374611e-02 1.35598369e-02 4.78647724e-02 3.59815434e-02
      1.25773817e-01 2.87489146e-01 2.67550528e-01 2.24018525e-02
      1.86163615e-02 3.75521593e-02 1.28805056e-01 5.61063699e-02
      1.67748734e-01 3.35549444e-01 3.35549444e-01 3.35549444e-01
      1.34474441e-01 4.26476076e-02 5.01135401e-02 1.27825672e-02
      3.87371592e-02 1.42436533e-03 1.30551860e-01 1.51182920e-01
      1.29392996e-01 2.03837398e-02 5.01135401e-02 4.04904373e-02
      5.51875867e-03 2.14967746e-02 7.64500946e-02 3.35549444e-01
      3.35549444e-01 3.35549444e-01 5.68564497e-02 4.32209335e-02
      4.17445078e-02 6.17966838e-02 1.46397231e-02 8.75390694e-02
      3.09981138e-01 2.97139436e-01 2.18161196e-01 1.11300506e-01
      4.17651646e-02 4.75024283e-02 2.84157768e-02 9.58886649e-03
      7.77435899e-02 3.14570963e-01 3.14570963e-01 2.53269583e-01
      1.12361178e-01 4.68610115e-02 1.53488433e-02 0. 1.65660516e-03
      5.81214018e-02 3.14570963e-01 3.14570963e-01 1.24498531e-01
      2.45526843e-02 8.06969125e-03 1.88063905e-02 0. 3.01690307e-02
      8.32692608e-02 3.14570963e-01 3.14570963e-01 1.61041752e-01
      3.73485126e-02 1.02112880e-02 1.54531673e-02 8.52098502e-03
      2.19379291e-02 5.69533631e-02 3.65041345e-01 3.65041345e-01
      1.46535665e-01 8.32500979e-02 3.07451133e-02 3.19081941e-03
      6.54492481e-03 1.26622906e-02 2.64964718e-02 2.72538245e-01
      2.71253973e-01 1.50150031e-01 1.26508683e-01 3.39980274e-02
      6.07751310e-03 8.91934789e-04 6.64936453e-02 8.76394883e-02
      3.65041345e-01 3.65041345e-01 1.13805979e-01 3.07791345e-02
      5.54263685e-03 5.17488166e-04 1.14677323e-03 1.32131996e-02
      5.55042699e-02 3.65041345e-01 2.70998210e-01 7.20071942e-02
      1.62197929e-02 9.08435381e-04 3.74783180e-03 2.28621531e-03
      3.70154716e-03 2.61056274e-02 3.42317671e-01 3.42317671e-01
      9.66934785e-02 4.52587791e-02 1.04159443e-02 5.18408865e-02
      4.61296439e-02 4.49758284e-02 8.19099173e-02 3.42317671e-01
      3.42317671e-01 2.44052466e-02 1.33576179e-02 2.56877132e-02
      3.92326294e-03 3.08663561e-03 8.38311110e-03 1.21875487e-01
      3.42317671e-01 3.38879645e-01 3.41727249e-02 1.12151308e-02
      2.43666722e-03 4.63816524e-02 3.87009121e-02 4.28086855e-02
      1.64935112e-01 3.42317671e-01 3.15634012e-01 2.00931225e-02
      3.81153598e-02 3.21680605e-02 3.42728244e-03 1.66495607e-04
      1.25442422e-03 4.87715155e-02 4.39376354e-01 1.85651928e-01
      4.85495012e-03 0. 3.42728244e-03 6.80946093e-03 1.28252106e-03
      4.81005060e-03 1.20444503e-02 4.39376354e-01 4.07606326e-02
      8.57072603e-03 7.78193062e-04 6.80946093e-03 2.84854206e-03 0.
      1.13431178e-02 6.82467073e-02 4.39376354e-01 3.70931715e-01
      1.72961820e-02 0. 2.84854206e-03 2.91791605e-03 0. 1.45840067e-02
      3.04795746e-02 4.39376354e-01 2.00277224e-01 2.34721825e-02 0.
      2.91791605e-03 3.78585234e-02 4.04184638e-03 1.25005338e-02
      3.10750329e-03 2.18312323e-01 8.05350468e-02 4.31223400e-02
      1.04443794e-02 3.78585234e-02 3.04382462e-02 2.54853908e-03
      8.87047686e-03 7.43165314e-02 4.61112350e-01 4.61112350e-01
      2.22324938e-01 1.92132220e-02 3.04382462e-02 3.47846909e-03
      6.93365233e-03 3.84531431e-02 2.90539786e-02 1.98542699e-01
      4.95286286e-02 2.53349058e-02 2.76871864e-03 3.47846909e-03
      1.58411785e-04 1.89177133e-02 1.00538991e-01 2.42859557e-01
      4.61112350e-01 3.39116871e-01 1.07956201e-01 8.92587844e-03
      1.58411785e-04 3.92291782e-04 9.36879514e-05 2.25862339e-02
      1.04301363e-01 3.25739026e-01 3.25739026e-01 6.45637810e-02
      2.73667462e-03 4.31109511e-04 2.75717303e-03 1.11074350e-03
      7.31741339e-02 2.06699938e-01 3.25739026e-01 3.25739026e-01
      8.39212164e-02 1.41174924e-02 3.33943870e-03 3.33126780e-04
      3.15272319e-03 4.04221974e-02 1.80673122e-01 3.25739026e-01
      2.16121063e-01 3.44868489e-02 3.14434171e-02 8.79358221e-03
      2.10321951e-03 1.20360665e-02 1.18015252e-01 3.25739026e-01
      3.25739026e-01 2.73872197e-01 5.75872511e-02 8.38214681e-02
      2.05299910e-02 3.21736722e-03 1.26934645e-03 6.58404529e-02
      2.40397319e-01 3.59295577e-01 2.89307863e-01 3.98798175e-02
      1.40082566e-02 4.05331282e-03 1.46294566e-04 0. 1.09477155e-02
      1.71460181e-01 3.59295577e-01 1.07659236e-01 7.44505366e-03
      8.90046998e-04 5.21479407e-04 4.85133054e-03 1.08097820e-02
      9.17881876e-02 3.59295577e-01 3.59295577e-01 1.26633644e-01
      3.38938683e-02 4.74900231e-02 1.20743271e-02 6.36921730e-03
      4.01497446e-03 5.75693138e-02 3.59295577e-01 3.59295577e-01
      3.84375677e-02 3.35993781e-03 3.35920136e-03 4.77393391e-03
      8.39541957e-04 4.99377865e-03 9.73259471e-03 2.65923619e-01
      3.28037947e-01 1.75859511e-01 3.11426609e-03 4.76310914e-03
      9.40770609e-04 1.22275092e-02 3.38874944e-02 4.11697775e-02
      2.73686528e-01 3.28037947e-01 2.19509259e-01 9.30730999e-03
      2.39747930e-02 1.11662066e-02 1.78373186e-03 3.60306469e-03
      3.74749228e-02 3.28037947e-01 3.28037947e-01 2.12032944e-01
      1.19273709e-02 1.57546694e-03 1.15526014e-03 1.52418232e-02
      3.02148536e-02 6.06427565e-02 2.62458265e-01 3.28037947e-01
      3.28037947e-01 4.49032560e-02 5.58918482e-03 1.12586711e-02
      8.36801063e-03 0. 5.35183586e-03 1.70033611e-02 3.26618761e-01
      3.26618761e-01 2.58977208e-02 7.67213351e-04 8.36801063e-03
      1.33597096e-02 6.19182072e-04 8.73376057e-03 9.36741941e-03
      2.52860487e-01 3.26618761e-01 4.46063615e-02 3.56869283e-03
      1.33597096e-02 1.74291693e-02 0. 0. 2.85902875e-03 3.26618761e-01
      3.26618761e-01 3.26618761e-01 3.19766402e-02 1.74493417e-02
      1.68797728e-02 7.54189165e-03 1.67040005e-02 0. 2.61161178e-01
      3.26618761e-01 3.26618761e-01 6.99314177e-02 1.87417883e-02
      1.91710088e-02 5.34160156e-03 2.63284780e-02 2.46454924e-02
      1.17938481e-01 4.58689593e-02 3.31846885e-02 5.55080129e-03
      1.91710088e-02 7.20790680e-03 1.00920703e-02 1.30337417e-01
      3.65844935e-01 3.65844935e-01 8.25842619e-02 5.60102761e-02
      1.03022521e-02 7.20790680e-03 4.98424694e-02 7.60242939e-02
      1.52512878e-01 4.66012545e-02 2.71463096e-01 7.06093758e-02
      1.43446088e-01 5.65570220e-02 4.43332382e-02 4.40122969e-02
      3.65844935e-01 3.65844935e-01 3.65844935e-01 3.65844935e-01
      7.25173801e-02 2.71926560e-02 1.32791065e-02 2.44303662e-02
      3.02548637e-03 1.39060756e-02 1.19388163e-01 3.04401606e-01
      3.04401606e-01 1.23337254e-01 4.59149294e-02 3.17176431e-02
      1.58578157e-02 7.22859241e-03 3.93263251e-02 2.31554732e-01
      3.04401606e-01 3.04401606e-01 1.54633820e-01 7.18147084e-02
      8.01126808e-02 3.53682078e-02 3.10934857e-02 1.49420157e-01
      3.04401606e-01 3.04401606e-01 1.64405316e-01 5.05730733e-02
      3.68534885e-02 9.99330916e-03 3.58245429e-03 8.23022276e-02
      1.16058439e-01 3.04401606e-01 3.04401606e-01 2.19830498e-01
      6.50366396e-02 4.92686741e-02 2.58627906e-02 2.10231878e-02
      1.70401391e-02 4.49331999e-02 1.97194725e-01 3.00265908e-01
      3.00265908e-01 1.04672484e-01 5.72334304e-02 6.60926029e-02
      4.00521345e-02 2.40885895e-02 5.07368781e-02 1.63126767e-01
      3.00265908e-01 2.93679178e-01 5.42378910e-02 1.63412746e-02
      1.81089845e-02 2.73899380e-02 2.72648782e-01 1.17739223e-01
      1.82813987e-01 3.00265908e-01 2.81286389e-01 7.95477331e-02
      4.99373078e-02 6.57128692e-02 1.23901293e-01 3.00265908e-01
      2.03122139e-01 1.58924237e-01 1.83075681e-01 8.91703293e-02
      3.22731398e-02 1.98112652e-02 5.10391518e-02 1.52466774e-01
      4.80456743e-03 1.30706411e-02 9.30409729e-02 2.81234741e-01
      2.81234741e-01 2.21390262e-01 7.45093748e-02 7.38169113e-03
      2.96149682e-03 2.66465228e-02 1.99569855e-02 8.13034624e-02
      2.17109129e-01 2.81234741e-01 2.81234741e-01 2.25077748e-01
      2.06323136e-02 1.84356514e-02 7.71415830e-02 1.29956812e-01
      1.85911775e-01 1.76162958e-01 2.24563450e-01 1.46755219e-01
      7.95416608e-02 1.74461138e-02 2.97159068e-02 6.03381246e-02
      1.21616982e-01 2.81234741e-01 2.05917791e-01 2.81234741e-01
      2.81234741e-01 2.05712050e-01 3.71171087e-02 3.65263782e-02</_>
    <_>
      2.58703791e-02 8.00603256e-03 1.99052051e-01 3.79945576e-01
      3.79945576e-01 8.62292200e-02 6.95719048e-02 2.98587233e-02
      1.47811379e-02 9.11283679e-03 7.28482893e-03 6.32875711e-02
      3.79945576e-01 2.22573444e-01 5.52534871e-02 1.74158625e-02
      6.86291698e-03 1.47396019e-02 1.21928276e-02 6.22014794e-03
      2.45765761e-01 3.79945576e-01 3.79945576e-01 9.68990568e-03
      1.20676095e-02 3.49452649e-03 7.24110333e-03 6.45622145e-03
      2.22223974e-03 3.58731076e-02 2.33060405e-01 2.15870500e-01
      1.32851480e-02 2.07869359e-03 1.94604287e-03 6.45622145e-03
      7.05830427e-03 3.88530735e-03 9.26106144e-03 6.84427992e-02
      3.05744886e-01 3.38397563e-01 3.59278694e-02 6.52076816e-03
      1.32677704e-02 1.07588070e-02 2.20717806e-02 3.99813354e-02
      1.31135762e-01 3.38397563e-01 3.38397563e-01 5.48041314e-02
      7.90156017e-04 2.54584849e-03 5.33300219e-03 2.75223143e-03
      2.76221856e-02 2.08267599e-01 3.38397563e-01 1.47687659e-01
      8.13546404e-03 2.81391898e-03 5.33300219e-03 2.42663245e-03
      1.00560719e-02 6.44072220e-02 3.38397563e-01 3.38397563e-01
      3.38397563e-01 4.94741648e-02 6.49365888e-04 1.88835151e-03
      5.08644879e-02 8.31512734e-02 1.30509660e-01 1.55556992e-01
      2.85681188e-01 2.85681188e-01 6.33977726e-02 8.53721276e-02
      5.31305298e-02 4.96402644e-02 5.66743612e-02 8.76922831e-02
      6.26170337e-02 6.98741302e-02 8.31509680e-02 2.63116390e-01
      2.85681188e-01 1.35196716e-01 2.44439691e-02 4.04126495e-02
      1.09992839e-01 2.79385060e-01 2.85681188e-01 2.85681188e-01
      5.02006821e-02 3.30435410e-02 3.31536718e-02 4.93141152e-02
      4.69007120e-02 9.55852345e-02 1.20178275e-01 2.85681188e-01
      2.36960158e-01 2.28004754e-01 2.85681188e-01 1.04648009e-01
      6.65496476e-03 3.52838309e-03 3.98047781e-03 3.78966960e-03
      1.65347666e-01 2.83068478e-01 2.92001814e-01 2.92001814e-01
      4.28065769e-02 2.66673218e-04 9.25733126e-04 5.69937984e-03
      1.71484817e-02 2.90204853e-01 2.92001814e-01 9.10329297e-02
      4.16055471e-02 1.94137159e-03 1.24377841e-02 8.44794977e-03
      1.22286249e-02 1.38139734e-02 2.78456807e-01 2.92001814e-01
      2.92001814e-01 2.92001814e-01 3.68195251e-02 4.30931716e-04
      2.16732360e-03 2.90957093e-02 3.88161056e-02 2.92001814e-01
      2.92001814e-01 1.66572064e-01 3.78544703e-02 2.96495669e-03
      2.66198767e-04 8.46479728e-04 1.50702782e-02 1.09071098e-01
      3.64786237e-01 2.14230210e-01 3.87391672e-02 2.03062058e-03
      5.11279562e-04 1.82928552e-03 1.04407969e-04 8.42314959e-03
      1.82601497e-01 3.64786237e-01 3.64786237e-01 7.50574395e-02
      2.25779033e-04 1.84562418e-03 6.15028373e-04 3.56695545e-03
      6.61154911e-02 1.58541620e-01 2.89252460e-01 2.04140738e-01
      8.55387226e-02 1.24967592e-02 2.47863610e-03 2.86718505e-03
      8.23143637e-04 2.91776005e-02 1.76001295e-01 3.64786237e-01
      3.64786237e-01 1.95560053e-01 1.69461581e-03 2.99142557e-03
      1.48426918e-02 2.82041775e-03 1.92787543e-01 4.17663574e-01
      4.17663574e-01 3.64726298e-02 0. 0. 1.48426918e-02 3.85338552e-02
      1.09124305e-02 5.80763072e-02 1.59527242e-01 3.95501852e-01
      3.49249914e-02 3.71716432e-02 1.33754173e-02 3.89669463e-02
      2.22725030e-02 9.23767127e-03 4.59533073e-02 1.61334574e-01
      4.17663574e-01 1.45007819e-01 0. 0. 2.22725030e-02 3.38775516e-02
      2.45484188e-02 7.68264905e-02 2.36125328e-02 4.17663574e-01
      6.78973943e-02 5.61426692e-02 2.20646281e-02 3.54925320e-02
      1.25509314e-02 4.17142548e-03 2.28862409e-02 1.39312893e-01
      3.11414301e-01 1.92822576e-01 4.02788222e-02 1.24085806e-02
      1.34902839e-02 1.19108765e-03 1.95850786e-02 9.11078528e-02
      3.34052682e-01 3.34052682e-01 3.34052682e-01 5.15956618e-02
      7.83724524e-03 1.92169566e-03 1.26890829e-02 5.48101310e-03
      1.65150706e-02 4.05461788e-02 3.34052682e-01 2.76367694e-01
      5.95701709e-02 2.80127805e-02 1.61919184e-02 1.99560076e-03
      1.76460780e-02 7.90880844e-02 2.48200685e-01 3.34052682e-01
      3.34052682e-01 8.51745307e-02 2.90903542e-02 1.09820804e-02
      6.11731270e-03 1.80702340e-02 7.16245174e-02 2.62529314e-01
      3.52700144e-01 2.40289927e-01 2.43074615e-02 8.24992731e-03
      6.01909915e-03 1.88103337e-02 1.79628637e-02 3.17379311e-02
      9.74345207e-02 3.52700144e-01 2.52631426e-01 9.14740488e-02
      1.06750816e-01 3.17113698e-02 2.63314490e-04 1.17384009e-02
      6.46287724e-02 1.76894531e-01 3.52700144e-01 3.52700144e-01
      5.08795716e-02 1.95986647e-02 1.14230271e-02 2.56911945e-03
      2.54877331e-03 6.92446809e-03 7.30767250e-02 3.52700144e-01
      3.17643344e-01 2.47117914e-02 1.15094166e-02 1.09003996e-02
      5.45471022e-03 4.84685460e-03 6.28279429e-03 1.85585897e-02
      3.47833723e-01 3.47833723e-01 1.12903588e-01 6.75994158e-02
      1.26934266e-02 1.66397716e-03 2.09573167e-03 1.80869773e-02
      3.14921178e-02 3.47833723e-01 3.47833723e-01 7.45755509e-02
      1.29589364e-02 2.32726405e-03 1.16659235e-03 7.05570681e-04
      1.57043303e-03 8.12252387e-02 3.47833723e-01 3.41665834e-01
      1.61738098e-02 4.60564578e-03 4.16947063e-03 1.70813187e-03
      2.25469959e-03 1.51341353e-02 9.34251696e-02 3.47833723e-01
      3.34501594e-01 3.33804972e-02 2.84515368e-03 1.50736875e-03
      3.81533755e-03 5.15431678e-03 5.04782796e-02 7.88524598e-02
      2.60314196e-01 2.12367311e-01 1.01173945e-01 1.96012277e-02
      4.65048850e-03 2.46771239e-03 1.11681712e-03 1.75994318e-02
      1.26173794e-01 4.03616726e-01 4.03616726e-01 1.21460773e-01
      5.35207288e-03 2.43849703e-03 3.72273824e-03 5.68983098e-03
      2.86979266e-02 9.34850723e-02 4.03616726e-01 1.57430068e-01
      7.03018531e-02 9.50625073e-03 3.20146582e-03 2.47413735e-03
      1.44364731e-03 7.89600704e-03 2.68086910e-01 4.03616726e-01
      2.61364549e-01 3.59264612e-02 4.52055270e-03 2.35384353e-03
      1.13447290e-02 3.72386817e-03 1.11431908e-02 1.37078660e-02
      4.59606856e-01 2.56180882e-01 0. 0. 1.13447290e-02 6.84856623e-03
      1.41505292e-02 4.06602249e-02 1.75730733e-03 4.59606856e-01
      9.14229378e-02 1.46657806e-02 7.49434950e-03 6.91970764e-03
      5.17365336e-03 0. 0. 6.75034374e-02 4.59606856e-01 2.46992320e-01
      0. 0. 5.17365336e-03 9.49925091e-03 1.30464826e-02 3.46355550e-02
      1.37087367e-02 4.59606856e-01 7.72126690e-02 1.86290871e-02
      5.34340367e-03 7.85702281e-03 9.57525615e-03 6.36797212e-03
      1.56130213e-02 2.52157487e-02 3.51040125e-01 1.54595301e-01
      2.16596499e-02 9.98574402e-03 9.72279627e-03 6.90638553e-03
      2.76745926e-03 3.31645794e-02 1.65069655e-01 3.80830735e-01
      3.80830735e-01 4.45129052e-02 1.97104830e-02 1.60525441e-02
      1.30670369e-02 1.46137504e-02 3.53308879e-02 5.10220416e-02
      3.80830735e-01 7.84194991e-02 2.17319112e-02 5.30673889e-03
      9.66119859e-03 1.67210996e-02 9.54617187e-03 2.75557004e-02
      2.79805601e-01 3.80830735e-01 3.80830735e-01 1.92950871e-02
      8.08305852e-03 1.90278273e-02 1.43003440e-03 3.09489638e-04
      2.90347803e-02 1.19181305e-01 3.73838007e-01 3.73838007e-01
      3.54267396e-02 2.26730164e-02 1.64537597e-02 7.21618708e-04 0.
      4.50539123e-03 1.04468971e-01 3.73838007e-01 1.98793903e-01
      1.71457715e-02 6.10118452e-03 4.41367831e-03 1.33618303e-02
      4.85567795e-03 2.39175707e-02 2.77136594e-01 3.73838007e-01
      2.64742643e-01 1.45686306e-02 1.16413487e-02 2.14127339e-02
      1.26623455e-02 1.34762228e-02 4.30583581e-02 2.59222686e-01
      3.73838007e-01 1.04325861e-01 2.43851673e-02 1.29519217e-02
      9.21691582e-03 2.56332598e-04 0. 3.14671034e-03 2.05363363e-01
      3.73266250e-01 1.57415360e-01 6.71864348e-03 6.66447741e-04
      3.94427741e-04 1.14280288e-03 1.37373444e-03 2.26011183e-02
      1.93184584e-01 3.73266250e-01 2.15744942e-01 1.69789605e-02
      3.48048122e-03 1.47152331e-03 6.25628745e-03 9.05608386e-03
      3.70553583e-02 3.73266250e-01 3.73266250e-01 7.54894987e-02
      1.19407382e-02 5.03973942e-03 2.77739088e-03 2.12528533e-03
      8.92291963e-03 1.36462031e-02 3.36118668e-01 3.73266250e-01
      1.63752839e-01 1.98578592e-02 8.42739642e-03 6.72217133e-03
      1.69320300e-03 3.26218014e-03 3.96729894e-02 1.40696988e-01
      3.90319854e-01 1.08963221e-01 2.59650908e-02 1.09682903e-02
      2.47980468e-03 1.81896298e-03 9.26954381e-04 1.16562909e-02
      2.52382070e-01 3.90319854e-01 2.02778801e-01 6.91741705e-03
      4.19399329e-03 2.00048671e-03 4.45293728e-03 2.62517724e-02
      3.13526914e-02 2.58395314e-01 3.90319854e-01 1.16306104e-01
      2.32449025e-02 1.92282461e-02 1.10916365e-02 3.30817094e-03
      9.49719269e-03 2.66518313e-02 3.90319854e-01 3.90319854e-01
      1.06711380e-01 3.70156998e-03 4.86620143e-03 3.73693416e-03
      2.86651682e-03 0. 0. 9.19478461e-02 4.12293583e-01 1.86586812e-01
      9.29173268e-03 0. 2.86651682e-03 1.14626605e-02 8.74784961e-03
      2.95181368e-02 1.45336902e-02 4.12293583e-01 9.55206305e-02
      4.00683694e-02 7.31439749e-03 1.22014564e-02 2.25953013e-03
      7.39874784e-04 1.20880187e-03 2.99716666e-02 4.12293583e-01
      4.12293583e-01 8.03664923e-02 2.59164313e-04 2.25953013e-03
      1.26535790e-02 7.61334924e-03 3.34424712e-02 1.02026127e-02
      4.12293583e-01 2.76954502e-01 6.79544732e-02 5.98751986e-03
      1.37668122e-02 1.37317292e-02 1.18551003e-02 4.49140407e-02
      6.06730580e-02 3.49016935e-01 5.81403747e-02 3.23071256e-02
      1.04771825e-02 1.55208400e-02 1.88947283e-02 1.35973729e-02
      4.59716544e-02 3.14016342e-01 3.49016935e-01 3.49016935e-01
      3.29279378e-02 5.92102436e-03 2.00449768e-02 1.44354291e-02
      8.90054274e-03 5.33224605e-02 1.34652585e-01 3.49016935e-01
      5.85900582e-02 2.09006276e-02 5.53631922e-03 1.71312988e-02
      1.72466375e-02 1.52468234e-02 5.02360836e-02 3.49016935e-01
      3.49016935e-01 3.49016935e-01 3.68787125e-02 4.76046046e-03
      1.85972080e-02 2.23520566e-02 1.82579309e-02 6.05026707e-02
      2.95996279e-01 2.95996279e-01 2.80963928e-01 3.31597291e-02
      8.68051406e-03 2.18021534e-02 4.04690988e-02 5.20298369e-02
      9.77636576e-02 2.95996279e-01 2.95996279e-01 9.46421698e-02
      4.02937382e-02 3.29358317e-02 1.67790279e-02 6.96932897e-02
      7.20535219e-02 4.84028459e-02 2.94708639e-01 2.95996279e-01
      2.95996279e-01 6.30715638e-02 1.64513737e-02 2.99378615e-02
      2.94012338e-01 2.95996279e-01 8.95640105e-02 1.64752349e-01
      1.89995795e-01 6.83327392e-02 5.64458780e-02 3.65001447e-02
      3.90809402e-02 2.44514868e-02 3.86274084e-02 8.83128420e-02
      3.12569052e-01 3.12569052e-01 7.70703033e-02 1.99472308e-02
      1.28387865e-02 5.82088949e-03 5.37189981e-03 1.83364712e-02
      1.63746960e-02 3.12569052e-01 3.12569052e-01 2.26911336e-01
      6.47178665e-02 1.43676652e-02 1.91670917e-02 1.99213132e-01
      3.12569052e-01 1.14201136e-01 2.84547597e-01 3.12569052e-01
      5.53056486e-02 1.76105034e-02 1.57497898e-02 1.77811719e-02
      2.72215232e-02 9.91052315e-02 4.05086875e-02 2.12812632e-01
      3.12569052e-01 1.95347846e-01 7.33432621e-02 2.34584417e-02
      2.14367881e-02 9.46285482e-03 3.75344716e-02 2.35789604e-02
      2.12890461e-01 3.22038412e-01 1.11716978e-01 4.59874868e-02
      1.97874494e-02 2.59841233e-02 5.09741297e-03 1.43466461e-02
      3.16393599e-02 3.93563926e-01 3.93563926e-01 1.56878848e-02
      2.68625212e-03 3.36573855e-03 6.72930107e-03 1.24439085e-02
      1.71858259e-02 2.85905413e-02 2.37079963e-01 3.64433914e-01
      9.96676609e-02 6.37572408e-02 3.62634845e-02 2.78336946e-02
      8.52172915e-03 9.90483351e-03 3.36634405e-02 3.93563926e-01
      3.93563926e-01 1.45006469e-02 7.03258254e-03 1.16654346e-02
      1.15237860e-02 3.64811509e-03 6.86634285e-03 4.78339382e-02
      2.89350376e-02 3.26741189e-01 3.26741189e-01 1.35087937e-01
      7.19061180e-04 3.64811509e-03 4.98115877e-03 5.68218483e-03
      1.38927326e-02 1.76078826e-02 3.26741189e-01 2.92137623e-01
      9.50680152e-02 1.03203636e-02 5.41730504e-03 4.97063715e-03
      7.55929714e-03 7.45054409e-02 5.80547377e-02 3.24793756e-01
      3.26741189e-01 3.26741189e-01 7.75658339e-03 4.97063715e-03
      9.71637759e-03 1.58185624e-02 5.16402461e-02 8.14569890e-02
      2.36066043e-01 3.26741189e-01 2.41300583e-01 3.16199176e-02
      2.17042491e-02 6.69041462e-03 1.05860280e-02 4.69608009e-02
      2.87083030e-01 2.89896846e-01 4.70224731e-02 2.56998856e-02
      4.91214637e-03 7.02148676e-03 8.28940701e-03 3.76406088e-02
      1.33396283e-01 3.50752771e-01 3.50752771e-01 1.53856188e-01
      1.05351405e-02 3.10086831e-03 5.70033258e-03 9.12098493e-03
      2.35271025e-02 1.49860889e-01 3.50752771e-01 2.25623533e-01
      9.64085087e-02 3.56359594e-02 2.10955478e-02 1.82207897e-02
      5.15447371e-03 7.46775046e-02 3.42673331e-01 3.50752771e-01
      2.84103036e-01 2.05190480e-02 9.00955929e-04 1.92817999e-03
      2.38929549e-03 9.41498131e-02 2.45673046e-01 2.19288692e-01
      2.87476510e-01 2.87476510e-01 1.70958146e-01 3.12790722e-02
      1.40792383e-02 2.26581898e-02 2.87476510e-01 2.87476510e-01
      1.75331056e-01 4.38895002e-02 5.21875694e-02 2.32258551e-02
      2.72596963e-02 1.50745558e-02 3.40430737e-02 3.18896659e-02
      2.87456185e-01 2.87476510e-01 2.87476510e-01 1.63958922e-01
      2.17241496e-02 1.06211063e-02 4.64506214e-03 8.42447765e-03
      1.22469671e-01 2.87476510e-01 2.87476510e-01 1.25540376e-01
      6.49740621e-02 1.16944183e-02 1.74032226e-02 2.46105250e-02
      4.96814772e-02 2.78427541e-01 2.78427541e-01 1.79347739e-01
      1.55332059e-01 1.94389999e-01 1.46851474e-02 1.95008852e-02
      3.22765335e-02 4.44636606e-02 9.69676673e-02 2.25105852e-01
      1.06874056e-01 1.59638330e-01 2.78427541e-01 9.66259316e-02
      9.94071066e-02 7.99347907e-02 6.89103827e-02 1.84617311e-01
      2.78427541e-01 2.78427541e-01 7.46019185e-02 7.28923306e-02
      8.56500398e-03 3.25652212e-02 6.60004541e-02 1.01821676e-01
      2.78427541e-01 2.78427541e-01 1.83679357e-01 6.91639334e-02
      1.10932380e-01 3.79345641e-02 1.37562841e-01 2.01581091e-01
      2.38505989e-01 4.14634980e-02 4.71093282e-02 1.75693154e-01
      2.85133392e-01 2.26090819e-01 3.99939828e-02 4.50338796e-02
      3.77615318e-02 3.03517636e-02 1.34793464e-02 2.78351624e-02
      1.74337760e-01 3.45401108e-01 3.45401108e-01 1.40505703e-02
      4.16793395e-03 7.72498548e-03 8.83045699e-03 2.02933133e-01
      1.09199777e-01 2.46913314e-01 2.73619384e-01 1.50472313e-01
      2.20119543e-02 4.29603606e-02 7.26582333e-02 1.19703680e-01
      5.33037931e-02 4.47636917e-02 2.70930380e-01 3.45401108e-01
      3.45401108e-01 4.51637320e-02 6.93139387e-04 7.82589894e-03
      2.38526594e-02</_>
    <_>
      4.50906716e-02 1.78988986e-02 1.00326195e-01 3.65101904e-01
      3.65101904e-01 5.31995669e-02 3.62295061e-02 9.69641469e-03
      2.92711537e-02 8.28451961e-02 4.16674055e-02 1.33882940e-01
      2.27801800e-01 3.65101904e-01 4.02018353e-02 7.41239414e-02
      1.62908584e-02 5.91112077e-02 5.16600795e-02 1.05510755e-02
      7.50552565e-02 3.65101904e-01 3.65101904e-01 6.70230687e-02
      3.93960439e-02 1.06858816e-02 5.26410677e-02 8.10094625e-02
      3.56228910e-02 1.02548636e-01 1.65473074e-01 3.65101904e-01
      9.70488340e-02 1.00346148e-01 2.06726566e-02 8.22707340e-02
      1.80096012e-02 2.24307217e-02 8.93263221e-02 1.41922683e-01
      3.35684747e-01 2.28943154e-01 2.35924087e-02 4.09559580e-03
      1.36054270e-02 8.07423145e-03 4.20876518e-02 7.97104388e-02
      1.66324660e-01 3.35684747e-01 3.35684747e-01 3.81770395e-02
      4.48397081e-03 9.64178797e-03 2.74482463e-02 4.51746024e-02
      1.40633494e-01 2.35672057e-01 3.35684747e-01 2.25419343e-01
      7.06298277e-02 1.33969476e-02 3.31049263e-02 1.76151562e-02
      4.28082533e-02 1.11709774e-01 2.03078106e-01 3.35684747e-01
      3.35684747e-01 8.54725391e-02 3.38790752e-02 3.85547802e-02
      2.81559620e-02 6.57666102e-02 7.18096644e-02 1.31219879e-01
      2.96353608e-01 2.96353608e-01 6.86571449e-02 6.05166741e-02
      4.50073257e-02 4.82330993e-02 3.00917327e-02 3.34155932e-02
      5.47085591e-02 1.87271535e-01 2.30992109e-01 2.52070218e-01
      2.96353608e-01 9.47199389e-02 1.93341393e-02 1.51449032e-02
      3.57880220e-02 1.15698330e-01 2.96353608e-01 2.96353608e-01
      6.39016107e-02 6.43790737e-02 3.58844660e-02 3.09337396e-02
      1.63320415e-02 3.25274467e-02 7.95295313e-02 2.96353608e-01
      2.96353608e-01 2.46327817e-01 2.77317703e-01 7.14814067e-02
      2.35965960e-02 1.24348479e-03 1.61703269e-03 1.41072087e-02
      3.06840271e-01 3.06840271e-01 2.51862615e-01 2.25063086e-01
      3.94385345e-02 6.18416397e-03 1.08720921e-02 1.18362680e-02
      5.70107028e-02 3.06840271e-01 2.94670731e-01 6.53952882e-02
      1.62617620e-02 1.83868525e-03 9.60228592e-03 3.23622092e-03
      6.42000139e-03 1.97832417e-02 3.06840271e-01 3.06840271e-01
      2.84010381e-01 1.64858103e-01 2.53277738e-02 2.53324546e-02
      3.69872004e-02 5.86141162e-02 7.42727965e-02 3.06840271e-01
      3.06840271e-01 8.06355104e-02 8.37741699e-03 7.90165388e-04
      5.47960121e-03 1.58289913e-02 3.14034820e-02 2.02989817e-01
      3.51553112e-01 1.97588593e-01 5.78472465e-02 3.69193824e-03
      4.06253967e-04 3.61288758e-03 2.89733824e-03 2.67381538e-02
      2.48528600e-01 3.51553112e-01 3.51553112e-01 1.39370739e-01
      6.82852976e-03 2.83702090e-03 3.93078960e-02 5.67462146e-02
      7.90521950e-02 1.29193202e-01 2.50454605e-01 2.07551941e-01
      8.60797763e-02 8.70591495e-03 4.03024489e-04 1.24476850e-02
      1.10588754e-02 1.72103029e-02 7.71647543e-02 3.51553112e-01
      3.51553112e-01 2.51816034e-01 2.71838792e-02 3.23940720e-03
      6.01316690e-02 1.31858513e-02 2.28738673e-02 8.98874551e-02
      3.98379058e-01 1.81232959e-01 1.53552815e-02 1.03328470e-02
      5.60842641e-02 1.33645684e-01 3.02359853e-02 5.77321835e-02
      5.88575229e-02 3.98379058e-01 2.55607814e-01 1.64013669e-01
      2.84421910e-02 1.28441870e-01 5.14741950e-02 1.90366954e-02
      6.31252723e-03 1.53021570e-02 3.98379058e-01 2.67010838e-01
      3.24111723e-04 2.04496514e-02 2.79313531e-02 1.28103092e-01
      3.68002802e-02 1.03363730e-01 1.99365150e-02 3.98379058e-01
      2.20912978e-01 1.04830317e-01 4.33659069e-02 1.05156742e-01
      2.32447926e-02 1.12925507e-02 3.91224213e-02 1.29699156e-01
      3.10333401e-01 2.86071151e-01 1.15218192e-01 3.03736553e-02
      5.70844151e-02 8.09056405e-03 9.55180824e-03 4.01253104e-02
      1.82141513e-01 3.10333401e-01 3.10333401e-01 1.03253588e-01
      6.89535886e-02 9.25748721e-02 1.96546130e-02 8.46645050e-03
      6.79026172e-02 9.71406773e-02 3.10333401e-01 3.10333401e-01
      1.06378667e-01 4.00430523e-02 5.73333949e-02 4.19587549e-03
      2.15868913e-02 9.52891186e-02 2.87526965e-01 3.10333401e-01
      3.10333401e-01 1.02734663e-01 7.43869767e-02 8.04639161e-02
      4.46196739e-03 2.47331383e-03 1.19801424e-02 6.86308593e-02
      3.61775607e-01 3.61775607e-01 4.32276875e-02 3.65819372e-02
      2.76845805e-02 6.04301086e-03 3.75436409e-03 1.01696840e-02
      3.03389542e-02 3.61775607e-01 3.08973253e-01 9.15480331e-02
      4.83381525e-02 1.51100298e-02 3.29066138e-03 1.19626541e-02
      3.71062793e-02 1.64134160e-01 3.61775607e-01 3.26952755e-01
      2.34892964e-02 2.01985855e-02 2.00264715e-02 2.12143571e-03
      1.50296686e-03 2.50914227e-03 4.48176377e-02 3.61775607e-01
      2.94249237e-01 1.72802843e-02 1.08457648e-03 2.39445106e-03
      1.99333648e-03 9.86224506e-04 3.29114846e-03 6.82835374e-03
      3.62892926e-01 3.62892926e-01 8.28307867e-02 2.69471537e-02
      5.48435049e-03 1.53366691e-02 1.72247440e-02 3.79348733e-02
      3.40686776e-02 3.62892926e-01 3.09965879e-01 3.04343123e-02
      1.29534425e-02 6.59509934e-03 9.99568612e-04 2.21205322e-04
      1.07055996e-03 3.47092338e-02 3.62892926e-01 3.57158512e-01
      1.17070535e-02 7.74427666e-04 1.15982466e-03 1.02743357e-02
      1.33506292e-02 1.85418241e-02 2.50652544e-02 3.62892926e-01
      3.14838886e-01 1.05990330e-02 1.77797303e-02 1.32069048e-02
      4.29882109e-02 5.00953272e-02 8.64000097e-02 6.71289042e-02
      2.04064399e-01 1.80271402e-01 8.15026835e-02 2.80922838e-02
      1.22250896e-02 1.26645491e-02 1.12352595e-02 1.78445447e-02
      8.50323588e-02 4.15696114e-01 4.15696114e-01 1.39377281e-01
      2.00139899e-02 3.57773644e-03 2.50901952e-02 3.53596918e-02
      5.35215214e-02 6.62418380e-02 4.00133878e-01 1.41363755e-01
      2.89614983e-02 3.56149450e-02 2.79465672e-02 7.20469421e-03
      7.29493145e-03 1.54144028e-02 2.89966047e-01 4.15696114e-01
      2.73278981e-01 1.99816786e-02 7.68177817e-03 6.20035268e-03
      1.81260332e-02 5.22020087e-03 8.53078847e-04 2.46589202e-02
      4.36433047e-01 2.88809896e-01 1.37294002e-03 3.63596156e-02
      1.90161448e-02 5.37926294e-02 3.20096500e-02 1.24454811e-01
      3.31172906e-02 4.36433047e-01 1.48325995e-01 2.45936047e-02
      5.25731705e-02 6.63488284e-02 5.91826858e-03 1.91001326e-03
      5.71548799e-03 1.32750973e-01 4.36433047e-01 2.00912282e-01
      1.06784224e-03 1.31722270e-02 9.07380506e-03 1.32212713e-02
      4.35261130e-02 1.40487626e-01 9.09467787e-02 4.36433047e-01
      8.94516855e-02 1.45890368e-02 2.00805366e-02 1.99118759e-02
      1.01722423e-02 1.61181483e-02 7.83336759e-02 7.59050474e-02
      3.45684141e-01 2.46067926e-01 4.42361720e-02 1.58390272e-02
      2.87047792e-02 6.99249469e-03 3.30426544e-02 9.33483616e-02
      2.44128674e-01 3.45684141e-01 3.45684141e-01 5.48091829e-02
      2.80426964e-02 3.76014039e-02 5.39909769e-03 1.51894372e-02
      5.63473888e-02 1.08272128e-01 3.45684141e-01 1.88647732e-01
      2.56219208e-02 1.86726376e-02 2.15251483e-02 1.57461260e-02
      1.70369707e-02 5.54250143e-02 2.46162191e-01 3.45684141e-01
      3.45684141e-01 5.43116443e-02 6.89535215e-02 7.02614114e-02
      4.00521606e-03 1.85876098e-02 4.11097556e-02 2.05844879e-01
      4.00394529e-01 2.87639260e-01 1.21581350e-02 8.96667968e-03
      1.26953572e-02 5.78142703e-03 1.87067746e-03 1.55201426e-03
      1.15818501e-01 4.00394529e-01 1.88265279e-01 7.72527710e-04 0.
      3.00161354e-03 1.04822246e-02 1.05656711e-02 4.10059951e-02
      2.42473915e-01 4.00394529e-01 2.33352929e-01 2.45006904e-02
      3.09617743e-02 3.20505761e-02 1.77350044e-02 1.41240815e-02
      2.02325415e-02 2.13778630e-01 4.00394529e-01 1.17568173e-01
      8.31759628e-03 3.82907852e-03 3.70584708e-03 3.71339335e-03
      4.10086883e-04 7.75073306e-04 1.07153192e-01 4.06355709e-01
      2.04520240e-01 6.34102500e-04 2.79337517e-04 1.97927351e-03
      8.33701715e-03 1.04273474e-02 2.12213434e-02 5.14329635e-02
      4.06355709e-01 2.74179012e-01 3.30856210e-03 5.98910032e-03
      6.86374400e-03 1.17017999e-02 8.91796313e-03 1.53359855e-02
      2.47271180e-01 4.06355709e-01 1.55851409e-01 3.78175895e-03
      1.58289343e-03 1.75028061e-03 4.11904510e-03 4.53674374e-03
      1.32871671e-02 1.64747059e-01 4.06355709e-01 3.00127506e-01
      1.15526812e-02 9.79206339e-03 1.92087470e-03 1.45027842e-02
      1.95362698e-02 5.55967279e-02 7.86521658e-02 3.49523962e-01
      1.43828377e-01 5.19824773e-03 8.51491839e-03 1.26583297e-02
      3.62341059e-03 3.42452084e-03 2.43785568e-02 2.06360564e-01
      3.49523962e-01 3.48294199e-01 2.05765180e-02 3.04899225e-03
      3.71898431e-03 7.63158593e-03 1.35222748e-02 9.42599103e-02
      1.65473700e-01 3.49523962e-01 1.97769091e-01 1.84440296e-02
      2.06604470e-02 4.82862024e-03 6.85771601e-03 2.52581779e-02
      1.35834336e-01 3.49523962e-01 3.49523962e-01 3.04334253e-01
      3.34680974e-02 2.23664269e-02 1.05800489e-02 4.97830007e-03
      3.28713073e-03 1.53653696e-02 9.26108062e-02 4.27568525e-01
      1.43620476e-01 1.39757700e-03 0. 4.97830007e-03 6.79298118e-03
      1.87354721e-02 7.59567469e-02 6.40586987e-02 4.27568525e-01
      5.86794056e-02 1.33427922e-02 3.57731618e-03 6.79298118e-03
      1.78902429e-02 5.33162151e-03 3.99133936e-02 1.85510311e-02
      4.27568525e-01 4.27568525e-01 2.41121631e-02 4.63601347e-04
      1.78902429e-02 7.23965047e-03 1.17295682e-02 9.26609412e-02
      2.98393257e-02 4.27568525e-01 1.41840473e-01 7.11462870e-02
      9.72574763e-03 8.56372714e-03 1.10892020e-02 4.49978560e-03
      3.51615511e-02 1.27876520e-01 3.48019212e-01 1.39405221e-01
      3.74730788e-02 2.19487362e-02 1.35478824e-02 3.30806971e-02
      2.34622862e-02 6.37185201e-02 2.86359310e-01 3.48019212e-01
      3.00629973e-01 8.30967203e-02 8.32469016e-02 3.88382897e-02
      1.41393449e-02 1.16300047e-03 2.02955045e-02 9.72681195e-02
      3.48019212e-01 1.49688467e-01 1.01427853e-01 1.72779057e-02
      1.06991651e-02 4.28115427e-02 4.04180847e-02 5.45493849e-02
      2.59904355e-01 3.48019212e-01 3.36883456e-01 2.11513862e-01
      5.93489446e-02 2.15645581e-02 3.12663652e-02 4.82091941e-02
      7.95269683e-02 3.41746271e-01 3.43785018e-01 1.85704947e-01
      4.89232615e-02 5.19772545e-02 3.91007513e-02 3.26416790e-02
      4.51033525e-02 6.48961961e-02 2.79315382e-01 3.43785018e-01
      1.10207580e-01 3.24460492e-02 3.38162892e-02 3.20706666e-02
      7.05235004e-02 1.02895819e-01 9.35797393e-02 2.99424320e-01
      3.43785018e-01 1.96544945e-01 9.31597352e-02 6.27094433e-02
      5.06895557e-02 1.28283307e-01 1.05038926e-01 8.69650468e-02
      1.93071753e-01 3.06770414e-01 7.12856203e-02 3.55194546e-02
      1.31695926e-01 1.25962034e-01 1.83556490e-02 2.23487746e-02
      4.61205207e-02 3.18825662e-01 3.24296653e-01 1.30638942e-01
      1.67643782e-02 1.36554437e-02 1.14731872e-02 5.81402448e-04
      2.19231378e-03 8.04554950e-03 2.22681493e-01 3.24296653e-01
      2.94173330e-01 7.35275745e-02 6.59865215e-02 5.26366988e-03
      8.09538513e-02 9.45981443e-02 1.04252748e-01 2.83241808e-01
      3.24296653e-01 9.85702127e-02 2.05605607e-02 5.81928194e-02
      5.66229373e-02 1.60563253e-02 3.33163887e-02 4.57057469e-02
      2.39243984e-01 3.24296653e-01 3.24296653e-01 1.10743985e-01
      7.93343037e-02 8.66833236e-03 3.14067188e-03 9.69689991e-03
      4.91101630e-02 1.55572683e-01 3.36903781e-01 1.61660999e-01
      7.69855008e-02 8.28788653e-02 1.10758645e-02 9.71106905e-03
      4.01808918e-02 1.21309191e-01 3.36903781e-01 3.36903781e-01
      1.20860040e-01 5.20728454e-02 4.10127975e-02 1.99270193e-02
      2.68522408e-02 1.36780469e-02 4.83968034e-02 1.99571237e-01
      2.77598321e-01 2.34135121e-01 1.09876700e-01 9.51013863e-02
      3.12409941e-02 4.00446169e-02 1.74414683e-02 2.96062350e-01
      3.36903781e-01 3.36903781e-01 1.60368428e-01 9.35313702e-02
      6.17049150e-02 5.13072312e-02 1.19827027e-02 8.53235601e-04
      1.58996694e-02 1.35182217e-02 3.29273790e-01 3.29273790e-01
      5.88802397e-02 2.53843889e-03 1.22000910e-02 1.27177164e-02
      8.34015384e-03 3.59896794e-02 1.09941931e-02 3.29273790e-01
      1.46006644e-01 1.44773543e-01 3.08815595e-02 1.75749008e-02
      9.98470746e-03 0. 1.97666865e-02 3.09768245e-02 3.29273790e-01
      3.29273790e-01 3.29273790e-01 1.25946831e-02 1.35298809e-02
      5.88130206e-02 2.91424654e-02 8.45507905e-02 6.26243576e-02
      3.29273790e-01 3.29273790e-01 2.34523430e-01 5.76523244e-02
      6.67470917e-02 1.26708569e-02 8.80891364e-03 4.46756743e-02
      1.91661924e-01 3.23359996e-01 1.19902685e-01 9.89113599e-02
      2.56484896e-02 1.89744215e-02 2.48347372e-02 3.84640172e-02
      9.00611058e-02 3.23359996e-01 3.23359996e-01 2.68115073e-01
      1.31832972e-01 2.56801527e-02 1.62752792e-02 4.49304171e-02
      3.49970497e-02 1.57857224e-01 3.23359996e-01 3.23359996e-01
      4.06765789e-02 8.49791244e-02 3.30295414e-02 3.92257385e-02
      1.93315558e-02 4.16188948e-02 2.37766653e-01 3.23359996e-01
      3.23359996e-01 3.91375646e-02 1.64977200e-02 9.37262550e-03
      9.74244811e-03 1.11717455e-01 2.08694875e-01 1.71727553e-01
      2.62143284e-01 2.62143284e-01 1.71285152e-01 7.76608512e-02
      5.63727804e-02 5.68997711e-02 2.62143284e-01 2.62143284e-01
      1.99418142e-01 6.73475489e-02 1.07697308e-01 3.24220769e-02
      2.63542607e-02 1.76355317e-01 2.01313034e-01 6.72060624e-02
      2.00500652e-01 2.62143284e-01 2.62143284e-01 2.62143284e-01
      2.80986466e-02 1.48088997e-02 2.59685144e-02 3.65968272e-02
      2.09243149e-01 2.62143284e-01 2.62143284e-01 9.16307345e-02
      6.39642403e-02 1.21836616e-02 1.62537936e-02 7.09712505e-02
      1.13414802e-01 2.47688890e-01 2.47688890e-01 2.33989671e-01
      2.21762821e-01 2.22119614e-01 2.96942238e-02 1.80405248e-02
      8.14256221e-02 1.06726274e-01 1.24150135e-01 2.40710825e-01
      1.79163396e-01 2.47688890e-01 2.47688890e-01 1.68480054e-01
      6.65129647e-02 3.75414267e-02 3.34783569e-02 2.33893499e-01
      2.47688890e-01 1.95974484e-01 7.20413327e-02 6.19083531e-02
      1.56073375e-02 3.24991420e-02 4.54079397e-02 1.06154762e-01
      2.40438402e-01 2.47688890e-01 2.37994701e-01 1.24389522e-01
      7.99327195e-02 1.20035969e-02 5.01903519e-02 1.01914577e-01
      2.23624185e-01 3.66776921e-02 6.04996309e-02 2.08494514e-01
      2.41321325e-01 1.49567693e-01 8.85754898e-02 3.01362388e-02
      2.28098948e-02 2.07491387e-02 2.33623926e-02 2.13602819e-02
      3.12129766e-01 3.12129766e-01 3.12129766e-01 6.84259832e-02
      2.44588610e-02 1.76403373e-02 2.17472315e-02 7.82223418e-02
      2.64811873e-01 3.12129766e-01 2.40202725e-01 1.23546317e-01
      1.84098873e-02 9.18997917e-03 3.51611823e-02 6.01923205e-02
      1.58972777e-02 9.97693911e-02 3.12129766e-01 3.12129766e-01
      3.12129766e-01 6.57944158e-02 1.21729297e-03 2.33790604e-03
      4.76647634e-03</_>
    <_>
      1.29034057e-01 1.09464705e-01 2.07719728e-01 2.95149297e-01
      2.60254920e-01 7.21519291e-02 5.49778948e-03 6.94173714e-03
      4.61545102e-02 2.95149297e-01 2.95149297e-01 1.73755318e-01
      1.36743724e-01 6.66762143e-02 2.21337266e-02 2.18914244e-02
      4.22598496e-02 1.45196959e-01 2.91883424e-02 2.34614704e-02
      2.95149297e-01 2.95149297e-01 2.95149297e-01 1.51286229e-01
      3.76127847e-02 7.25638643e-02 2.84808166e-02 8.43068734e-02
      1.51614726e-01 2.95149297e-01 2.95149297e-01 9.58261341e-02
      4.00320403e-02 2.85437945e-02 3.53852250e-02 3.63050960e-02
      2.84840971e-01 2.38577202e-01 4.51185852e-02 1.56496335e-02
      3.17349993e-02 1.03762910e-01 2.00135678e-01 1.74751818e-01
      2.48006418e-01 7.09424764e-02 4.71605062e-02 7.04346225e-02
      1.71181083e-01 2.15633228e-01 2.64732093e-01 2.34594002e-01
      1.34939298e-01 1.34148672e-01 7.86071420e-02 1.07570432e-01
      8.93907100e-02 6.98939413e-02 7.48001114e-02 2.90568262e-01
      2.24775910e-01 1.12363555e-01 6.56592250e-02 1.19941533e-02
      9.27824713e-03 7.00731725e-02 1.80143833e-01 2.90568262e-01
      2.90568262e-01 2.54844606e-01 5.90955727e-02 2.33730152e-02
      4.52436246e-02 6.45145029e-02 1.81232870e-01 2.68628478e-01
      2.06132323e-01 1.22885436e-01 6.78285658e-02 5.99306934e-02
      6.48014620e-02 1.86427161e-01 1.17215015e-01 1.34476364e-01
      2.20518917e-01 8.84981304e-02 5.92047013e-02 7.27304518e-02
      1.11599542e-01 2.06165016e-01 6.06218465e-02 5.58294170e-02
      2.44156376e-01 2.68628478e-01 2.68628478e-01 2.68628478e-01
      1.02897279e-01 3.88453715e-02 4.68704440e-02 1.28386170e-01
      9.98130292e-02 1.87271342e-01 2.68628478e-01 9.71922576e-02
      1.27560481e-01 2.68628478e-01 2.68628478e-01 1.68596521e-01
      1.61220074e-01 1.27923071e-01 1.28960595e-01 1.89579442e-01
      2.66163409e-01 1.55114710e-01 4.42418754e-02 4.83005121e-02
      1.14992067e-01 1.85527913e-02 3.11787575e-02 9.53784212e-02
      2.19932184e-01 2.66163409e-01 2.66163409e-01 6.88276514e-02
      1.23927798e-02 6.98237447e-03 6.08851500e-02 4.17183936e-02
      7.81249180e-02 1.53153732e-01 2.03480944e-01 2.66163409e-01
      2.66163409e-01 2.66163409e-01 1.49159357e-01 2.08784025e-02
      2.15068329e-02 9.13885161e-02 1.82460696e-01 2.66163409e-01
      2.66163409e-01 2.51846552e-01 1.55327365e-01 4.02052738e-02
      4.16161213e-03 4.80794488e-03 3.13793272e-02 6.91454858e-02
      2.64991909e-01 2.91079313e-01 1.33054912e-01 1.11838402e-02
      3.26555409e-03 3.51234223e-03 4.49564587e-03 2.90130954e-02
      8.18301663e-02 3.34389776e-01 3.34389776e-01 1.97331637e-01
      5.97295398e-03 3.79269151e-03 8.87548272e-03 1.22797983e-02
      5.07068150e-02 9.61190835e-02 2.29412392e-01 2.85819083e-01
      1.76008850e-01 2.74545718e-02 8.78759567e-03 3.74410138e-03
      1.00371251e-02 7.00606182e-02 2.56488174e-01 3.34389776e-01
      3.34389776e-01 2.73993641e-01 1.28075872e-02 4.58087027e-03
      2.99329087e-02 9.11453273e-03 3.67603987e-01 3.67603987e-01
      1.56143278e-01 6.64833188e-02 2.67737173e-02 5.66401705e-02
      2.71025877e-02 1.26697076e-02 2.90232804e-02 2.49995947e-01
      3.67603987e-01 7.22374320e-02 1.23412674e-02 1.07920449e-02
      7.98964873e-03 1.01446928e-02 1.68051254e-02 2.14846600e-02
      3.67603987e-01 3.67603987e-01 2.99215436e-01 3.43298092e-02
      1.72840618e-03 2.68183090e-03 1.07909767e-02 2.28468776e-02
      4.08933870e-02 8.90653059e-02 2.80977964e-01 1.88236088e-01
      1.06017198e-02 6.16287673e-03 1.31463148e-02 2.56805979e-02
      1.63972247e-02 2.72166058e-02 4.56589647e-02 7.21487552e-02
      1.38722971e-01 2.58153379e-01 5.70005625e-02 1.88314635e-02
      1.42390598e-02 1.83148868e-02 9.91952233e-03 5.56541197e-02
      1.14251487e-01 4.41863030e-01 4.41863030e-01 7.44388029e-02
      1.14807207e-02 2.22529527e-02 2.15571299e-02 2.14342345e-02
      2.51941085e-02 5.59986457e-02 2.59403437e-01 9.92128700e-02
      1.33312102e-02 9.90835205e-03 2.42095403e-02 2.05917507e-02
      5.05129667e-03 3.54438052e-02 9.49348211e-02 4.41863030e-01
      4.41863030e-01 1.15200402e-02 2.34870729e-03 1.79345366e-02
      2.97393184e-02 2.27579027e-02 1.19208410e-01 2.00178653e-01
      3.54922622e-01 3.54922622e-01 3.65996659e-02 1.66684352e-02
      3.44179384e-02 3.57522294e-02 3.53005864e-02 1.06385022e-01
      1.77717060e-01 1.39494285e-01 7.37940222e-02 1.32043645e-01
      2.40431949e-01 1.13214530e-01 2.33463086e-02 8.85266159e-03
      5.73746152e-02 1.21018603e-01 3.54922622e-01 3.54922622e-01
      1.05506238e-02 5.38452761e-03 2.03221068e-02 4.43481915e-02
      3.41610052e-02 6.70985505e-02 1.40609935e-01 3.54922622e-01
      2.46481359e-01 6.68178350e-02 1.60360381e-01 1.10781416e-01
      1.30513366e-02 9.34169255e-03 2.08383873e-02 4.22298796e-02
      6.99049458e-02 2.04833791e-01 2.63641506e-01 2.91381508e-01
      1.15970023e-01 2.80116010e-03 3.10422853e-03 1.23464065e-02
      3.02491933e-02 2.91381508e-01 2.91381508e-01 2.15908766e-01
      1.19605608e-01 2.51394529e-02 2.41435356e-02 1.58078149e-02
      1.96154248e-02 4.35753018e-02 2.83935726e-01 2.91381508e-01
      2.54832506e-01 2.60711908e-01 1.11162968e-01 1.18304258e-02
      7.64007960e-03 5.94429579e-03 4.45045568e-02 2.91381508e-01
      2.91381508e-01 2.34489158e-01 7.93926194e-02 1.57968216e-02
      2.67773261e-03 4.65341285e-03 4.18430418e-02 9.49119031e-02
      2.44082466e-01 2.59501159e-01 1.55556738e-01 1.87258720e-02
      3.25112976e-03 1.88148080e-03 2.73507624e-03 8.25491548e-02
      2.70122021e-01 2.96553046e-01 2.96553046e-01 2.82174438e-01
      1.22275781e-02 2.23845756e-03 2.47819815e-02 2.18551829e-02
      8.11875761e-02 1.92085356e-01 2.96553046e-01 2.45362759e-01
      8.60321224e-02 2.16480307e-02 7.59344781e-03 9.99633223e-03
      9.47845168e-03 1.25336885e-01 2.96553046e-01 2.96553046e-01
      2.96553046e-01 1.31913334e-01 3.77178639e-02 1.04119861e-02
      3.52529772e-02 1.74356215e-02 1.88043982e-01 3.93391103e-01
      3.93391103e-01 1.10244066e-01 0. 6.75059389e-04 3.25129703e-02
      7.14697316e-02 5.27636036e-02 4.21706736e-02 2.10169017e-01
      3.93391103e-01 4.13617678e-02 2.12934893e-02 4.38195467e-02
      8.37500170e-02 3.24364975e-02 7.40460446e-03 2.57892516e-02
      2.30058298e-01 3.93391103e-01 1.48644745e-01 0. 0. 3.18017416e-02
      7.42685646e-02 1.91393699e-02 4.68237735e-02 1.07526995e-01
      3.93391103e-01 3.22193094e-02 2.69585419e-02 3.40967178e-02
      8.28212798e-02 2.88696121e-02 1.30575616e-02 9.58436541e-03
      2.74076927e-02 2.10650697e-01 7.97155052e-02 3.71306874e-02
      3.27625796e-02 4.02040146e-02 7.81420060e-03 8.30193458e-04
      7.26897642e-03 7.34686628e-02 4.52255070e-01 4.52255070e-01
      3.07902172e-02 7.02168420e-03 7.96712376e-03 3.20954621e-02
      3.28460848e-03 5.90538746e-03 7.63517665e-03 2.01703444e-01
      9.76880789e-02 8.89922827e-02 3.89420167e-02 3.96461859e-02
      7.24477181e-03 3.04314453e-04 4.12684493e-03 2.04748496e-01
      4.52255070e-01 4.52255070e-01 9.72119048e-02 1.54586751e-02
      8.79305601e-03 2.64685042e-03 1.33917714e-03 5.65836253e-03
      6.70398697e-02 3.87735844e-01 3.87735844e-01 9.49188508e-03 0.
      8.40948487e-04 1.39432885e-02 9.63498838e-03 1.56548973e-02
      9.17994902e-02 3.87735844e-01 1.80596858e-01 3.12137231e-02
      3.98551263e-02 2.11872067e-02 1.53316860e-03 4.57200658e-04
      5.75586129e-03 2.15774044e-01 3.87735844e-01 3.21394145e-01
      1.99240129e-02 4.66420261e-06 1.53316860e-03 2.80068186e-03
      5.13252802e-04 5.62176108e-03 1.41628489e-01 3.87735844e-01
      1.56955302e-01 1.29283816e-02 4.79071354e-03 2.75326823e-03
      1.19520603e-02 6.36586780e-03 1.03880186e-02 4.29599769e-02
      3.91876549e-01 2.56035447e-01 1.08338863e-01 8.43452215e-02
      2.56608445e-02 2.66844276e-02 1.58737469e-02 4.22394462e-03
      4.85225134e-02 3.91876549e-01 3.91876549e-01 1.02972262e-01
      3.68572995e-02 2.09913142e-02 2.77246814e-03 2.51767313e-04
      3.38364090e-03 8.40484053e-02 3.91876549e-01 1.43197134e-01
      1.81625392e-02 1.14725865e-02 2.80099874e-03 1.68155469e-02
      1.64152049e-02 6.70846226e-03 1.24114834e-01 3.91876549e-01
      2.80050248e-01 2.19125003e-02 3.67733873e-02 3.14479023e-02
      8.49459097e-02 5.56746796e-02 4.68001403e-02 1.31379724e-01
      3.37950319e-01 2.52836823e-01 8.61986354e-02 5.20531870e-02
      6.44975007e-02 3.26350331e-02 2.12818682e-02 5.05832955e-02
      2.41595477e-01 3.37950319e-01 3.37950319e-01 1.19630173e-01
      7.65471682e-02 3.67312804e-02 5.55048399e-02 4.18047681e-02
      2.30015479e-02 1.56719983e-01 3.37950319e-01 1.94574937e-01
      4.25627343e-02 8.60542506e-02 1.01941332e-01 2.27608513e-02
      1.12223942e-02 1.71979647e-02 3.37950319e-01 3.37950319e-01
      1.59331709e-01 4.27744165e-02 4.36367244e-02 4.42300886e-02
      1.26165729e-02 4.86687478e-03 2.35010199e-02 1.83998600e-01
