<?xml version="1.0"?>
<opencv_storage>
<opencv_ml_svm>
  <format>3</format>
  <svmType>C_SVC</svmType>
  <kernel>
    <type>LINEAR</type></kernel>
  <C>1.</C>
  <term_criteria><epsilon>1.0000000000000000e-03</epsilon></term_criteria>
  <var_count>180</var_count>
  <class_count>2</class_count>
  <class_labels type_id="opencv-matrix">
    <rows>2</rows>
    <cols>1</cols>
    <dt>i</dt>
    <data>
      0 1</data></class_labels>
  <sv_total>1</sv_total>
  <support_vectors>
    <_>
      3.43061030e-01 4.02819477e-02 2.15897560e-01 -1.38975233e-01
      4.13514584e-01 3.86186391e-01 -4.65433449e-02 -6.33243173e-02
      1.84880406e-01 -2.89556295e-01 -6.28887236e-01 -6.92156628e-02
      4.71631810e-02 8.60535979e-01 6.82465017e-01 -4.93575811e-01
      -4.52918351e-01 -1.18894398e-01 -2.05641408e-02 -3.19010988e-02
      8.65746796e-01 4.24890876e-01 -3.59705806e-01 -1.01183333e-01
      3.07518281e-02 -1.01961426e-01 -7.70916715e-02 -1.76804736e-01
      4.34521645e-01 9.99154076e-02 7.38176284e-03 -9.52159286e-01
      -6.22375570e-02 -3.43100876e-01 7.97634292e-03 -2.19384596e-01
      -9.78032127e-03 2.08370373e-01 1.06139708e+00 2.03403696e-01
      -9.19354200e-01 -8.23184192e-01 3.68599802e-01 6.13792241e-01
      1.37674540e-01 -1.50885925e-01 -2.37850308e-01 7.56632745e-01
      -2.91103482e-01 -1.60927868e+00 1.69818655e-01 2.50699729e-01
      6.34719610e-01 6.35650083e-02 1.01277515e-01 1.09084159e-01
      -1.42465974e-03 -2.73711961e-02 -9.36430037e-01 -9.28903103e-01
      4.00316387e-01 1.06701696e+00 5.94470441e-01 -8.46898034e-02
      -3.28347027e-01 -1.58482030e-01 -1.72663070e-02 -5.96650958e-01
      -1.96254551e-01 5.77562511e-01 1.55643189e+00 3.56107652e-01
      1.49280652e-01 2.10791618e-01 -8.09442848e-02 -1.39071524e-01
      -5.41841805e-01 -3.72911692e-01 7.35528991e-02 7.61082709e-01
      4.86532032e-01 6.46079779e-02 1.45153090e-01 2.55859524e-01
      -5.16451299e-01 -3.84814948e-01 -2.99080431e-01 9.89024788e-02
      1.07493258e+00 4.45372343e-01 1.22965701e-01 6.69956923e-01
      -3.16204410e-03 -1.87635064e-01 -3.20705235e-01 -7.62296021e-02
      1.46194017e-02 9.59995463e-02 1.34650633e-01 2.23016813e-02
      3.27726781e-01 -4.19495434e-01 -9.64156449e-01 -3.83418918e-01
      -8.28017714e-04 1.39311373e-01 1.27703935e-01 1.33652806e-01
      5.74352555e-02 4.24033463e-01 -1.79545358e-01 -1.58908844e-01
      -5.52082419e-01 -6.10616691e-02 -8.08016211e-02 2.80197170e-02
      -3.40870535e-03 1.76525742e-01 5.11740625e-01 -6.53808534e-01
      -9.37057614e-01 -1.61387920e-01 -8.24294537e-02 -2.90857643e-01
      -1.05770469e-01 6.01784512e-02 -1.02689058e-01 2.88075134e-02
      6.88968003e-02 -1.68837026e-01 -2.62540251e-01 3.21804017e-01
      -9.66660008e-02 3.19799751e-01 -1.90358553e-02 3.31417322e-01
      2.55569816e-01 -1.35169938e-01 -5.76903582e-01 -2.53547728e-01
      -2.03091040e-01 -3.49948674e-01 1.28482670e-01 3.89335215e-01
      -1.97084695e-01 -4.41695511e-01 -2.38771722e-01 -2.41481915e-01
      -3.27443257e-02 -1.78593054e-01 4.71211374e-01 1.22337885e-01
      -2.50657588e-01 1.88992873e-01 -2.51519710e-01 -5.32869935e-01
      -2.79086143e-01 -4.50275183e-01 -8.96047205e-02 1.90768063e-01
      2.73440540e-01 3.05216163e-01 1.29427880e-01 3.71368900e-02
      1.76326260e-02 2.39140630e-01 1.42913507e-02 -1.24710940e-01
      1.13467969e-01 3.23929131e-01 -2.40602456e-02 -3.49865198e-01
      -7.36177191e-02 -1.84179068e-01 -3.25217038e-01 -4.43291694e-01
      1.97621003e-01 1.90390706e-01 2.84069806e-01 -4.05220836e-01</_></support_vectors>
  <uncompressed_sv_total>57</uncompressed_sv_total>
  <uncompressed_support_vectors>
    <_>
      1.68743916e-02 3.54980379e-02 3.22113127e-01 3.22113127e-01
      2.31438816e-01 5.34602813e-03 5.50380582e-03 3.71026201e-03
      1.26346676e-02 3.22278850e-02 4.77017388e-02 3.22113127e-01
      3.22113127e-01 2.04005226e-01 2.16332842e-02 1.28799798e-02
      1.19020902e-02 2.70560831e-02 3.86854410e-02 1.83061697e-02
      1.86455116e-01 3.22113127e-01 3.22113127e-01 1.39687229e-02
      4.19143029e-02 5.65997958e-02 6.62556514e-02 4.13053930e-02
      2.08613630e-02 1.03002660e-01 2.58253485e-01 1.90108955e-01
      8.53387862e-02 1.92912906e-01 2.41446570e-01 8.90798569e-02
      3.38496491e-02 1.93488374e-02 1.12328798e-01 3.46145958e-01
      3.46145958e-01 2.39090156e-02 3.16356272e-02 7.17117786e-02
      7.86996558e-02 5.38190939e-02 1.88352428e-02 4.22999263e-02
      9.36765671e-02 1.16967209e-01 6.04871251e-02 2.14291081e-01
      3.46145958e-01 1.64653331e-01 1.41573790e-02 1.32940980e-02
      6.44515753e-02 3.46145958e-01 3.46145958e-01 3.46145958e-01
      6.95935786e-02 2.31129304e-02 2.25442275e-02 4.65060063e-02
      1.80169214e-02 5.17400689e-02 8.29491168e-02 1.80814028e-01
      8.05752799e-02 9.43226367e-02 2.55906433e-01 1.01845972e-01
      4.91981255e-03 1.85444183e-03 9.19572450e-03 9.21088681e-02
      3.91169220e-01 3.91169220e-01 7.77120441e-02 4.92490595e-03
      4.88839578e-03 4.49737310e-02 1.97067298e-02 3.47141176e-02
      7.16589764e-02 3.04167718e-01 9.75126177e-02 3.51892151e-02
      2.33837180e-02 3.26018371e-02 2.56684683e-02 1.37737505e-02
      6.90955948e-03 7.53819868e-02 3.91169220e-01 3.91169220e-01
      7.95645043e-02 2.31605805e-02 2.46792510e-02 1.46751896e-01
      2.35807613e-01 2.15133622e-01 7.25051239e-02 3.00438583e-01
      1.21440522e-01 4.72636037e-02 3.03731412e-02 6.94724843e-02
      2.89035756e-02 1.55819003e-02 1.56990085e-02 4.06959876e-02
      3.11892480e-01 3.11892480e-01 2.46385023e-01 4.28100042e-02
      3.55103128e-02 1.00194544e-01 1.85295537e-01 2.85764754e-01
      1.00118667e-01 1.23857729e-01 1.75722256e-01 2.02096298e-01
      7.40127191e-02 6.53395280e-02 1.03430692e-02 3.87028023e-03
      8.06005951e-03 2.38278024e-02 2.05177411e-01 3.11892480e-01
      3.11892480e-01 7.13265985e-02 1.82064027e-02 4.94089872e-02
      3.93809862e-02 8.91193748e-02 7.27591664e-02 8.49123821e-02
      2.84118563e-01 3.11892480e-01 2.27140561e-01 7.63231143e-02
      1.45868389e-02 8.01138021e-03 1.23503404e-02 5.90911927e-03
      1.88077554e-01 2.86485732e-01 2.86485732e-01 1.30438432e-01
      3.92839834e-02 1.53440818e-01 6.91815242e-02 1.38089433e-02
      1.88765638e-02 4.73056771e-02 2.65210450e-01 2.86485732e-01
      2.86485732e-01 2.76163578e-01 6.76465034e-02 2.47507747e-02
      3.59281749e-02 3.46311252e-03 2.19585031e-01 1.25261500e-01
      1.59724429e-01 1.46803930e-01 1.06085010e-01 2.86485732e-01
      1.59706250e-01 5.46011962e-02 1.63051486e-02 7.92852119e-02
      5.51301241e-02 1.53981030e-01 2.86485732e-01 2.86485732e-01</_>
    <_>
      5.46709709e-02 1.97463647e-01 2.99254298e-01 2.39003375e-01
      3.26910242e-02 6.26274720e-02 7.24992156e-02 4.02439386e-02
      6.90872893e-02 6.40030578e-02 1.26347244e-01 1.30596459e-01
      2.20060460e-02 8.09276700e-02 2.99254298e-01 2.99254298e-01
      1.19914278e-01 9.45024341e-02 2.77433097e-02 1.59377232e-01
      2.99254298e-01 2.99254298e-01 2.33072340e-01 1.24877997e-01
      6.11172765e-02 8.09597783e-03 3.13886032e-02 2.96016298e-02
      8.93699080e-02 1.16396740e-01 1.81059435e-01 2.99254298e-01
      2.99254298e-01 1.69572651e-01 2.44555846e-02 3.89161929e-02
      1.23872356e-02 5.58454022e-02 1.75434068e-01 2.93345422e-01
      2.62697399e-01 1.11350477e-01 7.18609244e-02 2.33148243e-02
      4.64984914e-03 7.22860219e-03 1.89447217e-02 2.46472936e-02
      2.13623419e-01 2.93345422e-01 2.93345422e-01 1.43891931e-01
      6.00964017e-02 7.31457910e-03 3.46191749e-02 7.61260465e-02
      1.29456550e-01 2.93345422e-01 2.63685346e-01 1.09893493e-01
      1.77548915e-01 2.48051539e-01 6.49843216e-02 1.99756231e-02
      1.75000057e-02 1.25817368e-02 5.99636324e-02 1.25144228e-01
      2.23845899e-01 2.93345422e-01 2.93345422e-01 1.25244036e-01
      3.18681486e-02 5.30792400e-02 8.52920488e-02 3.07382941e-01
      3.07382941e-01 3.64068002e-02 8.58597681e-02 2.53279328e-01
      1.23979829e-01 2.89298203e-02 1.52182439e-02 1.53618967e-02
      2.68571973e-02 5.61512299e-02 1.94460943e-01 3.07382941e-01
      3.07382941e-01 2.02084348e-01 9.37317591e-03 1.20720342e-02
      2.66606770e-02 2.94471741e-01 3.07382941e-01 1.86562091e-01
      1.96525250e-02 3.27589847e-02 3.70768756e-02 1.82895623e-02
      7.85967987e-03 6.68759570e-02 2.24109873e-01 2.33767509e-01
      2.64214158e-01 1.36501968e-01 1.20916553e-01 5.69861084e-02
      9.40016191e-03 2.16892250e-02 4.20780964e-02 9.08176452e-02
      3.09174538e-01 3.09174538e-01 6.81259409e-02 1.74651947e-02
      7.01694144e-03 2.60636024e-02 3.07239629e-02 3.09174538e-01
      3.09174538e-01 1.33721292e-01 9.24752355e-02 3.40464152e-02
      1.04094334e-02 2.14420967e-02 2.28960477e-02 4.70896438e-02
      1.01188928e-01 8.05504322e-02 3.09174538e-01 3.09174538e-01
      2.28824288e-01 6.58855513e-02 4.18467559e-02 3.40330973e-02
      7.01286420e-02 3.09174538e-01 3.09174538e-01 2.94959247e-01
      9.45859626e-02 6.18605390e-02 3.37758549e-02 4.39333543e-02
      1.37946671e-02 1.66484565e-02 5.71327731e-02 4.83992696e-02
      2.61459231e-01 2.69904554e-01 2.51964688e-01 6.98772445e-02
      3.96528803e-02 1.38598075e-02 2.82598007e-02 1.80038333e-01
      2.69904554e-01 2.69904554e-01 2.00810224e-01 5.68181537e-02
      4.03006598e-02 3.52841467e-02 4.95390594e-02 2.28689574e-02
      1.62584241e-02 1.56902969e-02 1.32485181e-01 2.69904554e-01
      2.69904554e-01 2.69904554e-01 1.67463422e-01 1.35918528e-01
      1.43435150e-01 1.29818976e-01 2.49780074e-01 2.69904554e-01
      1.16971105e-01 6.88431561e-02 1.89988539e-01 2.03147262e-01</_>
    <_>
      1.36746699e-02 2.01124270e-02 1.72756072e-02 7.74343982e-02
      3.22386742e-01 3.22386742e-01 1.00776941e-01 1.06392885e-02
      1.09801078e-02 1.10924512e-03 0. 1.40352160e-04 2.77293450e-03
      2.76310146e-01 3.22386742e-01 1.82618529e-01 3.81220202e-03
      1.13117299e-03 3.72622884e-03 1.53213125e-02 8.09827968e-02
      1.54095888e-01 3.22386742e-01 3.22386742e-01 7.63647705e-02
      1.27483523e-02 5.38247544e-03 3.86330392e-03 4.41706041e-04
      3.48089053e-03 7.56525248e-03 3.22386742e-01 3.22386742e-01
      3.22386742e-01 4.03180458e-02 5.48651675e-03 3.74038750e-03
      7.61132827e-03 5.95763661e-02 7.73286074e-02 1.99000925e-01
      2.24842787e-01 1.98824137e-01 2.61087060e-01 3.09322905e-02
      7.09591620e-03 5.40234149e-04 3.24420584e-03 4.12183721e-03
      1.94294289e-01 3.03421557e-01 3.03421557e-01 1.50446489e-01
      1.60348043e-02 5.75411785e-03 1.56067661e-04 2.02295603e-03
      1.62169952e-02 9.13428590e-02 1.71610728e-01 3.03421557e-01
      3.03421557e-01 1.06096886e-01 5.14144823e-03 3.60156155e-05
      1.93285741e-04 2.75976732e-02 3.03421557e-01 3.03421557e-01
      3.03421557e-01 1.80951238e-01 2.24317014e-02 4.72023245e-03
      4.25544189e-04 3.11165880e-02 1.45377949e-01 2.16657579e-01
      1.16734371e-01 1.38024449e-01 1.36006907e-01 4.96627092e-02
      1.60484842e-03 0. 3.87161374e-02 3.04604828e-01 3.04604828e-01
      3.04604828e-01 1.75330684e-01 4.28042449e-02 6.61193859e-03
      4.39966619e-02 2.44886011e-01 3.04604828e-01 3.04604828e-01
      1.65931478e-01 1.77992154e-02 9.43547487e-03 8.03952478e-03
      1.13504343e-02 9.21275932e-03 8.54816586e-02 3.04604828e-01
      3.04604828e-01 3.04604828e-01 2.04192922e-02 2.20795372e-03
      2.80154200e-04 2.45984970e-03 1.00525543e-01 2.88528889e-01
      2.88528889e-01 1.58198789e-01 5.60370944e-02 4.37834747e-02
      7.23228138e-03 2.97756097e-03 1.20324725e-02 2.38064639e-02
      2.23523200e-01 2.88528889e-01 2.88528889e-01 1.75804257e-01
      1.37884598e-02 6.84737635e-04 0. 4.05597547e-03 5.19283973e-02
      2.38263860e-01 2.19826654e-01 1.81664959e-01 2.27694795e-01
      2.88528889e-01 1.10654436e-01 1.90415047e-02 1.59799177e-02
      3.10790949e-02 1.91195354e-01 2.88528889e-01 2.88528889e-01
      1.99825644e-01 9.62162614e-02 8.73276033e-03 0. 7.10717728e-03
      1.55245746e-02 1.21428575e-02 4.97262664e-02 2.88230509e-01
      2.88230509e-01 2.88230509e-01 1.29977733e-01 3.79713960e-02
      2.31342390e-02 3.74671184e-02 7.37682357e-02 1.83042854e-01
      2.88230509e-01 2.88230509e-01 9.11979005e-02 1.02090612e-02
      1.37901676e-04 1.26269059e-02 1.35677159e-01 1.66523501e-01
      1.22943424e-01 2.88230509e-01 2.88230509e-01 1.70563504e-01
      6.84692338e-02 1.19951658e-01 1.40767038e-01 2.66096424e-02
      5.24052642e-02 8.33334997e-02 2.88230509e-01 2.88230509e-01
      1.47457719e-01 1.20972678e-01 5.04796244e-02 1.42395739e-02</_>
    <_>
      3.45347486e-02 1.86510444e-01 2.79552668e-01 2.79552668e-01
      2.79552668e-01 9.07910168e-02 4.32490073e-02 9.49380733e-03
      1.33887026e-02 5.26372194e-02 1.17425315e-01 2.35505268e-01
      1.59508362e-01 2.79552668e-01 2.58526325e-01 7.60968700e-02
      2.10564956e-02 4.24719416e-02 4.80859354e-02 3.11691165e-02
      1.06684603e-01 2.79552668e-01 2.79552668e-01 1.27675310e-01
      1.25699177e-01 5.91849759e-02 4.46611866e-02 8.14130604e-02
      7.74203837e-02 1.01374112e-01 1.47600442e-01 2.21080095e-01
      1.98208347e-01 2.79552668e-01 1.94631606e-01 9.20038074e-02
      7.65981004e-02 1.92592442e-02 1.87108979e-01 2.86266714e-01
      2.43483275e-01 7.12811947e-02 1.74780786e-01 1.57364964e-01
      7.52554238e-02 5.47354370e-02 1.55204963e-02 2.17027683e-02
      4.13512252e-02 1.11184865e-01 2.26940170e-01 2.86266714e-01
      2.86266714e-01 1.05687514e-01 5.05260490e-02 9.38636996e-03
      8.53842720e-02 2.46484175e-01 2.86266714e-01 6.17123470e-02
      7.03170896e-02 1.10003322e-01 6.13800324e-02 3.24608162e-02
      5.81589388e-03 2.16318611e-02 1.09713532e-01 2.86266714e-01
      2.86266714e-01 2.86266714e-01 2.54164726e-01 5.44019081e-02
      3.87858786e-02 5.48358262e-02 5.18944785e-02 8.97142068e-02
      3.22933167e-01 7.93369114e-02 3.83844748e-02 3.51730138e-02
      3.69039066e-02 4.10031565e-02 8.24382529e-02 3.17255467e-01
      3.22933167e-01 3.18987757e-01 1.17458537e-01 3.94823663e-02
      2.71516796e-02 3.14400829e-02 6.64712787e-02 1.60553217e-01
      2.32561052e-01 9.77371112e-02 3.22933167e-01 2.02668607e-01
      3.77793051e-02 4.79643233e-02 7.77457058e-02 5.67387044e-02
      2.46500880e-01 3.22933167e-01 3.22933167e-01 1.10068485e-01
      5.07335924e-03 5.89755736e-03 7.31071224e-03 2.95145698e-02
      3.41938399e-02 6.79524541e-02 1.55081034e-01 1.54281631e-01
      2.21779823e-01 2.15975940e-01 1.16938166e-01 6.32833689e-02
      5.88320568e-02 1.80574171e-02 8.70720148e-02 3.14921737e-01
      3.14921737e-01 3.14921737e-01 1.15269385e-02 5.05629228e-03
      8.74466542e-03 1.39187640e-02 6.98114336e-02 4.47944626e-02
      7.34014064e-02 2.00918496e-01 1.91684112e-01 1.62216142e-01
      3.14921737e-01 2.39505976e-01 9.33670551e-02 6.19936250e-02
      6.02678657e-02 1.64429605e-01 3.14921737e-01 3.14921737e-01
      1.67627651e-02 3.25954594e-02 5.51087111e-02 4.67362441e-02
      1.52878165e-01 8.76618847e-02 6.82632178e-02 8.52529407e-02
      3.74435484e-02 3.00031658e-02 2.65043676e-01 2.65043676e-01
      1.95090979e-01 2.01815829e-01 1.50724530e-01 1.85309872e-01
      2.65043676e-01 2.20107526e-01 8.21514148e-03 2.58284286e-02
      9.59756002e-02 1.61001414e-01 2.65043676e-01 2.65043676e-01
      4.98009771e-02 7.07759708e-03 3.59245092e-02 2.78829620e-03
      5.78447133e-02 1.52563363e-01 2.23706916e-01 2.65043676e-01
      2.65043676e-01 1.99458867e-01 7.72447437e-02 1.05160922e-01
      4.16305289e-02 2.66084522e-02 1.73700318e-01 2.65043676e-01</_>
    <_>
      5.11568598e-03 4.01961766e-02 3.03018034e-01 3.03018034e-01
      1.42637193e-01 5.37785031e-02 7.45248869e-02 2.59116776e-02
      5.33042569e-03 1.58212669e-02 7.40600005e-02 3.03018034e-01
      2.08175346e-01 2.44128227e-01 1.36036873e-01 1.11508116e-01
      1.81489997e-02 1.65318921e-02 8.03303812e-03 6.12123124e-02
      2.93105245e-01 3.03018034e-01 1.23815291e-01 9.95883048e-02
      2.52445132e-01 1.32916868e-01 3.82984206e-02 3.41091715e-02
      4.60639000e-02 1.51754707e-01 6.56435788e-02 6.96108341e-02
      1.83506623e-01 3.03018034e-01 3.03018034e-01 8.79157186e-02
      1.86730400e-02 4.84548025e-02 1.57137081e-01 2.91671753e-01
      2.91671753e-01 8.87016207e-02 1.94069654e-01 1.79136351e-01
      7.37732723e-02 2.82515809e-02 1.53814591e-02 1.94312837e-02
      2.25332193e-02 1.43823192e-01 2.82200336e-01 2.91671753e-01
      2.91671753e-01 1.06689945e-01 1.85792483e-02 3.10263578e-02
      3.58611122e-02 1.40061244e-01 2.91671753e-01 1.54484466e-01
      5.09677865e-02 4.50064838e-02 2.84679774e-02 1.71678029e-02
      5.21850437e-02 1.15679592e-01 2.91671753e-01 2.91671753e-01
      2.62615770e-01 1.70084178e-01 1.05022654e-01 2.58126538e-02
      3.51876542e-02 1.43833533e-01 7.39463195e-02 9.16027203e-02
      3.00768793e-01 7.86404982e-02 1.87351983e-02 7.02037057e-03
      1.67432856e-02 2.56986357e-02 2.27817029e-01 3.00768793e-01
      3.00768793e-01 1.83665380e-01 2.96887159e-02 8.07899982e-03
      4.83068964e-03 1.33825131e-02 6.82450086e-02 3.00768793e-01
      2.29247570e-01 1.21891335e-01 2.82207519e-01 2.33619481e-01
      7.24919438e-02 1.64948143e-02 2.99991705e-02 3.79211381e-02
      3.00768793e-01 3.00768793e-01 3.00768793e-01 1.27275825e-01
      5.29720783e-02 1.54559184e-02 6.69270102e-03 1.50198760e-02
      3.32747847e-02 9.52395424e-02 9.52946618e-02 1.45019546e-01
      1.69903755e-01 2.96989828e-01 2.38790452e-01 6.37788102e-02
      4.30350788e-02 1.48890270e-02 9.15027112e-02 2.14139968e-01
      2.96989828e-01 2.96989828e-01 1.05117835e-01 4.40136530e-02
      2.13022344e-02 2.17329469e-02 3.70785147e-02 4.50551212e-02
      6.56499714e-02 2.05652177e-01 1.26084566e-01 2.11090654e-01
      2.96989828e-01 2.63551801e-01 1.72806546e-01 3.50200422e-02
      6.44382313e-02 1.44588336e-01 2.96989828e-01 2.96989828e-01
      5.31741604e-02 8.03071931e-02 7.94379488e-02 1.25285819e-01
      1.39692351e-01 1.32146165e-01 9.47885290e-02 8.93004686e-02
      3.87084670e-02 4.05755490e-02 2.26306498e-01 2.42526338e-01
      2.16041148e-01 2.22819537e-01 1.48105890e-01 1.54433712e-01
      2.42526338e-01 1.35984123e-01 5.76076331e-03 4.36051190e-02
      1.18930258e-01 2.42526338e-01 2.42526338e-01 2.42526338e-01
      2.42526338e-01 1.00644961e-01 5.06546199e-02 2.15561744e-02
      2.82436684e-02 9.18190032e-02 2.01305166e-01 2.42526338e-01
      2.21740603e-01 2.42526338e-01 1.75344691e-01 1.24602139e-01
      3.58580761e-02 5.36423996e-02 1.43929437e-01 2.42526338e-01</_>
    <_>
      1.40808327e-02 8.89940932e-02 3.10282350e-01 2.45657533e-01
      9.04371068e-02 2.29167584e-02 2.00656317e-02 1.29212914e-02
      1.74397547e-02 9.56978928e-03 1.71965316e-01 3.10282350e-01
      3.10282350e-01 8.61340910e-02 6.42735045e-03 1.40599459e-02
      4.67079552e-03 7.91197363e-03 1.07513554e-02 7.80521706e-02
      3.10282350e-01 3.10282350e-01 3.10282350e-01 4.11046334e-02
      3.60593833e-02 1.33191925e-02 1.92081444e-02 9.32172686e-03
      1.14502862e-01 3.10282350e-01 3.10282350e-01 2.42379397e-01
      1.01530090e-01 1.24451637e-01 5.79779856e-02 2.00313367e-02
      1.95725393e-02 2.13939752e-02 2.08444744e-01 3.37512344e-01
      3.37512344e-01 2.15081647e-02 2.50176229e-02 1.44079048e-02
      1.88084561e-02 2.76803765e-02 2.60746125e-02 1.30341530e-01
      3.37512344e-01 2.07342923e-01 1.00398980e-01 2.03945220e-01
      1.78221285e-01 6.87125772e-02 1.52301006e-02 1.12336623e-02
      8.23353827e-02 3.37512344e-01 3.37512344e-01 1.26855518e-03
      3.45093291e-03 5.59924310e-03 1.26230698e-02 3.67654078e-02
      2.06063315e-02 5.89284375e-02 3.35287392e-01 2.42403373e-01
      8.69951863e-03 9.55905095e-02 1.75667435e-01 8.76999274e-02
      3.93183529e-03 3.26462369e-03 2.13604048e-02 3.96751314e-01
      3.96751314e-01 3.29801301e-03 3.58492206e-03 1.55751186e-03
      3.85993207e-03 2.40319688e-02 2.34984551e-02 7.00094998e-02
      3.10866982e-01 3.08050483e-01 5.54243336e-03 3.28960791e-02
      5.12853526e-02 3.58718485e-02 1.03324521e-02 6.50050119e-03
      1.60254054e-02 3.96751314e-01 3.96751314e-01 1.56911269e-01
      1.93213448e-02 1.05199628e-02 1.86127257e-02 6.47447854e-02
      1.43495619e-01 8.63656029e-02 1.35701686e-01 2.79727429e-01
      6.65585771e-02 2.91376989e-02 1.86184682e-02 5.37131317e-02
      1.20017845e-02 1.92837473e-02 2.30241474e-02 2.64988750e-01
      3.28330487e-01 3.28330487e-01 5.19726910e-02 2.49221548e-02
      3.14182788e-02 7.17872679e-02 2.43573397e-01 1.98123679e-01
      8.57968330e-02 1.67582080e-01 1.68328717e-01 4.24060114e-02
      3.40527408e-02 7.18509480e-02 6.86933985e-03 2.09711678e-02
      3.03438790e-02 6.66243434e-02 3.28330487e-01 3.28330487e-01
      2.23450199e-01 4.68310378e-02 2.02767756e-02 2.66176760e-02
      1.16103344e-01 2.10488707e-01 1.53077051e-01 1.26313820e-01
      3.05515021e-01 2.38185108e-01 7.93297067e-02 4.09840308e-02
      1.03827883e-02 6.49508322e-03 1.54531384e-02 1.09120635e-02
      2.97351718e-01 2.97351718e-01 2.97351718e-01 9.26469043e-02
      1.83305964e-02 6.01090118e-02 5.86023666e-02 7.85518885e-02
      6.16126694e-02 8.85424539e-02 2.51709431e-01 2.97351718e-01
      1.75074995e-01 7.82737508e-02 2.73238085e-02 5.89977019e-03
      1.78146958e-02 3.28051887e-04 1.35981485e-01 2.21987277e-01
      2.97351718e-01 1.66602090e-01 4.62622605e-02 2.05990717e-01
      1.74033239e-01 1.12906076e-01 3.05072498e-02 6.81760088e-02
      1.42411202e-01 2.97351718e-01 2.65613854e-01 2.26850882e-01</_>
    <_>
      1.13282828e-02 9.34873074e-02 3.07038635e-01 3.07038635e-01
      1.17538728e-01 2.25904044e-02 1.03472527e-02 7.89549109e-03
      7.12101627e-03 6.54081702e-02 2.32540369e-01 3.07038635e-01
      2.99217552e-01 1.90659404e-01 3.20371054e-02 2.53191311e-02
      1.23018082e-02 2.67903246e-02 7.90281221e-03 1.03435062e-01
      3.07038635e-01 3.07038635e-01 2.14772612e-01 1.94893852e-02
      7.21811038e-03 1.08394655e-03 5.45351254e-03 2.69939452e-02
      1.11198425e-01 3.07038635e-01 3.07038635e-01 2.32452348e-01
      3.91221829e-02 2.14093924e-02 3.05414898e-03 1.89649388e-02
      9.90454759e-03 3.63241434e-02 1.67150199e-01 3.27671260e-01
      3.27671260e-01 4.38100435e-02 2.64689177e-02 7.75887864e-03
      5.28721698e-03 1.90708265e-02 4.01931107e-02 1.87874094e-01
      3.27671260e-01 2.25347936e-01 1.38316765e-01 1.41665056e-01
      6.50475472e-02 1.50303170e-02 2.23526135e-02 1.74629129e-02
      3.91128883e-02 3.27671260e-01 3.27671260e-01 3.64743620e-02
      3.81791294e-02 3.24887969e-02 1.80764142e-02 3.93258147e-02
      2.14671548e-02 3.63469683e-02 1.53166175e-01 1.60518900e-01
      1.48585647e-01 3.27671260e-01 3.20758402e-01 6.86465278e-02
      1.67791061e-02 1.55228842e-02 3.26726884e-02 4.06410515e-01
      4.06410515e-01 3.32979672e-02 1.48164667e-02 2.23012939e-02
      1.91198867e-02 3.59554328e-02 2.25254148e-02 3.61013934e-02
      1.44501343e-01 1.67644188e-01 9.80897769e-02 2.85668552e-01
      2.48669803e-01 8.18011090e-02 1.14820907e-02 1.10219568e-02
      2.06989963e-02 3.14208090e-01 4.06410515e-01 2.07343251e-01
      1.30525827e-02 4.30033403e-03 7.51223136e-03 3.55612971e-02
      6.16583712e-02 1.91531062e-01 1.91427127e-01 2.26442009e-01
      8.81770998e-02 5.65929860e-02 2.32676584e-02 3.11477724e-02
      3.28494161e-02 5.57662249e-02 2.72022616e-02 1.07113428e-01
      3.14109772e-01 3.14109772e-01 3.91408391e-02 1.10970149e-02
      1.74764525e-02 7.52161816e-02 2.17037603e-01 3.14109772e-01
      1.39724731e-01 1.00373887e-01 6.80197924e-02 2.47546677e-02
      1.07485568e-02 3.53088304e-02 3.48410346e-02 8.05773586e-02
      5.44795915e-02 8.05793703e-02 3.14109772e-01 3.14109772e-01
      1.71808988e-01 2.69841310e-02 2.48589683e-02 6.09146990e-02
      2.38163367e-01 3.14109772e-01 1.93645060e-01 3.14109772e-01
      2.12224424e-01 8.07701051e-02 1.87643971e-02 3.16778943e-02
      1.84052140e-02 2.60892697e-02 3.48634571e-02 3.33408639e-02
      2.61379421e-01 2.61379421e-01 2.61379421e-01 9.91405100e-02
      1.75236594e-02 3.83509770e-02 6.93961531e-02 1.18021324e-01
      2.38842040e-01 2.61379421e-01 2.16118023e-01 1.60168186e-01
      9.69948024e-02 2.17840113e-02 6.72913939e-02 2.23938748e-02
      4.23342548e-02 1.57837421e-02 1.06252342e-01 1.90385759e-01
      2.61379421e-01 2.61379421e-01 8.75417665e-02 1.79938391e-01
      1.44785702e-01 1.84563845e-01 2.61379421e-01 2.61379421e-01
      6.22983091e-02 2.05505565e-01 2.61379421e-01 1.17214106e-01</_>
    <_>
      8.68897289e-02 1.22312404e-01 1.38735518e-01 1.57133251e-01
      1.07830614e-01 1.33213084e-02 4.70785014e-02 7.00092688e-02
      7.82353431e-02 2.15621471e-01 3.23914468e-01 3.23914468e-01
      1.67044342e-01 3.50916423e-02 6.01724547e-04 9.46500525e-03
      2.87379250e-02 8.55150521e-02 3.31218168e-02 7.31012523e-02
      2.70150900e-01 3.23914468e-01 3.23914468e-01 4.26061153e-02
      3.43457609e-02 9.23217088e-03 1.87340379e-02 6.10813163e-02
      2.92975754e-01 3.23914468e-01 3.23914468e-01 1.37747467e-01
      5.21348417e-03 5.19327540e-03 1.27135275e-03 2.10295506e-02
      4.74173715e-03 6.29703468e-03 1.62706032e-01 3.28929096e-01
      3.28929096e-01 2.06513833e-02 8.67458433e-03 1.50899810e-03
      3.64645105e-03 1.68709476e-02 3.81882973e-02 3.28929096e-01
      3.28929096e-01 2.42320374e-01 1.03296880e-02 6.36425428e-03
      3.62630771e-03 1.46326926e-02 3.61419632e-03 1.30801054e-03
      9.48106274e-02 3.28929096e-01 3.28929096e-01 1.25330940e-01
      8.70499853e-03 7.93050218e-04 3.08938115e-03 3.50805745e-02
      2.54080612e-02 1.07606739e-01 3.28929096e-01 3.28929096e-01
      2.39466205e-02 2.45282240e-02 3.64281721e-02 5.01410589e-02
      2.73584737e-03 4.16753674e-03 9.56582725e-02 3.51778835e-01
      3.51778835e-01 1.61567092e-01 4.44675004e-03 2.28726436e-04
      2.07554596e-03 3.63728851e-02 2.13022921e-02 1.04048118e-01
      3.49428743e-01 3.51778835e-01 3.06428745e-02 1.39109110e-02
      2.99639460e-02 5.36635704e-02 5.96322771e-03 5.21084480e-03
      1.48824736e-01 3.51778835e-01 3.51778835e-01 1.05523236e-01
      1.81715834e-04 0. 4.68841847e-03 1.38303572e-02 8.88592098e-03
      4.69091162e-02 1.56215817e-01 3.51778835e-01 1.36067554e-01
      8.03489238e-03 3.13963694e-03 1.57108605e-02 1.60234850e-02
      8.74569733e-03 8.49338397e-02 2.36815393e-01 3.51036400e-01
      1.88909695e-01 4.92931809e-04 0. 1.17227174e-02 1.76794699e-03
      7.82546995e-04 4.96533373e-03 3.85221913e-02 3.51036400e-01
      3.51036400e-01 2.49788724e-02 5.17201098e-03 2.25584139e-03
      2.63819192e-02 1.69228856e-02 6.58180118e-02 1.50306001e-01
      3.51036400e-01 2.91425556e-01 4.24886011e-02 4.80386661e-03
      2.02487335e-02 9.07871779e-03 1.83524444e-05 1.78154616e-03
      2.55735908e-02 3.51036400e-01 3.51036400e-01 1.86219633e-01
      6.33027032e-02 3.18460204e-02 4.19165678e-02 1.76207591e-02
      4.61948328e-02 1.01120815e-01 2.76160896e-01 2.74784923e-01
      2.30151191e-01 7.03469291e-02 6.12893812e-02 2.47882940e-02
      1.14077039e-03 4.67233406e-03 2.23672129e-02 2.76160896e-01
      2.76160896e-01 2.76160896e-01 2.48813361e-01 9.96938422e-02
      7.88730681e-02 1.20161278e-02 3.13009769e-02 4.91459481e-03
      1.63262039e-01 1.30300224e-01 2.38381371e-01 1.90513805e-01
      1.71054691e-01 5.50865196e-02 8.21257569e-03 2.45916918e-02
      8.26204661e-04 1.82063654e-01 2.76160896e-01 2.76160896e-01
      2.76160896e-01 1.68984473e-01</_>
    <_>
      3.30999456e-02 9.20866281e-02 2.81076849e-01 1.39033183e-01
      8.02346468e-02 5.62919909e-03 2.19234992e-02 2.39254236e-02
      2.55075395e-02 3.75348069e-02 3.51955444e-01 3.51955444e-01
      9.74458903e-02 4.07656021e-02 3.21172038e-03 1.62466969e-02
      1.46008963e-02 2.32236441e-02 4.43830993e-03 4.27762307e-02
      3.51955444e-01 3.51955444e-01 1.50581837e-01 7.16227153e-03
      3.20997904e-03 4.40286798e-03 6.81923050e-03 4.63117138e-02
      2.96596020e-01 3.51955444e-01 3.51955444e-01 9.13305506e-02
      1.38636865e-03 8.98027793e-03 4.57125163e-04 1.95342489e-02
      1.54990586e-03 6.69053243e-03 1.97977990e-01 3.52599859e-01
      2.32873842e-01 5.64490259e-03 5.58967236e-04 1.70216546e-04
      1.00366760e-03 3.50570716e-02 6.55920282e-02 3.52599859e-01
      3.52599859e-01 1.76065847e-01 3.35294344e-02 3.29461657e-02
      1.02007370e-02 1.91034414e-02 2.44355551e-03 4.60213237e-03
      9.13358852e-02 3.52599859e-01 3.52599859e-01 1.76129444e-03
      3.77422315e-04 2.83414440e-04 1.49404269e-03 4.02044430e-02
      3.35306227e-02 1.54766440e-01 3.52599859e-01 2.61941344e-01
      4.86093536e-02 7.32008740e-02 6.56177178e-02 4.57555726e-02
      5.22097340e-03 4.74142469e-03 7.56463408e-02 3.69702995e-01
      3.69702995e-01 2.03211675e-03 2.36657306e-05 1.17522533e-04
      3.47884884e-03 5.81918284e-02 3.54481302e-02 8.95912722e-02
      3.69702995e-01 2.92223305e-01 1.19669456e-02 2.43653804e-02
      4.16836627e-02 5.57168387e-02 5.49489399e-03 9.51000489e-04
      3.36944647e-02 3.69702995e-01 3.69702995e-01 2.62596309e-02
      4.90389299e-04 0. 5.03802299e-03 2.37081889e-02 1.45360436e-02
      3.00938617e-02 2.43580043e-01 3.69702995e-01 5.64611927e-02
      1.86003335e-02 5.39251883e-03 1.84083413e-02 3.13716638e-03
      1.34371489e-03 1.13019655e-02 2.53928363e-01 3.57517570e-01
      1.88649058e-01 1.68744437e-02 1.63304491e-03 3.38859647e-03
      1.99701376e-02 1.32259750e-03 3.45829059e-03 7.99772218e-02
      3.57517570e-01 1.84035122e-01 4.40192819e-02 1.54264830e-02
      2.07989924e-02 2.25748075e-03 1.91552681e-03 1.03122769e-02
      7.61881769e-02 3.57517570e-01 3.57517570e-01 1.48937806e-01
      3.08141150e-02 7.42590567e-03 9.34543759e-02 2.01256704e-02
      2.93450523e-03 1.21623622e-02 3.01791340e-01 3.48447561e-01
      2.45013550e-01 1.26478642e-01 1.20149523e-01 8.78945179e-03
      1.16364460e-03 1.00360215e-02 3.63162644e-02 2.92727441e-01
      2.92727441e-01 2.92727441e-01 5.84003776e-02 1.49413701e-02
      7.79540390e-02 3.15706134e-02 1.14511410e-02 1.13253184e-02
      9.50820893e-02 2.92727441e-01 2.92727441e-01 2.28010163e-01
      1.25613183e-01 3.28019224e-02 9.19130910e-03 5.08468747e-02
      3.70779745e-02 2.17414841e-01 2.92727441e-01 2.82253206e-01
      4.02149148e-02 3.32357325e-02 2.40130350e-02 1.27751501e-02
      1.71673298e-02 2.08994132e-02 1.07217617e-01 2.92727441e-01
      2.92727441e-01 2.67859101e-01 5.28499372e-02</_>
    <_>
      1.10777088e-01 1.08839378e-01 1.19122855e-01 8.02249163e-02
      9.78578553e-02 1.54519016e-02 2.80092973e-02 1.26053199e-01
      2.24232495e-01 1.57589525e-01 3.29445243e-01 3.29445243e-01
      1.04054764e-01 6.82735741e-02 5.42080216e-03 1.75420567e-02
      6.31273910e-02 1.86450765e-01 5.74612170e-02 6.11417182e-02
      2.80992597e-01 3.29445243e-01 1.87474385e-01 3.66501063e-02
      3.55188809e-02 3.35294977e-02 4.39217500e-02 5.64990602e-02
      3.29445243e-01 3.29445243e-01 3.29445243e-01 1.14572354e-01
      6.60172803e-03 3.90164205e-03 1.00602470e-02 3.60610597e-02
      6.72125909e-03 3.36418790e-03 2.27617696e-01 3.43120903e-01
      1.50395349e-01 1.51556851e-02 1.28631042e-02 3.88927269e-03
      3.98310181e-03 1.34788621e-02 5.29498234e-02 3.43120903e-01
      3.43120903e-01 1.14610359e-01 2.03069448e-02 1.07635662e-03
      3.12790478e-04 9.22557060e-03 1.81805016e-03 5.78696979e-03
      1.86908111e-01 3.43120903e-01 3.43120903e-01 4.23812605e-02
      1.23339018e-03 4.02448262e-04 1.05244259e-03 1.45015884e-02
      3.65754813e-02 3.27100217e-01 3.43120903e-01 2.16144428e-01
      7.14168400e-02 3.39042768e-02 1.49531504e-02 1.20133134e-02
      7.35074142e-03 2.73331590e-02 1.60832703e-01 3.46878797e-01
      3.46878797e-01 4.53079529e-02 1.01404986e-03 1.32635143e-03
      4.10804106e-03 3.19338627e-02 4.56391163e-02 2.39392459e-01
      3.46878797e-01 2.46823266e-01 5.96698672e-02 4.48542759e-02
      6.03924319e-02 5.45084216e-02 9.18130577e-03 3.87336053e-02
      1.61386713e-01 3.46878797e-01 3.46878797e-01 6.47138804e-02
      2.23054993e-03 1.49937312e-03 6.26166398e-03 2.91651059e-02
      2.23637260e-02 8.80563855e-02 2.25233778e-01 3.46878797e-01
      1.03229783e-01 3.02480087e-02 6.00063056e-02 7.38137886e-02
      6.81047933e-03 1.36823934e-02 7.24983364e-02 3.96277696e-01
      3.96277696e-01 6.88795000e-02 1.51303236e-03 3.55915457e-04
      6.35184767e-03 1.39837423e-02 1.03179049e-02 4.16229144e-02
      1.61143616e-01 3.96277696e-01 1.01933189e-01 2.58399788e-02
      1.33002866e-02 2.42592152e-02 6.15951326e-03 6.73461566e-03
      3.99176143e-02 2.00736925e-01 3.96277696e-01 2.38633290e-01
      1.53897433e-02 1.30764383e-03 6.01198711e-03 3.63468304e-02
      1.64765771e-02 2.27313917e-02 4.93322946e-02 3.96277696e-01
      2.26175979e-01 6.87495992e-02 2.33942904e-02 2.43772659e-02
      9.67015419e-03 7.40084983e-03 3.28431763e-02 1.28422201e-01
      2.87979990e-01 2.87979990e-01 1.31474540e-01 2.10369155e-02
      8.16948246e-03 1.21551089e-01 5.87073117e-02 1.16385994e-02
      1.00676240e-02 2.87979990e-01 2.87979990e-01 2.69960612e-01
      1.06292225e-01 8.63850415e-02 2.64888406e-02 8.09819903e-03
      1.56050604e-02 3.84681411e-02 2.46130839e-01 2.87979990e-01
      2.87979990e-01 7.69856349e-02 2.82852147e-02 9.44491997e-02
      5.19216247e-02 1.89984199e-02 4.01095347e-03 8.21124241e-02
      2.87979990e-01 2.87979990e-01 2.87979990e-01 1.28782824e-01</_>
    <_>
      1.70536920e-01 2.95131415e-01 1.03513040e-01 2.74301991e-02
      6.30307570e-02 7.87333585e-03 5.10685369e-02 1.59946144e-01
      1.53149247e-01 1.42682388e-01 1.35304838e-01 2.77577341e-01
      1.75948203e-01 1.36830285e-01 1.08775413e-02 4.55787107e-02
      1.77221417e-01 2.27291495e-01 1.33565232e-01 1.92400873e-01
      3.40357989e-01 3.04973990e-01 1.24146111e-01 1.58799086e-02
      4.54901159e-02 3.91320325e-02 6.99875876e-02 4.37633209e-02
      1.59486488e-01 3.40357989e-01 3.40357989e-01 9.95675474e-02
      1.72073077e-02 3.66887711e-02 3.64389457e-02 5.30161709e-02
      1.27991531e-02 1.58057697e-02 3.26399773e-01 3.30962479e-01
      1.06917396e-01 6.10454008e-03 8.50151759e-03 2.75616511e-03
      6.87839184e-03 9.45431832e-03 4.96165343e-02 3.30962479e-01
      3.30962479e-01 2.69102938e-02 2.44450150e-03 4.27702256e-03
      1.16067124e-03 9.37380735e-03 1.84898637e-03 2.10958980e-02
      2.80559957e-01 3.30962479e-01 3.30962479e-01 1.60981901e-02
      2.38790922e-03 1.08228321e-03 2.17545242e-03 2.33288966e-02
      1.04195118e-01 3.30962479e-01 3.30962479e-01 1.15510873e-01
      1.05188098e-02 3.76734026e-02 3.20571661e-02 3.56432460e-02
      4.12672991e-03 2.63405927e-02 1.73824877e-01 3.39345902e-01
      3.39345902e-01 6.78239809e-03 8.19843321e-04 8.12020502e-04
      3.47739924e-03 3.39748003e-02 7.26234987e-02 2.03465223e-01
      3.39345902e-01 2.17855066e-01 8.43215082e-03 3.30904424e-02
      6.23213090e-02 4.85549606e-02 6.11619093e-03 2.06329972e-02
      2.18811154e-01 3.39345902e-01 3.39345902e-01 1.20307913e-03 0.
      7.20570897e-05 5.04322723e-03 2.83989571e-02 2.48077977e-02
      7.07749203e-02 3.39345902e-01 3.39345902e-01 9.90051404e-03
      1.43829146e-02 3.09883058e-02 2.78399643e-02 7.01346947e-03
      6.38145208e-03 1.39052853e-01 3.43840569e-01 3.43840569e-01
      1.21430401e-02 3.63131519e-03 8.29326629e-04 6.93788147e-03
      2.42029671e-02 1.43528599e-02 3.52654420e-02 3.43840569e-01
      3.43840569e-01 3.27752344e-02 2.66957879e-02 1.18417302e-02
      2.14396566e-02 6.09178981e-03 5.55478316e-03 3.59154232e-02
      3.43840569e-01 3.43840569e-01 2.43138418e-01 6.14225343e-02
      9.11860913e-03 9.36644804e-03 7.13939741e-02 9.59941223e-02
      4.12016325e-02 1.39752358e-01 3.43840569e-01 1.66996643e-01
      1.12799689e-01 4.22298685e-02 5.06948009e-02 8.33830051e-03
      7.85246491e-03 3.27026770e-02 1.34223461e-01 2.79894203e-01
      2.79894203e-01 2.47200713e-01 3.07016633e-02 2.61719543e-02
      1.00887783e-01 1.68392047e-01 1.00951910e-01 9.35566723e-02
      1.69183195e-01 2.79894203e-01 2.79894203e-01 8.89039785e-02
      1.27099067e-01 2.26624571e-02 1.40462127e-02 2.23410223e-02
      3.18509899e-02 2.41298661e-01 2.79894203e-01 2.79894203e-01
      9.12641659e-02 5.05957492e-02 7.58216903e-02 1.02991700e-01
      9.54317227e-02 9.37939659e-02 8.31398219e-02 2.20921412e-01
      2.79894203e-01 2.43245512e-01 1.90314457e-01</_>
    <_>
      2.32101437e-02 8.28504562e-02 3.10738146e-01 3.10738146e-01
      2.71513879e-01 3.40787023e-02 1.57117490e-02 5.74386027e-03
      1.85571462e-02 1.91007350e-02 4.50716726e-02 1.17894500e-01
      1.79113731e-01 3.10738146e-01 3.10738146e-01 3.85921970e-02
      2.35112943e-03 1.57000311e-02 1.36851287e-02 6.83054328e-02
      3.00339490e-01 3.10738146e-01 2.04631791e-01 6.08010590e-02
      3.44045758e-02 1.55099863e-02 2.80146729e-02 5.24835801e-03
      1.60525795e-02 1.04038946e-01 1.81661800e-01 3.10738146e-01
      3.10738146e-01 3.09502147e-02 1.99364196e-03 7.21494295e-03
      2.16039531e-02 4.34312299e-02 1.26747787e-01 2.05277100e-01
      2.03442320e-01 2.28700176e-01 1.95564419e-01 8.98908451e-02
      4.33944911e-02 4.08517476e-03 3.82528990e-03 6.59331828e-02
      1.28231734e-01 2.81765342e-01 2.81765342e-01 1.33606493e-01
      5.50722480e-02 2.68945452e-02 5.10884151e-02 1.16395662e-02
      5.51562272e-02 6.90756291e-02 1.09462097e-01 2.36964986e-01
      2.81765342e-01 2.81765342e-01 1.44350797e-01 4.52547055e-03 0.
      6.53389981e-03 9.06736851e-02 2.81765342e-01 2.81765342e-01
      2.81765342e-01 2.81765342e-01 9.66852903e-02 3.45546864e-02
      4.00122628e-03 3.38717438e-02 1.28624678e-01 1.27768323e-01
      7.07305670e-02 1.29960448e-01 2.24268347e-01 9.17521864e-02
      5.44139463e-03 0. 8.17721803e-03 3.57850522e-01 3.57850522e-01
      2.38713756e-01 2.01452568e-01 2.09271401e-01 4.09548432e-02
      1.36562064e-02 1.51360454e-02 1.37065813e-01 3.57850522e-01
      2.05441430e-01 2.41540689e-02 2.14485489e-02 1.84120126e-02
      1.82473678e-02 7.32709514e-03 2.27251416e-03 1.75525799e-01
      3.57850522e-01 3.57850522e-01 4.94989008e-02 2.07287949e-02
      1.45268235e-02 9.33648366e-03 2.12961473e-02 5.57956845e-02
      2.91429847e-01 3.60364199e-01 6.20637611e-02 3.98665667e-04
      8.96732695e-03 8.59364681e-03 1.12448167e-02 4.73517505e-03
      7.38329533e-03 3.13064307e-01 3.60364199e-01 9.18446109e-02 0.
      2.81687564e-04 9.41352846e-05 3.40080308e-03 2.72346716e-02
      7.26585984e-02 3.36693436e-01 3.60364199e-01 1.99602917e-01
      2.28106137e-02 2.25451384e-02 2.16189232e-02 1.85271967e-02
      3.36231804e-03 7.99629651e-03 2.78228849e-01 3.60364199e-01
      1.98004842e-01 4.77542263e-03 6.07833383e-04 9.85201332e-05
      2.55713356e-03 1.50660910e-02 2.07500365e-02 1.08340949e-01
      2.86033303e-01 2.86033303e-01 1.30969942e-01 1.00980192e-01
      3.41235287e-02 1.44193722e-02 2.76762550e-03 2.34164298e-03
      1.09348066e-01 2.86033303e-01 2.86033303e-01 2.16359198e-02
      2.56797834e-03 8.39961576e-04 2.57871021e-03 1.16207011e-01
      1.36027381e-01 2.86033303e-01 2.86033303e-01 2.86033303e-01
      1.51702002e-01 2.05070481e-01 1.44466877e-01 1.28924459e-01
      2.43515912e-02 7.55406022e-02 2.86033303e-01 2.86033303e-01
      2.56616652e-01 1.98339149e-02 2.99723377e-03 4.30983724e-03
      9.83125530e-03</_>
    <_>
      3.53136025e-02 8.92730802e-03 8.12979862e-02 2.22073346e-01
      3.33845913e-01 3.33845913e-01 5.87445796e-02 1.33811636e-02
      2.02275701e-02 3.23692220e-03 3.19427752e-04 0. 2.97773426e-04
      1.92549258e-01 3.33845913e-01 1.85441911e-01 1.09822592e-02
      2.76850350e-03 9.74308793e-03 1.55301830e-02 5.90739325e-02
      2.10659564e-01 3.33845913e-01 3.33845913e-01 2.52022203e-02
      2.06329554e-04 9.89602879e-03 2.65126536e-03 0. 3.69534036e-03
      2.61188541e-02 3.25097740e-01 3.33845913e-01 1.99210837e-01
      5.48052276e-03 2.88688880e-03 1.09790890e-02 2.44856030e-02
      7.20180124e-02 2.12821469e-01 2.96383768e-01 1.66756600e-01
      9.07469019e-02 7.79270157e-02 5.49623854e-02 4.43844311e-03 0.
      8.00709892e-03 5.20357341e-02 2.96383768e-01 2.96383768e-01
      1.48599833e-01 4.07553352e-02 1.59058757e-02 3.73165943e-02
      2.46817544e-02 2.99661271e-02 7.51832947e-02 8.99676159e-02
      1.88876897e-01 2.84214854e-01 2.96383768e-01 2.47557878e-01
      6.12479961e-03 7.33161214e-05 2.71978392e-03 1.75895635e-02
      2.96383768e-01 2.96383768e-01 2.96383768e-01 2.47628853e-01
      5.43460920e-02 3.06217056e-02 1.55987181e-02 1.44182751e-02
      2.86473408e-02 1.35669112e-01 2.74908334e-01 1.48743168e-01
      2.07122684e-01 1.35559052e-01 4.89862170e-03 3.75867472e-04
      3.61584971e-04 1.29357213e-02 3.39758128e-01 3.39758128e-01
      1.88346833e-01 1.28211275e-01 3.00353337e-02 1.94078200e-02
      1.61385275e-02 6.65387213e-02 2.08303913e-01 2.89311916e-01
      2.15578809e-01 3.97134908e-02 1.71093773e-02 2.35037692e-02
      5.28072193e-03 5.02232462e-03 7.15210512e-02 3.39758128e-01
      3.39758128e-01 3.39758128e-01 2.28646174e-02 6.07492542e-03
      7.02499039e-03 1.72957499e-02 4.78412472e-02 2.45860621e-01
      3.01973224e-01 1.44840464e-01 8.92051607e-02 2.37341113e-02
      8.99348222e-03 1.10524325e-02 3.84326256e-03 2.00230498e-02
      2.30730250e-01 3.01973224e-01 3.01973224e-01 4.19856720e-02
      1.05740083e-03 5.30803343e-04 2.38967407e-03 1.41709959e-02
      5.06946072e-02 3.01973224e-01 2.35100016e-01 1.83324024e-01
      2.39491969e-01 1.89158335e-01 4.83369119e-02 1.48652922e-02
      4.64533223e-03 2.05418076e-02 2.58487672e-01 3.01973224e-01
      3.01973224e-01 1.98976517e-01 8.64779726e-02 1.73434860e-03
      4.21501324e-03 1.62444655e-02 1.33081861e-02 6.85381889e-02
      5.11024892e-02 1.29214376e-01 2.52392501e-01 2.93659836e-01
      1.41608298e-01 1.90821849e-02 1.07386205e-02 1.18497610e-02
      6.04429580e-02 1.97040305e-01 2.93659836e-01 2.93659836e-01
      1.65528849e-01 2.94010602e-02 7.99570885e-03 6.65116534e-02
      4.20724899e-02 3.13786939e-02 2.16575842e-02 6.28076643e-02
      1.26954809e-01 2.93659836e-01 2.93659836e-01 1.89868689e-01
      1.12787843e-01 1.47548020e-01 1.96606994e-01 2.28768095e-01
      2.93659836e-01 1.95774302e-01 1.21815987e-01 1.76370084e-01
      1.62812173e-01</_>
    <_>
      7.60648996e-02 1.01373821e-01 3.06581229e-01 3.06581229e-01
      2.43169814e-01 1.69709295e-01 7.76311457e-02 4.79848422e-02
      3.44484784e-02 4.54298966e-02 4.51542288e-02 6.33269995e-02
      2.18934286e-02 3.06581229e-01 3.06581229e-01 1.77977264e-01
      4.87673245e-02 2.77961735e-02 3.49908099e-02 2.56016217e-02
      1.07505389e-01 3.06581229e-01 3.06581229e-01 1.98566154e-01
      6.64782524e-02 3.60880084e-02 3.02584060e-02 2.24705357e-02
      1.99724417e-02 8.76359195e-02 1.19857118e-01 3.06581229e-01
      3.06581229e-01 6.93558156e-02 2.00595539e-02 2.01170594e-02
      3.36441062e-02 6.40849546e-02 1.28211111e-01 2.87653059e-01
      2.87653059e-01 1.41465977e-01 7.18092471e-02 5.83123043e-02
      3.42036746e-02 2.15097535e-02 4.68440317e-02 1.79353550e-01
      2.09959880e-01 2.87653059e-01 2.67756671e-01 3.86555716e-02
      2.07756497e-02 2.01613735e-02 5.07775359e-02 7.02543929e-02
      1.15899779e-01 2.87653059e-01 2.87653059e-01 9.99604091e-02
      1.87318370e-01 1.43602341e-01 1.02467909e-01 1.80127807e-02
      1.90385990e-02 7.61974007e-02 1.10468805e-01 2.87653059e-01
      2.87653059e-01 2.87653059e-01 1.11536346e-01 5.03582656e-02
      8.09855089e-02 7.36946315e-02 7.81925917e-02 2.70372748e-01
      1.95501998e-01 6.02132455e-02 2.07708851e-01 1.55674130e-01
      1.51433855e-01 2.67508347e-02 9.76257212e-03 1.10445227e-02
      5.55446036e-02 2.54394382e-01 2.87921578e-01 2.87921578e-01
      1.72267050e-01 8.22316557e-02 6.88633844e-02 5.13214245e-02
      5.76500855e-02 1.94435015e-01 2.87921578e-01 5.63540682e-02
      1.17773876e-01 6.28492534e-02 8.23868141e-02 3.25036347e-02
      1.60843283e-02 3.66698727e-02 2.87921578e-01 2.87921578e-01
      2.87921578e-01 2.87921578e-01 8.04082006e-02 5.36950529e-02
      1.80373117e-02 1.35324979e-02 2.94973366e-02 1.62585333e-01
      3.67884368e-01 9.33619440e-02 2.33914405e-02 7.83442333e-03
      1.56602543e-02 1.37671558e-02 9.56297759e-03 4.42701355e-02
      3.67884368e-01 3.67884368e-01 9.39439535e-02 3.23021449e-02
      5.63462218e-03 1.32451365e-02 3.54827903e-02 2.26161089e-02
      3.36071849e-02 1.30792528e-01 2.94516802e-01 3.12445015e-01
      2.42543295e-01 4.99465615e-02 2.82561406e-02 2.12775283e-02
      1.40923122e-02 3.95039953e-02 3.67884368e-01 3.67884368e-01
      2.32045688e-02 1.38537707e-02 1.46727106e-02 1.68478452e-02
      4.40088548e-02 2.08688453e-02 2.15868149e-02 3.16164754e-02
      1.01596802e-01 1.58990130e-01 2.78835386e-01 2.78835386e-01
      1.60012692e-01 6.35465607e-02 6.23200499e-02 8.62206370e-02
      2.78835386e-01 2.78835386e-01 3.67657878e-02 1.57268699e-02
      1.30081296e-01 1.12238787e-01 1.01441786e-01 3.51833925e-02
      1.70504451e-02 1.23849278e-02 2.80395765e-02 2.97380872e-02
      1.71564713e-01 2.78835386e-01 2.78835386e-01 2.45837390e-01
      2.48366997e-01 1.68003350e-01 1.72822744e-01 2.50286490e-01
      1.58827361e-02 7.60785164e-03 2.34964386e-01 2.78835386e-01</_>
    <_>
      2.50178557e-02 3.16879228e-02 3.13746840e-01 3.13746840e-01
      1.31661624e-01 4.81444485e-02 1.97398104e-02 7.14099826e-03
      9.42085776e-03 3.59264351e-02 3.51575874e-02 1.75943315e-01
      1.78091675e-01 3.13746840e-01 3.13746840e-01 4.68213558e-02
      1.36703951e-02 1.35915987e-02 9.73323453e-03 2.10419968e-02
      2.56755054e-01 3.13746840e-01 3.13746840e-01 4.46034931e-02
      2.26855781e-02 9.17170197e-03 1.13035683e-02 1.01050697e-02
      1.58415884e-02 8.27025771e-02 2.08572567e-01 3.13746840e-01
      3.12239259e-01 2.69898698e-02 5.61123993e-03 1.02417218e-02
      2.09019352e-02 6.11154474e-02 1.59402773e-01 3.10536116e-01
      3.10536116e-01 4.87467609e-02 4.88502048e-02 2.56727878e-02
      3.07048894e-02 1.06073841e-02 4.73949127e-02 1.56122312e-01
      3.10536116e-01 3.10536116e-01 1.67512491e-01 1.97023507e-02
      1.14822509e-02 1.45457229e-02 5.11311851e-02 6.53575957e-02
      1.74429655e-01 3.10536116e-01 2.10387066e-01 5.99841103e-02
      1.51865974e-01 1.57355353e-01 7.72019252e-02 1.18532162e-02
      4.19515260e-02 1.78171396e-01 3.10536116e-01 3.10536116e-01
      1.29205167e-01 1.65564165e-01 1.14641227e-01 2.33955719e-02
      5.93107343e-02 4.32349816e-02 8.51409957e-02 2.41321951e-01
      1.38332754e-01 7.25670904e-02 1.98587552e-01 2.49416232e-01
      1.01439543e-01 9.66825243e-03 9.37438104e-03 3.58761325e-02
      1.17707968e-01 2.75880426e-01 2.75880426e-01 2.75880426e-01
      2.18397632e-01 3.57514918e-02 3.39045115e-02 2.54154895e-02
      6.69664592e-02 2.75880426e-01 2.45736480e-01 8.00708681e-02
      1.14809059e-01 1.13865875e-01 6.22098967e-02 9.01571754e-03
      3.71366786e-03 1.82921179e-02 2.75880426e-01 2.75880426e-01
      2.75880426e-01 2.75880426e-01 1.11927353e-01 2.83233952e-02
      3.54849244e-03 4.42635315e-03 8.97103772e-02 3.29013407e-01
      2.20613256e-01 1.92768313e-02 1.07716192e-02 5.77876857e-03
      6.29894529e-03 3.39899259e-03 1.11626601e-03 1.21100254e-01
      3.39344442e-01 3.39344442e-01 4.44496311e-02 1.93238407e-02
      3.51682771e-03 4.42452868e-03 4.80898283e-03 7.29721691e-03
      1.71415031e-01 3.39344442e-01 3.28384131e-01 4.64304239e-02
      4.55301702e-02 2.20568944e-02 9.68194753e-03 4.59797308e-03
      2.78511690e-03 3.09929550e-01 3.39344442e-01 3.39344442e-01
      2.69209733e-04 2.14310916e-04 1.47045951e-03 4.90766950e-03
      1.31769720e-02 1.56625751e-02 5.45711704e-02 2.48000115e-01
      3.01661223e-01 4.87564802e-02 1.64588898e-01 1.53929412e-01
      3.51765081e-02 5.48704155e-03 8.44002236e-03 1.26766279e-01
      3.01661223e-01 3.01661223e-01 0. 4.53800429e-03 1.76544823e-02
      9.04255360e-03 8.59888047e-02 8.29183906e-02 9.56063271e-02
      1.81548938e-01 2.82313198e-01 1.41778709e-02 2.27236494e-01
      3.01661223e-01 2.31306612e-01 6.30966499e-02 1.02074921e-01
      2.14222252e-01 3.01661223e-01 3.01661223e-01 0. 1.59700122e-02
      7.56208673e-02 8.61859024e-02</_>
    <_>
      1.53760556e-02 1.49931451e-02 1.09710515e-01 3.30479354e-01
      3.30479354e-01 6.83484301e-02 1.02168946e-02 4.73170495e-03
      2.31182389e-03 2.55198274e-02 1.92769002e-02 6.33756444e-02
      2.42174193e-01 3.30479354e-01 3.30479354e-01 5.68650290e-02
      9.40169394e-03 9.33717843e-03 4.53577284e-03 1.63240749e-02
      3.26287150e-02 3.30479354e-01 3.30479354e-01 6.36360049e-02
      5.07037761e-03 1.14618754e-02 4.49753832e-03 8.05456750e-03
      2.01335419e-02 3.58422808e-02 2.38182127e-01 3.30479354e-01
      2.87095964e-01 3.38852927e-02 9.33639426e-03 7.73718767e-03
      4.17257771e-02 7.02201724e-02 1.10698387e-01 2.96839803e-01
      2.96839803e-01 7.19638914e-02 2.36252770e-02 5.07218242e-02
      3.81251387e-02 2.75635161e-02 3.47058885e-02 3.41547988e-02
      1.58016875e-01 2.96839803e-01 2.96839803e-01 1.60203502e-01
      9.49102119e-02 3.45518552e-02 8.64887312e-02 9.88169014e-02
      1.60250008e-01 2.96839803e-01 2.96839803e-01 3.45084593e-02
      4.92939055e-02 1.15160339e-01 1.04061060e-01 5.52654900e-02
      3.51569019e-02 2.95463763e-02 2.73550861e-02 1.70660555e-01
      2.96839803e-01 2.96839803e-01 2.86963195e-01 1.06983982e-01
      3.52931321e-02 2.90762801e-02 4.51105051e-02 1.83442399e-01
      3.53500932e-01 1.07559688e-01 2.43280157e-02 4.12314236e-02
      4.53089401e-02 2.82088425e-02 1.72984023e-02 1.67183802e-02
      5.82234748e-02 3.53500932e-01 2.97261924e-01 2.24324405e-01
      1.09561302e-01 5.69452979e-02 1.44443233e-02 2.32589096e-02
      3.36728394e-02 6.10276759e-02 3.53500932e-01 2.24890396e-01
      2.35902220e-02 1.11850100e-02 1.13093536e-02 1.88056473e-02
      4.25095297e-02 2.91947216e-01 3.53500932e-01 3.53500932e-01
      1.14692084e-01 3.66763845e-02 1.06055336e-02 1.63370632e-02
      1.84168611e-02 5.21660820e-02 9.78488997e-02 6.44588247e-02
      2.96167105e-01 1.73637211e-01 4.07028161e-02 2.80228239e-02
      1.80360116e-02 2.11066436e-02 9.10076275e-02 2.96167105e-01
      2.96167105e-01 1.39343441e-01 3.95364836e-02 1.47294775e-02
      1.40923951e-02 1.73566826e-02 1.89909544e-02 5.29385842e-02
      1.21909432e-01 9.25040767e-02 2.96167105e-01 2.96167105e-01
      2.73053169e-01 7.44681656e-02 2.35199500e-02 1.58482846e-02
      7.11735487e-02 2.96167105e-01 2.96167105e-01 2.96167105e-01
      2.94628918e-01 1.18046232e-01 3.89590636e-02 1.93626583e-02
      6.90992922e-03 1.06918002e-02 2.99134627e-02 2.49418914e-02
      9.08445045e-02 2.83806741e-01 2.83806741e-01 1.27758369e-01
      1.48679353e-02 1.28810117e-02 2.01672614e-02 6.10953905e-02
      1.20877966e-01 2.83806741e-01 2.83806741e-01 2.40154073e-01
      1.19175166e-01 2.53117904e-02 2.15472504e-02 9.69795138e-03
      8.79153423e-03 2.83521507e-03 2.55362354e-02 1.79849178e-01
      2.83806741e-01 2.83806741e-01 7.17090666e-02 1.23810574e-01
      1.49304673e-01 1.31702811e-01 1.22063063e-01 2.83806741e-01
      1.60537943e-01 2.60479659e-01 2.83806741e-01 1.80591017e-01</_>
    <_>
      4.43505496e-02 1.18256830e-01 3.09736371e-01 3.09736371e-01
      3.09736371e-01 1.47248760e-01 1.94736570e-02 1.88132245e-02
      3.09447385e-02 1.31049957e-02 1.15887560e-02 4.08952236e-02
      1.74864560e-01 3.09736371e-01 3.09736371e-01 1.08718671e-01
      8.03043880e-03 1.13303391e-02 4.38873470e-02 8.81436467e-02
      1.09493859e-01 2.52537727e-01 2.12793037e-01 1.86216220e-01
      1.53622061e-01 8.38754773e-02 2.06709150e-02 7.79082999e-03
      1.21999057e-02 5.11409156e-02 1.56519175e-01 3.09736371e-01
      3.09736371e-01 1.25799641e-01 4.21359502e-02 7.22046429e-03
      3.51443775e-02 3.51305529e-02 2.00277660e-02 5.30804321e-02
      8.76113102e-02 2.11038858e-01 3.02901417e-01 2.62100488e-01
      4.08601798e-02 2.66662124e-03 3.38536897e-03 1.13386866e-02
      4.16854471e-02 3.02901417e-01 3.02901417e-01 2.47763291e-01
      1.33685768e-01 9.17049032e-03 3.14319059e-02 1.92160886e-02
      3.91994789e-02 9.55075696e-02 1.56296879e-01 2.53507227e-01
      2.08223447e-01 1.97924852e-01 6.79337978e-02 5.58021106e-03
      1.38828915e-03 2.14099213e-02 3.02901417e-01 3.02901417e-01
      3.02901417e-01 1.98050797e-01 9.56965163e-02 1.59135778e-02
      2.81241536e-02 5.55264875e-02 2.19559878e-01 2.39030212e-01
      1.37575582e-01 7.40953386e-02 2.48610042e-02 1.95322428e-02
      3.00753452e-02 6.29287818e-03 1.27272094e-02 1.66377604e-01
      3.35357666e-01 3.35357666e-01 1.51544422e-01 1.88876037e-02
      7.68960128e-03 8.40892829e-03 7.34986067e-02 3.35357666e-01
      3.35357666e-01 2.57537961e-01 4.74391319e-02 3.96142201e-03
      7.44196353e-03 3.93723929e-03 1.44224698e-02 9.93412361e-03
      9.60952640e-02 3.35357666e-01 3.35357666e-01 2.26623520e-01
      4.45486279e-04 0. 0. 4.85842768e-03 5.59239946e-02 2.96485454e-01
      2.96485454e-01 2.47302160e-01 1.40724346e-01 4.79412414e-02
      3.03067639e-02 8.66866554e-04 5.85327344e-03 8.21002852e-03
      8.31686184e-02 2.96485454e-01 2.96485454e-01 2.34219432e-01
      5.46970917e-03 1.86030543e-03 0. 2.54749786e-03 1.63928401e-02
      4.39455360e-02 1.14691876e-01 2.96485454e-01 2.96485454e-01
      1.65139183e-01 1.13097936e-01 1.99431349e-02 1.49493916e-02
      2.83131585e-03 1.20517230e-02 2.96485454e-01 2.96485454e-01
      2.96485454e-01 2.10675336e-02 6.44239504e-03 0. 2.13905959e-03
      7.15554282e-02 7.25708678e-02 2.26297230e-01 2.89639890e-01
      2.89639890e-01 7.01632574e-02 8.40381533e-02 8.14325586e-02
      7.03633130e-02 7.86380377e-03 2.56624985e-02 2.89639890e-01
      2.89639890e-01 2.52726316e-01 9.12648812e-03 2.20391317e-03 0.
      3.68818524e-03 2.33352512e-01 2.89639890e-01 2.89639890e-01
      2.44931549e-01 1.01201341e-01 5.55227918e-04 3.05301752e-02
      7.25326315e-02 1.40417710e-01 2.50563752e-02 1.44382298e-01
      2.89639890e-01 2.89639890e-01 6.34743497e-02 3.70151974e-05 0. 0.
      4.24687751e-03</_>
    <_>
      2.64745504e-01 2.05248639e-01 1.64749801e-01 1.23956218e-01
      5.26974462e-02 2.05392372e-02 5.22716455e-02 6.57500252e-02
      1.67803302e-01 1.56502202e-01 4.90067378e-02 2.20019873e-02
      1.09559745e-02 1.18459389e-01 2.64745504e-01 2.64745504e-01
      1.92746803e-01 2.07137644e-01 1.20372832e-01 1.57554105e-01
      2.64745504e-01 2.64745504e-01 2.27285132e-01 6.72858581e-02
      1.08972959e-01 5.52269220e-02 1.04285099e-01 1.15772106e-01
      7.49646127e-02 8.74959603e-02 4.14617248e-02 2.64745504e-01
      2.64745504e-01 2.64745504e-01 1.52908713e-01 1.37548193e-01
      1.01509452e-01 2.76366085e-01 2.76366085e-01 1.99804395e-01
      1.24191470e-01 2.92260423e-02 7.10953772e-02 2.54329648e-02
      7.09904581e-02 1.39544845e-01 1.08973950e-01 9.83549133e-02
      3.41521874e-02 1.19482584e-01 2.76366085e-01 2.76366085e-01
      1.80763111e-01 1.15204237e-01 7.49284327e-02 2.60924488e-01
      2.76366085e-01 2.76366085e-01 8.68792310e-02 1.85111891e-02
      4.43418622e-02 1.20584732e-02 5.68147078e-02 9.66309831e-02
      7.85254315e-02 7.91342854e-02 3.50984447e-02 2.76366085e-01
      2.76366085e-01 2.76366085e-01 1.15846075e-01 8.26684088e-02
      2.31290087e-02 4.94161397e-02 2.30641112e-01 3.15771550e-01
      3.15771550e-01 8.92470554e-02 3.30196321e-02 8.08162522e-03
      2.32529305e-02 2.49657705e-02 1.89426970e-02 4.40584458e-02
      8.50103498e-02 3.15771550e-01 3.15771550e-01 8.93725976e-02
      1.61786340e-02 2.44869757e-02 3.10581066e-02 3.62133197e-02
      8.32836255e-02 1.10653527e-01 3.15771550e-01 2.03529298e-01
      1.58349946e-01 6.03434555e-02 5.04587777e-02 3.39031741e-02
      8.14092904e-02 3.15771550e-01 3.15771550e-01 3.15771550e-01
      9.06873569e-02 3.90957929e-02 2.92872358e-02 4.22992259e-02
      1.11523144e-01 1.50227860e-01 9.08549801e-02 4.92414795e-02
      1.39061898e-01 1.37212813e-01 1.79831490e-01 1.11726962e-01
      1.26747414e-01 1.06795184e-01 2.05296576e-01 3.00039262e-01
      3.00039262e-01 1.59306437e-01 1.06501272e-02 3.47442850e-02
      5.13567291e-02 1.05976447e-01 2.22964779e-01 2.37503424e-01
      1.25936583e-01 9.49328542e-02 1.12761088e-01 7.01633245e-02
      1.21632911e-01 1.10877566e-01 2.11480230e-01 1.82103097e-01
      2.63314724e-01 3.00039262e-01 3.00039262e-01 2.19593793e-01
      1.48530013e-03 1.86971966e-02 4.70728502e-02 1.55952856e-01
      1.45045936e-01 1.10434979e-01 1.28304705e-01 2.34491408e-01
      2.34623089e-01 3.16028893e-02 5.20231202e-02 4.47338484e-02
      1.36509776e-01 1.55016288e-01 1.82905063e-01 2.55402267e-01
      2.66238630e-01 2.66238630e-01 1.69167528e-03 4.42844629e-03
      2.17939522e-02 1.34375975e-01 8.52372274e-02 2.39699483e-01
      2.66238630e-01 2.66238630e-01 2.66238630e-01 1.15341498e-02
      1.31615195e-02 1.29417069e-02 7.07494691e-02 9.62358639e-02
      2.66238630e-01 2.66238630e-01 2.19145283e-01 2.02619940e-01
      7.68943282e-04 3.89528781e-04 4.14196076e-03 8.51963237e-02</_>
    <_>
      4.69390908e-03 9.09336936e-03 2.60513157e-01 3.62614840e-01
      1.12267710e-01 1.57556199e-02 3.65494890e-03 5.44745149e-03
      5.26363729e-03 1.26387551e-02 5.19657508e-02 3.62614840e-01
      3.62614840e-01 3.85419726e-02 3.80899757e-03 1.00420751e-02
      9.39362962e-03 1.45790102e-02 1.20929128e-03 3.21883289e-03
      2.24651635e-01 3.62614840e-01 2.37474576e-01 1.05429739e-02
      2.22618156e-03 5.11278224e-04 1.43799093e-03 1.05560403e-02
      5.18444851e-02 3.62614840e-01 3.62614840e-01 1.03066519e-01
      3.14164162e-02 1.50155462e-02 3.53617384e-03 1.19820517e-02
      3.04308743e-03 2.08938005e-03 1.02018237e-01 3.54014844e-01
      3.54014844e-01 1.27176680e-02 3.52275046e-03 1.91918446e-03
      1.52068550e-03 1.37062790e-02 2.80437786e-02 2.07401738e-01
      3.54014844e-01 1.92603111e-01 7.88826123e-02 8.53355452e-02
      4.89722304e-02 1.89946480e-02 8.64598807e-03 9.61130019e-03
      4.99349870e-02 3.54014844e-01 3.54014844e-01 5.87418303e-02
      2.96312734e-03 2.93194968e-03 4.25343588e-03 5.05998358e-02
      3.17285135e-02 7.68091679e-02 3.54014844e-01 2.87341565e-01
      4.73660938e-02 1.00287646e-01 1.26330420e-01 1.00567736e-01
      3.84565792e-03 7.78309396e-03 2.80494597e-02 3.77570689e-01
      3.95847678e-01 1.38080969e-01 1.26111484e-03 5.19588008e-04
      1.96580472e-03 3.77312340e-02 3.16142887e-02 5.64025715e-02
      1.72138363e-01 3.54966402e-01 3.51375975e-02 1.89299081e-02
      4.16886099e-02 7.02723637e-02 1.61270984e-03 1.11934892e-03
      8.63093790e-03 2.37392783e-01 3.95847678e-01 3.09342682e-01
      5.09918947e-03 1.59872626e-03 1.74897676e-03 2.66213939e-02
      3.12402193e-02 3.59702297e-02 4.83719260e-02 3.95847678e-01
      1.87942445e-01 2.12062970e-02 9.24579799e-03 2.50015408e-02
      1.03959674e-02 3.93964117e-03 1.55608328e-02 1.48315310e-01
      3.32622856e-01 3.32622856e-01 1.29602812e-02 5.48633235e-03
      7.87659455e-03 9.04664099e-02 1.40531629e-01 7.09981844e-02
      1.92047190e-02 3.32622856e-01 2.84006447e-01 3.01732607e-02
      2.05625389e-02 3.55988964e-02 1.62178464e-02 1.33908652e-02
      2.36135367e-02 1.15463279e-01 3.32622856e-01 3.32622856e-01
      1.19131587e-01 1.01652881e-02 1.27422316e-02 8.85548443e-02
      1.55540183e-01 1.02789752e-01 7.34682232e-02 2.41018549e-01
      3.32622856e-01 2.27259517e-01 6.40200078e-02 5.47671504e-02
      2.00326741e-02 1.80161074e-02 1.43328905e-02 6.80903196e-02
      2.89442867e-01 2.89442867e-01 2.82342851e-01 7.16546103e-02
      2.52357516e-02 3.43305357e-02 4.50249799e-02 3.28701958e-02
      4.61181477e-02 1.35927364e-01 2.89442867e-01 2.89442867e-01
      2.89442867e-01 1.21240199e-01 5.97733371e-02 2.09802035e-02
      1.87933613e-02 2.03747787e-02 1.39135838e-01 1.82904556e-01
      2.39350617e-01 1.99829549e-01 1.28887504e-01 9.12099630e-02
      2.94419192e-02 7.03229895e-03 1.22029474e-03 6.44700304e-02
      1.06888793e-01 2.89442867e-01 2.89442867e-01 2.89442867e-01</_>
    <_>
      9.36435461e-02 1.21795394e-01 2.54585266e-01 1.24917328e-01
      1.07957214e-01 7.89984539e-02 1.92903802e-01 1.10645548e-01
      7.66719654e-02 2.36889459e-02 6.98538646e-02 3.08914155e-01
      3.08914155e-01 2.73764879e-01 2.13353381e-01 1.58094451e-01
      4.30982150e-02 2.19797418e-02 7.55789652e-02 6.04328439e-02
      6.24420680e-02 5.78080937e-02 4.29889187e-02 1.59428269e-01
      3.08914155e-01 2.39033550e-01 1.29265204e-01 8.80950969e-03
      1.11377109e-02 9.87633839e-02 1.36465907e-01 1.13662258e-01
      3.08914155e-01 3.08914155e-01 1.71626344e-01 2.47238185e-02
      4.22706939e-02 2.87612304e-02 4.29711826e-02 5.61679639e-02
      7.39459172e-02 1.69797897e-01 3.35741609e-01 1.11358054e-01
      7.04049990e-02 7.40324752e-03 1.43484329e-04 3.30709480e-03
      2.94142887e-02 2.61047214e-01 3.35741609e-01 3.35741609e-01
      1.13620125e-01 1.55905336e-02 3.60078588e-02 4.83901463e-02
      1.32241413e-01 9.95409563e-02 1.64393380e-01 1.48837596e-01
      1.04674138e-01 1.64629724e-02 1.70602296e-02 2.13944893e-02
      4.33717929e-02 2.18128070e-01 3.35741609e-01 3.35741609e-01
      3.35741609e-01 1.92332879e-01 8.32907856e-03 9.91867669e-03
      9.57703367e-02 2.79964596e-01 1.92864835e-01 4.20334302e-02
      3.77816744e-02 4.05512005e-02 2.79363822e-02 1.18009215e-02
      2.53818557e-02 4.75540832e-02 3.21008831e-01 3.21008831e-01
      3.21008831e-01 2.13938251e-01 3.04653607e-02 7.81957177e-04 0.
      7.12066889e-03 1.36854351e-01 3.21008831e-01 3.21008831e-01
      7.35832602e-02 5.41265681e-02 3.82179394e-02 3.53268273e-02
      2.49247849e-02 4.38387021e-02 7.20286071e-02 3.21008831e-01
      3.21008831e-01 2.31118023e-01 5.86582832e-02 1.54346107e-02
      2.37042513e-02 1.05804149e-02 4.73134220e-03 4.59125340e-02
      2.67308503e-01 2.29318649e-01 1.08715430e-01 1.27668634e-01
      1.76486641e-01 1.90825552e-01 1.16875954e-01 2.61833705e-02
      2.43126787e-02 2.67308503e-01 2.14140430e-01 1.50186747e-01
      2.09977984e-01 1.32296801e-01 1.63632855e-01 1.24964274e-01
      5.98393288e-03 1.23081347e-02 3.34025198e-03 1.81508139e-02
      2.70413607e-02 1.07649215e-01 2.67308503e-01 2.67308503e-01
      2.66208589e-01 2.29661204e-02 4.93225688e-03 3.44932871e-03
      1.44987898e-02 1.38256371e-01 2.67308503e-01 2.67308503e-01
      2.67308503e-01 2.35954970e-01 1.28329229e-02 3.65448631e-02
      2.58778054e-02 2.77137682e-02 3.62841487e-02 7.61783943e-02
      1.56217366e-01 2.67018318e-01 2.67018318e-01 1.19553596e-01
      4.27970141e-02 6.21544532e-02 9.92727950e-02 2.67018318e-01
      2.67018318e-01 1.74560204e-01 1.46385774e-01 1.59213915e-01
      9.29768234e-02 1.54864982e-01 9.80194435e-02 6.98956847e-02
      6.00444376e-02 5.67298532e-02 4.23258543e-02 1.61403865e-01
      2.67018318e-01 2.67018318e-01 1.92234337e-01 2.37667397e-01
      2.65168488e-01 2.67018318e-01 2.07281724e-01 1.84793584e-02
      1.99320372e-02 1.33181870e-01 2.23311320e-01</_>
    <_>
      8.92467890e-03 1.01435138e-02 3.08858275e-01 3.08858275e-01
      1.69310719e-01 9.87771153e-03 3.72890127e-03 8.16761050e-04
      3.10837734e-03 4.07029390e-02 2.24382803e-02 2.62436181e-01
      3.08858275e-01 3.08858275e-01 3.08858275e-01 3.29204425e-02
      6.90930942e-03 1.71573497e-02 1.21935951e-02 6.19920017e-03
      7.89230838e-02 3.08858275e-01 3.08858275e-01 8.82104412e-03
      4.89579560e-03 6.00124057e-03 8.82502273e-03 3.02060898e-02
      1.56628173e-02 1.07736550e-01 3.08858275e-01 3.08858275e-01
      1.29803345e-01 1.08001186e-02 7.86062330e-03 2.27952320e-02
      1.25571368e-02 1.47129400e-02 5.51504754e-02 3.33170593e-01
      3.33170593e-01 1.37029849e-02 2.10827515e-02 1.42373061e-02
      1.89827140e-02 2.54320912e-02 2.07428392e-02 1.13373451e-01
      3.13491344e-01 3.19502860e-01 7.78619796e-02 7.08466992e-02
      4.42393683e-02 3.24263982e-02 1.96131319e-02 5.69308363e-02
      1.26356184e-01 3.33170593e-01 3.33170593e-01 1.47452326e-02
      5.00050224e-02 6.56810999e-02 5.09164035e-02 3.00893541e-02
      4.70090173e-02 8.31669196e-02 1.84481770e-01 1.73978731e-01
      1.05881363e-01 2.94853836e-01 3.33170593e-01 8.34698454e-02
      1.59120969e-02 3.68611589e-02 6.29088581e-02 3.48909825e-01
      3.48909825e-01 2.59216782e-03 1.72044430e-02 5.36904037e-02
      3.49152051e-02 2.48814542e-02 3.51970196e-02 3.79673131e-02
      1.48153096e-01 1.52183786e-01 9.17471796e-02 2.34164730e-01
      3.48909825e-01 6.87525943e-02 6.80731609e-03 9.68991313e-03
      1.53756887e-02 3.48909825e-01 3.48909825e-01 2.24573910e-03
      2.68897624e-03 1.01073952e-02 9.28838179e-03 1.70499906e-02
      1.62533876e-02 3.04252021e-02 3.48909825e-01 3.48909825e-01
      7.97379389e-02 7.57700950e-02 5.61984666e-02 2.59199515e-02
      7.87883811e-03 9.40753613e-03 2.07406767e-02 3.32742780e-01
      3.46962541e-01 1.86677184e-02 4.73933993e-03 5.09568769e-03
      5.19795762e-03 1.73937231e-02 1.82638597e-02 6.32522032e-02
      3.46962541e-01 3.46962541e-01 2.26767976e-02 6.48669619e-03
      7.74708064e-03 1.38467290e-02 2.36988235e-02 1.68694500e-02
      4.78953868e-02 1.28222838e-01 3.46962541e-01 2.97478050e-01
      8.25718343e-02 4.09541950e-02 1.95244569e-02 3.59008126e-02
      3.32052149e-02 1.84226826e-01 3.46962541e-01 3.46962541e-01
      3.81016508e-02 2.81202402e-02 2.97083631e-02 2.57056560e-02
      2.34144460e-02 1.08660078e-02 3.15949172e-02 2.87493374e-02
      2.56646961e-01 2.70301759e-01 2.70301759e-01 1.59922168e-01
      3.28433290e-02 4.11329493e-02 2.83996128e-02 1.44828156e-01
      2.70301759e-01 2.70301759e-01 2.84133516e-02 9.02038217e-02
      1.08634345e-01 4.70860340e-02 6.45592883e-02 2.33984459e-02
      2.31944025e-02 1.37787098e-02 3.66471075e-02 1.33324146e-01
      2.70301759e-01 2.70301759e-01 1.41740531e-01 1.84275731e-01
      1.93856940e-01 2.70301759e-01 2.70301759e-01 1.50832117e-01
      6.06364291e-03 1.14547290e-01 2.70301759e-01 2.14905947e-01</_>
    <_>
      8.35767090e-02 2.20185623e-01 1.88202992e-01 5.33589423e-02
      4.38695513e-02 1.34755820e-02 1.80971660e-02 2.14669872e-02
      3.91953103e-02 5.71855269e-02 1.42238960e-01 3.83255363e-01
      2.55527824e-01 8.90489593e-02 2.11440679e-02 1.20745730e-02
      2.18213573e-02 4.37244289e-02 3.66607346e-02 1.05665401e-01
      3.83255363e-01 3.83255363e-01 7.55819082e-02 1.46208648e-02
      1.54909622e-02 1.91492904e-02 3.61595452e-02 2.92390864e-02
      1.90284401e-01 3.83255363e-01 3.83255363e-01 7.19286501e-02
      1.63929295e-02 9.10611637e-03 1.01960571e-02 2.88681071e-02
      9.74803977e-03 2.49682665e-02 2.33642668e-01 3.41815650e-01
      2.62907088e-01 2.72949990e-02 4.05444205e-03 7.66547257e-03
      1.07849287e-02 2.15144269e-02 7.12191910e-02 3.41815650e-01
      3.41815650e-01 1.70592770e-01 8.06376059e-03 1.45816791e-03
      1.12964131e-03 1.46232853e-02 4.57648886e-03 9.83627420e-03
      6.01731576e-02 3.41815650e-01 3.41815650e-01 6.49963990e-02
      3.13626393e-03 6.77966606e-03 7.47857941e-03 1.28358221e-02
      3.19533683e-02 7.87888989e-02 3.41815650e-01 3.41815650e-01
      5.38729355e-02 5.23428246e-03 5.47549105e-04 6.13553729e-03
      4.80450690e-03 1.80186760e-02 6.52235523e-02 3.58062059e-01
      3.58062059e-01 8.22304636e-02 3.30516021e-03 1.48610608e-03
      3.45261046e-03 2.94672349e-03 1.57341883e-02 2.20741332e-02
      2.19798654e-01 3.58062059e-01 1.85071439e-01 2.91452855e-02
      4.00667172e-03 2.28559482e-03 1.63998958e-02 3.01932693e-02
      9.40410644e-02 3.58062059e-01 3.58062059e-01 1.31763145e-01
      7.71254674e-03 9.60976235e-04 9.30353627e-03 1.83939282e-02
      5.07649966e-03 4.89008985e-03 1.31293401e-01 3.58062059e-01
      2.83083826e-01 6.77996129e-02 2.74127088e-02 3.10279485e-02
      2.48307530e-02 4.03922647e-02 9.66983140e-02 2.96240836e-01
      3.21869761e-01 2.79730618e-01 1.82033107e-02 2.38886010e-03
      1.68048330e-02 3.73475030e-02 1.93155948e-02 1.44371716e-02
      6.19916953e-02 3.21869761e-01 3.21869761e-01 1.04982309e-01
      3.34478840e-02 4.11646441e-02 1.79778375e-02 2.25402955e-02
      2.86832210e-02 5.51098771e-02 3.21869761e-01 3.21869761e-01
      9.89925265e-02 1.65058523e-02 1.82490088e-02 1.33048706e-02
      1.00690285e-02 1.12568224e-02 2.18437351e-02 3.21869761e-01
      3.21869761e-01 2.38627195e-01 2.61530410e-02 9.89086274e-03
      2.96138860e-02 1.51686575e-02 1.34503106e-02 1.19895451e-02
      2.99028486e-01 2.99028486e-01 2.99028486e-01 5.35429865e-02
      3.45769860e-02 1.20063256e-02 2.69814488e-03 5.90056879e-03
      8.54635239e-03 1.64458811e-01 2.99028486e-01 2.99028486e-01
      9.99161080e-02 1.37646087e-02 5.80913015e-02 1.25337504e-02
      1.42219150e-02 1.08050639e-02 1.11071520e-01 2.42433518e-01
      2.99028486e-01 2.28761256e-01 8.32492933e-02 4.00125720e-02
      9.32332128e-03 7.30796112e-03 3.86570441e-03 9.57686156e-02
      2.99028486e-01 2.99028486e-01 2.99028486e-01 6.42285198e-02</_>
    <_>
      2.81109419e-02 7.74305761e-02 2.86208153e-01 3.01924199e-01
      4.62574139e-02 0. 2.98214005e-03 6.92711864e-03 8.99086893e-03
      1.29832149e-01 1.57695919e-01 2.75686651e-01 2.51604199e-01
      1.78257599e-02 2.90550627e-02 3.01924199e-01 2.13770479e-01
      8.55545402e-02 8.60092137e-03 2.16154344e-02 3.01924199e-01
      3.01924199e-01 1.12079144e-01 3.93314194e-03 5.59029228e-04
      1.60584622e-03 4.24961979e-03 1.01560056e-01 1.17563792e-01
      3.01924199e-01 3.01924199e-01 6.47777840e-02 1.66441910e-02
      1.75765976e-01 1.90354899e-01 1.22339591e-01 3.38375312e-03
      5.56067470e-03 2.03079790e-01 3.41108352e-01 1.96538791e-01
      1.84365399e-02 0. 0. 2.11608200e-03 5.22345230e-02 6.45447001e-02
      2.31232956e-01 3.41108352e-01 2.20226750e-01 4.88735326e-02
      2.67553851e-02 8.28303695e-02 7.21164197e-02 1.46533572e-03
      1.47370854e-02 2.03638211e-01 3.41108352e-01 3.41108352e-01
      1.43395308e-02 0. 0. 1.46533572e-03 3.58357392e-02 6.40273541e-02
      3.07408154e-01 3.41108352e-01 2.54178464e-01 4.59909625e-02
      2.32100487e-02 2.24092044e-02 3.14750001e-02 1.90633431e-03
      3.01062558e-02 2.08832204e-01 3.28782767e-01 3.28782767e-01
      7.80719740e-04 5.00172537e-05 1.67148864e-05 1.90633431e-03
      4.20549288e-02 1.17064275e-01 3.28782767e-01 2.94900030e-01
      1.29385069e-01 1.34402718e-02 2.04491727e-02 1.36267114e-02
      4.51513790e-02 4.39368282e-03 2.06782017e-02 1.52128085e-01
      3.28782767e-01 3.28782767e-01 1.60376895e-02 3.88158089e-03
      4.45480138e-04 3.55586642e-03 3.92013192e-02 8.59653056e-02
      2.57563621e-01 3.28782767e-01 2.81180143e-01 3.15092728e-02
      1.95084643e-02 1.16768200e-02 4.34283800e-02 1.69673543e-02
      8.05379637e-03 4.24527936e-02 3.24092984e-01 3.24092984e-01
      9.44828019e-02 4.26552035e-02 3.27199101e-02 1.55263860e-02
      6.80821836e-02 1.09255955e-01 1.85422331e-01 2.34315246e-01
      2.93940544e-01 7.68490359e-02 5.36149889e-02 4.60192412e-02
      4.89775203e-02 2.39730906e-02 1.54827237e-02 1.62120368e-02
      2.59234548e-01 3.24092984e-01 3.24092984e-01 1.09863602e-01
      6.14247806e-02 2.62417831e-02 8.79711881e-02 1.56141564e-01
      2.40404755e-01 2.16598466e-01 3.24092984e-01 1.01020224e-01
      8.05101916e-02 8.31262097e-02 8.10880959e-02 3.60574350e-02
      1.95776578e-02 1.59322638e-02 4.18071747e-02 2.67603040e-01
      2.67603040e-01 1.71426669e-01 1.21957183e-01 8.03189278e-02
      1.47242546e-01 1.56527832e-01 1.67377412e-01 2.67603040e-01
      2.30745718e-01 7.65726492e-02 7.94785768e-02 1.00152329e-01
      1.28128350e-01 2.21982017e-01 6.73412159e-02 5.14093153e-02
      2.72627771e-02 1.13747433e-01 2.04090431e-01 1.40965611e-01
      2.45636493e-01 2.67603040e-01 2.67603040e-01 2.67603040e-01
      1.57849669e-01 1.61354497e-01 5.37675768e-02 3.43761779e-02
      5.95420450e-02 1.58160672e-01 2.67603040e-01</_>
    <_>
      1.52037502e-03 3.68222524e-03 2.32474566e-01 3.35032672e-01
      8.28527883e-02 1.68814918e-03 8.91490548e-04 8.04822412e-05
      8.86568218e-04 5.82742915e-02 5.78534752e-02 3.35032672e-01
      3.35032672e-01 1.02176942e-01 5.79197444e-02 6.81104586e-02
      3.67143191e-02 4.29777391e-02 3.86676425e-03 1.29431894e-03
      2.18600824e-01 3.35032672e-01 3.35032672e-01 3.13211676e-05
      5.26681368e-04 9.92526882e-04 3.48049286e-03 2.96172332e-02
      2.01077685e-02 2.87732005e-01 3.35032672e-01 3.08081746e-01
      5.49317375e-02 4.60970514e-02 3.22121419e-02 2.98020337e-02
      8.82060826e-03 1.46512082e-03 1.59316882e-01 3.29171956e-01
      3.29171956e-01 0. 1.78805797e-03 3.05726705e-03 8.56391340e-03
      4.31164205e-02 8.32900684e-03 2.15472430e-01 3.29171956e-01
      2.46892795e-01 3.09758503e-02 1.16765223e-01 9.05477405e-02
      4.80703600e-02 7.58828036e-03 3.57333431e-03 9.23018754e-02
      3.29171956e-01 3.29171956e-01 0. 1.36654312e-03 2.31436128e-03
      6.81802910e-03 5.10717109e-02 2.38070376e-02 1.51106969e-01
      3.29171956e-01 3.29171956e-01 1.31022651e-02 1.35832503e-01
      1.43055752e-01 6.72961399e-02 1.90488168e-03 1.73394161e-03
      1.15231322e-02 3.69291246e-01 3.69291246e-01 1.45790214e-03
      1.38059695e-04 1.81963725e-04 1.63442432e-03 2.14171559e-02
      1.75308045e-02 3.59336771e-02 2.97922403e-01 3.69291246e-01
      6.88309502e-03 3.94456834e-02 4.29643877e-02 2.55549569e-02
      4.67431452e-03 1.72302278e-03 1.93713531e-02 3.69291246e-01
      3.69291246e-01 2.22305506e-02 3.47864232e-03 2.84507847e-03
      3.87832173e-03 4.18078639e-02 6.44909292e-02 5.60880043e-02
      2.64213175e-01 3.69291246e-01 4.84903976e-02 1.64812747e-02
      1.29513955e-02 2.02777293e-02 1.89733990e-02 1.65020209e-02
      4.28663380e-02 3.23893547e-01 3.23893547e-01 9.61807966e-02
      2.09140982e-02 1.59617439e-02 1.27478559e-02 1.30857229e-01
      2.80206203e-01 1.22576140e-01 1.69913515e-01 3.23893547e-01
      9.93722677e-02 3.73466462e-02 3.47406864e-02 4.48884629e-02
      2.02304479e-02 1.85025223e-02 2.94476822e-02 1.86369658e-01
      3.23893547e-01 3.23893547e-01 1.88676089e-01 1.81298107e-02
      1.64627489e-02 1.27847344e-01 2.21075475e-01 1.01843454e-01
      6.99807033e-02 1.94663480e-01 2.33698577e-01 2.00727865e-01
      8.33181292e-02 1.13336429e-01 7.77953258e-03 5.91438916e-03
      2.01125946e-02 1.98493693e-02 2.55452007e-01 2.81041503e-01
      2.81041503e-01 4.62998748e-02 1.57088619e-02 8.93181413e-02
      5.00546023e-02 4.61780541e-02 8.34634677e-02 1.18419260e-01
      2.51521796e-01 2.81041503e-01 1.57383934e-01 1.44913703e-01
      4.82527092e-02 1.83730032e-02 5.93060255e-02 1.64227244e-02
      1.35865867e-01 2.28903726e-01 2.81041503e-01 1.57554999e-01
      1.21672168e-01 2.81041503e-01 1.21447541e-01 6.27718642e-02
      6.71884641e-02 5.87624013e-02 1.02688812e-01 2.81041503e-01
      2.81041503e-01 2.81041503e-01</_>
    <_>
      4.21842281e-03 1.22622503e-02 3.37824225e-01 3.37824225e-01
      4.63271365e-02 1.17280791e-02 1.26956701e-02 3.91527545e-03
      5.89731382e-03 5.96470721e-02 1.34195328e-01 3.37824225e-01
      3.37824225e-01 5.35010919e-02 3.70251536e-02 2.47718897e-02
      4.71630953e-02 5.00249751e-02 4.26311931e-03 8.07386171e-03
      3.04171890e-01 3.37824225e-01 1.93119749e-01 6.38709636e-03
      5.69571834e-03 1.15118094e-03 2.46220897e-03 1.69948209e-02
      4.91950996e-02 3.37824225e-01 3.37824225e-01 1.65324032e-01
      4.72284406e-02 3.04666981e-02 1.79215968e-02 2.10803375e-02
      1.50458487e-02 1.82460602e-02 1.27364531e-01 3.28803390e-01
      3.28803390e-01 1.20655149e-02 1.38271693e-02 6.21182565e-03
      9.60958283e-03 3.79208773e-02 4.35058959e-02 1.68267280e-01
      3.28803390e-01 2.06465080e-01 8.63770619e-02 1.47981092e-01
      4.68825102e-02 2.75143161e-02 2.40120962e-02 1.53590254e-02
      9.15309116e-02 3.28803390e-01 3.28803390e-01 9.12093744e-03
      1.27106691e-02 1.41389519e-02 1.60774998e-02 6.63050860e-02
      1.87920015e-02 9.89273563e-02 3.28803390e-01 2.57646114e-01
      7.22977892e-02 2.72283614e-01 2.19789192e-01 7.56663457e-02
      9.55994707e-03 5.08557260e-03 2.59030424e-02 3.79445910e-01
      3.79445910e-01 5.90789318e-03 2.38828897e-03 6.56683696e-03
      7.21482746e-03 4.11882252e-02 1.17863333e-02 3.94966677e-02
      2.23624751e-01 3.59015346e-01 1.37316165e-02 9.03770700e-02
      1.53719455e-01 6.84811547e-02 3.61365895e-03 5.53279975e-03
      1.79883353e-02 3.79445910e-01 3.79445910e-01 1.78523883e-02
      7.04048807e-03 2.32961774e-03 4.42970777e-03 2.42014565e-02
      4.41145301e-02 7.73736462e-02 2.08985835e-01 3.79445910e-01
      2.27354262e-02 3.20317335e-02 2.92417463e-02 3.26437131e-02
      1.19055687e-02 1.37060620e-02 2.10594125e-02 3.50774199e-01
      3.50774199e-01 1.45855457e-01 3.56604792e-02 1.19629968e-02
      1.79737136e-02 5.44130728e-02 1.39526606e-01 1.65225968e-01
      1.71154663e-01 2.96519190e-01 7.54163489e-02 5.39861992e-02
      2.32113507e-02 5.00488691e-02 2.72256881e-02 2.19444092e-02
      1.27228182e-02 1.67971343e-01 3.50774199e-01 3.50774199e-01
      1.25134543e-01 3.28496136e-02 2.86557730e-02 1.20444559e-01
      2.74865866e-01 2.26778314e-01 9.26520750e-02 1.77818626e-01
      2.30904698e-01 1.07038312e-01 5.89075722e-02 6.96874037e-02
      1.09394360e-02 1.05566485e-02 1.21618658e-02 4.33027148e-02
      2.94341981e-01 2.94341981e-01 2.53930539e-01 1.11174516e-01
      1.28335422e-02 6.16279431e-02 1.25924006e-01 1.01271294e-01
      7.07187504e-02 9.25168619e-02 2.94341981e-01 2.92783648e-01
      2.11076304e-01 5.81497028e-02 5.69897564e-03 5.29716630e-03
      1.61430966e-02 4.20056796e-03 1.17168970e-01 2.94341981e-01
      2.94341981e-01 2.79677331e-01 2.03214027e-02 5.08158952e-02
      4.31786291e-02 5.87623380e-02 2.13573724e-02 3.66077162e-02
      1.38102144e-01 2.94341981e-01 2.94341981e-01 1.12885058e-01</_>
    <_>
      9.10521485e-03 3.70224528e-02 2.70795703e-01 3.22274476e-01
      1.32551417e-01 2.57615522e-02 1.16446363e-02 6.96465559e-03
      5.17835142e-03 2.03172434e-02 5.08468449e-02 1.29839137e-01
      3.22274476e-01 2.97673106e-01 2.86653161e-01 6.86492771e-02
      1.72483884e-02 1.83230303e-02 1.27669685e-02 1.27427308e-02
      6.55155629e-02 3.22274476e-01 3.22274476e-01 3.54371481e-02
      3.40562537e-02 2.28412189e-02 1.58885252e-02 2.59338506e-02
      1.14199640e-02 2.43526269e-02 2.38453656e-01 1.94179371e-01
      2.65478522e-01 3.22274476e-01 1.10743418e-01 4.18732055e-02
      2.01294571e-02 1.90736335e-02 2.75985729e-02 4.32037592e-01
      4.36670125e-01 7.38827139e-02 1.82703584e-02 2.54072100e-02
      2.86403690e-02 5.48608638e-02 2.23490428e-02 2.08925456e-02
      9.84911546e-02 1.28031194e-01 1.06189631e-01 3.67216974e-01
      2.28259921e-01 9.93311703e-02 1.40180262e-02 1.52296554e-02
      1.24497106e-02 2.11282998e-01 4.36670125e-01 1.82613701e-01
      3.21769319e-03 5.28423628e-03 1.41402874e-02 5.28901331e-02
      4.07604165e-02 2.07718164e-02 1.02518968e-01 2.51003563e-01
      4.29301374e-02 7.94995874e-02 1.04164086e-01 6.68782592e-02
      1.23458784e-02 1.11634517e-02 2.36229808e-03 1.07833013e-01
      4.19010848e-01 2.71243453e-01 2.25799978e-02 1.49394097e-02
      1.73694771e-02 6.23967573e-02 1.62250638e-01 5.64419143e-02
      4.73684445e-02 2.13171065e-01 8.20867792e-02 2.98143998e-02
      2.48506926e-02 4.56571802e-02 5.56106642e-02 7.12094232e-02
      4.51415703e-02 1.22594111e-01 4.19010848e-01 3.45607370e-01
      5.41178025e-02 3.82558368e-02 4.81004752e-02 2.00039595e-01
      4.19010848e-01 2.19231144e-01 4.50001694e-02 1.62813663e-01
      1.06861576e-01 3.75431478e-02 3.99336740e-02 9.35455263e-02
      3.78429592e-02 7.39721656e-02 7.53581598e-02 1.19170956e-01
      2.99279153e-01 2.99279153e-01 1.08798169e-01 2.12369058e-02
      2.05204450e-02 1.40268996e-01 2.99279153e-01 2.13496223e-01
      1.25974774e-01 1.98511347e-01 1.53098583e-01 1.04906797e-01
      5.15860543e-02 6.10380583e-02 3.84696084e-03 1.55822858e-02
      2.19274331e-02 4.16007154e-02 2.99279153e-01 2.99279153e-01
      2.99279153e-01 3.12208422e-02 5.51229063e-03 8.71148482e-02
      7.79063180e-02 4.98910323e-02 7.00084195e-02 1.56180426e-01
      2.62987584e-01 2.99279153e-01 2.01655254e-01 1.02144361e-01
      1.69287168e-03 2.65277224e-03 1.10081416e-02 6.60990318e-03
      1.37297958e-01 3.04553837e-01 3.04553837e-01 2.65358463e-02
      6.00573048e-03 8.44418108e-02 3.20288837e-02 1.33225583e-02
      2.23522144e-03 8.47290382e-02 3.04553837e-01 3.04553837e-01
      2.42415398e-01 9.50246528e-02 7.88563304e-03 3.31529342e-02
      5.28823733e-02 4.35989816e-03 1.60242572e-01 3.04553837e-01
      3.04553837e-01 4.62004803e-02 4.87110903e-03 7.39074871e-02
      2.52830051e-02 1.68679021e-02 0. 9.25730914e-02 3.04553837e-01
      3.04553837e-01 3.04553837e-01 1.11051872e-01</_>
    <_>
      7.90259764e-02 5.61310351e-02 7.64952824e-02 9.37461257e-02
      1.20837977e-02 0. 1.14173323e-01 3.23650837e-01 1.83780879e-01
      2.46213283e-02 4.36292542e-03 1.24022714e-03 0. 1.79696514e-03
      3.47015378e-03 2.68481702e-01 3.23650837e-01 1.42536178e-01
      1.53209060e-01 1.11386098e-01 1.59208879e-01 1.62815899e-01
      1.74549028e-01 5.22531569e-02 6.90550506e-02 3.23650837e-01
      2.72716075e-01 1.00856200e-01 2.29408201e-02 1.08523723e-02
      3.95946857e-03 1.67222992e-02 1.24859177e-01 3.23650837e-01
      3.23650837e-01 2.86714643e-01 8.51331502e-02 6.10614419e-02
      8.64035636e-02 1.15345336e-01 3.01959127e-01 3.01959127e-01
      6.75571039e-02 7.92595372e-02 1.10001311e-01 8.43354911e-02
      2.06565727e-02 2.33324450e-02 1.34586692e-02 1.87356874e-01
      2.28345215e-01 3.01959127e-01 3.01959127e-01 1.38912991e-01
      1.50045687e-02 8.34747218e-03 2.16665789e-02 3.18223722e-02
      3.01959127e-01 3.01959127e-01 3.01959127e-01 5.09180017e-02
      1.58056449e-02 2.04851218e-02 1.23432642e-02 3.74242030e-02
      7.06874654e-02 3.01959127e-01 1.96204275e-01 2.11103722e-01
      5.35826832e-02 2.30074674e-02 1.41009158e-02 8.75402242e-03
      1.17338123e-02 4.44840789e-02 2.85299242e-01 2.85299242e-01
      2.85299242e-01 6.27950281e-02 1.28115080e-02 4.43709120e-02
      6.13144189e-02 1.14646740e-01 1.61270022e-01 2.85299242e-01
      2.16926843e-01 1.76275745e-01 6.25788867e-02 2.80326009e-02
      7.58409202e-02 3.67456488e-02 1.68142185e-01 2.85299242e-01
      2.85299242e-01 2.66896158e-01 1.28043711e-01 6.08231649e-02
      6.95184022e-02 1.68815136e-01 2.00359181e-01 2.44657770e-01
      1.42354891e-01 1.99308246e-01 1.45983577e-01 1.23572029e-01
      7.11532161e-02 1.13560721e-01 7.57006630e-02 5.87427840e-02
      2.59320080e-01 3.08140934e-01 2.94585675e-01 2.93811038e-02
      9.21427980e-02 4.38188724e-02 7.34400749e-02 1.12167694e-01
      1.21467754e-01 2.10155398e-01 1.90478697e-01 3.08140934e-01
      1.92628112e-02 1.02392651e-01 4.75577079e-02 9.16408896e-02
      2.19561886e-02 7.20922574e-02 1.64657712e-01 3.08140934e-01
      3.08140934e-01 5.08545190e-02 8.52736235e-02 2.48074420e-02
      2.76937876e-02 2.34935172e-02 6.84600770e-02 2.51002580e-01
      3.08140934e-01 3.08140934e-01 2.90286280e-02 6.37695342e-02
      1.96450260e-02 2.17645522e-02 4.86631095e-02 1.50408372e-01
      1.76788181e-01 2.75478035e-01 2.75478035e-01 9.72789302e-02
      8.61815661e-02 4.93738279e-02 5.99785224e-02 2.97430847e-02
      1.54503062e-01 2.75478035e-01 2.75478035e-01 2.75478035e-01
      3.16479839e-02 1.50380731e-02 6.19150791e-03 1.77439954e-02
      1.60812855e-01 2.75478035e-01 2.75478035e-01 1.17228270e-01
      6.73126355e-02 6.17493466e-02 7.67778307e-02 1.51695892e-01
      2.16910690e-01 6.62731305e-02 2.75478035e-01 2.75478035e-01
      2.75478035e-01 5.81893921e-02 5.91825740e-03 2.61281524e-03
      6.32549776e-03 3.30807082e-02</_>
    <_>
      1.78751396e-03 9.15439858e-04 1.71249434e-01 3.06975156e-01
      3.06975156e-01 1.96250945e-01 3.31029780e-02 2.57517258e-03
      1.78751396e-03 6.84046187e-03 2.46615452e-03 1.00921050e-01
      2.88978785e-01 3.06975156e-01 2.71234035e-01 6.56268895e-02
      1.44003034e-02 6.84046187e-03 3.12778284e-03 2.96956557e-03
      1.97713096e-02 1.07882023e-01 3.06975156e-01 3.06975156e-01
      1.74274728e-01 1.30804712e-02 3.75785842e-03 1.56899039e-02
      1.43162105e-02 3.14547308e-02 1.63579166e-01 3.06975156e-01
      3.06975156e-01 1.55573264e-01 3.35318893e-02 1.84202287e-02
      3.48965777e-03 2.71680159e-03 2.16939952e-03 9.46743134e-03
      3.48722219e-01 3.48722219e-01 1.89585268e-01 2.35478338e-02
      5.87679958e-03 2.76433975e-02 1.53593328e-02 2.09866818e-02
      9.43270698e-02 3.48722219e-01 3.48722219e-01 2.40783513e-01
      6.47847876e-02 3.79876830e-02 1.42209756e-03 1.35389186e-04
      6.48820959e-03 7.53414929e-02 3.48722219e-01 2.59429246e-01
      6.54785261e-02 1.08864326e-02 2.27087177e-03 3.58635299e-02
      1.23575684e-02 4.01983708e-02 1.64846964e-02 3.48722219e-01
      1.83782429e-01 1.94360420e-01 4.89388220e-02 3.95415537e-02
      9.72826965e-03 1.81038249e-02 1.14505239e-01 3.17415774e-01
      3.17415774e-01 1.22550204e-01 3.51131931e-02 5.03569981e-03
      3.40167945e-03 5.81613928e-02 4.58094962e-02 1.19112648e-01
      1.12795509e-01 3.17415774e-01 1.38989419e-01 1.50915056e-01
      3.36647630e-02 4.42428961e-02 3.05579957e-02 3.89856920e-02
      2.91034490e-01 3.17415774e-01 3.17415774e-01 2.29192879e-02
      2.70974468e-02 1.22283269e-02 2.08472572e-02 1.05641797e-01
      7.76275843e-02 2.57001013e-01 3.17415774e-01 1.64285138e-01
      1.27107129e-01 2.24294469e-01 1.06682919e-01 8.85681733e-02
      1.75648890e-02 1.35134021e-02 1.62909955e-01 2.76062578e-01
      2.76062578e-01 5.83419167e-02 2.15059463e-02 1.17514124e-02
      1.78852584e-02 4.56996001e-02 3.18598971e-02 1.75053939e-01
      2.76062578e-01 2.06034392e-01 1.80787951e-01 1.97032630e-01
      9.50510055e-02 5.11575863e-02 2.91905422e-02 1.94194485e-02
      7.29917586e-02 2.76062578e-01 2.76062578e-01 2.54317015e-01
      1.72909096e-01 6.11299574e-02 3.40854451e-02 9.05279517e-02
      2.33414724e-01 2.76062578e-01 2.05420598e-01 2.43427843e-01
      1.79035679e-01 1.92394361e-01 7.27773085e-02 6.88377693e-02
      7.67991543e-02 4.76682708e-02 4.44301702e-02 4.49381880e-02
      2.44318962e-01 2.04423770e-01 2.44318962e-01 2.43341103e-01
      1.33943126e-01 2.30849177e-01 2.44318962e-01 2.44318962e-01
      7.73610249e-02 7.13876858e-02 7.28479549e-02 1.88092008e-01
      1.38230458e-01 1.80781722e-01 8.50792006e-02 3.95746492e-02
      2.03346834e-02 5.35282779e-05 8.86331350e-02 5.20075262e-02
      2.30973735e-01 2.44318962e-01 2.44318962e-01 2.08601370e-01
      2.44318962e-01 2.44318962e-01 2.38184799e-02 4.75874431e-02
      1.11038787e-02 9.09802839e-02 2.10954532e-01 2.44318962e-01</_>
    <_>
      1.45287195e-03 2.27286387e-02 3.15883011e-01 3.15883011e-01
      3.15883011e-01 9.27147940e-02 1.06896572e-02 3.18576465e-03
      1.70522288e-03 8.70599505e-03 1.90100074e-02 1.80993214e-01
      1.51189417e-01 3.15883011e-01 2.36400172e-01 5.29213399e-02
      1.47667676e-02 9.85364616e-03 1.42363012e-02 1.03047555e-02
      1.87267512e-02 2.31769130e-01 3.15883011e-01 3.15883011e-01
      1.51759356e-01 4.80099916e-02 1.42761227e-02 3.71335335e-02
      7.49324113e-02 1.85383201e-01 9.00026634e-02 3.15883011e-01
      1.67692438e-01 1.12141550e-01 5.20891547e-02 3.58486474e-02
      4.86323275e-02 3.40869054e-02 4.66783568e-02 1.29143342e-01
      2.93148309e-01 2.93148309e-01 2.18593925e-01 8.65766555e-02
      4.18159626e-02 1.08144000e-01 1.88602149e-01 2.93148309e-01
      7.02470243e-02 2.05955267e-01 1.35546073e-01 1.60634398e-01
      9.97455716e-02 9.57878754e-02 5.93957752e-02 4.72468883e-02
      2.26610467e-01 2.93148309e-01 2.93148309e-01 1.34842962e-01
      1.04881279e-01 4.40630615e-02 4.41700593e-02 8.87244493e-02
      1.11130245e-01 2.34173834e-01 2.00159296e-01 2.93148309e-01
      7.61804655e-02 1.53497800e-01 6.59078583e-02 7.14526251e-02
      2.09608693e-02 3.34781967e-02 2.15582177e-01 3.01621407e-01
      3.01621407e-01 2.18618177e-02 3.47467214e-02 1.06550418e-02
      1.75017640e-02 1.78312100e-02 4.08285670e-02 1.97911501e-01
      3.01621407e-01 3.01621407e-01 5.39671741e-02 7.61318058e-02
      2.04032492e-02 1.46788107e-02 2.69975513e-02 7.38327056e-02
      2.62040347e-01 3.01621407e-01 3.01621407e-01 5.78810349e-02
      4.58291620e-02 8.38767271e-03 2.35553049e-02 2.04647128e-02
      1.00570314e-01 2.83417255e-01 2.90409625e-01 3.01621407e-01
      4.15565148e-02 3.89255881e-02 6.11232128e-03 1.12263653e-02
      5.07439673e-02 9.62016508e-02 2.74813116e-01 1.34140253e-01
      2.82417983e-01 4.66574281e-02 7.29884207e-02 1.65364631e-02
      4.80982214e-02 1.92720126e-02 6.73011169e-02 1.64041430e-01
      2.40100220e-01 2.82417983e-01 1.46560678e-02 3.89743969e-02
      9.86716151e-03 1.26387756e-02 2.82417983e-01 2.19002739e-01
      2.48774022e-01 1.06311686e-01 2.82417983e-01 1.20321766e-03
      8.18925500e-02 4.61188667e-02 2.28601173e-01 9.47827101e-02
      1.94490537e-01 2.82417983e-01 2.82417983e-01 2.82417983e-01
      2.77665618e-04 4.40461785e-02 1.45992087e-02 2.76109837e-02
      2.78580427e-01 2.78580427e-01 1.57561094e-01 6.08658306e-02
      7.77411088e-02 0. 2.64769178e-02 5.05466871e-02 2.78580427e-01
      2.35915035e-01 2.78580427e-01 2.78580427e-01 2.42730618e-01
      1.56760126e-01 0. 1.01562086e-02 3.39402701e-03 2.38059722e-02
      2.78580427e-01 2.78580427e-01 8.54105651e-02 9.35245492e-03
      3.93350162e-02 0. 6.88614137e-03 6.52434155e-02 2.20036387e-01
      2.06752345e-01 2.78580427e-01 2.78580427e-01 6.15205169e-02
      6.24451078e-02 0. 1.77172367e-02 7.52498209e-02 5.51071428e-02</_>
    <_>
      4.79261056e-02 3.00053626e-01 3.00053626e-01 8.70705917e-02
      1.40767246e-02 7.40458257e-03 8.35690368e-03 4.95802704e-03
      1.26151815e-02 1.06079929e-01 2.19115660e-01 3.00053626e-01
      9.00316909e-02 2.65584558e-01 2.10266680e-01 1.19046062e-01
      6.16612062e-02 6.28354624e-02 8.73903483e-02 3.00053626e-01
      3.00053626e-01 2.66402304e-01 1.59122750e-01 2.20937971e-02
      1.41158635e-02 3.27767828e-03 4.02299166e-02 7.69104585e-02
      1.48468062e-01 1.49903938e-01 1.60060465e-01 3.00053626e-01
      2.35528886e-01 4.78362739e-02 8.63930769e-03 4.74840477e-02
      6.10321984e-02 9.98174325e-02 1.97142079e-01 2.98836231e-01
      2.98836231e-01 1.32847652e-01 3.09956055e-02 3.24613624e-03
      4.11693156e-02 4.83259857e-02 5.23116812e-02 7.35458359e-02
      2.65128165e-01 2.98836231e-01 8.19004476e-02 2.41831150e-02
      3.90877062e-03 3.71284299e-02 6.61326721e-02 9.55423787e-02
      2.05780730e-01 2.49822482e-01 2.98836231e-01 2.34259561e-01
      6.49962574e-02 1.43809216e-02 4.94406149e-02 4.16890122e-02
      1.61627978e-01 2.98836231e-01 2.98836231e-01 2.98836231e-01
      2.08557416e-02 1.59733146e-02 3.95672070e-03 3.13770026e-02
      8.06051791e-02 1.14428967e-01 2.72823274e-01 2.72823274e-01
      2.51765102e-01 8.56172517e-02 3.12091578e-02 3.07365190e-02
      3.98845300e-02 4.48240601e-02 2.52140343e-01 2.72823274e-01
      2.72823274e-01 1.12263106e-01 1.70026179e-02 8.29023682e-03
      7.84909073e-03 1.78819634e-02 8.28407928e-02 1.41629964e-01
      2.72823274e-01 2.72823274e-01 2.72823274e-01 4.72058132e-02
      2.71083508e-02 2.98141073e-02 3.17414701e-02 4.28234749e-02
      2.15028957e-01 2.72823274e-01 2.72823274e-01 2.72823274e-01
      1.11483382e-02 2.48586782e-03 4.32495354e-03 1.42702032e-02
      3.23719122e-02 7.46125653e-02 1.54100806e-01 3.21913302e-01
      3.21913302e-01 1.01993553e-01 1.10660091e-01 3.92934792e-02
      2.33525448e-02 1.37377838e-02 6.22336417e-02 1.48214698e-01
      3.21913302e-01 3.21913302e-01 2.57003941e-02 1.26399575e-02
      1.92003127e-03 7.59427436e-03 1.22133121e-02 1.20957112e-02
      8.27397779e-02 3.21913302e-01 3.21913302e-01 1.71394765e-01
      1.27270147e-01 4.27226499e-02 2.49796286e-02 1.03307832e-02
      5.67368455e-02 8.09727833e-02 3.21913302e-01 3.21913302e-01
      1.41692281e-01 2.44517587e-02 3.18814488e-03 3.99375567e-03
      2.98199691e-02 3.04841083e-02 1.21069491e-01 3.31284851e-01
      3.31284851e-01 1.18591830e-01 2.34821253e-02 6.82429271e-03
      2.25103926e-02 4.90861014e-03 2.35284809e-02 4.08525206e-02
      1.75338730e-01 3.31284851e-01 2.16949999e-01 2.69326270e-02
      4.12408169e-03 2.10534991e-03 5.07420674e-02 6.86514899e-02
      2.89550990e-01 3.31284851e-01 3.31284851e-01 4.53896895e-02
      2.01806612e-03 0. 3.59472297e-02 3.55509605e-04 1.20614935e-02
      1.59186751e-01 3.14700782e-01 3.31284851e-01 8.08687285e-02
      1.36670219e-02 3.04979226e-03 3.55509605e-04</_>
    <_>
      5.12584299e-02 2.69432694e-01 2.80133724e-01 2.07149044e-01
      3.41600329e-02 4.87728696e-03 3.87953268e-03 3.37682851e-03
      6.57358067e-03 1.48805916e-01 2.80133724e-01 2.80133724e-01
      1.26020566e-01 2.22284459e-02 2.34445650e-02 1.17141493e-01
      1.71117112e-01 1.05494186e-01 6.20763265e-02 2.52540261e-01
      2.80133724e-01 2.80133724e-01 2.71484613e-01 7.31593147e-02
      3.11822742e-02 1.90881104e-03 9.15156864e-03 9.83326584e-02
      2.34243989e-01 2.80133724e-01 1.58454776e-01 1.74753875e-01
      9.16735530e-02 1.51282668e-01 9.82992128e-02 6.98047280e-02
      1.51459640e-02 4.88595031e-02 1.95826858e-01 3.14205557e-01
      3.14205557e-01 1.24621846e-01 6.45091608e-02 9.79890488e-03
      4.44010552e-03 2.60568000e-02 6.14762641e-02 1.82556838e-01
      2.62653291e-01 3.14205557e-01 6.59757182e-02 9.34785977e-02
      2.53050681e-02 1.96265485e-02 2.80265044e-03 4.50381357e-03
      6.38763383e-02 3.02536547e-01 3.14205557e-01 3.14205557e-01
      1.93735525e-01 3.21791358e-02 2.80265044e-03 9.80300922e-03
      5.80520369e-02 1.48906529e-01 1.67882875e-01 3.14205557e-01
      1.05840512e-01 1.50295436e-01 3.09165306e-02 8.01647827e-03
      6.31311303e-03 5.74598741e-03 5.65243848e-02 2.72798568e-01
      2.94879407e-01 2.94879407e-01 1.73769161e-01 3.71757783e-02
      6.31311303e-03 2.32780240e-02 1.11741707e-01 2.22783089e-01
      2.39030004e-01 2.94879407e-01 6.19025230e-02 1.50788084e-01
      3.94145399e-02 2.02947371e-02 1.66755151e-02 2.96120979e-02
      1.05800197e-01 2.94879407e-01 2.94879407e-01 3.54295820e-02
      1.00109391e-01 3.25668007e-02 1.66755151e-02 3.11243143e-02
      1.00055836e-01 2.94879407e-01 2.88080096e-01 2.94879407e-01
      1.94811821e-03 9.90438461e-02 3.26712616e-02 3.04358620e-02
      2.65421104e-02 3.92162129e-02 1.49970531e-01 3.25943112e-01
      3.25943112e-01 1.29439272e-02 6.18739426e-02 2.41704248e-02
      2.65421104e-02 2.13600546e-02 4.72904891e-02 1.78372264e-01
      1.53787836e-01 3.25943112e-01 3.73904966e-02 8.52842256e-02
      3.13724540e-02 2.13600546e-02 1.37564853e-01 7.81403556e-02
      1.20391719e-01 1.43538043e-01 3.25943112e-01 1.17473982e-01
      2.49191567e-01 9.31241810e-02 1.56086594e-01 1.20450966e-01
      1.40836909e-01 2.46548027e-01 2.15822488e-01 3.25943112e-01
      1.55880556e-01 1.38720289e-01 4.27043326e-02 1.05475344e-01
      2.02320531e-01 6.57650307e-02 4.68091071e-02 5.92892710e-03
      1.72280908e-01 9.06572118e-02 2.34327868e-01 2.34327868e-01
      2.34327868e-01 2.31126100e-01 2.34327868e-01 2.34327868e-01
      1.66290477e-01 1.60575494e-01 5.60051464e-02 7.49214590e-02
      7.33511969e-02 2.15828553e-01 1.81198016e-01 3.25671807e-02
      3.22311819e-02 6.24355674e-03 5.58195077e-02 4.76515405e-02
      2.34327868e-01 2.34327868e-01 2.34327868e-01 2.34327868e-01
      2.34327868e-01 2.34327868e-01 5.81500158e-02 4.09090258e-02
      5.96014899e-04 6.00229166e-02 1.91767901e-01 2.34327868e-01</_>
    <_>
      9.52584147e-02 9.34429094e-02 1.30874395e-01 2.52168030e-01
      3.42591815e-02 4.70898226e-02 3.18241626e-01 1.53955162e-01
      1.13415048e-01 2.60798763e-02 1.28081068e-02 8.01705942e-03
      3.80813330e-03 2.28454685e-03 1.68139800e-01 3.18241626e-01
      1.54565215e-01 5.47059700e-02 5.22251651e-02 8.68145227e-02
      1.14506692e-01 3.18241626e-01 2.03870147e-01 8.12625811e-02
      3.18241626e-01 1.83077022e-01 6.92544878e-02 2.80534457e-02
      2.28051580e-02 1.62343588e-02 1.66385267e-02 1.20868785e-02
      2.82405138e-01 3.18241626e-01 3.18241626e-01 5.46823665e-02
      2.12334618e-02 3.98170762e-02 5.33994995e-02 2.57618129e-01
      3.28828990e-01 2.13693529e-01 1.43694028e-01 1.19650781e-01
      3.03207617e-02 1.90150272e-02 1.38395773e-02 1.24249030e-02
      1.80449188e-02 9.45771411e-02 3.28828990e-01 3.28828990e-01
      2.08596960e-01 3.03386487e-02 9.17090289e-03 4.38089622e-03
      7.76593480e-03 3.18244770e-02 3.28828990e-01 3.28828990e-01
      6.34975433e-02 1.90765578e-02 8.27879831e-03 1.54735614e-02
      1.99131668e-03 2.78022164e-03 4.68324497e-03 2.61450291e-01
      3.28828990e-01 2.56045848e-01 2.58707460e-02 1.51671506e-02
      6.48343423e-03 4.14296257e-04 1.74757361e-03 8.55957507e-04
      3.33551377e-01 3.33551377e-01 8.45163018e-02 7.36982701e-03
      6.52377168e-03 1.17828883e-02 3.25571629e-03 2.39750333e-02
      4.04340960e-02 3.02709192e-01 3.33551377e-01 1.46767661e-01
      1.28749078e-02 1.18716303e-02 7.67983869e-03 7.38525996e-03
      1.61699913e-02 1.06102116e-02 3.33551377e-01 3.33551377e-01
      7.46242329e-02 8.05511046e-03 8.28490313e-03 1.73196755e-02
      5.29484712e-02 2.22320184e-01 1.73379481e-01 3.33551377e-01
      3.26942682e-01 9.83600244e-02 1.75656695e-02 1.86508168e-02
      9.24122240e-03 8.94766208e-03 1.71892531e-02 9.98984575e-02
      3.68313044e-01 2.89568126e-01 3.28884870e-02 5.68668451e-03
      9.64209624e-03 2.12299805e-02 5.31221442e-02 1.97963670e-01
      1.86034560e-01 3.68313044e-01 1.40720904e-01 4.86952700e-02
      1.25107048e-02 2.21119020e-02 7.38159334e-03 6.66861655e-03
      2.69295052e-02 3.68313044e-01 3.68313044e-01 4.21323217e-02
      8.04156438e-03 3.15745757e-03 7.38159334e-03 1.67199988e-02
      1.38823446e-02 8.37783590e-02 3.16732049e-01 3.68313044e-01
      1.04791105e-01 2.85025407e-02 6.94640679e-03 1.67199988e-02
      5.37442602e-03 7.15542259e-03 2.31919084e-02 2.34812647e-01
      2.85088211e-01 2.70132720e-01 4.63743135e-02 8.61255918e-03
      5.42814843e-03 1.29534341e-02 1.22721922e-02 1.12678707e-01
      2.85088211e-01 2.85088211e-01 1.71013907e-01 2.90597249e-02
      1.10715022e-02 1.19364467e-02 3.47385816e-02 2.15902012e-02
      2.48556621e-02 5.96468821e-02 2.85088211e-01 2.85088211e-01
      2.85088211e-01 1.42191544e-01 4.89986129e-02 9.14669633e-02
