<?xml version="1.0"?>
<opencv_storage>
<opencv_ml_svm>
  <format>3</format>
  <svmType>C_SVC</svmType>
  <kernel>
    <type>LINEAR</type></kernel>
  <C>1.</C>
  <term_criteria><epsilon>1.0000000000000000e-03</epsilon></term_criteria>
  <var_count>900</var_count>
  <class_count>2</class_count>
  <class_labels type_id="opencv-matrix">
    <rows>2</rows>
    <cols>1</cols>
    <dt>i</dt>
    <data>
      0 1</data></class_labels>
  <sv_total>1</sv_total>
  <support_vectors>
    <_>
      2.54892230e-01 2.19022214e-01 1.68266855e-02 -1.05751500e-01
      4.04747762e-02 1.36052340e-01 -2.08379757e-02 1.26471385e-01
      3.07575792e-01 2.24174082e-01 2.91928500e-01 2.66936332e-01
      2.94191465e-02 -3.76904875e-01 -1.76434785e-01 3.54436755e-01
      1.95603296e-01 2.38691151e-01 9.64437425e-02 7.92209134e-02
      7.86556154e-02 -1.05008334e-01 -7.55642727e-03 8.32850263e-02
      1.60478458e-01 1.64710775e-01 1.20357610e-01 1.06092080e-01
      1.38348877e-01 7.35204816e-02 2.15702161e-01 -9.21218470e-02
      -4.07676362e-02 7.51432106e-02 -2.96725724e-02 4.08765040e-02
      -7.44599849e-02 6.62546605e-02 9.06361863e-02 -6.89672027e-03
      -1.33063912e-01 -2.67252952e-01 -6.27869889e-02 -1.00140072e-01
      -1.60939738e-01 -1.69053629e-01 -6.41753972e-02 2.19074965e-01
      1.00100167e-01 1.84978053e-01 1.16202064e-01 -2.84806430e-01
      -2.68781364e-01 -2.61478692e-01 -1.12295244e-02 9.14419889e-02
      9.30422544e-02 2.82851696e-01 -1.46867439e-01 -4.17217240e-02
      -2.26816595e-01 -1.90536514e-01 -1.55162513e-01 -2.71494016e-02
      7.03233760e-03 2.04293936e-01 1.07222855e-01 2.56589562e-01
      9.12278220e-02 -1.92508340e-01 -2.64976144e-01 -2.89061636e-01
      -7.58980140e-02 6.33005276e-02 1.39001772e-01 3.91834043e-03
      -2.38929063e-01 -1.33647710e-01 -1.83575049e-01 -1.80931926e-01
      -1.89606234e-01 1.49588257e-01 1.83557719e-01 2.51489073e-01
      -2.88539566e-02 -3.71731013e-01 -5.04653826e-02 1.28647149e-01
      7.05233216e-02 2.11543124e-02 -6.06839769e-02 -3.26741748e-02
      1.22836411e-01 2.19269127e-01 -1.75753105e-02 -1.59514546e-01
      -2.38590866e-01 -2.46785115e-02 -1.72837898e-01 -1.13159344e-02
      2.23191269e-03 6.97186589e-02 -5.06620817e-02 2.01377273e-02
      2.46039536e-02 1.69562206e-01 3.06545824e-01 2.50836909e-02
      1.92778543e-01 1.06477410e-01 8.07117969e-02 -2.52178669e-01
      -3.03151160e-01 1.63471982e-01 5.41146919e-02 1.28644451e-01
      1.33063108e-01 1.82945237e-01 1.79031491e-01 -2.78560538e-02
      -2.70988375e-01 -1.02680787e-01 3.18693034e-02 3.00381154e-01
      1.12069407e-02 1.48607180e-01 8.29252973e-03 1.07543953e-02
      1.57054607e-02 -3.07772517e-01 -2.30998635e-01 1.93105698e-01
      1.68379411e-01 1.23321466e-01 7.26376921e-02 8.43547732e-02
      1.57351494e-01 -1.01054318e-01 -5.27310632e-02 -1.43605918e-01
      1.11290999e-02 2.86088318e-01 1.69201568e-01 1.71899617e-01
      1.21185131e-01 2.78281778e-01 1.87225878e-01 -2.81521887e-01
      -9.56825018e-02 -1.14880102e-02 -3.44282240e-02 6.57617152e-02
      1.39050782e-01 1.70640096e-01 3.53331923e-01 3.19559604e-01
      -2.51691490e-01 -2.77410507e-01 -1.12341285e-01 -1.39052212e-01
      1.82744592e-01 1.58055946e-01 1.20007515e-01 2.98135459e-01
      1.70981139e-01 -1.28872082e-01 -1.97770908e-01 -1.15336448e-01
      3.44806910e-02 1.82844132e-01 1.58830747e-01 1.32525757e-01
      2.95003951e-01 2.13616535e-01 -2.58587718e-01 -7.83835351e-02
      -2.16739118e-01 -9.11781490e-02 1.52038842e-01 1.40989110e-01
      6.13063090e-02 1.84197482e-02 -1.35026366e-01 1.68543980e-01
      1.11206636e-01 -2.21063361e-01 6.71994910e-02 4.65411879e-02
      1.62898321e-02 8.65709335e-02 3.53400186e-02 3.15411463e-02
      2.02627167e-01 -7.44096488e-02 -5.06786816e-02 -5.20641264e-03
      1.71025023e-02 4.11438197e-02 4.29299138e-02 1.56715699e-02
      -2.59213038e-02 5.14733642e-02 -2.41805241e-02 -3.49185258e-01
      -1.47551283e-01 -3.17003019e-02 -3.59668434e-02 6.76578730e-02
      -2.39210110e-02 1.16951875e-01 -1.12312632e-02 -4.58889045e-02
      1.09240867e-01 6.65315911e-02 3.51998769e-02 3.44049893e-02
      2.60221548e-02 3.04485708e-02 3.90843907e-03 1.23244680e-01
      -3.25891282e-03 -3.98972481e-02 -1.44028425e-01 3.75286443e-03
      5.16634732e-02 -8.12579226e-03 -3.73534225e-02 3.38234613e-03
      -6.82807565e-02 3.19132030e-01 -7.42997276e-03 -2.66282111e-01
      -1.48664430e-01 -1.32771432e-01 3.39392084e-03 -5.83928674e-02
      -3.03259883e-02 2.21350938e-02 -5.98966293e-02 1.06354535e-01
      -6.42609671e-02 2.32516881e-02 2.08213516e-02 -4.05736528e-02
      -5.15221385e-03 4.21254057e-03 -1.06592342e-01 7.73515031e-02
      -2.15645544e-02 -1.83412939e-01 -8.52248445e-02 -1.11668237e-01
      -2.02564094e-02 -2.60034762e-02 -3.55304070e-02 7.26546571e-02
      2.53966272e-01 -2.61829466e-01 -1.31916791e-01 -4.35943007e-02
      -1.19726092e-01 -7.23510683e-02 -1.94007084e-02 7.83877596e-02
      1.57335643e-02 -7.56643340e-03 9.18847173e-02 1.54473558e-01
      9.99548137e-02 -5.65765388e-02 -9.18912888e-02 -1.01779811e-02
      -2.22480092e-02 9.22650397e-02 1.58474624e-01 -1.37470901e-01
      -1.33552209e-01 -4.89456244e-02 -1.95364997e-01 -5.65740205e-02
      -7.12335706e-02 1.06202392e-02 -1.16029903e-01 1.30408689e-01
      4.01627645e-02 1.22333191e-01 8.31256360e-02 -3.67418416e-02
      -8.97114798e-02 -9.15058777e-02 1.67587418e-02 -2.07678407e-01
      -9.90789235e-02 1.79302275e-01 1.09668873e-01 5.21201119e-02
      -9.00351908e-03 -7.88987800e-03 3.72108445e-02 3.28335054e-02
      2.58826111e-02 -5.35829812e-02 1.19412981e-01 1.79191023e-01
      1.68715701e-01 1.05793178e-01 -5.54077774e-02 -9.21777785e-02
      2.02242862e-02 -4.80614930e-01 4.23508137e-03 -4.89737131e-02
      4.34199013e-02 6.28114417e-02 -1.74343679e-02 -8.04270208e-02
      1.61754736e-03 6.73147067e-02 -1.29141688e-01 -9.71224683e-04
      -6.47681132e-02 6.96669370e-02 4.60124426e-02 2.69560292e-02
      5.62604070e-02 1.24268852e-01 1.14233941e-01 -1.22826971e-01
      1.30507618e-01 -3.69195752e-02 -4.59288061e-02 1.40529528e-01
      1.42465487e-01 1.08945323e-02 7.33547262e-04 7.99420848e-03
      -2.16997921e-01 1.61752418e-01 -2.54133921e-02 -1.41791418e-01
      6.27967119e-02 6.29208758e-02 -6.29956350e-02 -7.63169825e-02
      -1.24947667e-01 -1.13318250e-01 1.02730632e-01 6.80593401e-02
      2.98360493e-02 7.17144683e-02 2.80406941e-02 -7.85875767e-02
      -9.78304222e-02 -1.24039836e-01 2.27373820e-02 4.45872582e-02
      -6.85481355e-02 -1.61247805e-01 2.80785318e-02 2.15049945e-02
      5.34562208e-02 9.69761759e-02 9.61767882e-02 -2.34709471e-01
      1.39470115e-01 -2.89373428e-01 -8.14853683e-02 1.71060357e-02
      1.15333162e-02 1.08431289e-02 1.49758644e-02 7.61586502e-02
      -1.46328479e-01 1.22187704e-01 1.40904531e-01 1.11260280e-01
      6.94124252e-02 1.02590211e-02 8.08495563e-03 -2.89503392e-03
      -5.12971263e-03 -4.10850525e-01 1.38906029e-03 -3.60871434e-01
      -3.62973101e-02 4.68304157e-02 -2.20594974e-03 -1.12083158e-03
      -1.32047469e-02 -2.12768316e-02 -4.05028790e-01 5.09084500e-02
      -7.04291090e-02 2.57033557e-01 1.02769591e-01 9.48759541e-03
      8.70124530e-03 6.86474051e-03 -1.03879711e-02 -2.44227171e-01
      -6.65646270e-02 3.21363173e-02 8.99253637e-02 -1.32658286e-02
      -9.93390568e-03 -1.79717019e-02 5.73823345e-04 5.20274974e-02
      -9.72186029e-02 1.41240787e-02 -4.96776104e-02 -1.02238581e-01
      -1.14098750e-01 -4.74940725e-02 4.97811567e-03 -6.23049252e-02
      -1.18792325e-01 -3.58069599e-01 -1.05301306e-01 -4.72855717e-02
      1.87890902e-01 2.74010040e-02 6.33472875e-02 -1.97640099e-02
      -6.97602779e-02 3.96969356e-02 1.36960810e-02 -5.32078668e-02
      -7.25736991e-02 -1.11241631e-01 -4.34351899e-02 9.25362185e-02
      -1.06481232e-01 -4.21020500e-02 -1.82940103e-02 -5.17323688e-02
      2.47489274e-01 -2.22320035e-01 -2.31829241e-01 -1.44131586e-01
      -9.91544351e-02 -4.16755229e-02 -4.93821464e-02 -5.49900644e-02
      -3.08706224e-01 2.20486730e-01 -9.31053460e-02 -4.49725576e-02
      -4.12792377e-02 -2.90686768e-02 -3.52052823e-02 -9.56824515e-03
      -8.10206495e-03 -9.36749354e-02 1.62058637e-01 -1.87379465e-01
      -1.94039717e-01 -1.09551482e-01 -2.25978065e-02 5.34388460e-02
      1.44728106e-02 -1.09427430e-01 -4.88193214e-01 1.36295557e-01
      1.20400928e-01 3.68451178e-02 -1.38504254e-02 2.63417941e-02
      -1.26874761e-03 -5.16014844e-02 -1.17427573e-01 -4.59705561e-01
      1.70154110e-01 -5.92751466e-02 -6.12791404e-02 1.19244587e-02
      -1.66376494e-02 -4.17572595e-02 -3.70250344e-02 -6.60408381e-03
      -5.28468601e-02 6.72022179e-02 -1.08755991e-01 -1.17318042e-01
      -5.73224239e-02 -1.24374852e-02 3.11923437e-02 1.73465796e-02
      -3.54341194e-02 -4.10893172e-01 1.88752607e-01 3.04797471e-01
      -1.69607535e-01 -5.42647727e-02 -2.24566460e-02 6.62729493e-04
      -3.43551598e-02 -5.77924885e-02 -3.64556722e-02 1.83955848e-01
      3.61171328e-02 -1.99842408e-01 -7.03796521e-02 1.16296839e-02
      -7.96735510e-02 -8.89918357e-02 -1.74257942e-02 6.07227609e-02
      1.54430121e-01 -3.02581824e-02 -1.71409287e-02 -1.17805842e-02
      6.39688550e-03 -5.58247715e-02 -8.60466585e-02 -2.37734355e-02
      1.25223622e-01 7.94353336e-02 -3.23836833e-01 -6.68885410e-02
      -1.07941274e-02 -3.79113737e-03 1.10997204e-02 -5.89931533e-02
      4.91495617e-02 -2.44437587e-02 1.25195533e-01 1.68734506e-01
      -2.45732367e-02 2.01439355e-02 6.15195967e-02 2.71370411e-02
      -1.38162244e-02 4.56578732e-02 -9.30156112e-02 4.78217378e-02
      -1.73098937e-01 5.25413454e-03 5.96342981e-02 2.83420011e-02
      1.90657724e-04 -8.49539116e-02 -5.64620309e-02 -4.90212888e-01
      2.89867427e-02 -4.04118299e-01 1.41229019e-01 1.07235536e-01
      1.14153139e-02 2.81760097e-03 -9.63591784e-02 -8.53032023e-02
      -3.05972070e-01 9.66896266e-02 4.63869944e-02 2.04629987e-01
      6.54662400e-02 2.35832836e-02 5.61841903e-03 -4.88534085e-02
      -6.51227757e-02 -4.82726067e-01 1.03788085e-01 -1.67639479e-01
      -7.32975230e-02 2.01948717e-01 3.59514318e-02 5.57374733e-04
      -1.07878745e-01 -4.33514304e-02 -2.57542491e-01 1.15661725e-01
      2.58667003e-02 8.37051049e-02 2.54538786e-02 3.21272239e-02
      2.40518227e-02 -6.98229522e-02 -1.49469182e-01 -1.74028784e-01
      -7.44970888e-02 -7.59802833e-02 3.59922089e-03 2.87436135e-02
      4.92272452e-02 -1.47617813e-02 -1.13652289e-01 -4.53240126e-02
      2.19003454e-01 8.13061669e-02 -6.74985051e-02 -1.65983453e-01
      -1.88940428e-02 3.56578897e-03 1.93638448e-02 -1.01114646e-01
      -1.22984655e-01 -1.75671071e-01 2.00332273e-02 -6.67869523e-02
      -9.21909213e-02 -6.94229901e-02 1.08144311e-02 -7.47813880e-02
      -1.77849904e-01 -9.24393162e-02 8.36950019e-02 1.15162432e-01
      7.85951465e-02 -1.05294943e-01 -1.84820980e-01 -1.17930338e-01
      -5.32267243e-02 -5.78137040e-02 -3.76248658e-02 9.03423950e-02
      7.86243379e-02 -2.19585001e-01 -1.99340358e-01 -6.19521923e-02
      -9.10955518e-02 6.83698654e-02 4.35168222e-02 -1.05881996e-01
      -1.16636254e-01 -9.84225702e-03 5.14405295e-02 8.65894482e-02
      9.25927386e-02 2.01046504e-02 -1.74686670e-01 -4.17354256e-02
      -8.61895531e-02 3.39068286e-03 3.42947662e-01 -3.45746070e-01
      -3.47139984e-01 -2.21196592e-01 -2.38282785e-01 6.47610649e-02
      3.98408808e-02 -1.45710543e-01 1.17498420e-01 -1.32672533e-01
      -3.83285880e-01 -1.12253800e-01 7.67041370e-02 2.72975918e-02
      3.10522262e-02 2.45190039e-02 -5.67887947e-02 -8.07894319e-02
      -4.44869213e-02 8.55799168e-02 -1.47531435e-01 4.02113190e-03
      1.41867939e-02 5.23367189e-02 5.58065856e-03 -1.47482947e-01
      -9.61573869e-02 3.52602010e-03 -1.15095623e-01 -1.71574831e-01
      -1.09718842e-02 4.69963178e-02 6.79484829e-02 4.28199284e-02
      -1.20701626e-01 2.46072426e-01 -1.53837711e-01 -8.50507244e-02
      -1.69692382e-01 4.55604531e-02 4.60726880e-02 7.02625141e-02
      -1.60734728e-02 1.74052596e-01 1.69063181e-01 -4.79787216e-03
      -6.51385635e-02 -1.43540904e-01 1.84301548e-02 7.77774081e-02
      6.54089227e-02 -1.74908899e-02 -5.51593043e-02 5.27685322e-03
      -4.72691134e-02 1.35075957e-01 8.11095312e-02 1.08545244e-01
      1.09048069e-01 6.80536479e-02 6.79029673e-02 -1.66459214e-02
      -3.21261995e-02 -1.75368086e-01 -4.36707074e-03 -4.00665216e-03
      1.06743723e-01 8.81850198e-02 1.07779272e-01 1.59074068e-02
      7.68727288e-02 -5.03928810e-02 -7.13747442e-02 6.73532262e-02
      4.95300703e-02 1.92545548e-01 1.67007700e-01 1.38634399e-01
      2.52454691e-02 3.39060463e-02 -4.16025519e-02 -1.53331280e-01
      2.33724520e-01 2.27941498e-02 1.78128287e-01 1.75851569e-01
      5.23643903e-02 4.62650768e-02 5.38440309e-02 -2.01771855e-01
      1.92962140e-01 -1.72388822e-01 -3.77356112e-01 4.68605570e-02
      2.22514682e-02 5.23876064e-02 2.06279336e-04 1.14627033e-01
      -2.19456963e-02 7.26971636e-03 5.08205183e-02 2.21849177e-02
      8.67821574e-02 7.94931799e-02 7.02523738e-02 6.11657724e-02
      4.53541754e-03 -2.31229037e-01 -2.80393437e-02 -1.77897766e-01
      -7.27643371e-02 -5.13200313e-02 3.74893099e-02 1.76506951e-01
      1.53973684e-01 1.10569440e-01 -4.37674262e-02 -3.05378556e-01
      -8.67864490e-02 1.51847512e-01 3.68692756e-01 2.66419977e-01
      3.60432714e-02 -2.92545743e-03 1.72807928e-02 2.80007515e-02
      -7.77022764e-02 1.35941669e-01 8.46633397e-04 -4.02776785e-02
      -1.05616860e-02 -1.60377901e-02 -5.23223681e-03 -1.59629330e-01
      2.25432351e-01 4.60951962e-02 1.48381040e-01 7.91472420e-02
      -5.94337881e-02 -1.25454396e-01 1.26015082e-01 8.20442513e-02
      -1.04874969e-01 -4.59904000e-02 -3.67294580e-01 -1.10073857e-01
      6.57728687e-02 3.09500664e-01 1.92038238e-01 -1.54388119e-02
      1.28110081e-01 -1.86285824e-01 -6.09507635e-02 -6.34575263e-02
      -1.74392164e-02 1.74544856e-01 1.86069056e-01 -2.29019970e-02
      1.87832303e-02 -1.43692261e-02 -9.79194790e-02 -8.62399936e-02
      -3.56815159e-02 -3.33168447e-01 -1.58118263e-01 -2.21787974e-01
      -2.22314283e-01 1.44503683e-01 7.07755983e-02 -3.32826041e-02
      -5.47667965e-02 -1.98722601e-01 -2.14948609e-01 -8.02337006e-02
      -4.07669274e-03 8.03510100e-02 2.82381773e-02 7.56822154e-02
      -7.98683017e-02 -3.74468535e-01 -3.00840318e-01 -1.71744227e-01
      -5.02741011e-03 -9.98879820e-02 -1.73616454e-01 2.04713866e-01
      3.12608391e-01 1.88116312e-01 9.89687443e-03 -2.48170108e-01
      -1.36389747e-01 -1.71831906e-01 -1.03032134e-01 9.04991776e-02
      1.39782071e-01 5.34638241e-02 -1.32451835e-03 1.19682536e-01
      -1.69411242e-01 5.20854956e-03 -2.53583938e-02 7.21546337e-02
      1.40645802e-01 4.30103801e-02 8.65671262e-02 -4.56230305e-02
      1.58115089e-01 -1.04174085e-01 1.97980087e-02 -1.31953850e-01
      4.62760143e-02 4.12367657e-02 3.77289429e-02 1.80896595e-01
      1.94324613e-01 -1.55634503e-03 -3.79646420e-01 -1.97546080e-01
      -1.91558525e-01 -1.28306240e-01 5.56731857e-02 -1.66853726e-01
      1.17586985e-01 1.14114001e-01 4.48140949e-02 -1.25168592e-01
      -7.15244561e-02 -8.83411914e-02 -6.65235147e-02 -2.76106037e-03
      5.78051209e-02 -1.32323001e-02 2.56506771e-01 1.66583508e-02
      9.38645378e-02 1.05846800e-01 1.49716303e-01 2.53931254e-01
      1.32143408e-01 1.63384154e-01 3.76643315e-02 3.25284787e-02
      -6.88074082e-02 -1.51462421e-01 5.28456718e-02 1.49254680e-01
      2.33551294e-01 2.03615949e-01 5.30631654e-03 1.23031013e-01
      1.38912812e-01 -7.40413815e-02 2.13275086e-02 8.19446426e-03
      6.06904700e-02 1.96100250e-01 6.00450113e-02 1.90241531e-01
      3.07145715e-02 -1.95773393e-01 -2.27670193e-01 -1.73758209e-01
      -1.93690713e-02 2.97978949e-02 2.93883771e-01 2.59189755e-01</_></support_vectors>
  <uncompressed_sv_total>88</uncompressed_sv_total>
  <uncompressed_support_vectors>
    <_>
      2.90957931e-02 4.65232208e-02 6.52662888e-02 3.11475962e-01
      3.11475962e-01 1.63029104e-01 6.75525889e-02 4.13870364e-02
      3.95549946e-02 3.03307269e-02 4.27916721e-02 4.05366793e-02
      2.12093040e-01 1.98679596e-01 3.11475962e-01 2.74070024e-01
      8.08902308e-02 6.79954961e-02 1.65837985e-02 3.30999703e-03
      7.74035081e-02 3.11475962e-01 3.11475962e-01 7.52204135e-02
      3.87920141e-02 2.24850327e-02 1.40892453e-02 6.58367667e-03
      7.28291692e-03 3.05784754e-02 2.83414185e-01 3.11475962e-01
      3.11475962e-01 7.32960030e-02 6.03698753e-03 6.03141636e-03
      7.30221998e-03 6.98162150e-03 2.29104664e-02 8.28049853e-02
      3.15706521e-01 3.15706521e-01 2.29600117e-01 3.69232856e-02
      1.93948653e-02 1.92111023e-02 1.90897975e-02 4.32367139e-02
      9.44575295e-02 2.30077997e-01 3.15706521e-01 2.03748420e-01
      5.46494760e-02 1.02695115e-02 1.51541168e-02 3.33758816e-02
      3.25058028e-02 1.77688584e-01 3.15706521e-01 3.15706521e-01
      1.16931178e-01 1.91411749e-02 5.55002550e-03 5.98094389e-02
      6.78216964e-02 4.49119024e-02 1.03958130e-01 3.15706521e-01
      3.15706521e-01 2.04315305e-01 1.12406701e-01 6.87056854e-02
      3.45683992e-02 3.84287164e-02 5.43882363e-02 3.89432162e-02
      9.76309180e-02 1.94086641e-01 2.97552049e-01 1.68606535e-01
      1.81876905e-02 5.03490977e-02 4.84786257e-02 1.66130453e-01
      7.45257959e-02 1.64866701e-01 2.06496879e-01 2.97552049e-01
      1.23576291e-01 1.44203352e-02 5.43184057e-02 4.37539630e-02
      3.28901634e-02 3.92336622e-02 1.12178631e-01 1.82095796e-01
      2.97552049e-01 2.97552049e-01 1.49240986e-01 8.37596692e-03
      1.04843881e-02 2.77915727e-02 5.56516685e-02 2.97552049e-01
      2.97552049e-01 2.97552049e-01 2.97552049e-01 5.22610620e-02
      2.29417589e-02 2.00083833e-02 1.05347745e-01 5.67914881e-02
      1.67528152e-01 1.98435560e-01 1.43411696e-01 3.79080288e-02
      1.44295534e-02 5.30396355e-03 2.68783537e-03 9.19438805e-03
      1.04567647e-01 3.25664759e-01 3.25664759e-01 2.72782177e-01
      2.39715222e-02 8.90532602e-03 3.83796217e-03 6.86096726e-03
      2.69145109e-02 7.29757324e-02 3.25664759e-01 3.20113331e-01
      1.69670820e-01 3.79731655e-02 5.16858790e-03 1.43573096e-03
      4.12861770e-03 2.55850703e-02 3.25664759e-01 3.25664759e-01
      3.25664759e-01 1.69121444e-01 3.18778120e-02 1.56509131e-02
      9.31806397e-04 1.07401004e-03 1.24214112e-03 5.62694296e-02
      3.47075820e-01 3.47075820e-01 1.25216886e-01 7.24799791e-03
      1.25780667e-03 1.75217334e-02 7.82089494e-03 2.61464948e-03
      1.17383124e-02 2.23970309e-01 3.47075820e-01 4.58353013e-02
      8.92670229e-02 4.56560142e-02 8.48785712e-05 6.00244501e-04
      8.73166788e-03 2.11964965e-01 3.47075820e-01 3.47075820e-01
      1.46264717e-01 2.38104928e-02 1.38280168e-02 1.62869841e-02
      1.17745688e-02 3.43371136e-03 2.69322786e-02 3.47075820e-01
      3.47075820e-01 4.76151742e-02 1.69887170e-02 2.67208964e-02
      1.03430366e-02 3.87430249e-04 7.27635920e-02 3.39703619e-01
      3.39703619e-01 8.65625963e-02 3.18773813e-03 2.91613839e-03
      9.90712363e-03 6.95243245e-03 1.56367617e-03 5.16191609e-02
      2.88331836e-01 3.39703619e-01 2.17265800e-01 1.30729191e-02
      1.48923529e-04 7.38231000e-03 8.95385724e-03 1.60250333e-04
      1.00836372e-02 2.29972854e-01 3.39703619e-01 2.84449488e-01
      1.38499960e-02 1.48923529e-04 8.79228488e-03 7.18159555e-03
      3.52550705e-04 2.96238456e-02 1.36484176e-01 3.39703619e-01
      3.39703619e-01 6.37861565e-02 3.27631802e-04 6.82613533e-03
      8.49766657e-03 1.69945136e-02 3.64864953e-02 2.10837632e-01
      3.25720370e-01 3.25720370e-01 7.98603520e-02 8.79676081e-03
      1.92804867e-03 2.61172354e-02 3.53788733e-02 1.73825808e-02
      1.02326959e-01 3.25720370e-01 3.25720370e-01 1.42455906e-01
      5.80986589e-02 4.01817262e-02 1.48734520e-03 9.44402011e-04
      2.77812500e-02 1.57143325e-01 3.25720370e-01 3.25720370e-01
      8.16130862e-02 1.29412941e-03 9.72319162e-04 4.28038323e-03
      5.95300738e-03 1.57707296e-02 1.11722603e-01 3.25720370e-01
      3.25720370e-01 1.10060990e-01 1.76371429e-02 7.76084978e-03
      2.38459203e-02 2.37385910e-02 8.95694550e-03 4.29800935e-02
      2.42805898e-01 1.65463254e-01 1.70191467e-01 2.01327741e-01
      8.98874328e-02 4.31845756e-03 5.65116294e-03 3.30851064e-03
      4.23771851e-02 3.37457508e-01 3.37457508e-01 2.62518585e-01
      1.87161043e-01 3.56834009e-02 9.05833580e-03 1.08965728e-02
      1.13118533e-02 5.57326823e-02 3.37457508e-01 3.37457508e-01
      9.29336846e-02 8.84099230e-02 2.31118873e-02 3.84174474e-03
      5.84920868e-03 8.25226959e-03 3.60715389e-02 3.37457508e-01
      3.37457508e-01 9.82459933e-02 8.75574425e-02 1.25700645e-02
      2.64841062e-03 2.93615330e-02 5.15902527e-02 8.87543485e-02
      3.22947025e-01 3.22947025e-01 1.19516678e-01 4.16065454e-02
      4.43309080e-03 3.69148515e-03 3.72326076e-02 7.76731595e-02
      2.68752038e-01 3.22947025e-01 3.22947025e-01 1.64993867e-01
      9.54476744e-02 2.78287660e-02 1.36810606e-02 3.97103913e-02
      5.67688271e-02 5.04776649e-02 3.22947025e-01 3.22947025e-01
      4.27276231e-02 3.53132002e-02 3.47158015e-02 2.02803370e-02
      5.38193025e-02 7.16781765e-02 1.00931086e-01 3.22947025e-01
      2.45958984e-01 1.31060526e-01 1.03784651e-01 6.00754134e-02
      3.88504326e-04 3.04217148e-03 1.00454725e-02 1.01597540e-01
      3.41830820e-01 3.41830820e-01 1.20584734e-01 5.75934723e-02
      1.82838570e-02 5.98775363e-03 5.48975077e-03 3.76023306e-03
      2.47890241e-02 3.41830820e-01 3.41830820e-01 2.79599819e-02
      6.43919129e-03 8.50277673e-03 2.22783699e-03 4.84911911e-03
      7.02076824e-03 1.15081720e-01 3.41830820e-01 3.30672383e-01
      8.56587514e-02 4.72126231e-02 1.18314754e-02 2.11760844e-03
      1.27735652e-03 1.34707207e-03 1.25842258e-01 3.41830820e-01
      3.41830820e-01 1.40373679e-02 3.53549048e-03 2.44252593e-03
      6.20289706e-03 6.04405577e-05 3.91339697e-03 5.53898327e-02
      3.55459303e-01 3.55459303e-01 4.25158106e-02 3.40679253e-05
      5.82670048e-03 1.95420184e-03 1.32969231e-04 1.22389980e-02
      4.08726782e-02 3.55459303e-01 3.55459303e-01 7.44952559e-02
      7.49494357e-05 1.12656876e-03 3.17649497e-03 0. 3.83052090e-03
      1.88126653e-01 3.55459303e-01 3.18559438e-01 2.80492492e-02 0.
      3.17649497e-03 1.38166314e-03 0. 1.12387529e-02 1.62870049e-01
      3.55459303e-01 2.45594293e-01 3.65470946e-02 0. 1.38166314e-03
      2.27109267e-04 2.03745745e-04 6.94248592e-03 6.87797070e-02
      3.60276312e-01 3.01189959e-01 3.72805260e-02 4.68146056e-04
      1.30925153e-04 1.98260066e-04 1.16800575e-03 8.92817136e-03
      1.39243454e-01 3.60276312e-01 3.60276312e-01 2.04070769e-02
      3.15892021e-03 1.35886658e-04 4.36477683e-04 3.15313716e-03
      6.36407407e-03 1.39640033e-01 3.60276312e-01 2.22517014e-01
      1.72214918e-02 1.59339549e-03 1.58376724e-03 0. 1.36732291e-02
      1.74028035e-02 2.82937616e-01 3.60276312e-01 2.83597767e-01
      1.30250044e-02 9.13317781e-03 5.91222197e-03 6.17095444e-04
      1.73133973e-03 5.90195833e-03 9.16360691e-02 3.75872523e-01
      3.00452262e-01 1.56299733e-02 7.70615786e-03 6.97334355e-04
      8.82476510e-04 1.66439079e-03 3.87790496e-03 4.54454310e-02
      3.75872523e-01 3.75872523e-01 1.36569794e-02 6.37451140e-03
      1.43812981e-03 0. 6.63678348e-03 1.55065386e-02 2.51736790e-01
      3.75872523e-01 1.90871328e-01 1.76072232e-02 1.38822496e-02
      6.92130812e-03 1.00589154e-04 1.38375291e-03 1.10612838e-02
      1.93303689e-01 3.75872523e-01 2.23988667e-01 1.14028361e-02
      8.66080634e-03 3.86768417e-03 1.61904078e-02 1.57233253e-02
      1.83466934e-02 4.44731116e-02 3.72181952e-01 3.72181952e-01
      1.44534213e-02 1.11165559e-02 1.87663231e-02 2.09852159e-02
      1.94503721e-02 3.38150822e-02 1.32426128e-01 3.72181952e-01
      1.60268784e-01 2.70744972e-02 2.62121838e-02 2.68897563e-02
      1.24789570e-02 5.23906201e-03 1.72607806e-02 1.46900982e-01
      3.72181952e-01 3.72181952e-01 1.05505791e-02 5.86492941e-03
      7.20740901e-03 1.82437897e-02 1.66224651e-02 6.89950958e-02
      2.12376922e-01 3.72181952e-01 2.03002080e-01 9.72155388e-03
      6.55310741e-03 1.57863721e-02 2.07115663e-03 1.72269926e-03
      1.12100430e-02 1.73169211e-01 3.93979877e-01 2.17747465e-01
      1.15189208e-02 7.95361958e-03 3.71070881e-03 6.62213366e-04
      9.21313112e-05 6.71352958e-04 1.68536529e-01 3.93979877e-01
      2.46239245e-01 1.43828546e-03 3.27637215e-04 7.00568082e-04
      3.64265172e-03 8.81481078e-03 3.62232849e-02 2.00558126e-01
      3.93979877e-01 2.54340917e-01 3.46034626e-03 6.24519307e-04
      8.73807818e-03 1.33266766e-03 9.74035298e-04 4.50893026e-03
      2.24483013e-01 3.93979877e-01 2.27085426e-01 1.39673916e-03
      4.38445422e-05 2.70389696e-03 3.53161478e-03 0. 2.90588592e-04
      1.29091457e-01 3.90013635e-01 3.07535976e-01 4.70001856e-03
      3.07832051e-05 3.53161478e-03 7.04247085e-03 0. 1.44672440e-03
      1.23416297e-01 3.90013635e-01 1.20138429e-01 1.41136749e-02
      1.33393900e-04 7.04247085e-03 9.44689102e-03 4.21287073e-03
      1.83389336e-02 3.85219716e-02 3.90013635e-01 3.90013635e-01
      5.43626100e-02 5.90164156e-04 7.37489248e-03 1.48962513e-02
      2.10824632e-03 7.29288720e-03 7.25220516e-02 3.90013635e-01
      2.79795587e-01 7.27729425e-02 3.92714934e-03 1.48962513e-02
      9.05278884e-03 6.72668545e-03 1.42124593e-02 1.82003558e-01
      3.57998610e-01 1.73240900e-01 2.03261431e-02 1.65062561e-03
      9.97529551e-03 2.88349669e-02 2.82597709e-02 6.97650984e-02
      3.04729998e-01 3.57998610e-01 2.34581798e-01 2.09743157e-02
      2.02163421e-02 3.70213985e-02 1.46494200e-02 6.21695770e-03
      2.45805588e-02 2.45726749e-01 3.57998610e-01 1.98991194e-01
      7.44611770e-02 4.45641624e-03 1.95855275e-02 6.79401085e-02
      5.49829118e-02 1.05448663e-01 3.29164088e-01 3.57998610e-01
      1.49991974e-01 4.56613339e-02 2.70404965e-02 6.30702823e-02
      2.48226207e-02 2.45463476e-02 7.02620149e-02 3.10729802e-01
      3.10729802e-01 1.87418923e-01 3.79777737e-02 7.44225606e-02
      5.35804518e-02 9.37872380e-03 1.40020410e-02 3.62384282e-02
      3.10729802e-01 3.10729802e-01 2.06578821e-01 3.37895006e-02
      5.48967682e-02 3.22719701e-02 1.59825727e-01 1.38626933e-01
      1.40464902e-01 1.94710925e-01 2.68773794e-01 6.48496747e-02
      2.60426886e-02 9.44310948e-02 1.44152731e-01 1.71619713e-01
      1.73512116e-01 1.53425187e-01 3.10729802e-01 3.10729802e-01
      6.82027116e-02 3.12357694e-02 7.11776838e-02 1.18142687e-01
      4.70817089e-03 3.32620065e-03 1.22034792e-02 2.40172043e-01
      3.04279655e-01 3.04279655e-01 7.17606246e-02 4.33248095e-02
      3.55212167e-02 1.20035140e-02 1.64713990e-02 6.38160408e-02
      2.36599132e-01 3.04279655e-01 1.85656250e-01 6.00575991e-02
      5.33232912e-02 6.37166947e-02 5.13896197e-02 7.90380761e-02
      1.21783331e-01 3.04279655e-01 3.04279655e-01 1.42301872e-01
      1.04872957e-01 5.75150512e-02 4.95710783e-02 2.68795118e-02
      3.00315879e-02 2.81357408e-01 3.04279655e-01 3.04279655e-01
      1.18219376e-01 9.81543213e-02 8.12968090e-02 7.42964819e-02
      6.95919339e-03 1.09468494e-02 5.67783862e-02 3.29663962e-01
      3.29663962e-01 1.24279849e-01 7.06487475e-03 1.13554541e-02
      3.06384806e-02 2.03547557e-03 1.36638223e-03 2.03069597e-02
      3.28255296e-01 3.29663962e-01 1.62882745e-01 2.41887476e-03
      1.51660608e-03 7.15688430e-03 9.94683523e-03 8.28381069e-03
      2.31218964e-01 3.29663962e-01 3.29663962e-01 8.06080252e-02
      1.66836344e-02 2.33587250e-02 3.36288586e-02 2.02547736e-03
      3.52598203e-04 6.99625537e-02 3.29663962e-01 3.29663962e-01
      1.18786879e-01 9.56548005e-03 3.31351277e-03 6.98013557e-03
      7.50094187e-03 7.41997315e-03 2.91532744e-02 6.07359670e-02
      2.95314670e-01 2.95314670e-01 1.85110360e-01 6.21269736e-03
      4.45684046e-03 1.18684461e-02 5.07979561e-03 2.54665036e-02
      1.81836203e-01 2.95314670e-01 2.95314670e-01 9.53328162e-02
      3.94680537e-03 8.34274106e-03 7.54866283e-03 5.75169362e-03
      1.66938230e-02 1.70084551e-01 2.95314670e-01 2.95314670e-01
      2.04943165e-01 1.30685540e-02 9.01593920e-03 2.90280152e-02
      4.75195199e-02 1.98106840e-01 2.95314670e-01 2.95314670e-01
      2.95314670e-01 1.23654202e-01 1.40597885e-02 2.71732267e-02
      1.18207615e-02 7.86431786e-03 4.76926789e-02 3.21174353e-01
      3.21174353e-01 1.20332353e-01 4.27597910e-02 5.97394211e-03
      1.63074974e-02 7.54582286e-02 1.11543879e-01 1.19842291e-01
      3.21174353e-01 3.21174353e-01 5.66275269e-02 2.83377226e-02
      1.50003508e-02 4.54780050e-02 1.68420225e-02 3.61160263e-02
      2.40438595e-01 3.21174353e-01 3.21174353e-01 7.73691386e-02
      2.28863861e-02 5.74599672e-03 1.21927224e-02 3.67857851e-02
      9.42372456e-02 1.91247657e-01 3.21174353e-01 3.21174353e-01
      1.89025775e-02 6.81189122e-03 1.19101470e-02 1.53201418e-02
      2.46906191e-01 2.46906191e-01 2.46906191e-01 1.68733537e-01
      1.23218253e-01 1.86640397e-02 1.59872826e-02 4.22095805e-02
      1.36564016e-01 2.46906191e-01 2.46906191e-01 2.46906191e-01
      2.46906191e-01 1.43483624e-01 1.95074305e-02 2.01772097e-02
      4.33104448e-02 1.64376155e-01 1.37051970e-01 2.46906191e-01
      2.46906191e-01 2.32101083e-01 1.63000509e-01 1.93245616e-02
      7.27556273e-03 4.05368470e-02 4.69317362e-02 2.46906191e-01
      2.46906191e-01 2.32831776e-01 1.07319683e-01 9.30774882e-02
      2.63894834e-02 1.98124852e-02 7.19315112e-02 1.66833431e-01
      1.51765630e-01 1.85234204e-01 2.04478338e-01 2.41579577e-01
      1.20832533e-01 3.36719677e-02 3.88896912e-02 3.88114415e-02
      1.06373042e-01 5.90394065e-02 1.85569137e-01 2.83686846e-01
      2.83686846e-01 2.20954731e-01 4.29741144e-02 3.81605327e-02
      3.59863229e-02 6.44496977e-02 2.79697120e-01 2.72655487e-01
      1.57789335e-01 4.83793840e-02 2.09704023e-02 1.90139953e-02
      2.50325054e-02 1.03726014e-01 2.37747744e-01 9.49368849e-02
      2.83686846e-01 2.83686846e-01 2.83686846e-01 1.96943790e-01
      2.57109031e-02 1.35604991e-02 5.35086319e-02 1.08011320e-01
      9.21139307e-03 4.02479023e-02 3.37833166e-01 3.37833166e-01
      3.14253539e-01 3.73301134e-02 8.91826674e-03 7.56727299e-03
      9.58977826e-03 4.82177781e-03 2.23335763e-03 5.89370541e-02
      3.37833166e-01 3.37833166e-01 4.19715159e-02 7.45994551e-03
      3.45112686e-03 4.29564901e-03 7.70093547e-03 6.92818686e-02
      2.57668763e-01 3.37833166e-01 2.49024794e-01 1.00191226e-02
      8.27079290e-04 2.62684975e-04 3.47630848e-04 1.28283799e-02
      1.76968686e-02 1.23996258e-01 3.37833166e-01 2.34620124e-01
      6.75308239e-03 1.26859359e-03 2.32056924e-03 9.27900337e-03</_>
    <_>
      1.39887258e-01 1.32834136e-01 9.18406472e-02 2.39337459e-01
      2.98602790e-01 1.42098770e-01 1.08623691e-01 5.87447248e-02
      4.96840030e-02 7.82401338e-02 4.86432090e-02 2.88959779e-02
      7.25242347e-02 2.19277844e-01 3.22279036e-01 3.19113433e-01
      9.36758518e-02 5.75081855e-02 1.66577008e-02 3.73143591e-02
      4.25719544e-02 3.22279036e-01 3.22279036e-01 1.12148657e-01
      6.21738434e-02 2.14778725e-02 1.36132278e-02 9.31491982e-03
      3.05785555e-02 2.40791291e-02 9.66153964e-02 3.22279036e-01
      3.22279036e-01 1.95100158e-01 3.31657752e-02 1.42617263e-02
      3.71723389e-03 7.14006135e-04 1.01846969e-02 1.24754213e-01
      3.47854286e-01 3.47854286e-01 1.58824265e-01 2.82431021e-02
      1.12501532e-02 2.66887117e-02 7.56964227e-03 2.47247424e-02
      9.09740925e-02 2.56036401e-01 2.21251771e-01 2.13532671e-01
      1.00574404e-01 2.91059408e-02 1.63160004e-02 1.28168771e-02
      2.68963892e-02 7.20279068e-02 3.47854286e-01 3.47854286e-01
      1.13852166e-01 1.13430908e-02 5.51729323e-03 7.14162961e-02
      3.60260643e-02 7.33827129e-02 1.12954088e-01 2.94841260e-01
      2.90878117e-01 2.35558897e-01 1.35206699e-01 2.53910404e-02
      5.39949648e-02 3.38881351e-02 8.32089931e-02 5.99283725e-02
      1.21279605e-01 1.49690807e-01 3.01595837e-01 1.65830582e-01
      5.50655276e-02 6.64731413e-02 5.91557473e-02 2.52699226e-01
      2.07385525e-01 2.01276004e-01 2.08585501e-01 1.71879694e-01
      4.82852720e-02 3.32628749e-02 5.70515059e-02 2.64806747e-02
      5.80006875e-02 6.69902638e-02 9.16706547e-02 2.85418808e-01
      3.01595837e-01 3.01595837e-01 3.59090082e-02 1.26488637e-02
      1.46888709e-02 8.22817981e-02 9.55937877e-02 3.01595837e-01
      3.01595837e-01 3.01595837e-01 1.33744076e-01 8.85288231e-03
      2.80461870e-02 1.76461749e-02 8.19165334e-02 9.54134911e-02
      1.53923333e-01 2.47948691e-01 1.20027095e-01 6.22560829e-02
      7.16084940e-03 5.55549376e-03 2.30622990e-03 1.07989227e-02
      1.06842376e-01 3.38375479e-01 3.38375479e-01 2.59269863e-01
      5.54742105e-02 1.27303344e-03 6.16813311e-03 4.43162955e-03
      3.15572098e-02 8.03799480e-02 2.64281124e-01 3.04441512e-01
      1.13101840e-01 3.85327190e-02 2.55626836e-03 1.72914553e-03
      9.25147673e-04 1.48828691e-02 2.97151953e-01 3.38375479e-01
      3.38375479e-01 2.47284651e-01 4.83787097e-02 9.96685121e-04
      2.30760383e-03 8.98048922e-04 5.80550171e-03 4.30329107e-02
      3.60920817e-01 3.60920817e-01 1.01962626e-01 1.17660118e-02
      2.94964015e-03 3.77567634e-02 1.19435992e-02 1.08525567e-02
      3.18350247e-03 2.61508793e-01 2.70413458e-01 3.47609185e-02
      6.75248429e-02 6.77751005e-02 8.33468977e-04 7.38234492e-04
      5.08738682e-03 1.51859865e-01 3.60920817e-01 3.60920817e-01
      1.47539005e-01 9.22149513e-03 6.80255471e-04 4.02628332e-02
      2.20394768e-02 1.22405076e-02 1.06906053e-02 3.60920817e-01
      3.60920817e-01 2.90189944e-02 1.21117998e-02 2.25062054e-02
      1.46389687e-02 1.48286726e-02 1.29435547e-02 3.21772665e-01
      3.21772665e-01 3.73948663e-02 4.52666217e-03 1.45248137e-02
      1.79366320e-02 4.39393613e-03 2.24975944e-02 4.55799364e-02
      2.46566981e-01 3.21772665e-01 3.21772665e-01 1.84588470e-02
      1.94218419e-02 9.45456233e-03 2.19815206e-02 2.48133484e-03
      1.16585745e-02 2.79442251e-01 3.21772665e-01 6.69445023e-02
      3.63730011e-03 1.38985338e-02 2.49531716e-02 1.12038497e-02
      2.28990950e-02 1.16733789e-01 3.21772665e-01 3.21772665e-01
      3.21772665e-01 5.56599088e-02 1.26945172e-02 1.28571708e-02
      6.99994154e-03 1.04801226e-02 5.38768396e-02 1.71380252e-01
      3.17734540e-01 3.17734540e-01 4.13596556e-02 7.77206384e-03
      1.59792800e-03 4.22341265e-02 3.25274095e-02 6.06015362e-02
      1.00649670e-01 2.80588150e-01 2.42059782e-01 9.77833048e-02
      1.08043998e-01 2.50622556e-02 7.42063159e-03 2.50366069e-02
      1.21191569e-01 3.17734540e-01 3.17734540e-01 3.17734540e-01
      9.58149731e-02 1.38716036e-02 5.06429048e-03 2.55089197e-02
      2.05128826e-02 6.13471866e-02 1.64923221e-01 3.17734540e-01
      3.17734540e-01 1.12178639e-01 9.99713391e-02 2.68494096e-02
      3.28359492e-02 1.92969423e-02 2.23767683e-02 3.80609855e-02
      8.53741467e-02 1.58572555e-01 2.53606319e-01 2.89229184e-01
      4.43374105e-02 2.71429215e-03 1.64500042e-03 2.42492114e-03
      2.51812842e-02 2.63047725e-01 2.99820751e-01 2.89875001e-01
      1.56799391e-01 1.24019412e-02 3.30296531e-02 1.70768518e-02
      2.76122913e-02 7.91730210e-02 2.99820751e-01 2.99820751e-01
      1.47987068e-01 2.86290765e-01 4.95255776e-02 8.10730830e-03
      7.49202259e-03 1.23915346e-02 4.10176441e-02 2.99820751e-01
      2.99820751e-01 1.84987068e-01 1.78866848e-01 1.61378216e-02
      6.08621165e-03 1.19485436e-02 2.64622830e-02 1.03595443e-01
      3.00924271e-01 3.00924271e-01 8.61346573e-02 1.76585373e-02
      2.42441054e-03 5.92330005e-03 1.25593944e-02 3.15011591e-02
      3.00924271e-01 3.00924271e-01 3.00924271e-01 1.67027920e-01
      3.14780585e-02 2.58443761e-03 4.55131270e-02 4.91610691e-02
      7.61440545e-02 1.16070583e-01 3.00924271e-01 3.00924271e-01
      5.32953218e-02 2.95295101e-02 2.25876141e-02 5.41838221e-02
      5.15695289e-02 8.26678053e-02 1.73516959e-01 3.00924271e-01
      3.00924271e-01 2.19084978e-01 1.06752589e-01 5.14922738e-02
      4.12901893e-04 9.58347518e-04 2.89773825e-03 1.02397107e-01
      3.40125024e-01 3.40125024e-01 1.29186183e-01 1.56034166e-02
      5.84207010e-04 9.12394095e-03 5.12509327e-03 6.44118944e-03
      1.18154408e-02 3.40125024e-01 3.40125024e-01 3.36931795e-02
      2.40558060e-03 4.29954054e-03 4.83940030e-03 3.94771434e-03
      6.80250209e-03 5.09463698e-02 3.40125024e-01 3.40125024e-01
      1.81420401e-01 6.07826449e-02 1.49455285e-02 3.11467471e-03
      7.53409695e-05 2.71863211e-03 3.47628556e-02 3.40125024e-01
      3.40125024e-01 3.79137062e-02 7.43446965e-03 3.67701030e-03
      1.04502747e-02 0. 3.29607632e-03 7.42443278e-02 3.70340765e-01
      1.72170162e-01 8.30073468e-03 8.60265549e-03 1.54142166e-02
      1.26313521e-02 2.63295174e-02 6.42794520e-02 1.86470941e-01
      3.70340765e-01 3.70340765e-01 1.04376532e-01 1.75374709e-02
      2.02578995e-02 7.32590910e-03 0. 2.91131262e-04 4.47207969e-03
      3.70340765e-01 2.79743314e-01 4.15061507e-03 6.22357568e-03
      1.10532138e-02 1.34994434e-02 9.94387642e-03 1.46803679e-02
      4.59361486e-02 3.70340765e-01 3.70340765e-01 6.78969771e-02
      1.52609218e-02 2.01159064e-02 8.52519274e-03 2.32337546e-02
      5.52599877e-02 1.12595037e-01 3.44834983e-01 3.44834983e-01
      6.40774742e-02 8.69893190e-03 6.29026163e-03 6.79175276e-03
      8.69407970e-03 3.27386595e-02 7.14759231e-02 3.44834983e-01
      3.36019337e-01 4.62001748e-02 2.25943122e-02 4.96220170e-03
      4.44765855e-03 1.16169881e-02 1.75199732e-02 9.08056647e-02
      3.44834983e-01 3.44834983e-01 4.37810495e-02 3.28212953e-03
      3.23091308e-03 1.46917033e-03 4.85949172e-03 1.53488489e-02
      1.03050910e-01 3.44834983e-01 3.44834983e-01 1.41702155e-02
      1.82948809e-03 5.93774719e-04 5.65044396e-03 3.74607043e-03
      1.26083344e-02 3.31732631e-02 3.68015379e-01 2.82990187e-01
      4.26983573e-02 5.44033125e-02 6.59269281e-03 3.24458675e-03
      3.46553791e-03 5.87312877e-03 3.16221677e-02 3.68015379e-01
      3.68015379e-01 3.95970158e-02 3.37811522e-02 3.10493587e-03 0.
      6.52099770e-05 5.06617082e-03 6.30736053e-02 3.68015379e-01
      2.84457177e-01 8.54279753e-03 2.98929540e-03 2.81267712e-04
      9.22208885e-04 1.65035564e-03 2.33988580e-03 9.30536464e-02
      3.68015379e-01 3.68015379e-01 6.75940653e-03 1.96530763e-03
      9.07542184e-04 5.00852577e-02 2.92935316e-02 3.69281135e-02
      7.05273896e-02 3.61406475e-01 3.61406475e-01 2.45520566e-02
      3.02271303e-02 3.62686887e-02 6.10425659e-02 2.88135316e-02
      3.82429473e-02 1.14412837e-01 3.61406475e-01 2.09106848e-01
      1.07134447e-01 9.70494822e-02 6.74061179e-02 1.98611505e-02
      2.26591174e-02 1.38796102e-02 1.02977209e-01 3.61406475e-01
      3.61406475e-01 1.02664698e-02 1.30846668e-02 1.60962604e-02
      2.26436350e-02 2.22270619e-02 1.76489651e-02 2.19767913e-01
      3.61406475e-01 2.20805645e-01 2.11021341e-02 2.08803248e-02
      1.99238732e-02 4.94890241e-03 1.94232562e-03 3.06706643e-03
      1.13277167e-01 4.01331663e-01 2.22201288e-01 6.68896139e-02
      3.56606282e-02 1.30740795e-02 9.03642445e-04 0. 4.86167526e-04
      9.11857113e-02 4.01331663e-01 3.07874948e-01 1.36455335e-02
      3.14974645e-03 1.27493229e-03 1.58900034e-03 1.11581245e-03
      1.67257129e-03 1.85632244e-01 4.01331663e-01 2.37596378e-01
      5.02170995e-03 2.91996216e-03 1.66282488e-03 6.75078074e-04 0. 0.
      1.46004423e-01 4.01331663e-01 2.60747761e-01 2.60256813e-04
      2.81568937e-05 6.80912461e-04 9.16694663e-03 0. 5.17230656e-04
      3.86481583e-02 4.10377026e-01 2.18226522e-01 7.23353680e-03
      2.68279249e-03 9.28535964e-03 1.86264385e-02 1.47357956e-03
      1.40921725e-02 8.07537735e-02 4.10377026e-01 3.70654523e-01
      4.47232090e-02 7.72650680e-03 1.86142642e-02 8.58619343e-03
      2.72064609e-03 8.26054625e-03 1.01796687e-01 4.10377026e-01
      1.48590595e-01 1.15837725e-02 1.07791927e-02 8.58619343e-03
      1.92116592e-02 6.76892372e-03 2.91093811e-02 1.80302501e-01
      4.10377026e-01 2.39735723e-01 3.61082479e-02 1.49689643e-02
      1.92116592e-02 2.56865867e-03 3.79200629e-03 1.32460957e-02
      1.44182175e-01 3.76693219e-01 2.83219308e-01 1.67242512e-02
      1.07387616e-03 2.24635331e-03 1.58968818e-04 6.42039860e-03
      1.11280121e-02 2.03974217e-01 3.76693219e-01 2.16011092e-01
      5.02245547e-03 1.68161030e-04 0. 5.05384197e-03 6.62406115e-03
      2.02551484e-02 2.04204217e-01 3.76693219e-01 2.59576797e-01
      1.54477721e-02 5.23399096e-03 1.25554521e-02 5.54537214e-03
      1.75139308e-02 3.06423027e-02 2.81511605e-01 3.76693219e-01
      2.15403423e-01 2.89388355e-02 1.51565745e-02 2.70385221e-02 0.
      9.77622252e-03 9.49958526e-03 1.58701941e-01 3.82417679e-01
      1.79706201e-01 4.01452649e-03 5.73501457e-04 0. 5.35396393e-05
      7.44937081e-03 6.93095988e-03 1.85973704e-01 3.82417679e-01
      2.77226955e-01 2.30871141e-03 7.49483588e-04 4.33715235e-04
      4.67488635e-03 3.48637290e-02 3.69970053e-02 2.66429693e-01
      3.82417679e-01 1.34015828e-01 2.89484970e-02 2.43893452e-02
      2.65971962e-02 2.43277824e-03 2.47348770e-02 2.52943449e-02
      3.41231436e-01 3.82417679e-01 1.71545520e-01 2.82813739e-02
      1.54327163e-02 1.09165385e-02 5.24966652e-03 1.22512244e-02
      1.56010035e-02 1.46937773e-01 3.54852498e-01 3.36744964e-01
      5.37981885e-03 4.27083904e-03 3.24481819e-03 6.75118295e-03
      1.72710493e-02 4.79518957e-02 2.60279208e-01 3.54852498e-01
      1.41523704e-01 8.48051347e-03 7.32332794e-03 2.71344720e-03
      2.28037545e-03 9.90057271e-03 2.34967899e-02 2.10097536e-01
      3.54852498e-01 3.07266831e-01 9.34095830e-02 4.25744876e-02
      1.35556264e-02 9.98350605e-03 2.14873925e-02 8.94959420e-02
      2.92127222e-01 3.54852498e-01 1.14722431e-01 8.06018189e-02
      5.10185733e-02 2.56018434e-02 7.80235627e-04 5.11860661e-03
      2.03467887e-02 1.69773161e-01 3.81041855e-01 2.16215178e-01
      3.66101367e-03 3.75996344e-03 4.40413278e-05 7.89947982e-04
      9.66936233e-04 2.86369468e-03 1.50212213e-01 3.81041855e-01
      1.96783438e-01 7.87299126e-04 8.24408780e-04 7.43108511e-04
      6.24583242e-03 1.06247300e-02 6.64245263e-02 3.53649914e-01
      3.81041855e-01 8.18241388e-02 2.55078655e-02 1.80374496e-02
      1.24290204e-02 2.29152199e-03 2.02606409e-03 2.39325706e-02
      3.29821348e-01 3.81041855e-01 1.76608235e-01 6.51558954e-03
      3.86347855e-03 3.47800436e-03 1.00199720e-02 6.14036247e-03
      1.89889148e-02 3.06195896e-02 3.41421336e-01 2.38781214e-01
      1.44772455e-02 1.92975439e-02 1.03554046e-02 1.29515082e-02
      1.19985146e-02 3.75568569e-02 1.10544600e-01 3.41421336e-01
      3.14884514e-01 3.71659659e-02 2.24839300e-02 1.33827794e-02
      1.24745341e-02 6.13913732e-03 2.81943567e-02 1.52708478e-02
      3.41421336e-01 3.41421336e-01 5.08668311e-02 1.55329313e-02
      1.39280763e-02 6.82715466e-03 1.12321740e-02 7.85436556e-02
      3.28920811e-01 3.41421336e-01 3.41421336e-01 6.00603893e-02
      2.04321742e-02 8.69599450e-03 7.78868934e-03 8.99845734e-03
      2.81006135e-02 2.17076033e-01 3.12380075e-01 3.12380075e-01
      2.30841972e-02 1.18793482e-02 1.89685877e-02 2.55305525e-02
      2.89541371e-02 5.29524907e-02 2.88668305e-01 3.12380075e-01
      2.09534362e-01 4.22033109e-02 3.54953520e-02 6.35223091e-02
      7.44631933e-03 1.03151407e-02 6.36098236e-02 3.12380075e-01
      3.12380075e-01 2.82701492e-01 2.91361753e-02 2.05131955e-02
      1.21366456e-02 5.97700365e-02 1.20086335e-01 8.23000744e-02
      3.11566472e-01 3.12380075e-01 1.07243590e-01 3.34007181e-02
      3.61413546e-02 4.88968045e-02 1.00202739e-01 9.88181457e-02
      7.76375011e-02 2.81532824e-01 2.81532824e-01 1.07025832e-01
      5.64776026e-02 7.46602416e-02 1.43698931e-01 7.65421391e-02
      1.01791523e-01 9.18628275e-02 2.81532824e-01 2.81532824e-01
      1.64597914e-01 6.25537112e-02 4.15627733e-02 6.22005872e-02
      2.81532824e-01 2.81532824e-01 1.30125374e-01 1.18517809e-01
      1.34843975e-01 1.98208988e-02 2.79940031e-02 4.17876057e-02
      1.21735029e-01 2.41571426e-01 2.81532824e-01 2.37522125e-01
      2.81532824e-01 2.17957005e-01 3.98265570e-02 2.73808688e-02
      2.67310608e-02 5.39045930e-02 7.35447090e-03 2.96438672e-02
      4.39272635e-02 2.50646472e-01 2.82734126e-01 2.82734126e-01
      1.60281256e-01 6.19802848e-02 1.18790437e-02 2.03791317e-02
      2.37379093e-02 1.28319994e-01 2.82734126e-01 2.82734126e-01
      1.55867949e-01 1.53621778e-01 7.93514550e-02 4.91290502e-02
      3.72512192e-02 1.93321139e-01 2.49186113e-01 2.21464649e-01
      1.88579172e-01 1.33207232e-01 7.31995851e-02 3.73626538e-02
      1.42494701e-02 2.24269498e-02 1.77701175e-01 2.82734126e-01
      2.82734126e-01 2.82734126e-01 1.32472321e-01 7.31400549e-02
      4.30832393e-02 3.45883705e-02 1.33490227e-02 9.06430837e-03
      1.43910587e-01 3.27278823e-01 3.27278823e-01 5.16797677e-02
      4.37365547e-02 2.82441396e-02 2.91846357e-02 3.05463257e-03
      1.13530725e-03 5.89571372e-02 3.27278823e-01 3.27278823e-01
      1.29898950e-01 1.35323303e-02 5.09959692e-03 5.90335950e-03
      8.01248942e-03 3.47965918e-02 2.69399464e-01 3.27278823e-01
      3.27278823e-01 8.38118792e-02 2.11881250e-02 1.41261891e-02
      1.34064807e-02 2.77393498e-03 4.30276245e-03 5.84912300e-02
      3.27278823e-01 3.27278823e-01 8.21409002e-02 1.06864814e-02
      2.84842867e-03 3.10823089e-03</_>
    <_>
      4.88641560e-02 5.38581088e-02 9.21820700e-02 3.18890184e-01
      3.18890184e-01 1.31149337e-01 2.78586671e-02 1.65062435e-02
      4.91527133e-02 5.30787073e-02 4.99856472e-02 5.44706360e-02
      1.75698474e-01 2.31988534e-01 3.18890184e-01 2.27515176e-01
      6.26363531e-02 9.73737761e-02 1.03214113e-02 3.63064813e-03
      7.68365115e-02 3.18890184e-01 3.18890184e-01 7.29661211e-02
      2.93278247e-02 8.43123905e-03 1.37126874e-02 8.75920616e-03
      5.40768355e-03 4.47217748e-02 2.70544529e-01 3.18890184e-01
      3.18890184e-01 6.61240220e-02 4.64987429e-03 1.50144016e-02
      8.87139887e-03 4.90070181e-03 1.12908231e-02 7.06617534e-02
      3.38641018e-01 3.38641018e-01 1.78444415e-01 2.78668981e-02
      2.68451590e-02 1.38201332e-02 2.50722701e-03 2.69713216e-02
      1.10320002e-01 3.38641018e-01 2.80412257e-01 1.11772783e-01
      2.83531994e-02 1.71706937e-02 5.77743025e-03 9.09372326e-03
      1.77334286e-02 1.21464424e-01 3.38641018e-01 3.38641018e-01
      5.58525957e-02 2.43709004e-03 6.43001962e-03 2.92451400e-02
      3.02719511e-02 4.24510241e-02 1.28535390e-01 3.38641018e-01
      3.38641018e-01 9.23685804e-02 4.52812277e-02 3.10321879e-02
      7.01171383e-02 2.47054677e-02 2.31149774e-02 6.83499724e-02
      1.59149244e-01 2.94529021e-01 2.94529021e-01 8.63325372e-02
      4.85231206e-02 9.09259245e-02 8.28608871e-02 9.35480818e-02
      1.68915987e-01 1.78725973e-01 2.68648356e-01 1.91384003e-01
      5.30347489e-02 3.32530737e-02 4.64954302e-02 3.43064666e-02
      4.92490530e-02 1.04939632e-01 1.21522650e-01 2.94529021e-01
      2.94529021e-01 2.28716165e-01 6.38440698e-02 2.88401116e-02
      4.16851938e-02 6.40811548e-02 1.19562708e-01 2.94529021e-01
      2.94529021e-01 2.94529021e-01 1.93228304e-01 2.52632983e-02
      2.50529796e-02 4.32708859e-02 8.93503577e-02 1.45770282e-01
      1.63380593e-01 1.32721677e-01 1.03650272e-01 5.66227734e-02
      2.83370893e-02 5.28690917e-03 9.90798324e-03 2.85603423e-02
      1.28472462e-01 3.33308190e-01 3.33308190e-01 3.33308190e-01
      6.08223863e-02 2.40989979e-02 1.63451172e-02 2.75146384e-02
      5.12458496e-02 1.10763252e-01 3.33308190e-01 2.48198017e-01
      1.57580599e-01 4.37345169e-02 1.84612535e-02 6.79745432e-03
      7.76082417e-03 3.54043096e-02 1.96442708e-01 3.33308190e-01
      3.33308190e-01 2.66841531e-01 3.93193252e-02 1.66395120e-02
      1.02648255e-03 0. 2.31085205e-03 8.39279741e-02 3.44089001e-01
      3.44089001e-01 1.38594925e-01 9.87595413e-03 2.55888235e-03
      1.11871297e-02 1.32946798e-03 9.12889547e-04 3.27499285e-02
      2.99566537e-01 3.44089001e-01 4.98663187e-02 9.08865333e-02
      3.14780921e-02 3.70074667e-05 0. 1.00877276e-02 1.32854775e-01
      3.44089001e-01 3.44089001e-01 1.27016470e-01 5.10261115e-03
      1.13323098e-03 1.37253162e-02 6.51218696e-03 4.37212316e-03
      5.22402823e-02 3.44089001e-01 3.44089001e-01 2.74035297e-02
      2.35772450e-02 2.32748222e-02 1.57755446e-02 2.10836320e-03
      7.61248395e-02 3.40240449e-01 3.40240449e-01 2.52294168e-02
      1.88494660e-02 7.12171337e-03 1.38979601e-02 1.09582702e-02
      4.63839946e-03 9.62144285e-02 3.40240449e-01 3.40240449e-01
      1.69537619e-01 2.01254357e-02 5.86560695e-03 3.99014726e-03
      1.58308204e-02 2.80302274e-03 2.61342730e-02 2.55793840e-01
      3.40240449e-01 5.19720092e-02 5.57516282e-03 2.16331356e-03
      1.56303477e-02 5.57745248e-03 2.87210452e-03 1.15321912e-01
      3.27668905e-01 3.40240449e-01 2.37114206e-01 9.90508646e-02
      4.53147665e-03 4.97829076e-03 4.23785299e-03 1.55699411e-02
      5.90282679e-02 2.27176219e-01 3.24567437e-01 2.82508403e-01
      6.57665916e-03 1.07014796e-03 1.13224890e-03 2.46106051e-02
      4.16133367e-02 4.13238257e-02 1.33486971e-01 3.24567437e-01
      2.75761724e-01 3.31940874e-02 4.33631763e-02 1.86635926e-02
      1.98074407e-03 7.47273071e-03 1.17726594e-01 3.03561807e-01
      3.24567437e-01 2.83524066e-01 6.42942563e-02 3.98455001e-03
      1.16167031e-03 1.28443744e-02 2.14108825e-02 5.95177747e-02
      1.87478542e-01 3.24567437e-01 3.24567437e-01 3.77514698e-02
      4.53053378e-02 1.37761692e-02 3.19054909e-02 2.12717596e-02
      3.60728987e-02 6.76612332e-02 1.53266221e-01 1.69376940e-01
      1.88507020e-01 2.22614750e-01 4.79997918e-02 6.16128603e-03
      2.55448883e-03 6.71852473e-03 2.62687020e-02 2.51298606e-01
      3.06218803e-01 3.06218803e-01 1.97334275e-01 2.56482307e-02
      2.19658036e-02 1.92377977e-02 3.24212387e-02 9.80752781e-02
      3.06218803e-01 3.06218803e-01 1.56936556e-01 1.90741092e-01
      4.27603424e-02 6.35397155e-03 7.48043461e-03 8.52627214e-03
      3.75247076e-02 3.06218803e-01 3.06218803e-01 2.87273258e-01
      1.57617390e-01 2.36149821e-02 1.04146881e-03 3.93904792e-03
      1.34565150e-02 7.29586259e-02 3.04533988e-01 3.04533988e-01
      1.35503188e-01 2.62018070e-02 2.83175660e-03 8.45297298e-04
      6.56456687e-03 3.15031819e-02 3.04533988e-01 3.04533988e-01
      3.04533988e-01 1.14153862e-01 8.40438157e-03 4.92804276e-04
      1.24092186e-02 4.49795723e-02 4.55065705e-02 8.03780407e-02
      3.04533988e-01 3.04533988e-01 1.18688762e-01 1.86243691e-02
      2.63596000e-03 2.79311966e-02 8.04360285e-02 9.30351838e-02
      2.63508707e-01 3.04533988e-01 2.58723706e-01 1.95340261e-01
      2.68043336e-02 2.94310250e-03 1.04308374e-05 8.92791839e-04
      7.02663697e-03 1.82252362e-01 3.35238218e-01 3.35238218e-01
      8.36809427e-02 8.68955161e-03 4.39976466e-05 6.98460545e-03
      3.91894579e-03 2.29127216e-03 3.81068923e-02 3.35238218e-01
      3.35238218e-01 3.17805298e-02 4.73612733e-03 5.55083109e-03
      4.33922745e-03 1.12084122e-02 1.55143514e-02 1.26113951e-01
      3.35238218e-01 3.35238218e-01 1.84026271e-01 2.97770016e-02
      4.00268240e-04 1.79627095e-03 4.82475618e-04 5.90199837e-04
      1.87576544e-02 3.35238218e-01 3.35238218e-01 5.59100248e-02
      1.08693158e-02 1.48383994e-03 1.00101633e-02 1.04291923e-02
      1.47495279e-02 5.67003526e-02 3.74897003e-01 1.33198053e-01
      1.04209529e-02 1.20835491e-02 1.11447917e-02 9.70118400e-03
      1.09379776e-02 5.98012060e-02 1.40540764e-01 3.74897003e-01
      3.74897003e-01 1.33495033e-01 2.13566367e-02 1.43117597e-02
      1.38788465e-02 1.50843365e-02 2.72725280e-02 7.21084252e-02
      3.74897003e-01 2.26677015e-01 2.17962712e-02 1.77532304e-02
      1.43531347e-02 2.24439725e-02 2.73723397e-02 6.36932477e-02
      1.13794707e-01 3.74897003e-01 3.74897003e-01 1.03621244e-01
      3.23630162e-02 1.99069511e-02 1.89276773e-03 5.27308206e-04
      4.71438915e-02 1.45233288e-01 3.64094198e-01 2.69061267e-01
      6.34422526e-02 5.35695627e-03 2.60576303e-03 4.57707047e-03
      1.20089389e-03 2.81439610e-02 1.32342517e-01 3.64094198e-01
      2.62168407e-01 2.76469737e-02 1.78712476e-02 6.42214157e-03
      3.30649968e-03 3.77730164e-03 1.83899831e-02 1.65506065e-01
      3.64094198e-01 3.49354446e-01 3.64726894e-02 3.88834695e-03
      2.19923537e-03 1.89781806e-03 0. 2.00621653e-02 2.45363951e-01
      3.64094198e-01 2.57335752e-01 1.22529799e-02 2.07473640e-03
      2.07640603e-03 3.75959557e-03 3.51537787e-03 6.93085091e-03
      6.36098236e-02 3.98024023e-01 2.24435389e-01 3.86910923e-02
      3.20014730e-02 1.19070476e-02 1.47591007e-03 2.54818262e-03
      2.80019129e-03 2.13445537e-02 3.98024023e-01 3.89935821e-01
      6.05632849e-02 2.32124459e-02 7.29795964e-03 1.16344937e-03 0.
      6.60440885e-03 1.27734825e-01 3.98024023e-01 2.01430097e-01
      1.26581977e-03 1.42750959e-03 2.04266817e-03 4.50348598e-04
      3.66951805e-04 1.42650690e-03 1.27024978e-01 3.98024023e-01
      2.74423689e-01 1.92000368e-03 4.99137095e-04 1.13095832e-03
      2.30140053e-02 3.56844664e-02 3.09464857e-02 4.26744856e-02
      3.99991751e-01 3.99991751e-01 5.34240790e-02 1.59748290e-02
      1.00913020e-02 5.25507592e-02 6.24426641e-02 5.60728200e-02
      6.98186830e-02 2.56766409e-01 1.92525715e-01 1.66788831e-01
      3.49240638e-02 1.66496485e-02 1.58500206e-02 1.83397774e-02
      2.32738871e-02 1.42755017e-01 3.99991751e-01 3.56740028e-01
      1.96450893e-02 1.20758079e-02 1.08388150e-02 3.04989107e-02
      2.87135858e-02 3.78133990e-02 1.42293423e-01 3.99991751e-01
      1.55029193e-01 5.76805808e-02 2.69260481e-02 1.75637677e-02
      8.09204206e-03 8.45105108e-03 8.84457491e-03 5.06407693e-02
      3.83992285e-01 2.93817788e-01 1.23206206e-01 1.61298625e-02
      2.13404908e-03 6.96789182e-04 0. 5.20996982e-05 4.03854772e-02
      3.83992285e-01 3.64608496e-01 2.96136737e-02 3.88156087e-03
      6.96789182e-04 4.25063865e-03 3.35263018e-03 1.17880600e-02
      2.05389142e-01 3.83992285e-01 1.79769069e-01 2.51019690e-02
      5.31396130e-03 2.17922358e-03 9.92275309e-04 0. 2.14216975e-03
      1.81425333e-01 3.83992285e-01 2.40999952e-01 3.39100952e-03
      8.84707479e-05 9.92275309e-04 8.88854172e-03 5.76811051e-03
      1.43748950e-02 1.34974241e-01 4.32403237e-01 9.34791788e-02
      1.01634245e-02 6.24893652e-03 8.79195333e-03 1.37488265e-02
      1.64311696e-02 3.45435888e-02 2.06622571e-01 4.32403237e-01
      1.88383549e-01 2.94327624e-02 1.52752446e-02 1.23000005e-02
      1.10664079e-02 6.68901717e-03 1.81164835e-02 7.84199387e-02
      4.32403237e-01 1.97238863e-01 2.25888304e-02 1.12270769e-02
      1.10462038e-02 1.21407863e-02 1.98816527e-02 3.36030014e-02
      2.14810848e-01 4.32403237e-01 2.08002701e-01 3.55249792e-02
      2.05337983e-02 1.18377311e-02 1.93261483e-03 2.87078065e-03
      1.71059258e-02 2.42348954e-01 3.46279770e-01 1.82709098e-01
      7.92031363e-03 3.13541479e-03 1.55041576e-03 4.19252523e-04 0.
      3.30441631e-02 3.46279770e-01 3.46279770e-01 1.68816969e-01
      7.25257723e-03 3.75983445e-03 4.89893020e-04 2.49882671e-03
      4.35315864e-03 4.02788483e-02 2.66263396e-01 3.46279770e-01
      1.97491094e-01 2.25307159e-02 1.26666445e-02 2.10367446e-03
      9.16948263e-03 2.18898337e-03 1.13010474e-01 3.46279770e-01
      3.46279770e-01 1.66041836e-01 3.68576199e-02 2.87772045e-02
      9.64160729e-03 2.34281342e-03 0. 2.06755009e-02 2.81133056e-01
      3.56546998e-01 9.64775309e-02 6.61634281e-03 3.58476280e-03
      2.73755752e-03 1.82218838e-03 4.53016168e-04 1.16833048e-02
      3.06990713e-01 3.56546998e-01 1.25378057e-01 4.03333735e-03
      1.46578765e-03 2.12921156e-03 4.14974876e-02 7.83737749e-03
      8.16476643e-02 3.46253753e-01 3.56546998e-01 7.89141580e-02
      2.56759524e-02 2.29405835e-02 3.78133617e-02 3.04472037e-02
      9.43192188e-03 4.95157465e-02 3.56546998e-01 3.56546998e-01
      1.42153576e-01 1.93277933e-02 9.29514226e-03 2.28574891e-02
      8.81534070e-03 1.29588805e-02 1.96844190e-02 2.23718420e-01
      3.52411717e-01 1.88737348e-01 5.65314246e-03 1.11546961e-03
      3.32485605e-03 1.24386838e-02 1.85400229e-02 3.52878049e-02
      1.96987107e-01 3.52411717e-01 9.51596126e-02 5.57128759e-03
      2.99305725e-03 5.17069735e-03 6.72645681e-03 4.82370192e-03
      2.03886963e-02 2.83495456e-01 3.52411717e-01 3.49625856e-01
      6.63501844e-02 2.21967418e-02 9.09117237e-03 1.72624849e-02
      1.33619476e-02 4.18516472e-02 3.52411717e-01 3.52411717e-01
      1.59075439e-01 5.35748266e-02 2.48132851e-02 2.00330149e-02
      1.58882386e-03 2.09215470e-03 1.54581582e-02 2.19513416e-01
      3.73218149e-01 1.17165804e-01 4.05482075e-04 6.24033739e-04
      6.24996726e-04 6.17823040e-04 1.87852002e-05 2.69302982e-03
      2.46684358e-01 3.73218149e-01 1.46921203e-01 9.26249959e-06 0.
      5.43561066e-04 9.21731628e-03 1.14591932e-02 3.11132427e-02
      3.73218149e-01 3.73218149e-01 7.54536241e-02 6.91989809e-03
      3.59961973e-03 9.12707578e-03 1.96134602e-03 2.99690105e-03
      1.06876967e-02 3.73218149e-01 3.73218149e-01 9.35819075e-02
      1.45422400e-03 5.23221388e-04 2.02955818e-03 9.92948562e-03
      4.22452390e-03 1.20730894e-02 6.73403870e-03 3.39638799e-01
      2.91388631e-01 2.47554965e-02 4.56516817e-03 1.01668928e-02
      6.34665834e-03 1.38033964e-02 3.78815830e-02 1.72323212e-01
      3.39638799e-01 2.39158407e-01 3.92983556e-02 1.65000465e-02
      9.90776997e-03 1.22875245e-02 4.67999326e-03 1.28487134e-02
      1.15494570e-02 3.39638799e-01 3.39638799e-01 1.96984500e-01
      5.38394228e-03 1.24419788e-02 1.64700933e-02 2.37572044e-02
      1.41423896e-01 3.39638799e-01 3.39638799e-01 2.48779386e-01
      7.17501044e-02 1.91890225e-02 1.87869258e-02 4.09453316e-03
      9.18696169e-03 6.58416599e-02 3.18238437e-01 3.18238437e-01
      3.06597859e-01 4.23052125e-02 2.23676413e-02 4.53551067e-03
      3.90567668e-02 3.43789756e-02 1.38718933e-01 3.18238437e-01
      3.18238437e-01 1.73783109e-01 4.65834662e-02 4.37441580e-02
      3.20980474e-02 1.53668346e-02 2.98413653e-02 1.27503544e-01
      3.18238437e-01 3.18238437e-01 1.42974243e-01 2.38272250e-02
      1.30291730e-02 1.04159396e-02 9.75642949e-02 1.49416983e-01
      1.06247544e-01 3.18238437e-01 1.94820791e-01 8.85915756e-02
      1.54968547e-02 1.49501190e-02 4.24841121e-02 2.14389309e-01
      1.16650291e-01 1.46706432e-01 2.64040500e-01 2.64040500e-01
      9.68327448e-02 3.91179025e-02 4.62341309e-02 1.70280963e-01
      1.78599283e-01 1.06693678e-01 1.49110034e-01 2.64040500e-01
      2.64040500e-01 1.73892632e-01 4.24166396e-02 1.67147201e-02
      1.17256157e-01 2.64040500e-01 2.64040500e-01 1.58933923e-01
      1.37354121e-01 8.53269398e-02 3.42408903e-02 1.39854681e-02
      1.58980750e-02 1.55347794e-01 2.64040500e-01 2.35427976e-01
      1.94840863e-01 2.64040500e-01 1.20702699e-01 4.35035266e-02
      2.41621919e-02 9.29545891e-03 1.31249487e-01 2.40924116e-02
      2.17570998e-02 6.13402538e-02 2.77397245e-01 2.77397245e-01
      2.77397245e-01 1.34650737e-01 3.50661203e-02 1.66092236e-02
      2.81803161e-02 3.30728181e-02 1.13936432e-01 2.77397245e-01
      2.67040372e-01 2.52686590e-01 1.19518369e-01 4.92242500e-02
      5.70325144e-02 9.21326354e-02 1.23622194e-01 1.75621480e-01
      2.77397245e-01 1.77985281e-01 1.72532991e-01 6.42860234e-02
      1.68668143e-02 2.67786495e-02 4.90741432e-02 1.85192704e-01
      2.77397245e-01 2.77397245e-01 2.48899758e-01 1.94694355e-01
      6.33440018e-02 2.89179720e-02 3.91775891e-02 1.34943398e-02
      2.27935426e-02 1.16213895e-01 3.24792832e-01 3.24792832e-01
      6.05356283e-02 2.28349231e-02 1.00250775e-02 3.33697610e-02
      1.91570888e-03 3.77113069e-03 4.78009023e-02 3.24792832e-01
      3.24792832e-01 8.90000239e-02 1.10792620e-02 1.60870038e-03
      6.74964115e-03 1.23260049e-02 4.50408123e-02 3.24792832e-01
      3.24792832e-01 3.08756322e-01 8.19889680e-02 1.60617754e-02
      6.99559739e-03 2.28534359e-02 2.52276543e-03 1.66402198e-03
      1.02128930e-01 3.24792832e-01 3.24792832e-01 8.45020115e-02
      1.25040002e-02 9.64024046e-04 5.45130996e-03</_>
    <_>
      1.17775843e-01 1.17141128e-01 1.22116268e-01 3.14558417e-01
      3.14558417e-01 7.74848834e-02 5.06740287e-02 5.92857376e-02
      5.76762110e-02 1.02071844e-01 5.49814031e-02 4.34778035e-02
      9.12617519e-02 1.64930895e-01 3.14558417e-01 3.11772555e-01
      1.53299034e-01 8.20073485e-02 2.58983243e-02 1.98348109e-02
      6.01390339e-02 3.14558417e-01 3.14558417e-01 8.76055658e-02
      2.69195121e-02 1.68097578e-02 1.08298790e-02 2.67462842e-02
      1.93339530e-02 3.00418064e-02 1.56298801e-01 3.14558417e-01
      3.14558417e-01 1.63236558e-01 3.70006040e-02 1.01102432e-02
      9.01726168e-03 1.13789819e-03 1.19223287e-02 1.07160665e-01
      3.30444276e-01 3.30444276e-01 1.83052421e-01 5.08929975e-02
      1.58436913e-02 1.16876895e-02 1.05873719e-02 3.26055065e-02
      1.37908667e-01 2.85020649e-01 2.44692415e-01 1.21702760e-01
      2.01616138e-02 8.40693060e-03 5.75480564e-03 1.79931079e-03
      1.88614633e-02 1.15557224e-01 3.30444276e-01 3.30444276e-01
      1.05899297e-01 9.97080840e-03 3.23725794e-03 2.33059861e-02
      1.02905948e-02 5.85511327e-02 2.48321354e-01 3.30444276e-01
      3.30444276e-01 1.50719091e-01 5.09950854e-02 2.49428377e-02
      3.30990888e-02 5.33925295e-02 4.42906208e-02 6.71131909e-02
      2.04156145e-01 2.85937488e-01 3.03439200e-01 5.19338101e-02
      2.49992255e-02 4.68832888e-02 7.03361332e-02 1.26926094e-01
      1.84272274e-01 2.27138594e-01 2.33802721e-01 1.65004417e-01
      4.21803817e-02 2.91697085e-02 3.71294506e-02 2.35370360e-02
      4.54280078e-02 1.69955641e-01 1.12551190e-01 2.50294894e-01
      3.03439200e-01 2.30566278e-01 5.14320992e-02 1.56576838e-02
      2.46084351e-02 7.18815476e-02 1.38872907e-01 2.83286363e-01
      3.03439200e-01 3.03439200e-01 1.68430865e-01 1.55707709e-02
      2.27957461e-02 2.93480475e-02 6.69052005e-02 1.25095069e-01
      1.18197791e-01 2.13329479e-01 1.37253284e-01 4.22358662e-02
      2.00206917e-02 7.21700909e-03 8.96479003e-03 7.47698639e-03
      5.63843586e-02 3.39891374e-01 3.39891374e-01 3.22782576e-01
      3.78731787e-02 1.14998613e-02 7.82000273e-03 1.75150968e-02
      4.05911319e-02 1.08688876e-01 2.41446257e-01 3.39891374e-01
      1.57901168e-01 3.00430097e-02 1.06830858e-02 3.02952342e-03
      7.39820441e-03 6.37990236e-03 1.62631184e-01 3.39891374e-01
      3.39891374e-01 2.87706971e-01 1.95583161e-02 7.43394298e-03
      9.58745077e-04 6.54894917e-04 1.40873063e-03 2.73614861e-02
      3.47325116e-01 3.47325116e-01 1.22981630e-01 7.52587104e-03
      9.58745077e-04 1.58274416e-02 3.02827079e-03 4.02307231e-03
      2.15172358e-02 2.80956745e-01 3.45516533e-01 9.15029570e-02
      8.28799978e-02 2.74482705e-02 1.36451228e-04 0. 1.10587198e-03
      1.15459256e-01 3.47325116e-01 3.47325116e-01 1.53338179e-01
      1.37578556e-03 1.36451228e-04 1.42018078e-02 5.89779811e-03
      1.54009962e-03 5.34782335e-02 3.47325116e-01 3.47325116e-01
      2.81284023e-02 1.95354279e-02 2.48344913e-02 1.58047210e-02
      4.56772139e-03 3.78908813e-02 3.30890775e-01 3.30890775e-01
      4.58264984e-02 4.33261413e-03 1.58514525e-03 1.53610343e-02
      7.78066134e-03 8.65486544e-03 3.09783127e-02 2.42050901e-01
      3.30890775e-01 3.30890775e-01 2.15752404e-02 2.36095535e-03
      7.21604703e-03 1.99687835e-02 8.69612582e-03 3.04777045e-02
      3.30890775e-01 3.30890775e-01 6.33877367e-02 1.05557097e-02
      7.19026430e-03 1.81293543e-02 4.02647676e-03 1.15798078e-02
      7.00467378e-02 3.30890775e-01 3.30890775e-01 2.12175801e-01
      1.92512590e-02 1.21367034e-02 2.69068917e-03 2.84503633e-03
      1.53718039e-03 1.83665734e-02 1.55956715e-01 3.17702532e-01
      3.17702532e-01 1.50604984e-02 3.28752794e-03 2.47513154e-03
      1.37245459e-02 1.61375534e-02 3.21565680e-02 1.57585815e-01
      3.17702532e-01 3.06208372e-01 4.97610010e-02 3.83792706e-02
      2.09365040e-02 3.14962259e-03 2.15646997e-03 5.71329594e-02
      3.17702532e-01 3.17702532e-01 3.17702532e-01 1.15885800e-02
      7.13044358e-03 1.68577000e-03 1.36106592e-02 1.49876671e-02
      3.72964144e-02 1.79578990e-01 3.17702532e-01 3.17702532e-01
      2.52728239e-02 3.86502706e-02 1.77862458e-02 2.10561417e-02
      2.78326962e-02 2.81645451e-02 9.21163484e-02 1.07892133e-01
      1.23015836e-01 2.93536276e-01 1.71442375e-01 4.72743101e-02
      5.14646061e-03 5.54951373e-03 4.33709100e-03 3.21201868e-02
      2.29449421e-01 3.06031734e-01 3.06031734e-01 1.37428328e-01
      1.69376712e-02 2.31734421e-02 3.47943641e-02 4.30458896e-02
      1.02250405e-01 3.06031734e-01 3.06031734e-01 2.11336732e-01
      1.63276300e-01 6.08996786e-02 9.60703287e-03 1.21057751e-02
      1.56939402e-02 5.11070229e-02 3.06031734e-01 3.06031734e-01
      3.06031734e-01 1.41261041e-01 3.50130983e-02 1.44412660e-03
      3.35362717e-03 1.14750201e-02 6.59899116e-02 3.06191146e-01
      3.06191146e-01 1.42814294e-01 1.34712420e-02 8.97734542e-04
      1.39647920e-03 4.76840278e-03 2.09857486e-02 2.98943728e-01
      3.06191146e-01 3.06191146e-01 8.95771235e-02 2.13655550e-03
      8.74817197e-04 1.17857419e-02 1.57959256e-02 6.58881888e-02
      9.50345844e-02 3.06191146e-01 3.06191146e-01 1.29339740e-01
      1.26348315e-02 1.95156829e-03 1.64696053e-02 3.38467173e-02
      1.02825135e-01 2.64903128e-01 3.06191146e-01 3.06191146e-01
      1.04053035e-01 1.77463796e-02 4.22010245e-03 6.24340755e-05
      4.96424036e-04 4.04955260e-03 1.77191958e-01 3.40769410e-01
      3.40769410e-01 6.96548149e-02 1.83819060e-03 4.03431477e-05
      6.24703383e-03 1.84912293e-03 1.00096152e-03 3.98654006e-02
      3.40769410e-01 3.40769410e-01 2.09802743e-02 1.58951012e-03
      5.49654476e-03 1.70910510e-03 5.25734341e-03 1.23385629e-02
      1.10931449e-01 3.40769410e-01 3.40769410e-01 1.16171673e-01
      2.60282569e-02 6.21968822e-04 2.11902894e-03 2.17627487e-04
      7.37598515e-04 3.31283808e-02 3.40769410e-01 3.40769410e-01
      3.65653187e-02 1.12593481e-02 1.29794108e-03 1.29607255e-02
      1.32510019e-02 2.15540901e-02 1.20563366e-01 3.68575454e-01
      1.22441262e-01 3.51096205e-02 1.95552949e-02 7.37167010e-03
      5.84497442e-03 1.21284500e-02 5.10270149e-02 2.34187067e-01
      3.68575454e-01 3.68575454e-01 8.87024552e-02 4.51592654e-02
      1.15058909e-03 5.84698701e-03 5.67453448e-03 9.56532639e-03
      4.21554781e-02 3.68575454e-01 1.96861625e-01 6.48630559e-02
      2.30059270e-02 3.38554359e-03 6.84931502e-03 5.83094312e-03
      1.95617545e-02 7.08010420e-02 3.68575454e-01 3.68575454e-01
      1.67764783e-01 5.11528812e-02 3.53242573e-03 3.94412875e-03
      2.54409341e-03 4.01855148e-02 1.88426346e-01 3.46608877e-01
      2.74369121e-01 2.78154947e-02 8.71618558e-03 1.43521698e-03
      8.56850576e-03 5.11670811e-03 2.73602437e-02 1.13642454e-01
      3.46608877e-01 3.40977579e-01 1.77438483e-02 1.65139865e-02
      6.17345516e-03 5.66358212e-03 2.89838854e-03 1.90314893e-02
      1.00592256e-01 3.46608877e-01 3.46608877e-01 7.67881870e-02
      9.84743517e-03 1.79076008e-03 6.79355767e-03 2.86224228e-03
      1.51498588e-02 1.18168212e-01 3.46608877e-01 3.46608877e-01
      3.14978100e-02 4.85042250e-03 1.89680164e-03 4.91278898e-03
      6.94843708e-03 1.45275658e-02 3.73918824e-02 3.76378745e-01
      2.51651973e-01 5.99737614e-02 2.95551252e-02 1.66148338e-02
      1.72242627e-03 3.11531383e-03 7.39015173e-03 2.64221895e-02
      3.76378745e-01 3.76378745e-01 1.02926798e-01 2.32567322e-02
      1.15548596e-02 1.26442302e-03 5.49911289e-04 3.03466641e-03
      4.19904068e-02 3.76378745e-01 2.67436117e-01 6.75289566e-03
      1.36210793e-03 1.69644388e-03 0. 2.28221877e-04 1.07320049e-03
      4.19608988e-02 3.76378745e-01 3.61829817e-01 1.06551964e-02
      5.38771681e-04 1.12463150e-03 1.11487284e-02 1.58927497e-02
      5.23439832e-02 6.31758124e-02 3.88255745e-01 3.88255745e-01
      5.66169992e-02 1.14811109e-02 4.12818836e-03 2.02732980e-02
      4.03347425e-02 7.58302957e-02 8.30915347e-02 2.65675485e-01
      2.55526245e-01 1.20115384e-01 3.07045430e-02 9.08201467e-03
      8.20795633e-03 1.41867865e-02 1.77452806e-02 6.64325207e-02
      3.88255745e-01 3.88255745e-01 2.50177421e-02 1.37936445e-02
      3.84025765e-03 1.55421626e-02 2.74141766e-02 3.36822979e-02
      1.17749371e-01 3.88255745e-01 1.96170956e-01 7.02587739e-02
      2.47768126e-02 8.38975515e-03 2.74544815e-03 7.27442559e-03
      8.35205987e-03 6.95955530e-02 3.62440735e-01 3.06375653e-01
      1.03667632e-01 2.52649989e-02 1.35075767e-03 5.82778477e-04
      3.91021313e-05 1.30748725e-04 8.75716209e-02 3.62440735e-01
      3.62440735e-01 2.77987439e-02 9.42334067e-03 5.82778477e-04
      2.14076741e-03 4.26024804e-03 6.17300440e-03 1.58406749e-01
      3.62440735e-01 2.42391542e-01 4.01250459e-02 5.65563515e-03
      1.24295871e-03 2.64135801e-04 0. 3.58471909e-04 1.54783279e-01
      3.62440735e-01 3.33499968e-01 8.54837149e-03 7.08441483e-04
      2.64135801e-04 3.56834824e-03 0. 1.24153160e-02 4.84004281e-02
      4.04420674e-01 2.20187739e-01 4.15481776e-02 9.14566312e-03
      3.56834824e-03 4.61134128e-03 1.98155438e-04 9.65635665e-03
      5.65663688e-02 4.04420674e-01 4.04420674e-01 8.26059952e-02
      1.80987623e-02 4.21818020e-03 3.52962269e-03 3.54210410e-04
      1.35238338e-02 9.93721187e-02 4.04420674e-01 1.98735476e-01
      1.12964129e-02 7.24071288e-04 3.52962269e-03 7.20646419e-03
      4.55413392e-04 1.10569131e-02 1.30417168e-01 4.04420674e-01
      2.18036577e-01 1.99503452e-02 1.29402557e-03 7.20646419e-03
      1.50211633e-03 3.63316038e-04 1.00951851e-03 1.03559434e-01
      3.99631649e-01 2.89383978e-01 3.24416459e-02 4.01007384e-03
      7.81258859e-04 6.84728264e-04 2.82579160e-04 4.37458046e-03
      2.10541829e-01 3.99631649e-01 2.13759273e-01 1.56989377e-02
      3.52246757e-03 1.24061378e-04 2.42941245e-03 5.64606453e-04
      3.38496384e-03 1.59037143e-01 3.99631649e-01 1.73538551e-01
      6.28897408e-03 2.58008600e-03 2.35748640e-03 3.66016314e-03
      2.33736448e-03 1.77393034e-02 3.04624170e-01 3.99631649e-01
      1.49937674e-01 1.06840786e-02 1.15245497e-02 3.26027442e-03 0.
      1.17977746e-04 6.48764148e-03 1.45410672e-01 3.89630526e-01
      1.50898486e-01 2.19332264e-03 1.07536442e-03 0. 0. 1.51685657e-04
      6.06031297e-03 1.47479370e-01 3.89630526e-01 2.24342421e-01
      1.06341660e-03 0. 0. 3.86309787e-03 2.53714412e-03 4.63377014e-02
      2.92101622e-01 3.89630526e-01 8.85301381e-02 1.05850287e-02
      9.65673104e-03 3.26853315e-03 1.94316648e-03 1.97314005e-03
      5.11787906e-02 3.89630526e-01 3.89630526e-01 1.50810480e-01
      5.31309610e-03 4.54278942e-03 1.58469880e-03 7.57951336e-03
      9.78050753e-03 9.33614373e-03 1.36423007e-01 3.55447233e-01
      3.39381248e-01 5.56745473e-03 4.87064989e-03 2.87588988e-03
      1.24495029e-02 1.28477318e-02 1.81105677e-02 1.24729142e-01
      3.55447233e-01 1.44235581e-01 1.09014185e-02 6.52816379e-03
      6.27521053e-03 5.72297536e-03 5.35762217e-03 1.44929271e-02
      3.55447233e-01 3.55447233e-01 3.13010573e-01 1.13565987e-02
      8.51685181e-03 7.26949656e-03 1.26031768e-02 1.02739548e-02
      1.73167549e-02 2.60949671e-01 3.55447233e-01 1.60626993e-01
      1.59069374e-02 9.24882106e-03 1.14259869e-02 1.90531835e-03
      1.50827446e-03 5.81471715e-03 1.50881395e-01 3.71640325e-01
      2.06354737e-01 3.07114562e-03 7.00217264e-04 1.03862979e-03
      5.66402043e-04 8.52010344e-05 7.65120320e-04 1.96039110e-01
      3.71640325e-01 2.59256363e-01 2.61017150e-04 0. 4.49673331e-04
      5.45760989e-03 4.24092030e-03 1.76526029e-02 3.28610659e-01
      3.71640325e-01 9.90886018e-02 2.44076829e-03 6.70394627e-04
      1.47966004e-03 2.24484829e-03 1.27801544e-03 7.08068768e-03
      3.71640325e-01 3.71640325e-01 1.28184482e-01 1.71104053e-04 0.
      4.93918429e-04 5.56009542e-03 1.46411615e-03 8.25013593e-03
      2.89774053e-02 3.86131436e-01 2.57261753e-01 9.64894425e-03 0.
      5.56009542e-03 7.24686217e-03 1.88243517e-03 1.18583860e-02
      9.15816054e-02 3.86131436e-01 1.97501436e-01 1.25559205e-02 0.
      7.24686217e-03 1.13487244e-02 1.13875710e-03 7.28583336e-03
      5.96018322e-03 3.86131436e-01 3.86131436e-01 1.69503111e-02
      2.72389967e-04 1.13487244e-02 1.10021885e-03 1.46411615e-03
      3.04014143e-02 2.06640095e-01 3.86131436e-01 3.01235348e-01
      2.41335165e-02 4.08584950e-03 1.10021885e-03 4.66455845e-03
      3.03260749e-03 6.52985135e-03 1.41077682e-01 3.46023023e-01
      1.99523032e-01 3.26372171e-03 2.49812845e-03 4.26591467e-03
      1.38529046e-02 1.22816181e-02 3.40734385e-02 2.78081745e-01
      3.46023023e-01 1.66797757e-01 1.25968019e-02 1.79763567e-02
      1.45550184e-02 2.18417542e-03 5.95641695e-03 2.83649769e-02
      3.46023023e-01 3.46023023e-01 2.63402134e-01 4.78549767e-03
      1.98321138e-03 1.80957397e-03 3.68441828e-02 3.93119343e-02
      5.02019525e-02 3.46023023e-01 3.46023023e-01 1.84327230e-01
      1.55172236e-02 1.90304071e-02 2.69022249e-02 4.21083234e-02
      1.96330044e-02 8.88148025e-02 3.04332346e-01 3.04332346e-01
      1.12460449e-01 3.55469882e-02 4.14187945e-02 4.34626713e-02
      3.41894552e-02 2.22808346e-02 9.88175422e-02 3.04332346e-01
      3.04332346e-01 1.35436714e-01 2.52400059e-02 2.92416569e-02
      3.40269245e-02 1.83457330e-01 1.89071015e-01 8.45917836e-02
      1.87712863e-01 2.95895278e-01 7.14436397e-02 4.05816659e-02
      5.60006127e-02 9.65454951e-02 1.93107218e-01 2.89468348e-01
      1.76068515e-01 3.04332346e-01 3.04332346e-01 4.56667654e-02
      2.41899714e-02 3.95873152e-02 7.99108595e-02 1.08254347e-02
      9.28094145e-03 2.96101533e-02 2.96594054e-01 2.96594054e-01
      2.83423901e-01 6.22356050e-02 5.84751256e-02 4.22382131e-02
      1.80722866e-02 1.52787864e-02 3.84604111e-02 2.96594054e-01
      2.96594054e-01 1.85383126e-01 6.45287186e-02 6.38449639e-02
      4.49167043e-02 5.50645404e-02 1.08977333e-01 1.35336965e-01
      2.84515798e-01 2.96594054e-01 1.47871092e-01 6.94664046e-02
      7.50757307e-02 6.50685057e-02 3.05408034e-02 3.73677611e-02
      2.09322110e-01 2.96594054e-01 2.96594054e-01 1.77493006e-01
      7.81738609e-02 8.29825476e-02 5.22428378e-02 5.57186268e-03
      4.95747756e-03 5.09995073e-02 3.35491627e-01 3.35491627e-01
      5.95218875e-02 9.91318654e-03 1.37102334e-02 5.28334919e-03
      1.87378295e-03 8.24752846e-04 4.28370535e-02 3.35491627e-01
      3.35491627e-01 1.25488967e-01 3.32777482e-03 2.14825221e-03
      9.04735411e-04 1.16871316e-02 9.42923315e-03 1.70111716e-01
      3.35491627e-01 3.31896216e-01 1.08739063e-01 1.87947080e-02
      2.51975674e-02 9.96591151e-03 1.76626176e-03 0. 8.14585984e-02
      3.35491627e-01 3.35491627e-01 1.60138309e-01 1.06970537e-02
      4.08520829e-03 2.11921334e-03</_>
    <_>
      1.95392027e-01 1.88075349e-01 2.72342563e-01 2.72342563e-01
      1.72763899e-01 1.73676219e-02 1.46451369e-02 1.23942895e-02
      1.63333192e-01 2.72342563e-01 2.72342563e-01 8.56996924e-02
      2.38942821e-02 2.64753308e-02 4.17719549e-03 8.24678037e-03
      3.34892459e-02 2.72342563e-01 6.68216199e-02 6.51328415e-02
      2.72342563e-01 2.72342563e-01 2.42272794e-01 5.21819443e-02
      8.59567076e-02 1.01746738e-01 9.05846059e-02 2.35279262e-01
      2.72342563e-01 2.72342563e-01 1.62181303e-01 5.09940870e-02
      8.16604216e-03 1.62469037e-02 2.39685476e-02 8.90957415e-02
      2.67948240e-01 2.27127567e-01 1.48734869e-02 1.04380655e-03
      6.28425274e-03 7.78545113e-03 5.46115898e-02 2.10605919e-01
      2.67948240e-01 2.61426777e-01 4.76413295e-02 3.24878679e-03
      2.56491471e-02 6.22897744e-02 1.08230688e-01 1.88140407e-01
      2.67948240e-01 2.67948240e-01 2.67948240e-01 2.39547208e-01
      1.08786345e-01 1.73215847e-02 7.35761598e-03 3.52913588e-02
      1.32416829e-01 1.90535545e-01 1.80219367e-01 6.92046657e-02
      2.01139525e-02 9.33252461e-03 5.22035100e-02 1.40447646e-01
      2.67948240e-01 2.67948240e-01 2.67948240e-01 1.28713220e-01
      1.94424048e-01 3.11277863e-02 1.72176529e-02 1.10663414e-01
      2.44451091e-01 2.51872271e-01 1.63152918e-01 1.22201890e-01
      1.34101197e-01 9.73098278e-02 4.27117087e-02 4.57528308e-02
      1.02208138e-01 2.60148704e-01 2.50930637e-01 1.35877550e-01
      1.07280239e-01 1.81765348e-01 2.62864362e-02 5.18364199e-02
      4.40196469e-02 1.64286911e-01 2.60148704e-01 2.60148704e-01
      2.60148704e-01 1.05731569e-01 3.84507142e-02 1.35776848e-01
      7.89247006e-02 8.33121911e-02 2.19494686e-01 2.49909624e-01
      2.11572051e-01 1.44729212e-01 1.49160445e-01 2.60148704e-01
      8.92066658e-02 6.85294941e-02 6.14935383e-02 7.21810535e-02
      2.33909547e-01 1.35915175e-01 1.29628375e-01 1.32089943e-01
      1.97559521e-01 3.30490544e-02 7.26881027e-02 6.51490688e-02
      7.52381161e-02 2.68869668e-01 2.68869668e-01 2.30767280e-01
      1.21558607e-01 6.34867996e-02 1.55378833e-01 5.23019843e-02
      6.94669262e-02 1.53412879e-01 1.26217917e-01 5.74656799e-02
      1.07645832e-01 2.68869668e-01 2.68869668e-01 7.34944791e-02
      5.87269664e-02 8.60791802e-02 1.11268342e-01 2.68869668e-01
      2.18701422e-01 2.68869668e-01 2.68869668e-01 2.68869668e-01
      1.82336830e-02 3.60523462e-02 4.70080152e-02 8.05053189e-02
      2.57422656e-01 2.58399665e-01 1.90865070e-01 6.53660148e-02
      2.11137775e-02 2.43245587e-02 1.69232655e-02 3.18767503e-02
      1.08707912e-01 2.65104622e-01 2.65104622e-01 2.65104622e-01
      1.07609451e-01 3.62376124e-02 3.76318432e-02 3.37991193e-02
      5.65184057e-02 9.64051187e-02 2.65104622e-01 2.65104622e-01
      2.65104622e-01 1.94356471e-01 1.05475523e-01 5.33474460e-02
      1.53521895e-02 1.65641978e-02 7.59242773e-02 2.65104622e-01
      2.65104622e-01 2.65104622e-01 2.65104622e-01 1.01817176e-01
      4.98628542e-02 3.85698937e-02 3.66849989e-01 3.66849989e-01
      1.45090699e-01 2.08824016e-02 5.87148517e-02 9.62909907e-02
      5.82914501e-02 5.53027168e-02 1.51847705e-01 3.66849989e-01
      2.29671761e-01 3.57015803e-02 1.09550478e-02 1.70369111e-02
      1.26509778e-02 1.62004475e-02 2.45857164e-02 1.82832610e-02
      3.66849989e-01 3.66849989e-01 1.68969080e-01 1.80699295e-04
      9.33079235e-03 1.25688324e-02 2.28959471e-02 1.19896876e-02
      3.70617062e-02 2.86631525e-01 2.65145779e-01 1.04403667e-01
      3.51880975e-02 6.49626255e-02 1.42165478e-02 9.62521881e-03
      1.39788508e-01 1.69461355e-01 2.15000615e-01 8.97625759e-02
      5.17908186e-02 6.15795814e-02 1.34896174e-01 9.37479138e-02
      6.59294724e-02 6.33415431e-02 6.55301064e-02 4.31519784e-02
      1.10797897e-01 1.62803754e-01 3.33731800e-01 3.33731800e-01
      1.47175521e-01 5.42280152e-02 2.47159675e-02 2.66005993e-02
      1.10281691e-01 1.20009303e-01 1.11362070e-01 1.90097436e-01
      1.74067259e-01 2.12970264e-02 1.35348830e-02 5.70422933e-02
      2.12329343e-01 9.30058956e-02 2.30829924e-01 3.33731800e-01
      3.33731800e-01 3.33731800e-01 8.39809924e-02 3.46765891e-02
      1.58030596e-02 4.94769402e-02 2.52372995e-02 7.58479163e-02
      1.21428661e-01 2.86578506e-01 2.86578506e-01 2.27692109e-02
      6.43485552e-03 3.23708840e-02 4.31708880e-02 3.47609892e-02
      1.36632606e-01 2.03802153e-01 2.86578506e-01 1.85815737e-01
      5.22399433e-02 5.33223152e-02 3.84943523e-02 1.79961443e-01
      4.57862914e-02 1.52486980e-01 2.77431399e-01 2.86578506e-01
      2.86578506e-01 1.31515816e-01 5.47874123e-02 3.86373624e-02
      9.02046785e-02 2.39213444e-02 1.46571025e-01 2.86578506e-01
      2.86578506e-01 2.86578506e-01 1.36823520e-01 6.64383844e-02
      6.20424151e-02 2.89090984e-02 4.30738404e-02 1.46567628e-01
      1.95017740e-01 1.63902223e-01 1.21614240e-01 2.70964593e-01
      2.48163462e-01 8.20974931e-02 1.37985619e-02 1.97187047e-02
      2.60775406e-02 6.65794909e-02 1.30752891e-01 2.15592414e-01
      2.74155021e-01 2.74155021e-01 3.02932579e-02 3.47860977e-02
      3.61638702e-02 1.21284530e-01 2.74155021e-01 2.74155021e-01
      1.93956912e-01 2.01383919e-01 1.11877508e-01 4.08921801e-02
      1.71802882e-02 1.62056759e-02 2.83900537e-02 1.69183061e-01
      2.74155021e-01 2.04459712e-01 2.74155021e-01 2.12770402e-01
      2.87555251e-02 3.16382991e-03 9.43634473e-03 2.09324807e-02
      2.53272593e-01 3.12714934e-01 2.62957931e-01 1.84665978e-01
      1.08069047e-01 2.88024247e-02 1.70434162e-03 3.87047022e-03
      4.46242280e-02 3.12714934e-01 3.12714934e-01 2.14081317e-01
      9.50612277e-02 4.60424088e-02 1.26482220e-02 9.26025328e-04
      1.27699669e-03 9.25070141e-03 3.12714934e-01 3.12714934e-01
      1.81081787e-01 1.33326650e-01 6.13875836e-02 3.42501886e-02
      2.66649742e-02 3.40663157e-02 9.55954790e-02 3.12714934e-01
      3.12714934e-01 6.58003390e-02 2.32487302e-02 2.09730752e-02
      3.23700421e-02 1.19503289e-02 2.80843765e-01 3.89737248e-01
      3.89737248e-01 7.91708939e-03 1.31764831e-02 4.40336065e-03
      3.23700421e-02 1.61576010e-02 2.68788803e-02 1.19478233e-01
      2.50987977e-01 3.89737248e-01 4.07180749e-02 1.11033432e-01
      2.16241945e-02 1.61576010e-02 1.45650571e-02 2.43037473e-03
      1.06680114e-02 1.92967132e-01 3.89737248e-01 1.35475561e-01
      1.47505070e-03 4.92937281e-04 1.45650571e-02 2.29269788e-02
      1.16807027e-02 3.82487550e-02 4.70454581e-02 3.89737248e-01
      2.85069030e-02 2.14466266e-02 4.66458732e-03 2.29269788e-02
      2.00374611e-02 1.35598369e-02 4.78647724e-02 3.59815434e-02
      1.25773817e-01 2.87489146e-01 2.67550528e-01 2.24018525e-02
      1.86163615e-02 3.75521593e-02 1.28805056e-01 5.61063699e-02
      1.67748734e-01 3.35549444e-01 3.35549444e-01 3.35549444e-01
      1.34474441e-01 4.26476076e-02 5.01135401e-02 1.27825672e-02
      3.87371592e-02 1.42436533e-03 1.30551860e-01 1.51182920e-01
      1.29392996e-01 2.03837398e-02 5.01135401e-02 4.04904373e-02
      5.51875867e-03 2.14967746e-02 7.64500946e-02 3.35549444e-01
      3.35549444e-01 3.35549444e-01 5.68564497e-02 4.32209335e-02
      4.17445078e-02 6.17966838e-02 1.46397231e-02 8.75390694e-02
      3.09981138e-01 2.97139436e-01 2.18161196e-01 1.11300506e-01
      4.17651646e-02 4.75024283e-02 2.84157768e-02 9.58886649e-03
      7.77435899e-02 3.14570963e-01 3.14570963e-01 2.53269583e-01
      1.12361178e-01 4.68610115e-02 1.53488433e-02 0. 1.65660516e-03
      5.81214018e-02 3.14570963e-01 3.14570963e-01 1.24498531e-01
      2.45526843e-02 8.06969125e-03 1.88063905e-02 0. 3.01690307e-02
      8.32692608e-02 3.14570963e-01 3.14570963e-01 1.61041752e-01
      3.73485126e-02 1.02112880e-02 1.54531673e-02 8.52098502e-03
      2.19379291e-02 5.69533631e-02 3.65041345e-01 3.65041345e-01
      1.46535665e-01 8.32500979e-02 3.07451133e-02 3.19081941e-03
      6.54492481e-03 1.26622906e-02 2.64964718e-02 2.72538245e-01
      2.71253973e-01 1.50150031e-01 1.26508683e-01 3.39980274e-02
      6.07751310e-03 8.91934789e-04 6.64936453e-02 8.76394883e-02
      3.65041345e-01 3.65041345e-01 1.13805979e-01 3.07791345e-02
      5.54263685e-03 5.17488166e-04 1.14677323e-03 1.32131996e-02
      5.55042699e-02 3.65041345e-01 2.70998210e-01 7.20071942e-02
      1.62197929e-02 9.08435381e-04 3.74783180e-03 2.28621531e-03
      3.70154716e-03 2.61056274e-02 3.42317671e-01 3.42317671e-01
      9.66934785e-02 4.52587791e-02 1.04159443e-02 5.18408865e-02
      4.61296439e-02 4.49758284e-02 8.19099173e-02 3.42317671e-01
      3.42317671e-01 2.44052466e-02 1.33576179e-02 2.56877132e-02
      3.92326294e-03 3.08663561e-03 8.38311110e-03 1.21875487e-01
      3.42317671e-01 3.38879645e-01 3.41727249e-02 1.12151308e-02
      2.43666722e-03 4.63816524e-02 3.87009121e-02 4.28086855e-02
      1.64935112e-01 3.42317671e-01 3.15634012e-01 2.00931225e-02
      3.81153598e-02 3.21680605e-02 3.42728244e-03 1.66495607e-04
      1.25442422e-03 4.87715155e-02 4.39376354e-01 1.85651928e-01
      4.85495012e-03 0. 3.42728244e-03 6.80946093e-03 1.28252106e-03
      4.81005060e-03 1.20444503e-02 4.39376354e-01 4.07606326e-02
      8.57072603e-03 7.78193062e-04 6.80946093e-03 2.84854206e-03 0.
      1.13431178e-02 6.82467073e-02 4.39376354e-01 3.70931715e-01
      1.72961820e-02 0. 2.84854206e-03 2.91791605e-03 0. 1.45840067e-02
      3.04795746e-02 4.39376354e-01 2.00277224e-01 2.34721825e-02 0.
      2.91791605e-03 3.78585234e-02 4.04184638e-03 1.25005338e-02
      3.10750329e-03 2.18312323e-01 8.05350468e-02 4.31223400e-02
      1.04443794e-02 3.78585234e-02 3.04382462e-02 2.54853908e-03
      8.87047686e-03 7.43165314e-02 4.61112350e-01 4.61112350e-01
      2.22324938e-01 1.92132220e-02 3.04382462e-02 3.47846909e-03
      6.93365233e-03 3.84531431e-02 2.90539786e-02 1.98542699e-01
      4.95286286e-02 2.53349058e-02 2.76871864e-03 3.47846909e-03
      1.58411785e-04 1.89177133e-02 1.00538991e-01 2.42859557e-01
      4.61112350e-01 3.39116871e-01 1.07956201e-01 8.92587844e-03
      1.58411785e-04 3.92291782e-04 9.36879514e-05 2.25862339e-02
      1.04301363e-01 3.25739026e-01 3.25739026e-01 6.45637810e-02
      2.73667462e-03 4.31109511e-04 2.75717303e-03 1.11074350e-03
      7.31741339e-02 2.06699938e-01 3.25739026e-01 3.25739026e-01
      8.39212164e-02 1.41174924e-02 3.33943870e-03 3.33126780e-04
      3.15272319e-03 4.04221974e-02 1.80673122e-01 3.25739026e-01
      2.16121063e-01 3.44868489e-02 3.14434171e-02 8.79358221e-03
      2.10321951e-03 1.20360665e-02 1.18015252e-01 3.25739026e-01
      3.25739026e-01 2.73872197e-01 5.75872511e-02 8.38214681e-02
      2.05299910e-02 3.21736722e-03 1.26934645e-03 6.58404529e-02
      2.40397319e-01 3.59295577e-01 2.89307863e-01 3.98798175e-02
      1.40082566e-02 4.05331282e-03 1.46294566e-04 0. 1.09477155e-02
      1.71460181e-01 3.59295577e-01 1.07659236e-01 7.44505366e-03
      8.90046998e-04 5.21479407e-04 4.85133054e-03 1.08097820e-02
      9.17881876e-02 3.59295577e-01 3.59295577e-01 1.26633644e-01
      3.38938683e-02 4.74900231e-02 1.20743271e-02 6.36921730e-03
      4.01497446e-03 5.75693138e-02 3.59295577e-01 3.59295577e-01
      3.84375677e-02 3.35993781e-03 3.35920136e-03 4.77393391e-03
      8.39541957e-04 4.99377865e-03 9.73259471e-03 2.65923619e-01
      3.28037947e-01 1.75859511e-01 3.11426609e-03 4.76310914e-03
      9.40770609e-04 1.22275092e-02 3.38874944e-02 4.11697775e-02
      2.73686528e-01 3.28037947e-01 2.19509259e-01 9.30730999e-03
      2.39747930e-02 1.11662066e-02 1.78373186e-03 3.60306469e-03
      3.74749228e-02 3.28037947e-01 3.28037947e-01 2.12032944e-01
      1.19273709e-02 1.57546694e-03 1.15526014e-03 1.52418232e-02
      3.02148536e-02 6.06427565e-02 2.62458265e-01 3.28037947e-01
      3.28037947e-01 4.49032560e-02 5.58918482e-03 1.12586711e-02
      8.36801063e-03 0. 5.35183586e-03 1.70033611e-02 3.26618761e-01
      3.26618761e-01 2.58977208e-02 7.67213351e-04 8.36801063e-03
      1.33597096e-02 6.19182072e-04 8.73376057e-03 9.36741941e-03
      2.52860487e-01 3.26618761e-01 4.46063615e-02 3.56869283e-03
      1.33597096e-02 1.74291693e-02 0. 0. 2.85902875e-03 3.26618761e-01
      3.26618761e-01 3.26618761e-01 3.19766402e-02 1.74493417e-02
      1.68797728e-02 7.54189165e-03 1.67040005e-02 0. 2.61161178e-01
      3.26618761e-01 3.26618761e-01 6.99314177e-02 1.87417883e-02
      1.91710088e-02 5.34160156e-03 2.63284780e-02 2.46454924e-02
      1.17938481e-01 4.58689593e-02 3.31846885e-02 5.55080129e-03
      1.91710088e-02 7.20790680e-03 1.00920703e-02 1.30337417e-01
      3.65844935e-01 3.65844935e-01 8.25842619e-02 5.60102761e-02
      1.03022521e-02 7.20790680e-03 4.98424694e-02 7.60242939e-02
      1.52512878e-01 4.66012545e-02 2.71463096e-01 7.06093758e-02
      1.43446088e-01 5.65570220e-02 4.43332382e-02 4.40122969e-02
      3.65844935e-01 3.65844935e-01 3.65844935e-01 3.65844935e-01
      7.25173801e-02 2.71926560e-02 1.32791065e-02 2.44303662e-02
      3.02548637e-03 1.39060756e-02 1.19388163e-01 3.04401606e-01
      3.04401606e-01 1.23337254e-01 4.59149294e-02 3.17176431e-02
      1.58578157e-02 7.22859241e-03 3.93263251e-02 2.31554732e-01
      3.04401606e-01 3.04401606e-01 1.54633820e-01 7.18147084e-02
      8.01126808e-02 3.53682078e-02 3.10934857e-02 1.49420157e-01
      3.04401606e-01 3.04401606e-01 1.64405316e-01 5.05730733e-02
      3.68534885e-02 9.99330916e-03 3.58245429e-03 8.23022276e-02
      1.16058439e-01 3.04401606e-01 3.04401606e-01 2.19830498e-01
      6.50366396e-02 4.92686741e-02 2.58627906e-02 2.10231878e-02
      1.70401391e-02 4.49331999e-02 1.97194725e-01 3.00265908e-01
      3.00265908e-01 1.04672484e-01 5.72334304e-02 6.60926029e-02
      4.00521345e-02 2.40885895e-02 5.07368781e-02 1.63126767e-01
      3.00265908e-01 2.93679178e-01 5.42378910e-02 1.63412746e-02
      1.81089845e-02 2.73899380e-02 2.72648782e-01 1.17739223e-01
      1.82813987e-01 3.00265908e-01 2.81286389e-01 7.95477331e-02
      4.99373078e-02 6.57128692e-02 1.23901293e-01 3.00265908e-01
      2.03122139e-01 1.58924237e-01 1.83075681e-01 8.91703293e-02
      3.22731398e-02 1.98112652e-02 5.10391518e-02 1.52466774e-01
      4.80456743e-03 1.30706411e-02 9.30409729e-02 2.81234741e-01
      2.81234741e-01 2.21390262e-01 7.45093748e-02 7.38169113e-03
      2.96149682e-03 2.66465228e-02 1.99569855e-02 8.13034624e-02
      2.17109129e-01 2.81234741e-01 2.81234741e-01 2.25077748e-01
      2.06323136e-02 1.84356514e-02 7.71415830e-02 1.29956812e-01
      1.85911775e-01 1.76162958e-01 2.24563450e-01 1.46755219e-01
      7.95416608e-02 1.74461138e-02 2.97159068e-02 6.03381246e-02
      1.21616982e-01 2.81234741e-01 2.05917791e-01 2.81234741e-01
      2.81234741e-01 2.05712050e-01 3.71171087e-02 3.65263782e-02</_>
    <_>
      4.50906716e-02 1.78988986e-02 1.00326195e-01 3.65101904e-01
      3.65101904e-01 5.31995669e-02 3.62295061e-02 9.69641469e-03
      2.92711537e-02 8.28451961e-02 4.16674055e-02 1.33882940e-01
      2.27801800e-01 3.65101904e-01 4.02018353e-02 7.41239414e-02
      1.62908584e-02 5.91112077e-02 5.16600795e-02 1.05510755e-02
      7.50552565e-02 3.65101904e-01 3.65101904e-01 6.70230687e-02
      3.93960439e-02 1.06858816e-02 5.26410677e-02 8.10094625e-02
      3.56228910e-02 1.02548636e-01 1.65473074e-01 3.65101904e-01
      9.70488340e-02 1.00346148e-01 2.06726566e-02 8.22707340e-02
      1.80096012e-02 2.24307217e-02 8.93263221e-02 1.41922683e-01
      3.35684747e-01 2.28943154e-01 2.35924087e-02 4.09559580e-03
      1.36054270e-02 8.07423145e-03 4.20876518e-02 7.97104388e-02
      1.66324660e-01 3.35684747e-01 3.35684747e-01 3.81770395e-02
      4.48397081e-03 9.64178797e-03 2.74482463e-02 4.51746024e-02
      1.40633494e-01 2.35672057e-01 3.35684747e-01 2.25419343e-01
      7.06298277e-02 1.33969476e-02 3.31049263e-02 1.76151562e-02
      4.28082533e-02 1.11709774e-01 2.03078106e-01 3.35684747e-01
      3.35684747e-01 8.54725391e-02 3.38790752e-02 3.85547802e-02
      2.81559620e-02 6.57666102e-02 7.18096644e-02 1.31219879e-01
      2.96353608e-01 2.96353608e-01 6.86571449e-02 6.05166741e-02
      4.50073257e-02 4.82330993e-02 3.00917327e-02 3.34155932e-02
      5.47085591e-02 1.87271535e-01 2.30992109e-01 2.52070218e-01
      2.96353608e-01 9.47199389e-02 1.93341393e-02 1.51449032e-02
      3.57880220e-02 1.15698330e-01 2.96353608e-01 2.96353608e-01
      6.39016107e-02 6.43790737e-02 3.58844660e-02 3.09337396e-02
      1.63320415e-02 3.25274467e-02 7.95295313e-02 2.96353608e-01
      2.96353608e-01 2.46327817e-01 2.77317703e-01 7.14814067e-02
      2.35965960e-02 1.24348479e-03 1.61703269e-03 1.41072087e-02
      3.06840271e-01 3.06840271e-01 2.51862615e-01 2.25063086e-01
      3.94385345e-02 6.18416397e-03 1.08720921e-02 1.18362680e-02
      5.70107028e-02 3.06840271e-01 2.94670731e-01 6.53952882e-02
      1.62617620e-02 1.83868525e-03 9.60228592e-03 3.23622092e-03
      6.42000139e-03 1.97832417e-02 3.06840271e-01 3.06840271e-01
      2.84010381e-01 1.64858103e-01 2.53277738e-02 2.53324546e-02
      3.69872004e-02 5.86141162e-02 7.42727965e-02 3.06840271e-01
      3.06840271e-01 8.06355104e-02 8.37741699e-03 7.90165388e-04
      5.47960121e-03 1.58289913e-02 3.14034820e-02 2.02989817e-01
      3.51553112e-01 1.97588593e-01 5.78472465e-02 3.69193824e-03
      4.06253967e-04 3.61288758e-03 2.89733824e-03 2.67381538e-02
      2.48528600e-01 3.51553112e-01 3.51553112e-01 1.39370739e-01
      6.82852976e-03 2.83702090e-03 3.93078960e-02 5.67462146e-02
      7.90521950e-02 1.29193202e-01 2.50454605e-01 2.07551941e-01
      8.60797763e-02 8.70591495e-03 4.03024489e-04 1.24476850e-02
      1.10588754e-02 1.72103029e-02 7.71647543e-02 3.51553112e-01
      3.51553112e-01 2.51816034e-01 2.71838792e-02 3.23940720e-03
      6.01316690e-02 1.31858513e-02 2.28738673e-02 8.98874551e-02
      3.98379058e-01 1.81232959e-01 1.53552815e-02 1.03328470e-02
      5.60842641e-02 1.33645684e-01 3.02359853e-02 5.77321835e-02
      5.88575229e-02 3.98379058e-01 2.55607814e-01 1.64013669e-01
      2.84421910e-02 1.28441870e-01 5.14741950e-02 1.90366954e-02
      6.31252723e-03 1.53021570e-02 3.98379058e-01 2.67010838e-01
      3.24111723e-04 2.04496514e-02 2.79313531e-02 1.28103092e-01
      3.68002802e-02 1.03363730e-01 1.99365150e-02 3.98379058e-01
      2.20912978e-01 1.04830317e-01 4.33659069e-02 1.05156742e-01
      2.32447926e-02 1.12925507e-02 3.91224213e-02 1.29699156e-01
      3.10333401e-01 2.86071151e-01 1.15218192e-01 3.03736553e-02
      5.70844151e-02 8.09056405e-03 9.55180824e-03 4.01253104e-02
      1.82141513e-01 3.10333401e-01 3.10333401e-01 1.03253588e-01
      6.89535886e-02 9.25748721e-02 1.96546130e-02 8.46645050e-03
      6.79026172e-02 9.71406773e-02 3.10333401e-01 3.10333401e-01
      1.06378667e-01 4.00430523e-02 5.73333949e-02 4.19587549e-03
      2.15868913e-02 9.52891186e-02 2.87526965e-01 3.10333401e-01
      3.10333401e-01 1.02734663e-01 7.43869767e-02 8.04639161e-02
      4.46196739e-03 2.47331383e-03 1.19801424e-02 6.86308593e-02
      3.61775607e-01 3.61775607e-01 4.32276875e-02 3.65819372e-02
      2.76845805e-02 6.04301086e-03 3.75436409e-03 1.01696840e-02
      3.03389542e-02 3.61775607e-01 3.08973253e-01 9.15480331e-02
      4.83381525e-02 1.51100298e-02 3.29066138e-03 1.19626541e-02
      3.71062793e-02 1.64134160e-01 3.61775607e-01 3.26952755e-01
      2.34892964e-02 2.01985855e-02 2.00264715e-02 2.12143571e-03
      1.50296686e-03 2.50914227e-03 4.48176377e-02 3.61775607e-01
      2.94249237e-01 1.72802843e-02 1.08457648e-03 2.39445106e-03
      1.99333648e-03 9.86224506e-04 3.29114846e-03 6.82835374e-03
      3.62892926e-01 3.62892926e-01 8.28307867e-02 2.69471537e-02
      5.48435049e-03 1.53366691e-02 1.72247440e-02 3.79348733e-02
      3.40686776e-02 3.62892926e-01 3.09965879e-01 3.04343123e-02
      1.29534425e-02 6.59509934e-03 9.99568612e-04 2.21205322e-04
      1.07055996e-03 3.47092338e-02 3.62892926e-01 3.57158512e-01
      1.17070535e-02 7.74427666e-04 1.15982466e-03 1.02743357e-02
      1.33506292e-02 1.85418241e-02 2.50652544e-02 3.62892926e-01
      3.14838886e-01 1.05990330e-02 1.77797303e-02 1.32069048e-02
      4.29882109e-02 5.00953272e-02 8.64000097e-02 6.71289042e-02
      2.04064399e-01 1.80271402e-01 8.15026835e-02 2.80922838e-02
      1.22250896e-02 1.26645491e-02 1.12352595e-02 1.78445447e-02
      8.50323588e-02 4.15696114e-01 4.15696114e-01 1.39377281e-01
      2.00139899e-02 3.57773644e-03 2.50901952e-02 3.53596918e-02
      5.35215214e-02 6.62418380e-02 4.00133878e-01 1.41363755e-01
      2.89614983e-02 3.56149450e-02 2.79465672e-02 7.20469421e-03
      7.29493145e-03 1.54144028e-02 2.89966047e-01 4.15696114e-01
      2.73278981e-01 1.99816786e-02 7.68177817e-03 6.20035268e-03
      1.81260332e-02 5.22020087e-03 8.53078847e-04 2.46589202e-02
      4.36433047e-01 2.88809896e-01 1.37294002e-03 3.63596156e-02
      1.90161448e-02 5.37926294e-02 3.20096500e-02 1.24454811e-01
      3.31172906e-02 4.36433047e-01 1.48325995e-01 2.45936047e-02
      5.25731705e-02 6.63488284e-02 5.91826858e-03 1.91001326e-03
      5.71548799e-03 1.32750973e-01 4.36433047e-01 2.00912282e-01
      1.06784224e-03 1.31722270e-02 9.07380506e-03 1.32212713e-02
      4.35261130e-02 1.40487626e-01 9.09467787e-02 4.36433047e-01
      8.94516855e-02 1.45890368e-02 2.00805366e-02 1.99118759e-02
      1.01722423e-02 1.61181483e-02 7.83336759e-02 7.59050474e-02
      3.45684141e-01 2.46067926e-01 4.42361720e-02 1.58390272e-02
      2.87047792e-02 6.99249469e-03 3.30426544e-02 9.33483616e-02
      2.44128674e-01 3.45684141e-01 3.45684141e-01 5.48091829e-02
      2.80426964e-02 3.76014039e-02 5.39909769e-03 1.51894372e-02
      5.63473888e-02 1.08272128e-01 3.45684141e-01 1.88647732e-01
      2.56219208e-02 1.86726376e-02 2.15251483e-02 1.57461260e-02
      1.70369707e-02 5.54250143e-02 2.46162191e-01 3.45684141e-01
      3.45684141e-01 5.43116443e-02 6.89535215e-02 7.02614114e-02
      4.00521606e-03 1.85876098e-02 4.11097556e-02 2.05844879e-01
      4.00394529e-01 2.87639260e-01 1.21581350e-02 8.96667968e-03
      1.26953572e-02 5.78142703e-03 1.87067746e-03 1.55201426e-03
      1.15818501e-01 4.00394529e-01 1.88265279e-01 7.72527710e-04 0.
      3.00161354e-03 1.04822246e-02 1.05656711e-02 4.10059951e-02
      2.42473915e-01 4.00394529e-01 2.33352929e-01 2.45006904e-02
      3.09617743e-02 3.20505761e-02 1.77350044e-02 1.41240815e-02
      2.02325415e-02 2.13778630e-01 4.00394529e-01 1.17568173e-01
      8.31759628e-03 3.82907852e-03 3.70584708e-03 3.71339335e-03
      4.10086883e-04 7.75073306e-04 1.07153192e-01 4.06355709e-01
      2.04520240e-01 6.34102500e-04 2.79337517e-04 1.97927351e-03
      8.33701715e-03 1.04273474e-02 2.12213434e-02 5.14329635e-02
      4.06355709e-01 2.74179012e-01 3.30856210e-03 5.98910032e-03
      6.86374400e-03 1.17017999e-02 8.91796313e-03 1.53359855e-02
      2.47271180e-01 4.06355709e-01 1.55851409e-01 3.78175895e-03
      1.58289343e-03 1.75028061e-03 4.11904510e-03 4.53674374e-03
      1.32871671e-02 1.64747059e-01 4.06355709e-01 3.00127506e-01
      1.15526812e-02 9.79206339e-03 1.92087470e-03 1.45027842e-02
      1.95362698e-02 5.55967279e-02 7.86521658e-02 3.49523962e-01
      1.43828377e-01 5.19824773e-03 8.51491839e-03 1.26583297e-02
      3.62341059e-03 3.42452084e-03 2.43785568e-02 2.06360564e-01
      3.49523962e-01 3.48294199e-01 2.05765180e-02 3.04899225e-03
      3.71898431e-03 7.63158593e-03 1.35222748e-02 9.42599103e-02
      1.65473700e-01 3.49523962e-01 1.97769091e-01 1.84440296e-02
      2.06604470e-02 4.82862024e-03 6.85771601e-03 2.52581779e-02
      1.35834336e-01 3.49523962e-01 3.49523962e-01 3.04334253e-01
      3.34680974e-02 2.23664269e-02 1.05800489e-02 4.97830007e-03
      3.28713073e-03 1.53653696e-02 9.26108062e-02 4.27568525e-01
